0 1 1 100 1.39945e-07
1 1 1 100 1
0 2 1 100 0.147722
1 2 1 100 0.852278
0 3 1 100 0.118496
1 3 1 100 0.881504
0 4 1 100 0.00828859
1 4 1 100 0.991711
0 5 1 100 0.000111017
1 5 1 100 0.999889
1 6 1 100 1
1 7 1 100 1
1 8 1 100 1
1 9 1 100 1
0 1 2 100 0.000374455
1 1 2 100 0.766471
2 1 2 100 0.233155
0 2 2 100 0.122833
1 2 2 100 0.369085
2 2 2 100 0.508082
0 3 2 100 0.223937
1 3 2 100 0.389013
2 3 2 100 0.38705
0 4 2 100 0.224325
1 4 2 100 0.427395
2 4 2 100 0.34828
0 5 2 100 0.274588
1 5 2 100 0.434907
2 5 2 100 0.290505
0 6 2 100 0.121598
1 6 2 100 0.46022
2 6 2 100 0.418182
0 7 2 100 0.120035
1 7 2 100 0.576068
2 7 2 100 0.303898
0 8 2 100 0.198931
1 8 2 100 0.499061
2 8 2 100 0.302008
1 9 2 100 0.5
2 9 2 100 0.5
0 10 2 100 0.5
1 10 2 100 0.5
0 1 3 100 0.000447741
1 1 3 100 0.467957
2 1 3 100 0.285594
3 1 3 100 0.246001
0 2 3 100 0.14596
1 2 3 100 0.159589
2 2 3 100 0.288328
3 2 3 100 0.406123
0 3 3 100 0.177022
1 3 3 100 0.129344
2 3 3 100 0.185892
3 3 3 100 0.507742
0 4 3 100 0.284016
1 4 3 100 0.127032
2 4 3 100 0.137455
3 4 3 100 0.451496
0 5 3 100 0.294434
1 5 3 100 0.132391
2 5 3 100 0.151328
3 5 3 100 0.421847
0 6 3 100 0.354301
1 6 3 100 0.120981
2 6 3 100 0.157355
3 6 3 100 0.367363
0 7 3 100 0.314786
1 7 3 100 0.151295
2 7 3 100 0.170327
3 7 3 100 0.363592
0 8 3 100 0.477401
1 8 3 100 0.110573
2 8 3 100 0.151556
3 8 3 100 0.260469
0 9 3 100 0.327963
1 9 3 100 0.207143
2 9 3 100 0.109432
3 9 3 100 0.355462
0 10 3 100 0.423689
1 10 3 100 0.000451627
2 10 3 100 0.15402
3 10 3 100 0.421839
0 11 3 100 0.496353
1 11 3 100 6.99051e-06
2 11 3 100 0.0601186
3 11 3 100 0.443521
0 12 3 100 1.54907e-05
3 12 3 100 0.999985
0 1 4 100 0.000813913
1 1 4 100 0.540826
2 1 4 100 0.18703
3 1 4 100 0.0668854
4 1 4 100 0.204445
0 2 4 100 0.0948534
1 2 4 100 0.147291
2 2 4 100 0.2495
3 2 4 100 0.148889
4 2 4 100 0.359467
0 3 4 100 0.114767
1 3 4 100 0.11503
2 3 4 100 0.16149
3 3 4 100 0.166568
4 3 4 100 0.442146
0 4 4 100 0.235697
1 4 4 100 0.101025
2 4 4 100 0.110106
3 4 4 100 0.120815
4 4 4 100 0.432357
0 5 4 100 0.330585
1 5 4 100 0.103424
2 5 4 100 0.0899887
3 5 4 100 0.112528
4 5 4 100 0.363474
0 6 4 100 0.381436
1 6 4 100 0.107966
2 6 4 100 0.0808518
3 6 4 100 0.106917
4 6 4 100 0.322829
0 7 4 100 0.360705
1 7 4 100 0.112611
2 7 4 100 0.0956335
3 7 4 100 0.117948
4 7 4 100 0.313103
0 8 4 100 0.416524
1 8 4 100 0.092283
2 8 4 100 0.0944555
3 8 4 100 0.125333
4 8 4 100 0.271405
0 9 4 100 0.339871
1 9 4 100 0.105766
2 9 4 100 0.0813489
3 9 4 100 0.142675
4 9 4 100 0.330339
0 10 4 100 0.358036
1 10 4 100 0.081623
2 10 4 100 0.0597819
3 10 4 100 0.136951
4 10 4 100 0.363609
0 11 4 100 0.44063
1 11 4 100 0.0618582
2 11 4 100 0.00491767
3 11 4 100 0.108726
4 11 4 100 0.383869
0 12 4 100 0.691703
1 12 4 100 0.0667946
3 12 4 100 7.53425e-06
4 12 4 100 0.241495
0 13 4 100 0.000601275
4 13 4 100 0.999399
0 14 4 100 1
0 1 5 100 0.000785334
1 1 5 100 0.563409
2 1 5 100 0.188722
3 1 5 100 0.0490331
4 1 5 100 0.0453314
5 1 5 100 0.15272
0 2 5 100 0.0987497
1 2 5 100 0.117189
2 2 5 100 0.269282
3 2 5 100 0.135356
4 2 5 100 0.0893454
5 2 5 100 0.290078
0 3 5 100 0.0887964
1 3 5 100 0.089943
2 3 5 100 0.154571
3 3 5 100 0.154713
4 3 5 100 0.135513
5 3 5 100 0.376464
0 4 5 100 0.151936
1 4 5 100 0.0809163
2 4 5 100 0.109385
3 4 5 100 0.119719
4 4 5 100 0.141427
5 4 5 100 0.396616
0 5 5 100 0.263994
1 5 5 100 0.0806322
2 5 5 100 0.0872103
3 5 5 100 0.090335
4 5 5 100 0.106418
5 5 5 100 0.37141
0 6 5 100 0.346514
1 6 5 100 0.0742329
2 6 5 100 0.0788856
3 6 5 100 0.0798915
4 6 5 100 0.0939085
5 6 5 100 0.326568
0 7 5 100 0.38781
1 7 5 100 0.0762775
2 7 5 100 0.0808011
3 7 5 100 0.0726138
4 7 5 100 0.0928067
5 7 5 100 0.289691
0 8 5 100 0.399711
1 8 5 100 0.0705583
2 8 5 100 0.0739113
3 8 5 100 0.0708622
4 8 5 100 0.0999514
5 8 5 100 0.285006
0 9 5 100 0.382345
1 9 5 100 0.0911652
2 9 5 100 0.0598141
3 9 5 100 0.0883006
4 9 5 100 0.109085
5 9 5 100 0.26929
0 10 5 100 0.370741
1 10 5 100 0.0693731
2 10 5 100 0.07787
3 10 5 100 0.0783626
4 10 5 100 0.136669
5 10 5 100 0.266985
0 11 5 100 0.398519
1 11 5 100 0.0560751
2 11 5 100 0.0827407
3 11 5 100 0.0879302
4 11 5 100 0.152009
5 11 5 100 0.222727
0 12 5 100 0.334173
1 12 5 100 0.058379
2 12 5 100 0.011813
3 12 5 100 0.0667003
4 12 5 100 0.165115
5 12 5 100 0.36382
0 13 5 100 0.347686
1 13 5 100 0.014795
2 13 5 100 0.0466628
3 13 5 100 0.0848829
4 13 5 100 0.0622019
5 13 5 100 0.443771
0 14 5 100 0.233463
1 14 5 100 0.0526659
2 14 5 100 0.0526589
3 14 5 100 0.0336331
4 14 5 100 0.00309123
5 14 5 100 0.624488
0 15 5 100 0.331691
1 15 5 100 8.55843e-06
2 15 5 100 0.1
5 15 5 100 0.5683
0 16 5 100 0.237243
1 16 5 100 2.05263e-05
5 16 5 100 0.762737
0 17 5 100 0.998371
2 17 5 100 0.00162908
0 1 6 100 0.00101648
1 1 6 100 0.523413
2 1 6 100 0.192886
3 1 6 100 0.0624973
4 1 6 100 0.0414434
5 1 6 100 0.0363946
6 1 6 100 0.142349
0 2 6 100 0.0966948
1 2 6 100 0.0968966
2 2 6 100 0.254882
3 2 6 100 0.152008
4 2 6 100 0.0803498
5 2 6 100 0.0601724
6 2 6 100 0.258997
0 3 6 100 0.0787209
1 3 6 100 0.0733316
2 3 6 100 0.141735
3 3 6 100 0.166102
4 3 6 100 0.11703
5 3 6 100 0.0922012
6 3 6 100 0.33088
0 4 6 100 0.105561
1 4 6 100 0.0663974
2 4 6 100 0.101569
3 4 6 100 0.137903
4 4 6 100 0.122782
5 4 6 100 0.0991825
6 4 6 100 0.366605
0 5 6 100 0.193333
1 5 6 100 0.061142
2 5 6 100 0.0796535
3 5 6 100 0.114105
4 5 6 100 0.101971
5 5 6 100 0.0920717
6 5 6 100 0.357724
0 6 6 100 0.299734
1 6 6 100 0.0594517
2 6 6 100 0.0727435
3 6 6 100 0.0918059
4 6 6 100 0.0805106
5 6 6 100 0.0777438
6 6 6 100 0.318011
0 7 6 100 0.367765
1 7 6 100 0.0539387
2 7 6 100 0.0675511
3 7 6 100 0.0890911
4 7 6 100 0.068259
5 7 6 100 0.064901
6 7 6 100 0.288494
0 8 6 100 0.420755
1 8 6 100 0.0579411
2 8 6 100 0.0621807
3 8 6 100 0.0803149
4 8 6 100 0.0682615
5 8 6 100 0.0613518
6 8 6 100 0.249195
0 9 6 100 0.39474
1 9 6 100 0.0618196
2 9 6 100 0.0733658
3 9 6 100 0.0863041
4 9 6 100 0.0739774
5 9 6 100 0.0764629
6 9 6 100 0.23333
0 10 6 100 0.3886
1 10 6 100 0.0624466
2 10 6 100 0.0569288
3 10 6 100 0.0890262
4 10 6 100 0.0798363
5 10 6 100 0.0885373
6 10 6 100 0.234625
0 11 6 100 0.395505
1 11 6 100 0.0492457
2 11 6 100 0.0643112
3 11 6 100 0.0754595
4 11 6 100 0.0702615
5 11 6 100 0.103586
6 11 6 100 0.241631
0 12 6 100 0.396475
1 12 6 100 0.0441479
2 12 6 100 0.0465161
3 12 6 100 0.0724227
4 12 6 100 0.0835304
5 12 6 100 0.132588
6 12 6 100 0.22432
0 13 6 100 0.372264
1 13 6 100 0.0164246
2 13 6 100 0.0536796
3 13 6 100 0.0597826
4 13 6 100 0.0710462
5 13 6 100 0.103021
6 13 6 100 0.323782
0 14 6 100 0.298273
1 14 6 100 0.000766548
2 14 6 100 0.0709354
3 14 6 100 0.0571913
4 14 6 100 0.0427815
5 14 6 100 0.18144
6 14 6 100 0.348612
0 15 6 100 0.418016
1 15 6 100 0.0238366
2 15 6 100 0.0465605
3 15 6 100 0.0701031
4 15 6 100 0.00057909
5 15 6 100 0.0699162
6 15 6 100 0.370989
0 16 6 100 0.331635
1 16 6 100 2.94078e-05
2 16 6 100 0.0109583
3 16 6 100 0.0016146
4 16 6 100 0.0609784
5 16 6 100 0.141216
6 16 6 100 0.453569
0 17 6 100 0.441649
1 17 6 100 7.58231e-06
5 17 6 100 0.125004
6 17 6 100 0.43334
0 18 6 100 0.25
5 18 6 100 0.031294
6 18 6 100 0.718706
0 19 6 100 0.993857
6 19 6 100 0.00614267
6 20 6 100 1
0 21 6 100 1
0 1 7 100 0.00104208
1 1 7 100 0.527046
2 1 7 100 0.17308
3 1 7 100 0.0473509
4 1 7 100 0.0407421
5 1 7 100 0.0353229
6 1 7 100 0.0339151
7 1 7 100 0.141501
0 2 7 100 0.0882284
1 2 7 100 0.091115
2 2 7 100 0.260009
3 2 7 100 0.118876
4 2 7 100 0.0920647
5 2 7 100 0.056365
6 2 7 100 0.0535576
7 2 7 100 0.239785
0 3 7 100 0.0845607
1 3 7 100 0.0709132
2 3 7 100 0.139671
3 3 7 100 0.132399
4 3 7 100 0.129445
5 3 7 100 0.0772847
6 3 7 100 0.0730606
7 3 7 100 0.292666
0 4 7 100 0.105665
1 4 7 100 0.0615898
2 4 7 100 0.0955598
3 4 7 100 0.10136
4 4 7 100 0.131584
5 4 7 100 0.095153
6 4 7 100 0.0846916
7 4 7 100 0.324397
0 5 7 100 0.137514
1 5 7 100 0.0585671
2 5 7 100 0.0811267
3 5 7 100 0.0886735
4 5 7 100 0.116699
5 5 7 100 0.0871304
6 5 7 100 0.091582
7 5 7 100 0.338707
0 6 7 100 0.225272
1 6 7 100 0.0540903
2 6 7 100 0.0739254
3 6 7 100 0.0739628
4 6 7 100 0.100188
5 6 7 100 0.0770382
6 6 7 100 0.0780953
7 6 7 100 0.317427
0 7 7 100 0.318427
1 7 7 100 0.0498626
2 7 7 100 0.0658877
3 7 7 100 0.066354
4 7 7 100 0.0904471
5 7 7 100 0.0623572
6 7 7 100 0.0698604
7 7 7 100 0.276804
0 8 7 100 0.376138
1 8 7 100 0.0512387
2 8 7 100 0.0649755
3 8 7 100 0.0574699
4 8 7 100 0.0824502
5 8 7 100 0.0588263
6 8 7 100 0.0603399
7 8 7 100 0.248562
0 9 7 100 0.412444
1 9 7 100 0.0470012
2 9 7 100 0.0619733
3 9 7 100 0.0615488
4 9 7 100 0.0739671
5 9 7 100 0.0526434
6 9 7 100 0.0614382
7 9 7 100 0.228984
0 10 7 100 0.395079
1 10 7 100 0.0372067
2 10 7 100 0.0724581
3 10 7 100 0.0544717
4 10 7 100 0.0869579
5 10 7 100 0.0642979
6 10 7 100 0.0640836
7 10 7 100 0.225445
0 11 7 100 0.39952
1 11 7 100 0.0462697
2 11 7 100 0.0555518
3 11 7 100 0.0638583
4 11 7 100 0.0749389
5 11 7 100 0.0755351
6 11 7 100 0.0677031
7 11 7 100 0.216623
0 12 7 100 0.370112
1 12 7 100 0.0530997
2 12 7 100 0.0835975
3 12 7 100 0.0593702
4 12 7 100 0.0826352
5 12 7 100 0.0570961
6 12 7 100 0.0736227
7 12 7 100 0.220467
0 13 7 100 0.269553
1 13 7 100 0.0427424
2 13 7 100 0.0978858
3 13 7 100 0.0813409
4 13 7 100 0.0959913
5 13 7 100 0.0798049
6 13 7 100 0.0755542
7 13 7 100 0.257127
0 14 7 100 0.385214
1 14 7 100 0.0302127
2 14 7 100 0.0427359
3 14 7 100 0.0762956
4 14 7 100 0.101578
5 14 7 100 0.0486517
6 14 7 100 0.105366
7 14 7 100 0.209946
0 15 7 100 0.305483
1 15 7 100 0.0125447
2 15 7 100 0.0439489
3 15 7 100 0.0821296
4 15 7 100 0.0596349
5 15 7 100 0.0742589
6 15 7 100 0.102625
7 15 7 100 0.319374
0 16 7 100 0.319144
1 16 7 100 0.0427235
2 16 7 100 8.67498e-07
3 16 7 100 0.123635
4 16 7 100 0.0821915
5 16 7 100 0.0833007
6 16 7 100 0.125954
7 16 7 100 0.223051
0 17 7 100 0.291794
1 17 7 100 0.0400681
3 17 7 100 0.0944405
4 17 7 100 0.104827
5 17 7 100 0.115387
6 17 7 100 0.159958
7 17 7 100 0.193525
0 18 7 100 0.301118
1 18 7 100 2.50988e-06
2 18 7 100 0.0980769
3 18 7 100 0.000996966
5 18 7 100 0.1
6 18 7 100 0.101915
7 18 7 100 0.397891
0 19 7 100 0.499674
1 19 7 100 0.166669
2 19 7 100 0.000304888
3 19 7 100 0.00117234
4 19 7 100 0.00144649
5 19 7 100 0.00133507
6 19 7 100 0.1666
7 19 7 100 0.162798
0 20 7 100 0.657966
3 20 7 100 0.00439347
6 20 7 100 0.00433614
7 20 7 100 0.333304
0 21 7 100 0.000620367
2 21 7 100 0.000202453
6 21 7 100 0.489361
7 21 7 100 0.509816
6 22 7 100 0.00202431
7 22 7 100 0.997976
0 23 7 100 0.998769
2 23 7 100 0.00123102
0 1 8 100 0.00166103
1 1 8 100 0.50007
2 1 8 100 0.182889
3 1 8 100 0.044787
4 1 8 100 0.0464557
5 1 8 100 0.0406216
6 1 8 100 0.0293206
7 1 8 100 0.0289376
8 1 8 100 0.125258
0 2 8 100 0.0944169
1 2 8 100 0.090374
2 2 8 100 0.255277
3 2 8 100 0.11425
4 2 8 100 0.0776668
5 2 8 100 0.0707187
6 2 8 100 0.0501335
7 2 8 100 0.0459375
8 2 8 100 0.201225
0 3 8 100 0.0853338
1 3 8 100 0.0586821
2 3 8 100 0.130322
3 3 8 100 0.134564
4 3 8 100 0.119302
5 3 8 100 0.0963229
6 3 8 100 0.0639575
7 3 8 100 0.0668388
8 3 8 100 0.244677
0 4 8 100 0.109604
1 4 8 100 0.0535014
2 4 8 100 0.0893544
3 4 8 100 0.0949849
4 4 8 100 0.111808
5 4 8 100 0.105813
6 4 8 100 0.0792101
7 4 8 100 0.0772361
8 4 8 100 0.278489
0 5 8 100 0.122253
1 5 8 100 0.0518342
2 5 8 100 0.0780001
3 5 8 100 0.0800815
4 5 8 100 0.094825
5 5 8 100 0.105081
6 5 8 100 0.0753705
7 5 8 100 0.0876298
8 5 8 100 0.304925
0 6 8 100 0.173239
1 6 8 100 0.048517
2 6 8 100 0.0690997
3 6 8 100 0.0693573
4 6 8 100 0.083716
5 6 8 100 0.0963427
6 6 8 100 0.0703477
7 6 8 100 0.0778744
8 6 8 100 0.311506
0 7 8 100 0.247525
1 7 8 100 0.0468564
2 7 8 100 0.0618609
3 7 8 100 0.0636244
4 7 8 100 0.074497
5 7 8 100 0.0857117
6 7 8 100 0.0645118
7 7 8 100 0.0657894
8 7 8 100 0.289623
0 8 8 100 0.332105
1 8 8 100 0.0417366
2 8 8 100 0.0570077
3 8 8 100 0.0602728
4 8 8 100 0.0671715
5 8 8 100 0.0736271
6 8 8 100 0.0540514
7 8 8 100 0.0596077
8 8 8 100 0.25442
0 9 8 100 0.384035
1 9 8 100 0.0397285
2 9 8 100 0.0489546
3 9 8 100 0.0532974
4 9 8 100 0.0702887
5 9 8 100 0.0658734
6 9 8 100 0.0469591
7 9 8 100 0.0532865
8 9 8 100 0.237577
0 10 8 100 0.402031
1 10 8 100 0.0372733
2 10 8 100 0.0533687
3 10 8 100 0.0600135
4 10 8 100 0.0651956
5 10 8 100 0.0608726
6 10 8 100 0.0458719
7 10 8 100 0.0527477
8 10 8 100 0.222626
0 11 8 100 0.40339
1 11 8 100 0.0391566
2 11 8 100 0.0560289
3 11 8 100 0.0620561
4 11 8 100 0.0602419
5 11 8 100 0.0593925
6 11 8 100 0.05437
7 11 8 100 0.0681185
8 11 8 100 0.197245
0 12 8 100 0.400741
1 12 8 100 0.0368481
2 12 8 100 0.0571495
3 12 8 100 0.0590168
4 12 8 100 0.0523817
5 12 8 100 0.0523082
6 12 8 100 0.0586038
7 12 8 100 0.0744356
8 12 8 100 0.208515
0 13 8 100 0.357769
1 13 8 100 0.0392206
2 13 8 100 0.0479493
3 13 8 100 0.0643958
4 13 8 100 0.0470847
5 13 8 100 0.0645822
6 13 8 100 0.0497091
7 13 8 100 0.0857574
8 13 8 100 0.243531
0 14 8 100 0.38536
1 14 8 100 0.0319849
2 14 8 100 0.0556592
3 14 8 100 0.0489365
4 14 8 100 0.0484832
5 14 8 100 0.0533847
6 14 8 100 0.0504906
7 14 8 100 0.0914093
8 14 8 100 0.234291
0 15 8 100 0.319954
1 15 8 100 0.0246517
2 15 8 100 0.0429317
3 15 8 100 0.0346169
4 15 8 100 0.039314
5 15 8 100 0.0537128
6 15 8 100 0.0554707
7 15 8 100 0.0989672
8 15 8 100 0.330381
0 16 8 100 0.282349
1 16 8 100 0.0236559
2 16 8 100 0.0304542
3 16 8 100 0.0457604
4 16 8 100 0.0460684
5 16 8 100 0.119378
6 16 8 100 0.0754871
7 16 8 100 0.0920528
8 16 8 100 0.284795
0 17 8 100 0.377933
1 17 8 100 0.0528556
2 17 8 100 0.0358073
3 17 8 100 0.0305568
4 17 8 100 0.0494789
5 17 8 100 0.085764
6 17 8 100 0.0159999
7 17 8 100 0.110437
8 17 8 100 0.241168
0 18 8 100 0.172465
1 18 8 100 0.0337861
2 18 8 100 7.68431e-06
3 18 8 100 0.0305695
4 18 8 100 0.093231
5 18 8 100 0.170927
6 18 8 100 0.0935716
7 18 8 100 0.0628063
8 18 8 100 0.342636
0 19 8 100 0.257357
1 19 8 100 0.00112046
3 19 8 100 0.119571
4 19 8 100 0.124234
5 19 8 100 0.0567041
6 19 8 100 0.000316288
7 19 8 100 0.0529757
8 19 8 100 0.387721
0 20 8 100 0.247973
1 20 8 100 0.0915692
2 20 8 100 0.0909092
4 20 8 100 0.091789
7 20 8 100 0.000164568
8 20 8 100 0.477595
0 21 8 100 0.340234
1 21 8 100 0.142936
2 21 8 100 0.127541
3 21 8 100 4.96077e-05
4 21 8 100 0.14303
8 21 8 100 0.246209
0 22 8 100 0.501814
4 22 8 100 0.498169
5 22 8 100 1.70745e-05
4 23 8 100 1
4 24 8 100 1
0 1 9 100 0.00109557
1 1 9 100 0.502761
2 1 9 100 0.172109
3 1 9 100 0.0528434
4 1 9 100 0.0425959
5 1 9 100 0.0412678
6 1 9 100 0.035577
7 1 9 100 0.0303083
8 1 9 100 0.0191652
9 1 9 100 0.102277
0 2 9 100 0.0892995
1 2 9 100 0.0810485
2 2 9 100 0.250526
3 2 9 100 0.12408
4 2 9 100 0.0835115
5 2 9 100 0.0650135
6 2 9 100 0.063241
7 2 9 100 0.0421313
8 2 9 100 0.0364378
9 2 9 100 0.164711
0 3 9 100 0.086926
1 3 9 100 0.0590503
2 3 9 100 0.113028
3 3 9 100 0.138063
4 3 9 100 0.117507
5 3 9 100 0.0908165
6 3 9 100 0.0802472
7 3 9 100 0.0566987
8 3 9 100 0.0520183
9 3 9 100 0.205644
0 4 9 100 0.120309
1 4 9 100 0.0529694
2 4 9 100 0.0763272
3 4 9 100 0.0954084
4 4 9 100 0.106525
5 4 9 100 0.100162
6 4 9 100 0.0945733
7 4 9 100 0.062693
8 4 9 100 0.0582659
9 4 9 100 0.232766
0 5 9 100 0.127936
1 5 9 100 0.0478134
2 5 9 100 0.0653211
3 5 9 100 0.0731028
4 5 9 100 0.09406
5 5 9 100 0.0988941
6 5 9 100 0.10293
7 5 9 100 0.073183
8 5 9 100 0.0622682
9 5 9 100 0.254492
0 6 9 100 0.143856
1 6 9 100 0.0433869
2 6 9 100 0.0623312
3 6 9 100 0.0637306
4 6 9 100 0.0740411
5 6 9 100 0.0948698
6 6 9 100 0.105636
7 6 9 100 0.0707734
8 6 9 100 0.0687578
9 6 9 100 0.272617
0 7 9 100 0.195279
1 7 9 100 0.0433155
2 7 9 100 0.0535202
3 7 9 100 0.0616766
4 7 9 100 0.0637952
5 7 9 100 0.0801128
6 7 9 100 0.09599
7 7 9 100 0.0735829
8 7 9 100 0.0645205
9 7 9 100 0.268207
0 8 9 100 0.259511
1 8 9 100 0.0432831
2 8 9 100 0.0526833
3 8 9 100 0.0537503
4 8 9 100 0.0574257
5 8 9 100 0.0696233
6 8 9 100 0.0791473
7 8 9 100 0.0616105
8 8 9 100 0.0611958
9 8 9 100 0.261769
0 9 9 100 0.327239
1 9 9 100 0.0383455
2 9 9 100 0.0447074
3 9 9 100 0.0527239
4 9 9 100 0.056258
5 9 9 100 0.066448
6 9 9 100 0.0663834
7 9 9 100 0.0548782
8 9 9 100 0.0537909
9 9 9 100 0.239226
0 10 9 100 0.369935
1 10 9 100 0.0392153
2 10 9 100 0.0452075
3 10 9 100 0.0494478
4 10 9 100 0.0557962
5 10 9 100 0.058601
6 10 9 100 0.0622407
7 10 9 100 0.050609
8 10 9 100 0.049175
9 10 9 100 0.219772
0 11 9 100 0.404238
1 11 9 100 0.0365765
2 11 9 100 0.04166
3 11 9 100 0.0430317
4 11 9 100 0.0534506
5 11 9 100 0.0540216
6 11 9 100 0.0538373
7 11 9 100 0.0503688
8 11 9 100 0.0479531
9 11 9 100 0.214863
0 12 9 100 0.420104
1 12 9 100 0.0313743
2 12 9 100 0.0474923
3 12 9 100 0.0434293
4 12 9 100 0.0544018
5 12 9 100 0.0449246
6 12 9 100 0.0529641
7 12 9 100 0.0489008
8 12 9 100 0.0528034
9 12 9 100 0.203605
0 13 9 100 0.38442
1 13 9 100 0.0404749
2 13 9 100 0.0504515
3 13 9 100 0.050646
4 13 9 100 0.0454178
5 13 9 100 0.0417066
6 13 9 100 0.0763464
7 13 9 100 0.0522469
8 13 9 100 0.059185
9 13 9 100 0.199105
0 14 9 100 0.341604
1 14 9 100 0.0399617
2 14 9 100 0.0494598
3 14 9 100 0.0627642
4 14 9 100 0.0453376
5 14 9 100 0.0439961
6 14 9 100 0.0626485
7 14 9 100 0.0592905
8 14 9 100 0.0629035
9 14 9 100 0.232035
0 15 9 100 0.327592
1 15 9 100 0.0367983
2 15 9 100 0.0607136
3 15 9 100 0.0481674
4 15 9 100 0.0603164
5 15 9 100 0.0419119
6 15 9 100 0.0684364
7 15 9 100 0.0569345
8 15 9 100 0.0854289
9 15 9 100 0.213701
0 16 9 100 0.28817
1 16 9 100 0.0528385
2 16 9 100 0.0485986
3 16 9 100 0.0573921
4 16 9 100 0.0470814
5 16 9 100 0.0566885
6 16 9 100 0.0353911
7 16 9 100 0.0575672
8 16 9 100 0.116865
9 16 9 100 0.239407
0 17 9 100 0.347849
1 17 9 100 0.0315037
2 17 9 100 0.04285
3 17 9 100 0.0835346
4 17 9 100 0.042105
5 17 9 100 0.0210862
6 17 9 100 0.0321063
7 17 9 100 0.062702
8 17 9 100 0.11292
9 17 9 100 0.223343
0 18 9 100 0.473657
1 18 9 100 0.00482875
2 18 9 100 0.0358479
3 18 9 100 0.0369667
4 18 9 100 0.0363645
5 18 9 100 4.18374e-05
6 18 9 100 0.0715005
7 18 9 100 0.0721839
8 18 9 100 0.0907678
9 18 9 100 0.177841
0 19 9 100 0.367372
1 19 9 100 0.0380257
2 19 9 100 0.0280091
3 19 9 100 0.0666666
4 19 9 100 0.0333303
5 19 9 100 0.0999851
7 19 9 100 0.0666666
8 19 9 100 0.100003
9 19 9 100 0.199942
0 20 9 100 0.0948114
1 20 9 100 0.0499679
3 20 9 100 0.110721
5 20 9 100 0.165286
7 20 9 100 0.0555556
8 20 9 100 0.177663
9 20 9 100 0.345995
0 21 9 100 0.229497
1 21 9 100 0.00172534
3 21 9 100 0.076923
5 21 9 100 0.230579
6 21 9 100 8.39171e-06
7 21 9 100 0.1383
8 21 9 100 0.167502
9 21 9 100 0.155466
0 22 9 100 0.125059
3 22 9 100 0.00431013
4 22 9 100 0.125
7 22 9 100 0.0112063
8 22 9 100 0.125541
9 22 9 100 0.608884
0 23 9 100 0.571222
1 23 9 100 0.00020649
3 23 9 100 1.79789e-05
4 23 9 100 0.142857
8 23 9 100 4.96374e-06
9 23 9 100 0.285691
0 24 9 100 0.333341
4 24 9 100 0.0014864
5 24 9 100 0.333326
9 24 9 100 0.331846
0 1 10 100 0.00217193
1 1 10 100 0.484044
2 1 10 100 0.17152
3 1 10 100 0.0481495
4 1 10 100 0.046773
5 1 10 100 0.0439571
6 1 10 100 0.0358167
7 1 10 100 0.0306932
8 1 10 100 0.0218438
9 1 10 100 0.0188157
10 1 10 100 0.0962155
0 2 10 100 0.0816468
1 2 10 100 0.0767345
2 2 10 100 0.244818
3 2 10 100 0.117715
4 2 10 100 0.0823175
5 2 10 100 0.0632279
6 2 10 100 0.054878
7 2 10 100 0.051337
8 2 10 100 0.0362816
9 2 10 100 0.035959
10 2 10 100 0.155085
0 3 10 100 0.0966206
1 3 10 100 0.049346
2 3 10 100 0.113583
3 3 10 100 0.122835
4 3 10 100 0.120238
5 3 10 100 0.0827713
6 3 10 100 0.0680894
7 3 10 100 0.0606064
8 3 10 100 0.0467456
9 3 10 100 0.044212
10 3 10 100 0.194954
0 4 10 100 0.127309
1 4 10 100 0.0468733
2 4 10 100 0.0781988
3 4 10 100 0.0833356
4 4 10 100 0.109208
5 4 10 100 0.0916833
6 4 10 100 0.0819045
7 4 10 100 0.070483
8 4 10 100 0.0511449
9 4 10 100 0.0533345
10 4 10 100 0.206526
0 5 10 100 0.142031
1 5 10 100 0.0416151
2 5 10 100 0.0584085
3 5 10 100 0.0621127
4 5 10 100 0.086498
5 5 10 100 0.0922665
6 5 10 100 0.0951949
7 5 10 100 0.083855
8 5 10 100 0.0559346
9 5 10 100 0.0579993
10 5 10 100 0.224085
0 6 10 100 0.1391
1 6 10 100 0.0386162
2 6 10 100 0.0596474
3 6 10 100 0.0570966
4 6 10 100 0.0757227
5 6 10 100 0.0821267
6 6 10 100 0.0864894
7 6 10 100 0.0933345
8 6 10 100 0.0641679
9 6 10 100 0.0628053
10 6 10 100 0.240893
0 7 10 100 0.159859
1 7 10 100 0.0361045
2 7 10 100 0.0598656
3 7 10 100 0.0555969
4 7 10 100 0.0697399
5 7 10 100 0.0724285
6 7 10 100 0.0800226
7 7 10 100 0.0898938
8 7 10 100 0.0675305
9 7 10 100 0.0631462
10 7 10 100 0.245813
0 8 10 100 0.211919
1 8 10 100 0.0367526
2 8 10 100 0.0521558
3 8 10 100 0.0537576
4 8 10 100 0.0618742
5 8 10 100 0.067443
6 8 10 100 0.0715192
7 8 10 100 0.0823638
8 8 10 100 0.0612929
9 8 10 100 0.0592101
10 8 10 100 0.241712
0 9 10 100 0.278501
1 9 10 100 0.0328204
2 9 10 100 0.0501312
3 9 10 100 0.0505997
4 9 10 100 0.0597661
5 9 10 100 0.0521678
6 9 10 100 0.0649588
7 9 10 100 0.0672916
8 9 10 100 0.0589595
9 9 10 100 0.0556965
10 9 10 100 0.229107
0 10 10 100 0.342254
1 10 10 100 0.0319309
2 10 10 100 0.0446936
3 10 10 100 0.0424893
4 10 10 100 0.0552404
5 10 10 100 0.0505888
6 10 10 100 0.0567396
7 10 10 100 0.058584
8 10 10 100 0.0495262
9 10 10 100 0.0558376
10 10 10 100 0.212116
0 11 10 100 0.376136
1 11 10 100 0.0265681
2 11 10 100 0.0426899
3 11 10 100 0.0398457
4 11 10 100 0.0530437
5 11 10 100 0.0442043
6 11 10 100 0.0531874
7 11 10 100 0.0534393
8 11 10 100 0.0479368
9 11 10 100 0.0535211
10 11 10 100 0.209428
0 12 10 100 0.410869
1 12 10 100 0.0294644
2 12 10 100 0.0433269
3 12 10 100 0.0336692
4 12 10 100 0.0442314
5 12 10 100 0.0497932
6 12 10 100 0.054076
7 12 10 100 0.0466348
8 12 10 100 0.0474997
9 12 10 100 0.045709
10 12 10 100 0.194727
0 13 10 100 0.39927
1 13 10 100 0.029486
2 13 10 100 0.043085
3 13 10 100 0.0319162
4 13 10 100 0.0471465
5 13 10 100 0.0546016
6 13 10 100 0.0522015
7 13 10 100 0.0531386
8 13 10 100 0.0398314
9 13 10 100 0.0473587
10 13 10 100 0.201965
0 14 10 100 0.392513
1 14 10 100 0.0267867
2 14 10 100 0.0405493
3 14 10 100 0.0391767
4 14 10 100 0.0409307
5 14 10 100 0.0520181
6 14 10 100 0.0623163
7 14 10 100 0.0472609
8 14 10 100 0.0394125
9 14 10 100 0.0512912
10 14 10 100 0.207745
0 15 10 100 0.422879
1 15 10 100 0.0307347
2 15 10 100 0.0436584
3 15 10 100 0.0328797
4 15 10 100 0.0419424
5 15 10 100 0.0548688
6 15 10 100 0.0379472
7 15 10 100 0.0383941
8 15 10 100 0.0573221
9 15 10 100 0.065499
10 15 10 100 0.173874
0 16 10 100 0.339865
1 16 10 100 0.0234322
2 16 10 100 0.0519594
3 16 10 100 0.0384656
4 16 10 100 0.0539027
5 16 10 100 0.0643687
6 16 10 100 0.0498265
7 16 10 100 0.0500147
8 16 10 100 0.0678149
9 16 10 100 0.0767134
10 16 10 100 0.183637
0 17 10 100 0.321371
1 17 10 100 0.0564052
2 17 10 100 0.0265575
3 17 10 100 0.0374571
4 17 10 100 0.0536849
5 17 10 100 0.0552537
6 17 10 100 0.061647
7 17 10 100 0.0309783
8 17 10 100 0.0476981
9 17 10 100 0.0828331
10 17 10 100 0.226114
0 18 10 100 0.265515
1 18 10 100 0.0634502
2 18 10 100 0.0435341
3 18 10 100 0.0646081
4 18 10 100 0.0957463
5 18 10 100 0.0533386
6 18 10 100 0.0532595
7 18 10 100 0.0530917
8 18 10 100 0.0415519
9 18 10 100 0.0534964
10 18 10 100 0.212408
0 19 10 100 0.305694
1 19 10 100 0.0509319
2 19 10 100 0.0685008
3 19 10 100 0.0334634
4 19 10 100 0.0844035
5 19 10 100 0.0169622
6 19 10 100 0.0647178
7 19 10 100 0.0706407
8 19 10 100 0.0508388
9 19 10 100 0.0339558
10 19 10 100 0.219891
0 20 10 100 0.336257
1 20 10 100 0.0974725
2 20 10 100 0.0476878
3 20 10 100 0.0238095
4 20 10 100 0.0714278
5 20 10 100 0.0237975
6 20 10 100 0.0476191
7 20 10 100 0.0653052
8 20 10 100 0.119407
9 20 10 100 0.0238096
10 20 10 100 0.143407
0 21 10 100 0.115419
1 21 10 100 0.0384706
2 21 10 100 2.44552e-05
4 21 10 100 0.261666
5 21 10 100 0.00413466
6 21 10 100 0.0764209
7 21 10 100 0.11536
8 21 10 100 0.115386
9 21 10 100 0.0767781
10 21 10 100 0.19634
0 22 10 100 0.260784
1 22 10 100 0.0548967
2 22 10 100 0.000201614
3 22 10 100 0.0526299
4 22 10 100 0.105203
5 22 10 100 0.0526483
7 22 10 100 0.104595
8 22 10 100 0.0526316
9 22 10 100 9.06199e-06
10 22 10 100 0.316401
0 23 10 100 0.166717
1 23 10 100 2.2155e-06
2 23 10 100 0.0343252
3 23 10 100 0.0489634
4 23 10 100 0.166666
5 23 10 100 3.82556e-05
6 23 10 100 0.166621
8 23 10 100 0.166667
9 23 10 100 0.0833332
10 23 10 100 0.166667
0 24 10 100 0.0162676
4 24 10 100 0.285715
7 24 10 100 0.142857
9 24 10 100 0.142857
10 24 10 100 0.412303
0 25 10 100 0.25
5 25 10 100 0.250118
10 25 10 100 0.499882
0 26 10 100 0.498115
8 26 10 100 0.00188335
10 26 10 100 0.500001
0 27 10 100 1
0 1 11 100 0.00304202
1 1 11 100 0.479124
2 1 11 100 0.159231
3 1 11 100 0.0538466
4 1 11 100 0.0383203
5 1 11 100 0.0458857
6 1 11 100 0.0414969
7 1 11 100 0.0284341
8 1 11 100 0.0284325
9 1 11 100 0.0164109
10 1 11 100 0.0159512
11 1 11 100 0.0898249
0 2 11 100 0.0843957
1 2 11 100 0.080029
2 2 11 100 0.238025
3 2 11 100 0.106414
4 2 11 100 0.0810748
5 2 11 100 0.0683466
6 2 11 100 0.0604278
7 2 11 100 0.045875
8 2 11 100 0.0414886
9 2 11 100 0.0285296
10 2 11 100 0.0270653
11 2 11 100 0.138328
0 3 11 100 0.0926589
1 3 11 100 0.0477495
2 3 11 100 0.110265
3 3 11 100 0.125694
4 3 11 100 0.110737
5 3 11 100 0.0927766
6 3 11 100 0.0703474
7 3 11 100 0.0591749
8 3 11 100 0.048542
9 3 11 100 0.0363711
10 3 11 100 0.0382356
11 3 11 100 0.167448
0 4 11 100 0.135912
1 4 11 100 0.0463269
2 4 11 100 0.0704552
3 4 11 100 0.0778964
4 4 11 100 0.101062
5 4 11 100 0.100472
6 4 11 100 0.0796529
7 4 11 100 0.0667408
8 4 11 100 0.0592252
9 4 11 100 0.0404248
10 4 11 100 0.0414018
11 4 11 100 0.18043
0 5 11 100 0.149084
1 5 11 100 0.0446049
2 5 11 100 0.0615891
3 5 11 100 0.0583855
4 5 11 100 0.0849098
5 5 11 100 0.085791
6 5 11 100 0.0887351
7 5 11 100 0.0753139
8 5 11 100 0.06604
9 5 11 100 0.0464072
10 5 11 100 0.0467217
11 5 11 100 0.192417
0 6 11 100 0.15364
1 6 11 100 0.039484
2 6 11 100 0.0592649
3 6 11 100 0.0512942
4 6 11 100 0.0664939
5 6 11 100 0.0802824
6 6 11 100 0.0885039
7 6 11 100 0.0791904
8 6 11 100 0.076517
9 6 11 100 0.0546413
10 6 11 100 0.0494772
11 6 11 100 0.201211
0 7 11 100 0.137575
1 7 11 100 0.0395501
2 7 11 100 0.0546885
3 7 11 100 0.0507358
4 7 11 100 0.060245
5 7 11 100 0.070808
6 7 11 100 0.0807686
7 7 11 100 0.084563
8 7 11 100 0.0832709
9 7 11 100 0.0573209
10 7 11 100 0.0553324
11 7 11 100 0.225142
0 8 11 100 0.180342
1 8 11 100 0.0352324
2 8 11 100 0.0536827
3 8 11 100 0.0476685
4 8 11 100 0.0580903
5 8 11 100 0.0615108
6 8 11 100 0.0704779
7 8 11 100 0.0762719
8 8 11 100 0.075384
9 8 11 100 0.0578071
10 8 11 100 0.0558817
11 8 11 100 0.227651
0 9 11 100 0.212807
1 9 11 100 0.0323104
2 9 11 100 0.0478386
3 9 11 100 0.0447968
4 9 11 100 0.0552744
5 9 11 100 0.0623271
6 9 11 100 0.0576663
7 9 11 100 0.0732011
8 9 11 100 0.0720398
9 9 11 100 0.0522584
10 9 11 100 0.0559457
11 9 11 100 0.233535
0 10 11 100 0.292382
1 10 11 100 0.0297956
2 10 11 100 0.0460758
3 10 11 100 0.0430662
4 10 11 100 0.0491815
5 10 11 100 0.0564631
6 10 11 100 0.0535531
7 10 11 100 0.0570907
8 10 11 100 0.0597781
9 10 11 100 0.0504102
10 10 11 100 0.0486807
11 10 11 100 0.213523
0 11 11 100 0.334985
1 11 11 100 0.0281818
2 11 11 100 0.0436623
3 11 11 100 0.0387756
4 11 11 100 0.0440502
5 11 11 100 0.0529937
6 11 11 100 0.0506924
7 11 11 100 0.0520154
8 11 11 100 0.053962
9 11 11 100 0.0485167
10 11 11 100 0.0525477
11 11 11 100 0.199617
0 12 11 100 0.370307
1 12 11 100 0.0254054
2 12 11 100 0.0355683
3 12 11 100 0.0369587
4 12 11 100 0.0440503
5 12 11 100 0.0484856
6 12 11 100 0.0436275
7 12 11 100 0.0478753
8 12 11 100 0.0494268
9 12 11 100 0.0525428
10 12 11 100 0.0500843
11 12 11 100 0.195669
0 13 11 100 0.374654
1 13 11 100 0.0255648
2 13 11 100 0.0426712
3 13 11 100 0.0395586
4 13 11 100 0.038469
5 13 11 100 0.0481588
6 13 11 100 0.04527
7 13 11 100 0.0447065
8 13 11 100 0.0454763
9 13 11 100 0.0480988
10 13 11 100 0.0582817
11 13 11 100 0.18909
0 14 11 100 0.353153
1 14 11 100 0.0260924
2 14 11 100 0.0453449
3 14 11 100 0.0427076
4 14 11 100 0.0426652
5 14 11 100 0.0508685
6 14 11 100 0.0495342
7 14 11 100 0.0535699
8 14 11 100 0.0400792
9 14 11 100 0.0576183
10 14 11 100 0.0460993
11 14 11 100 0.192268
0 15 11 100 0.381025
1 15 11 100 0.0259952
2 15 11 100 0.0398804
3 15 11 100 0.0398653
4 15 11 100 0.0400652
5 15 11 100 0.0401769
6 15 11 100 0.0554373
7 15 11 100 0.0370561
8 15 11 100 0.0411586
9 15 11 100 0.0424706
10 15 11 100 0.0565722
11 15 11 100 0.200297
0 16 11 100 0.352177
1 16 11 100 0.0253338
2 16 11 100 0.0350577
3 16 11 100 0.0392527
4 16 11 100 0.0393648
5 16 11 100 0.0469321
6 16 11 100 0.0456139
7 16 11 100 0.0531665
8 16 11 100 0.0623978
9 16 11 100 0.0420232
10 16 11 100 0.0639825
11 16 11 100 0.194698
0 17 11 100 0.353433
1 17 11 100 0.0219283
2 17 11 100 0.0427295
3 17 11 100 0.0288639
4 17 11 100 0.0513651
5 17 11 100 0.0588286
6 17 11 100 0.0462234
7 17 11 100 0.0425768
8 17 11 100 0.0504379
9 17 11 100 0.0508659
10 17 11 100 0.0452153
11 17 11 100 0.207532
0 18 11 100 0.381227
1 18 11 100 0.0222139
2 18 11 100 0.0245341
3 18 11 100 0.0403982
4 18 11 100 0.0406934
5 18 11 100 0.0678093
6 18 11 100 0.0415271
7 18 11 100 0.0445411
8 18 11 100 0.0579936
9 18 11 100 0.0388158
10 18 11 100 0.0794491
11 18 11 100 0.160797
0 19 11 100 0.347181
1 19 11 100 0.0430414
2 19 11 100 0.0321608
3 19 11 100 0.0433756
4 19 11 100 0.0161082
5 19 11 100 0.0637809
6 19 11 100 0.0849621
7 19 11 100 0.0213246
8 19 11 100 0.0666385
9 19 11 100 0.0645873
10 19 11 100 0.0629732
11 19 11 100 0.153866
0 20 11 100 0.20763
1 20 11 100 0.0354158
2 20 11 100 0.0454132
3 20 11 100 0.0324583
4 20 11 100 0.017376
5 20 11 100 0.0350787
6 20 11 100 0.0941764
7 20 11 100 0.0637143
8 20 11 100 0.107152
9 20 11 100 0.0877142
10 20 11 100 0.127529
11 20 11 100 0.146342
0 21 11 100 0.224384
1 21 11 100 0.0266423
2 21 11 100 5.1632e-06
3 21 11 100 0.125981
5 21 11 100 0.0492488
6 21 11 100 0.0978878
7 21 11 100 0.0250021
8 21 11 100 0.124619
9 21 11 100 0.100598
10 21 11 100 0.05
11 21 11 100 0.175632
0 22 11 100 0.239668
1 22 11 100 0.0333333
2 22 11 100 4.34906e-05
3 22 11 100 0.0666666
5 22 11 100 0.0329887
6 22 11 100 0.0999987
7 22 11 100 0.000404981
8 22 11 100 0.127356
9 22 11 100 0.133326
10 22 11 100 0.0998991
11 22 11 100 0.166316
0 23 11 100 0.217289
1 23 11 100 0.0894576
3 23 11 100 0.0869518
5 23 11 100 0.0434783
6 23 11 100 0.0434783
7 23 11 100 0.0434783
8 23 11 100 0.0436159
9 23 11 100 0.13007
10 23 11 100 0.0871082
11 23 11 100 0.215072
0 24 11 100 0.333385
3 24 11 100 0.00714271
7 24 11 100 0.0761887
8 24 11 100 0.166667
9 24 11 100 0.0861019
10 24 11 100 0.163084
11 24 11 100 0.167432
0 25 11 100 0.167039
3 25 11 100 0.166652
4 25 11 100 0.166294
7 25 11 100 7.31353e-06
8 25 11 100 0.166667
10 25 11 100 1.44406e-05
11 25 11 100 0.333325
0 26 11 100 0.333393
1 26 11 100 0.000169097
3 26 11 100 0.166662
4 26 11 100 0.166667
8 26 11 100 0.0496222
9 26 11 100 0.0617337
11 26 11 100 0.221754
0 27 11 100 0.5
8 27 11 100 0.5
0 28 11 100 0.0025559
4 28 11 100 0.997444
4 29 11 100 1
0 1 12 100 0.00334248
1 1 12 100 0.475579
2 1 12 100 0.163574
3 1 12 100 0.0441221
4 1 12 100 0.0412539
5 1 12 100 0.0432254
6 1 12 100 0.0405936
7 1 12 100 0.0295232
8 1 12 100 0.0279141
9 1 12 100 0.0254507
10 1 12 100 0.0123164
11 1 12 100 0.0116089
12 1 12 100 0.0814968
0 2 12 100 0.0758938
1 2 12 100 0.0885543
2 2 12 100 0.232722
3 2 12 100 0.106776
4 2 12 100 0.0775096
5 2 12 100 0.0709781
6 2 12 100 0.0631648
7 2 12 100 0.0411697
8 2 12 100 0.043048
9 2 12 100 0.0351344
10 2 12 100 0.0234748
11 2 12 100 0.0232149
12 2 12 100 0.11836
0 3 12 100 0.0931755
1 3 12 100 0.0480774
2 3 12 100 0.103064
3 3 12 100 0.117963
4 3 12 100 0.108001
5 3 12 100 0.0945005
6 3 12 100 0.0827681
7 3 12 100 0.059418
8 3 12 100 0.0484994
9 3 12 100 0.0445233
10 3 12 100 0.0313188
11 3 12 100 0.0335777
12 3 12 100 0.135113
0 4 12 100 0.135231
1 4 12 100 0.0418449
2 4 12 100 0.067663
3 4 12 100 0.0755977
4 4 12 100 0.0982355
5 4 12 100 0.0977589
6 4 12 100 0.0883337
7 4 12 100 0.0708391
8 4 12 100 0.0523164
9 4 12 100 0.0496844
10 4 12 100 0.0351392
11 4 12 100 0.0371084
12 4 12 100 0.150248
0 5 12 100 0.165548
1 5 12 100 0.0402035
2 5 12 100 0.0523451
3 5 12 100 0.0542998
4 5 12 100 0.0765337
5 5 12 100 0.0886766
6 5 12 100 0.0938728
7 5 12 100 0.0826855
8 5 12 100 0.0627548
9 5 12 100 0.052158
10 5 12 100 0.0373418
11 5 12 100 0.0399757
12 5 12 100 0.153605
0 6 12 100 0.167346
1 6 12 100 0.0359809
2 6 12 100 0.0545041
3 6 12 100 0.0479969
4 6 12 100 0.0588353
5 6 12 100 0.0826074
6 6 12 100 0.0841512
7 6 12 100 0.0817428
8 6 12 100 0.0723742
9 6 12 100 0.0601378
10 6 12 100 0.0452131
11 6 12 100 0.0446129
12 6 12 100 0.164497
0 7 12 100 0.142637
1 7 12 100 0.0349243
2 7 12 100 0.049205
3 7 12 100 0.050772
4 7 12 100 0.0558822
5 7 12 100 0.0695605
6 7 12 100 0.0842158
7 7 12 100 0.0816917
8 7 12 100 0.0774491
9 7 12 100 0.0683353
10 7 12 100 0.0505035
11 7 12 100 0.047304
12 7 12 100 0.18752
0 8 12 100 0.153715
1 8 12 100 0.0324588
2 8 12 100 0.0499991
3 8 12 100 0.0431243
4 8 12 100 0.0509764
5 8 12 100 0.0600682
6 8 12 100 0.0784598
7 8 12 100 0.0742764
8 8 12 100 0.0731013
9 8 12 100 0.0749819
10 8 12 100 0.0584068
11 8 12 100 0.0546885
12 8 12 100 0.195743
0 9 12 100 0.177378
1 9 12 100 0.0309294
2 9 12 100 0.0428919
3 9 12 100 0.0398829
4 9 12 100 0.0506128
5 9 12 100 0.0587879
6 9 12 100 0.0713965
7 9 12 100 0.063347
8 9 12 100 0.0672945
9 9 12 100 0.0698536
10 9 12 100 0.0594742
11 9 12 100 0.0557645
12 9 12 100 0.212387
0 10 12 100 0.233023
1 10 12 100 0.0261846
2 10 12 100 0.0399515
3 10 12 100 0.0336159
4 10 12 100 0.0475677
5 10 12 100 0.0568334
6 10 12 100 0.061945
7 10 12 100 0.0592868
8 10 12 100 0.0606716
9 10 12 100 0.0658276
10 10 12 100 0.054819
11 10 12 100 0.0543252
12 10 12 100 0.205949
0 11 12 100 0.279621
1 11 12 100 0.0277092
2 11 12 100 0.0397647
3 11 12 100 0.0355509
4 11 12 100 0.0426588
5 11 12 100 0.0473522
6 11 12 100 0.0619823
7 11 12 100 0.0535428
8 11 12 100 0.0481764
9 11 12 100 0.0597579
10 11 12 100 0.0502331
11 11 12 100 0.0519629
12 11 12 100 0.201688
0 12 12 100 0.321964
1 12 12 100 0.0280782
2 12 12 100 0.0386479
3 12 12 100 0.0382295
4 12 12 100 0.0387212
5 12 12 100 0.0427127
6 12 12 100 0.0514005
7 12 12 100 0.0495335
8 12 12 100 0.0460776
9 12 12 100 0.0505384
10 12 12 100 0.0441646
11 12 12 100 0.0503835
12 12 12 100 0.199549
0 13 12 100 0.353079
1 13 12 100 0.0254329
2 13 12 100 0.0437682
3 13 12 100 0.0378891
4 13 12 100 0.0378542
5 13 12 100 0.0390779
6 13 12 100 0.0444528
7 13 12 100 0.0470061
8 13 12 100 0.0424925
9 13 12 100 0.0483577
10 13 12 100 0.0409478
11 13 12 100 0.0398034
12 13 12 100 0.199838
0 14 12 100 0.397087
1 14 12 100 0.0276088
2 14 12 100 0.0454101
3 14 12 100 0.0339441
4 14 12 100 0.0295361
5 14 12 100 0.0362973
6 14 12 100 0.0346339
7 14 12 100 0.0450209
8 14 12 100 0.0419705
9 14 12 100 0.0485831
10 14 12 100 0.0382087
11 14 12 100 0.0422416
12 14 12 100 0.179457
0 15 12 100 0.391488
1 15 12 100 0.0221252
2 15 12 100 0.0405133
3 15 12 100 0.0331758
4 15 12 100 0.0285056
5 15 12 100 0.0466805
6 15 12 100 0.0471745
7 15 12 100 0.0455515
8 15 12 100 0.0295591
9 15 12 100 0.0509762
10 15 12 100 0.0351475
11 15 12 100 0.0561688
12 15 12 100 0.172934
0 16 12 100 0.321521
1 16 12 100 0.0349164
2 16 12 100 0.0531272
3 16 12 100 0.0384412
4 16 12 100 0.0438535
5 16 12 100 0.0414959
6 16 12 100 0.062129
7 16 12 100 0.0448757
8 16 12 100 0.0527297
9 16 12 100 0.0454747
10 16 12 100 0.0410342
11 16 12 100 0.0445047
12 16 12 100 0.175897
0 17 12 100 0.396248
1 17 12 100 0.0168173
2 17 12 100 0.0453576
3 17 12 100 0.0333935
4 17 12 100 0.0550589
5 17 12 100 0.0334374
6 17 12 100 0.0479987
7 17 12 100 0.0515838
8 17 12 100 0.0215512
9 17 12 100 0.0580935
10 17 12 100 0.0415287
11 17 12 100 0.0524396
12 17 12 100 0.146492
0 18 12 100 0.338815
1 18 12 100 0.00791187
2 18 12 100 0.0463814
3 18 12 100 0.0436745
4 18 12 100 0.0472587
5 18 12 100 0.0356285
6 18 12 100 0.0588621
7 18 12 100 0.0403639
8 18 12 100 0.0352619
9 18 12 100 0.0513604
10 18 12 100 0.0608589
11 18 12 100 0.0736677
12 18 12 100 0.159955
0 19 12 100 0.332259
1 19 12 100 0.0146755
2 19 12 100 0.0649562
3 19 12 100 0.0329459
4 19 12 100 0.0388766
5 19 12 100 0.0390113
6 19 12 100 0.0525989
7 19 12 100 0.0498201
8 19 12 100 0.022837
9 19 12 100 0.0578711
10 19 12 100 0.0388441
11 19 12 100 0.0783238
12 19 12 100 0.17698
0 20 12 100 0.313382
1 20 12 100 0.0411048
2 20 12 100 0.0422653
3 20 12 100 0.0331117
4 20 12 100 0.0754927
5 20 12 100 0.0433229
6 20 12 100 0.0965994
7 20 12 100 0.0536349
8 20 12 100 5.88673e-06
9 20 12 100 0.0754371
10 20 12 100 0.0328573
11 20 12 100 0.0854307
12 20 12 100 0.107355
0 21 12 100 0.225254
1 21 12 100 0.000627493
2 21 12 100 0.0346034
3 21 12 100 0.0363575
4 21 12 100 0.0545375
5 21 12 100 0.0545466
6 21 12 100 0.0909736
7 21 12 100 0.052926
8 21 12 100 0.00168158
9 21 12 100 0.0727272
10 21 12 100 0.0181983
11 21 12 100 0.127211
12 21 12 100 0.230356
0 22 12 100 0.342288
1 22 12 100 0.00707945
2 22 12 100 1.59444e-05
3 22 12 100 2.61254e-06
4 22 12 100 0.0571784
5 22 12 100 0.0575942
6 22 12 100 0.0856768
7 22 12 100 0.0102239
8 22 12 100 0.0183168
9 22 12 100 0.0571284
10 22 12 100 0.0571449
11 22 12 100 0.142841
12 22 12 100 0.16451
0 23 12 100 0.285715
1 23 12 100 0.000142119
2 23 12 100 0.0474013
3 23 12 100 7.3264e-05
4 23 12 100 0.0483503
5 23 12 100 0.0476204
6 23 12 100 0.000265869
7 23 12 100 0.0610484
9 23 12 100 0.0951735
10 23 12 100 0.0952382
11 23 12 100 0.0952282
12 23 12 100 0.223744
0 24 12 100 0.313609
1 24 12 100 1.55052e-05
5 24 12 100 0.143502
6 24 12 100 0.0044124
7 24 12 100 0.0769259
9 24 12 100 0.153846
10 24 12 100 0.153846
11 24 12 100 0.0769231
12 24 12 100 0.0769199
0 25 12 100 0.217161
2 25 12 100 0.000985752
3 25 12 100 0.0138512
4 25 12 100 8.06236e-05
5 25 12 100 0.00542114
6 25 12 100 3.31625e-05
7 25 12 100 0.111111
9 25 12 100 0.110964
10 25 12 100 0.111023
11 25 12 100 0.222188
12 25 12 100 0.207182
0 26 12 100 0.20025
4 26 12 100 0.2
8 26 12 100 0.000122506
10 26 12 100 0.2
11 26 12 100 0.199627
12 26 12 100 0.2
0 27 12 100 2.26854e-05
4 27 12 100 0.250001
10 27 12 100 0.250001
12 27 12 100 0.499976
9 28 12 100 0.499999
10 28 12 100 0.500001
0 1 13 100 0.00320028
1 1 13 100 0.462593
2 1 13 100 0.15731
3 1 13 100 0.0500081
4 1 13 100 0.0410911
5 1 13 100 0.0427737
6 1 13 100 0.0341008
7 1 13 100 0.0348806
8 1 13 100 0.0295184
9 1 13 100 0.0233273
10 1 13 100 0.0182492
11 1 13 100 0.010964
12 1 13 100 0.0137428
13 1 13 100 0.0782416
0 2 13 100 0.0720539
1 2 13 100 0.0904722
2 2 13 100 0.227877
3 2 13 100 0.113375
4 2 13 100 0.0716085
5 2 13 100 0.0695692
6 2 13 100 0.0567034
7 2 13 100 0.0491551
8 2 13 100 0.0403241
9 2 13 100 0.0315927
10 2 13 100 0.0279686
11 2 13 100 0.0195132
12 2 13 100 0.0225871
13 2 13 100 0.1072
0 3 13 100 0.0983958
1 3 13 100 0.0502418
2 3 13 100 0.0989576
3 3 13 100 0.117776
4 3 13 100 0.109646
5 3 13 100 0.0881911
6 3 13 100 0.072604
7 3 13 100 0.0617588
8 3 13 100 0.0429286
9 3 13 100 0.040467
10 3 13 100 0.0359167
11 3 13 100 0.0244305
12 3 13 100 0.0286271
13 3 13 100 0.13006
0 4 13 100 0.132468
1 4 13 100 0.0422669
2 4 13 100 0.0610116
3 4 13 100 0.0819604
4 4 13 100 0.100389
5 4 13 100 0.097436
6 4 13 100 0.0912814
7 4 13 100 0.0676791
8 4 13 100 0.0512342
9 4 13 100 0.0442402
10 4 13 100 0.0335173
11 4 13 100 0.0295411
12 4 13 100 0.0279604
13 4 13 100 0.139014
0 5 13 100 0.162325
1 5 13 100 0.0400351
2 5 13 100 0.0518629
3 5 13 100 0.0543233
4 5 13 100 0.0729203
5 5 13 100 0.0931454
6 5 13 100 0.0909848
7 5 13 100 0.0803444
8 5 13 100 0.0565991
9 5 13 100 0.0521708
10 5 13 100 0.0435037
11 5 13 100 0.0310769
12 5 13 100 0.027938
13 5 13 100 0.14277
0 6 13 100 0.16412
1 6 13 100 0.0304402
2 6 13 100 0.0515712
3 6 13 100 0.0465246
4 6 13 100 0.0610879
5 6 13 100 0.0821315
6 6 13 100 0.0920613
7 6 13 100 0.0847737
8 6 13 100 0.0651727
9 6 13 100 0.058973
10 6 13 100 0.0499112
11 6 13 100 0.033006
12 6 13 100 0.0351698
13 6 13 100 0.145057
0 7 13 100 0.165052
1 7 13 100 0.0308284
2 7 13 100 0.039838
3 7 13 100 0.0425656
4 7 13 100 0.0505525
5 7 13 100 0.0661497
6 7 13 100 0.0846609
7 7 13 100 0.0838897
8 7 13 100 0.0756384
9 7 13 100 0.069876
10 7 13 100 0.0520778
11 7 13 100 0.0408727
12 7 13 100 0.0362384
13 7 13 100 0.16176
0 8 13 100 0.155838
1 8 13 100 0.0288789
2 8 13 100 0.0389277
3 8 13 100 0.0405405
4 8 13 100 0.0489852
5 8 13 100 0.0622527
6 8 13 100 0.068712
7 8 13 100 0.0769999
8 8 13 100 0.0734808
9 8 13 100 0.0740331
10 8 13 100 0.0607853
11 8 13 100 0.0437222
12 8 13 100 0.0425236
13 8 13 100 0.18432
0 9 13 100 0.151887
1 9 13 100 0.0308119
2 9 13 100 0.0378283
3 9 13 100 0.0392655
4 9 13 100 0.051361
5 9 13 100 0.057022
6 9 13 100 0.0664587
7 9 13 100 0.0700117
8 9 13 100 0.066269
9 9 13 100 0.0683391
10 9 13 100 0.0615496
11 9 13 100 0.0487559
12 9 13 100 0.0539793
13 9 13 100 0.196462
0 10 13 100 0.199457
1 10 13 100 0.0271448
2 10 13 100 0.0353754
3 10 13 100 0.0366181
4 10 13 100 0.0480038
5 10 13 100 0.052699
6 10 13 100 0.0609711
7 10 13 100 0.0613107
8 10 13 100 0.0495528
9 10 13 100 0.066978
10 10 13 100 0.0612548
11 10 13 100 0.0432805
12 10 13 100 0.055331
13 10 13 100 0.202023
0 11 13 100 0.23637
1 11 13 100 0.0250012
2 11 13 100 0.0296372
3 11 13 100 0.0348128
4 11 13 100 0.038429
5 11 13 100 0.0451503
6 11 13 100 0.0593978
7 11 13 100 0.0582722
8 11 13 100 0.0449287
9 11 13 100 0.0585839
10 11 13 100 0.0571627
11 11 13 100 0.0550755
12 11 13 100 0.0502804
13 11 13 100 0.206898
0 12 13 100 0.289419
1 12 13 100 0.0214998
2 12 13 100 0.0329272
3 12 13 100 0.0300025
4 12 13 100 0.0362276
5 12 13 100 0.0423471
6 12 13 100 0.0541
7 12 13 100 0.0559688
8 12 13 100 0.0385535
9 12 13 100 0.0492994
10 12 13 100 0.053917
11 12 13 100 0.0464775
12 12 13 100 0.0539709
13 12 13 100 0.195289
0 13 13 100 0.319926
1 13 13 100 0.0204802
2 13 13 100 0.0251889
3 13 13 100 0.0348701
4 13 13 100 0.0347962
5 13 13 100 0.0421244
6 13 13 100 0.0480538
7 13 13 100 0.0458862
8 13 13 100 0.0365345
9 13 13 100 0.0461185
10 13 13 100 0.0524401
11 13 13 100 0.049228
12 13 13 100 0.0505068
13 13 13 100 0.193846
0 14 13 100 0.330301
1 14 13 100 0.013705
2 14 13 100 0.0310329
3 14 13 100 0.0342344
4 14 13 100 0.0320377
5 14 13 100 0.0468987
6 14 13 100 0.052023
7 14 13 100 0.0464725
8 14 13 100 0.0278195
9 14 13 100 0.0442574
10 14 13 100 0.0529854
11 14 13 100 0.0408486
12 14 13 100 0.0479551
13 14 13 100 0.199428
0 15 13 100 0.382143
1 15 13 100 0.0143419
2 15 13 100 0.0353922
3 15 13 100 0.0331852
4 15 13 100 0.0236807
5 15 13 100 0.0387822
6 15 13 100 0.0488256
7 15 13 100 0.04135
8 15 13 100 0.0271244
9 15 13 100 0.034432
10 15 13 100 0.0495181
11 15 13 100 0.048815
12 15 13 100 0.0475728
13 15 13 100 0.174837
0 16 13 100 0.329234
1 16 13 100 0.0209048
2 16 13 100 0.0286295
3 16 13 100 0.0375323
4 16 13 100 0.0337842
5 16 13 100 0.0411154
6 16 13 100 0.0459802
7 16 13 100 0.0386196
8 16 13 100 0.0342442
9 16 13 100 0.0453586
10 16 13 100 0.0611445
11 16 13 100 0.0393729
12 16 13 100 0.0486469
13 16 13 100 0.195433
0 17 13 100 0.344322
1 17 13 100 0.0160207
2 17 13 100 0.0309779
3 17 13 100 0.0500301
4 17 13 100 0.037949
5 17 13 100 0.0467183
6 17 13 100 0.0344427
7 17 13 100 0.0400182
8 17 13 100 0.0227086
9 17 13 100 0.0444884
10 17 13 100 0.0379012
11 17 13 100 0.0530944
12 17 13 100 0.0512912
13 17 13 100 0.190037
0 18 13 100 0.34507
1 18 13 100 0.019438
2 18 13 100 0.0199879
3 18 13 100 0.0349045
4 18 13 100 0.0275083
5 18 13 100 0.0385646
6 18 13 100 0.054291
7 18 13 100 0.0420706
8 18 13 100 0.0378325
9 18 13 100 0.0190429
10 18 13 100 0.0570912
11 18 13 100 0.0476517
12 18 13 100 0.0339541
13 18 13 100 0.222593
0 19 13 100 0.336758
1 19 13 100 0.0247986
2 19 13 100 0.0297104
3 19 13 100 0.0240541
4 19 13 100 0.0256486
5 19 13 100 0.0383827
6 19 13 100 0.0427386
7 19 13 100 0.0550325
8 19 13 100 0.0125493
9 19 13 100 0.0383089
10 19 13 100 0.058253
11 19 13 100 0.0638124
12 19 13 100 0.0427499
13 19 13 100 0.207203
0 20 13 100 0.361417
1 20 13 100 0.0234698
2 20 13 100 0.0230381
3 20 13 100 0.0200001
4 20 13 100 0.0200111
5 20 13 100 0.0264975
6 20 13 100 0.0533808
7 20 13 100 0.0513342
8 20 13 100 0.0328089
9 20 13 100 0.0265212
10 20 13 100 0.0343027
11 20 13 100 0.0604993
12 20 13 100 0.039674
13 20 13 100 0.227045
0 21 13 100 0.26691
1 21 13 100 0.0195795
2 21 13 100 0.042987
3 21 13 100 0.0313111
4 21 13 100 0.0108921
5 21 13 100 0.0414306
6 21 13 100 0.031595
7 21 13 100 0.0629404
8 21 13 100 0.0316196
9 21 13 100 0.0316305
10 21 13 100 0.0605905
11 21 13 100 0.0531938
12 21 13 100 0.0421264
13 21 13 100 0.273193
0 22 13 100 0.366643
1 22 13 100 0.0158656
2 22 13 100 0.0159667
3 22 13 100 0.0728879
4 22 13 100 0.000153647
5 22 13 100 0.015389
6 22 13 100 0.0298372
7 22 13 100 0.0469822
8 22 13 100 0.0667206
9 22 13 100 0.0160792
10 22 13 100 0.0469727
11 22 13 100 0.0312548
12 22 13 100 0.109334
13 22 13 100 0.165914
0 23 13 100 0.0922053
1 23 13 100 0.0227485
2 23 13 100 0.0228553
3 23 13 100 0.0904924
5 23 13 100 0.0227483
6 23 13 100 0.0227273
7 23 13 100 0.0681819
8 23 13 100 0.0681884
9 23 13 100 0.0902037
10 23 13 100 0.0454907
11 23 13 100 0.0226871
12 23 13 100 0.136173
13 23 13 100 0.295298
0 24 13 100 0.303233
1 24 13 100 0.0301627
4 24 13 100 3.60628e-05
5 24 13 100 0.0302919
6 24 13 100 0.0303029
7 24 13 100 0.0303027
8 24 13 100 1.09645e-05
9 24 13 100 0.0908246
10 24 13 100 0.0303088
11 24 13 100 0.030303
12 24 13 100 0.121181
13 24 13 100 0.303042
0 25 13 100 0.204054
1 25 13 100 1.34605e-06
2 25 13 100 0.0434774
5 25 13 100 8.4777e-07
6 25 13 100 2.37649e-06
7 25 13 100 0.130439
8 25 13 100 0.0425494
9 25 13 100 0.130435
10 25 13 100 0.0434771
11 25 13 100 0.000910071
12 25 13 100 0.130434
13 25 13 100 0.274219
0 26 13 100 0.392848
2 26 13 100 0.0221936
4 26 13 100 2.07672e-06
6 26 13 100 0.00104185
7 26 13 100 0.055559
8 26 13 100 0.11111
9 26 13 100 1.75323e-06
10 26 13 100 0.0581646
12 26 13 100 0.192483
13 26 13 100 0.166596
0 27 13 100 0.231605
3 27 13 100 0.153477
5 27 13 100 0.0769232
6 27 13 100 0.00753837
7 27 13 100 0.0769232
8 27 13 100 0.153648
9 27 13 100 0.0769232
12 27 13 100 0.146047
13 27 13 100 0.0769161
0 28 13 100 0.222419
2 28 13 100 0.110971
3 28 13 100 0.000636919
5 28 13 100 0.111111
8 28 13 100 0.110474
9 28 13 100 0.111105
10 28 13 100 0.222168
11 28 13 100 3.39664e-06
12 28 13 100 0.111111
0 29 13 100 0.125004
2 29 13 100 0.125
4 29 13 100 0.124109
5 29 13 100 0.125
6 29 13 100 0.0360295
7 29 13 100 0.213959
10 29 13 100 0.125886
11 29 13 100 0.124381
12 29 13 100 1.11539e-05
13 29 13 100 0.000620717
0 30 13 100 0.142861
2 30 13 100 0.142857
5 30 13 100 0.142857
7 30 13 100 0.285711
10 30 13 100 0.142857
13 30 13 100 0.142857
0 31 13 100 0.00091976
2 31 13 100 0.199101
10 31 13 100 0.199983
12 31 13 100 0.399823
13 31 13 100 0.200173
0 32 13 100 0.000103106
10 32 13 100 0.25
13 32 13 100 0.749897
0 33 13 100 0.00140162
8 33 13 100 0.333341
13 33 13 100 0.665257
0 34 13 100 0.00608827
6 34 13 100 1.33349e-05
8 34 13 100 0.499986
10 34 13 100 0.493913
0 1 14 100 0.00221496
1 1 14 100 0.461882
2 1 14 100 0.167331
3 1 14 100 0.0323712
4 1 14 100 0.0444233
5 1 14 100 0.0395396
6 1 14 100 0.0404015
7 1 14 100 0.0295267
8 1 14 100 0.0256827
9 1 14 100 0.0251534
10 1 14 100 0.0203888
11 1 14 100 0.0186775
12 1 14 100 0.012149
13 1 14 100 0.0105686
14 1 14 100 0.0696894
0 2 14 100 0.0775884
1 2 14 100 0.0873979
2 2 14 100 0.234019
3 2 14 100 0.0997914
4 2 14 100 0.0748541
5 2 14 100 0.0660943
6 2 14 100 0.0600078
7 2 14 100 0.0480628
8 2 14 100 0.0406704
9 2 14 100 0.0355668
10 2 14 100 0.0255548
11 2 14 100 0.0252219
12 2 14 100 0.0190746
13 2 14 100 0.0184528
14 2 14 100 0.0876428
0 3 14 100 0.0958948
1 3 14 100 0.0496708
2 3 14 100 0.10086
3 3 14 100 0.113441
4 3 14 100 0.104084
5 3 14 100 0.0866527
6 3 14 100 0.0763666
7 3 14 100 0.0637461
8 3 14 100 0.0465209
9 3 14 100 0.0410911
10 3 14 100 0.0319263
11 3 14 100 0.0332337
12 3 14 100 0.0223686
13 3 14 100 0.0253884
14 3 14 100 0.108755
0 4 14 100 0.122024
1 4 14 100 0.0400673
2 4 14 100 0.065177
3 4 14 100 0.0709699
4 4 14 100 0.0957489
5 4 14 100 0.0922214
6 4 14 100 0.087722
7 4 14 100 0.0743206
8 4 14 100 0.0498066
9 4 14 100 0.048119
10 4 14 100 0.0401661
11 4 14 100 0.036882
12 4 14 100 0.0299483
13 4 14 100 0.0332411
14 4 14 100 0.113586
0 5 14 100 0.159301
1 5 14 100 0.0397827
2 5 14 100 0.0482221
3 5 14 100 0.0543156
4 5 14 100 0.0714435
5 5 14 100 0.0853006
6 5 14 100 0.0901192
7 5 14 100 0.0798209
8 5 14 100 0.0602599
9 5 14 100 0.0462301
10 5 14 100 0.0435376
11 5 14 100 0.0376122
12 5 14 100 0.036652
13 5 14 100 0.0329085
14 5 14 100 0.114494
0 6 14 100 0.173774
1 6 14 100 0.0350886
2 6 14 100 0.0427892
3 6 14 100 0.0440967
4 6 14 100 0.0561647
5 6 14 100 0.0692922
6 6 14 100 0.0844069
7 6 14 100 0.0875881
8 6 14 100 0.0678269
9 6 14 100 0.0582311
10 6 14 100 0.0459612
11 6 14 100 0.0390947
12 6 14 100 0.0371357
13 6 14 100 0.0345409
14 6 14 100 0.124009
0 7 14 100 0.177668
1 7 14 100 0.0294506
2 7 14 100 0.0425527
3 7 14 100 0.0397631
4 7 14 100 0.0448788
5 7 14 100 0.0568476
6 7 14 100 0.067736
7 7 14 100 0.0856069
8 7 14 100 0.0767685
9 7 14 100 0.0632437
10 7 14 100 0.0521656
11 7 14 100 0.0512968
12 7 14 100 0.0417753
13 7 14 100 0.0408572
14 7 14 100 0.129389
0 8 14 100 0.157579
1 8 14 100 0.0297637
2 8 14 100 0.0396926
3 8 14 100 0.0357425
4 8 14 100 0.0420211
5 8 14 100 0.050118
6 8 14 100 0.0574831
7 8 14 100 0.0781914
8 8 14 100 0.0775758
9 8 14 100 0.0741645
10 8 14 100 0.0565767
11 8 14 100 0.0570843
12 8 14 100 0.0450361
13 8 14 100 0.0406748
14 8 14 100 0.158296
0 9 14 100 0.141602
1 9 14 100 0.0237836
2 9 14 100 0.0431311
3 9 14 100 0.0359298
4 9 14 100 0.0435122
5 9 14 100 0.0455051
6 9 14 100 0.0514027
7 9 14 100 0.0637775
8 9 14 100 0.0745088
9 9 14 100 0.0736562
10 9 14 100 0.0642139
11 9 14 100 0.0655687
12 9 14 100 0.0512653
13 9 14 100 0.0486147
14 9 14 100 0.173529
0 10 14 100 0.160941
1 10 14 100 0.0250192
2 10 14 100 0.034267
3 10 14 100 0.0332119
4 10 14 100 0.0447984
5 10 14 100 0.0465563
6 10 14 100 0.0492028
7 10 14 100 0.0590581
8 10 14 100 0.0602461
9 10 14 100 0.0618014
10 10 14 100 0.0629854
11 10 14 100 0.0619711
12 10 14 100 0.0538243
13 10 14 100 0.0618237
14 10 14 100 0.184294
0 11 14 100 0.197234
1 11 14 100 0.0227078
2 11 14 100 0.0303865
3 11 14 100 0.0341105
4 11 14 100 0.0398051
5 11 14 100 0.045795
6 11 14 100 0.0465825
7 11 14 100 0.0544825
8 11 14 100 0.0476578
9 11 14 100 0.0539317
10 11 14 100 0.0653341
11 11 14 100 0.0649616
12 11 14 100 0.0558871
13 11 14 100 0.0552054
14 11 14 100 0.185919
0 12 14 100 0.239982
1 12 14 100 0.0209937
2 12 14 100 0.0259808
3 12 14 100 0.0292592
4 12 14 100 0.039376
5 12 14 100 0.04017
6 12 14 100 0.0404704
7 12 14 100 0.0539758
8 12 14 100 0.045752
9 12 14 100 0.0547591
10 12 14 100 0.0530849
11 12 14 100 0.0557094
12 12 14 100 0.0544323
13 12 14 100 0.0501432
14 12 14 100 0.195911
0 13 14 100 0.27858
1 13 14 100 0.0202986
2 13 14 100 0.0344721
3 13 14 100 0.0218221
4 13 14 100 0.0338125
5 13 14 100 0.0327577
6 13 14 100 0.0352315
7 13 14 100 0.0525709
8 13 14 100 0.0464992
9 13 14 100 0.0483247
10 13 14 100 0.0566441
11 13 14 100 0.0527558
12 13 14 100 0.0541241
13 13 14 100 0.047561
14 13 14 100 0.184546
0 14 14 100 0.306747
1 14 14 100 0.0202973
2 14 14 100 0.0279259
3 14 14 100 0.0221556
4 14 14 100 0.0334332
5 14 14 100 0.0383103
6 14 14 100 0.0400148
7 14 14 100 0.0415384
8 14 14 100 0.0483301
9 14 14 100 0.0424581
10 14 14 100 0.0450427
11 14 14 100 0.0603685
12 14 14 100 0.0470597
13 14 14 100 0.0454785
14 14 14 100 0.18084
0 15 14 100 0.318634
1 15 14 100 0.0217659
2 15 14 100 0.0276863
3 15 14 100 0.0187766
4 15 14 100 0.0305394
5 15 14 100 0.0353164
6 15 14 100 0.0375524
7 15 14 100 0.0426316
8 15 14 100 0.0412747
9 15 14 100 0.0483164
10 15 14 100 0.0460477
11 15 14 100 0.0464725
12 15 14 100 0.0574784
13 15 14 100 0.0428461
14 15 14 100 0.184661
0 16 14 100 0.350506
1 16 14 100 0.0244786
2 16 14 100 0.0258202
3 16 14 100 0.0204347
4 16 14 100 0.0235263
5 16 14 100 0.0348588
6 16 14 100 0.0387021
7 16 14 100 0.0420894
8 16 14 100 0.0307334
9 16 14 100 0.036611
10 16 14 100 0.041793
11 16 14 100 0.0494298
12 16 14 100 0.0474475
13 16 14 100 0.0466519
14 16 14 100 0.186917
0 17 14 100 0.336009
1 17 14 100 0.0260157
2 17 14 100 0.033089
3 17 14 100 0.0261029
4 17 14 100 0.0294544
5 17 14 100 0.0325534
6 17 14 100 0.0319458
7 17 14 100 0.0374824
8 17 14 100 0.0488034
9 17 14 100 0.0344204
10 17 14 100 0.0518373
11 17 14 100 0.0599821
12 17 14 100 0.0507305
13 17 14 100 0.0447754
14 17 14 100 0.156798
0 18 14 100 0.331013
1 18 14 100 0.0220987
2 18 14 100 0.0234381
3 18 14 100 0.0257478
4 18 14 100 0.0275719
5 18 14 100 0.0192612
6 18 14 100 0.0428048
7 18 14 100 0.0428067
8 18 14 100 0.0355704
9 18 14 100 0.0449035
10 18 14 100 0.0372567
11 18 14 100 0.0739177
12 18 14 100 0.0541689
13 18 14 100 0.0457297
14 18 14 100 0.173711
0 19 14 100 0.287461
1 19 14 100 0.0268294
2 19 14 100 0.0265703
3 19 14 100 0.0302179
4 19 14 100 0.0267456
5 19 14 100 0.030989
6 19 14 100 0.0495746
7 19 14 100 0.0299144
8 19 14 100 0.0256651
9 19 14 100 0.0365737
10 19 14 100 0.0443487
11 19 14 100 0.0708568
12 19 14 100 0.0552389
13 19 14 100 0.0601548
14 19 14 100 0.198859
0 20 14 100 0.389065
1 20 14 100 0.0266944
2 20 14 100 0.0266685
3 20 14 100 0.0133477
4 20 14 100 0.00896627
5 20 14 100 0.0221377
6 20 14 100 0.0489712
7 20 14 100 0.0289961
8 20 14 100 0.0156121
9 20 14 100 0.0399925
10 20 14 100 0.0493002
11 20 14 100 0.0619278
12 20 14 100 0.0588311
13 20 14 100 0.0688471
14 20 14 100 0.140642
0 21 14 100 0.274372
1 21 14 100 0.00762518
2 21 14 100 0.0367347
3 21 14 100 0.0436452
4 21 14 100 0.0222222
5 21 14 100 0.0593816
6 21 14 100 0.0594437
7 21 14 100 0.0222462
8 21 14 100 0.0221536
9 21 14 100 0.00860231
10 21 14 100 0.0653095
11 21 14 100 0.0663718
12 21 14 100 0.0663109
13 21 14 100 0.0671739
14 21 14 100 0.178407
0 22 14 100 0.28484
1 22 14 100 0.0113663
2 22 14 100 0.068135
3 22 14 100 0.026864
4 22 14 100 0.0117556
5 22 14 100 0.0561862
6 22 14 100 0.0407674
7 22 14 100 0.0118155
8 22 14 100 7.35274e-07
9 22 14 100 0.0227273
10 22 14 100 0.0795543
11 22 14 100 0.0568187
12 22 14 100 0.0454558
13 22 14 100 0.0789038
14 22 14 100 0.20481
0 23 14 100 0.370317
1 23 14 100 0.0185185
2 23 14 100 0.0372226
3 23 14 100 0.0556261
5 23 14 100 0.0560219
6 23 14 100 0.0370351
7 23 14 100 0.0365329
8 23 14 100 0.0185184
9 23 14 100 0.0185184
10 23 14 100 0.0370183
11 23 14 100 0.0740748
12 23 14 100 0.0740717
13 23 14 100 0.036871
14 23 14 100 0.129653
0 24 14 100 0.257253
1 24 14 100 3.43269e-05
2 24 14 100 0.0602948
3 24 14 100 0.0603878
4 24 14 100 0.0303021
5 24 14 100 0.0303031
6 24 14 100 0.0297715
7 24 14 100 0.00589205
8 24 14 100 6.93917e-07
9 24 14 100 0.0305324
10 24 14 100 0.0606357
11 24 14 100 0.0990692
12 24 14 100 0.121116
13 24 14 100 7.68336e-05
14 24 14 100 0.21433
0 25 14 100 0.244094
1 25 14 100 0.0391773
2 25 14 100 0.0366829
3 25 14 100 0.113641
4 25 14 100 3.63116e-06
5 25 14 100 0.0384616
6 25 14 100 0.0390754
7 25 14 100 0.00178302
8 25 14 100 0.036407
9 25 14 100 0.0384606
10 25 14 100 0.0383431
11 25 14 100 0.0384616
12 25 14 100 0.0384616
13 25 14 100 5.01516e-06
14 25 14 100 0.296943
0 26 14 100 0.405493
2 26 14 100 0.0588235
5 26 14 100 0.117647
6 26 14 100 0.0582626
9 26 14 100 0.0588532
10 26 14 100 0.0588236
12 26 14 100 0.00636881
13 26 14 100 0.0592643
14 26 14 100 0.176464
0 27 14 100 0.2
2 27 14 100 0.0661886
5 27 14 100 0.133243
6 27 14 100 6.95316e-05
7 27 14 100 0.133366
8 27 14 100 0.00166567
9 27 14 100 0.0666668
10 27 14 100 0.0666012
12 27 14 100 6.55732e-05
13 27 14 100 0.133317
14 27 14 100 0.198817
0 28 14 100 0.111245
2 28 14 100 0.000232354
4 28 14 100 0.11098
5 28 14 100 0.111107
7 28 14 100 1.58558e-06
10 28 14 100 0.111114
11 28 14 100 2.46141e-06
12 28 14 100 0.111111
14 28 14 100 0.444207
0 29 14 100 0.375
3 29 14 100 0.0103936
4 29 14 100 0.114606
5 29 14 100 0.244019
11 29 14 100 0.25
12 29 14 100 0.00598114
0 30 14 100 5.42176e-06
3 30 14 100 1.05958e-05
4 30 14 100 0.24999
6 30 14 100 0.25
12 30 14 100 0.499994
0 31 14 100 3.39705e-06
6 31 14 100 0.669047
13 31 14 100 0.330949
0 32 14 100 4.08401e-06
6 32 14 100 0.666662
14 32 14 100 0.333334
0 33 14 100 0.5
7 33 14 100 0.498716
14 33 14 100 0.00128395
7 34 14 100 0.5
12 34 14 100 0.5
0 35 14 100 1
12 36 14 100 1
0 1 15 100 0.00383204
1 1 15 100 0.453743
2 1 15 100 0.151226
3 1 15 100 0.0513205
4 1 15 100 0.0325829
5 1 15 100 0.0470743
6 1 15 100 0.0293576
7 1 15 100 0.0363191
8 1 15 100 0.0374196
9 1 15 100 0.0224269
10 1 15 100 0.0197828
11 1 15 100 0.012771
12 1 15 100 0.00949032
13 1 15 100 0.00603117
14 1 15 100 0.00656539
15 1 15 100 0.0800571
0 2 15 100 0.0826441
1 2 15 100 0.0895457
2 2 15 100 0.228261
3 2 15 100 0.103428
4 2 15 100 0.0626426
5 2 15 100 0.0566593
6 2 15 100 0.0482324
7 2 15 100 0.0587324
8 2 15 100 0.0399425
9 2 15 100 0.0374991
10 2 15 100 0.028705
11 2 15 100 0.0221077
12 2 15 100 0.021508
13 2 15 100 0.0124294
14 2 15 100 0.0175604
15 2 15 100 0.0901026
0 3 15 100 0.0909496
1 3 15 100 0.052749
2 3 15 100 0.101375
3 3 15 100 0.109959
4 3 15 100 0.0967932
5 3 15 100 0.0809655
6 3 15 100 0.0645679
7 3 15 100 0.0648429
8 3 15 100 0.0555013
9 3 15 100 0.0413678
10 3 15 100 0.0378744
11 3 15 100 0.0307511
12 3 15 100 0.0269184
13 3 15 100 0.0218992
14 3 15 100 0.0234966
15 3 15 100 0.0999882
0 4 15 100 0.117512
1 4 15 100 0.0429515
2 4 15 100 0.0648999
3 4 15 100 0.072092
4 4 15 100 0.079723
5 4 15 100 0.0885991
6 4 15 100 0.0700132
7 4 15 100 0.075565
8 4 15 100 0.0676817
9 4 15 100 0.0519509
10 4 15 100 0.0351376
11 4 15 100 0.0330135
12 4 15 100 0.0317921
13 4 15 100 0.0266334
14 4 15 100 0.0290402
15 4 15 100 0.113395
0 5 15 100 0.156779
1 5 15 100 0.0346818
2 5 15 100 0.0558252
3 5 15 100 0.048283
4 5 15 100 0.0597616
5 5 15 100 0.0799349
6 5 15 100 0.0845602
7 5 15 100 0.0728321
8 5 15 100 0.0702364
9 5 15 100 0.0643336
10 5 15 100 0.0357442
11 5 15 100 0.0368323
12 5 15 100 0.0345049
13 5 15 100 0.0230061
14 5 15 100 0.0288198
15 5 15 100 0.113865
0 6 15 100 0.179754
1 6 15 100 0.0323894
2 6 15 100 0.0496637
3 6 15 100 0.0376355
4 6 15 100 0.0483076
5 6 15 100 0.077219
6 6 15 100 0.0737845
7 6 15 100 0.0747707
8 6 15 100 0.0703355
9 6 15 100 0.0700573
10 6 15 100 0.0473032
11 6 15 100 0.0375979
12 6 15 100 0.0395753
13 6 15 100 0.0271606
14 6 15 100 0.0313968
15 6 15 100 0.103049
0 7 15 100 0.179717
1 7 15 100 0.0275273
2 7 15 100 0.0480853
3 7 15 100 0.0351
4 7 15 100 0.0434491
5 7 15 100 0.0555828
6 7 15 100 0.0670433
7 7 15 100 0.0670819
8 7 15 100 0.0926224
9 7 15 100 0.0668262
10 7 15 100 0.0568115
11 7 15 100 0.0435431
12 7 15 100 0.0421815
13 7 15 100 0.0320933
14 7 15 100 0.0294972
15 7 15 100 0.112838
0 8 15 100 0.15916
1 8 15 100 0.0303559
2 8 15 100 0.0427268
3 8 15 100 0.0327216
4 8 15 100 0.0401815
5 8 15 100 0.0489396
6 8 15 100 0.0597512
7 8 15 100 0.0658194
8 8 15 100 0.0722127
9 8 15 100 0.0767019
10 8 15 100 0.06926
11 8 15 100 0.0505561
12 8 15 100 0.0482017
13 8 15 100 0.0366593
14 8 15 100 0.0403316
15 8 15 100 0.12642
0 9 15 100 0.154621
1 9 15 100 0.0286366
2 9 15 100 0.0386411
3 9 15 100 0.03405
4 9 15 100 0.0352639
5 9 15 100 0.0405869
6 9 15 100 0.0459766
7 9 15 100 0.0563087
8 9 15 100 0.0725636
9 9 15 100 0.0663084
10 9 15 100 0.0707503
11 9 15 100 0.0623534
12 9 15 100 0.0617864
13 9 15 100 0.0481378
14 9 15 100 0.0424604
15 9 15 100 0.141555
0 10 15 100 0.158007
1 10 15 100 0.0231062
2 10 15 100 0.0348489
3 10 15 100 0.0298049
4 10 15 100 0.0316318
5 10 15 100 0.0408067
6 10 15 100 0.0494982
7 10 15 100 0.0520088
8 10 15 100 0.0613639
9 10 15 100 0.0656627
10 10 15 100 0.0680406
11 10 15 100 0.0608656
12 10 15 100 0.0595736
13 10 15 100 0.0556362
14 10 15 100 0.0440859
15 10 15 100 0.165059
0 11 15 100 0.178357
1 11 15 100 0.0250121
2 11 15 100 0.0351975
3 11 15 100 0.0274992
4 11 15 100 0.0298598
5 11 15 100 0.0355008
6 11 15 100 0.0495278
7 11 15 100 0.0490645
8 11 15 100 0.0466165
9 11 15 100 0.0602007
10 11 15 100 0.059607
11 11 15 100 0.0584664
12 11 15 100 0.0657231
13 11 15 100 0.0512731
14 11 15 100 0.0584116
15 11 15 100 0.169683
0 12 15 100 0.205174
1 12 15 100 0.0245501
2 12 15 100 0.0319567
3 12 15 100 0.0243312
4 12 15 100 0.038802
5 12 15 100 0.0341934
6 12 15 100 0.0417661
7 12 15 100 0.0447326
8 12 15 100 0.0540316
9 12 15 100 0.0508646
10 12 15 100 0.0529669
11 12 15 100 0.0533056
12 12 15 100 0.0597731
13 12 15 100 0.0509943
14 12 15 100 0.0568318
15 12 15 100 0.175726
0 13 15 100 0.24135
1 13 15 100 0.0251013
2 13 15 100 0.0359256
3 13 15 100 0.0269547
4 13 15 100 0.0345041
5 13 15 100 0.0325333
6 13 15 100 0.0412361
7 13 15 100 0.0442908
8 13 15 100 0.0406535
9 13 15 100 0.0396308
10 13 15 100 0.0431153
11 13 15 100 0.0494741
12 13 15 100 0.0664318
13 13 15 100 0.0535952
14 13 15 100 0.0523466
15 13 15 100 0.172857
0 14 15 100 0.272808
1 14 15 100 0.023507
2 14 15 100 0.0367364
3 14 15 100 0.0274839
4 14 15 100 0.0369821
5 14 15 100 0.0260137
6 14 15 100 0.0379885
7 14 15 100 0.0350986
8 14 15 100 0.0473278
9 14 15 100 0.0363083
10 14 15 100 0.0439375
11 14 15 100 0.0423671
12 14 15 100 0.065047
13 14 15 100 0.0566567
14 14 15 100 0.0468966
15 14 15 100 0.16484
0 15 15 100 0.300607
1 15 15 100 0.0218821
2 15 15 100 0.0272138
3 15 15 100 0.0267245
4 15 15 100 0.0352351
5 15 15 100 0.0325421
6 15 15 100 0.0316426
7 15 15 100 0.0345616
8 15 15 100 0.0438688
9 15 15 100 0.0345601
10 15 15 100 0.0383206
11 15 15 100 0.0468787
12 15 15 100 0.0462262
13 15 15 100 0.0562957
14 15 15 100 0.0476365
15 15 15 100 0.175805
0 16 15 100 0.326447
1 16 15 100 0.0170548
2 16 15 100 0.0325872
3 16 15 100 0.0200197
4 16 15 100 0.0354166
5 16 15 100 0.0310132
6 16 15 100 0.0237031
7 16 15 100 0.0389258
8 16 15 100 0.0402676
9 16 15 100 0.0360873
10 16 15 100 0.0433972
11 16 15 100 0.0450442
12 16 15 100 0.0502104
13 16 15 100 0.0463523
14 16 15 100 0.0546687
15 16 15 100 0.158805
0 17 15 100 0.306322
1 17 15 100 0.0238448
2 17 15 100 0.0292283
3 17 15 100 0.0263045
4 17 15 100 0.0298892
5 17 15 100 0.0335813
6 17 15 100 0.0271472
7 17 15 100 0.0316015
8 17 15 100 0.037995
9 17 15 100 0.0335877
10 17 15 100 0.0453669
11 17 15 100 0.0595347
12 17 15 100 0.0542336
13 17 15 100 0.0555861
14 17 15 100 0.0455642
15 17 15 100 0.160213
0 18 15 100 0.34481
1 18 15 100 0.0226363
2 18 15 100 0.0212972
3 18 15 100 0.0261289
4 18 15 100 0.0292764
5 18 15 100 0.0270341
6 18 15 100 0.0261065
7 18 15 100 0.0248772
8 18 15 100 0.0406665
9 18 15 100 0.0400344
10 18 15 100 0.0307829
11 18 15 100 0.0487239
12 18 15 100 0.039974
13 18 15 100 0.0660204
14 18 15 100 0.0606747
15 18 15 100 0.150956
0 19 15 100 0.288112
1 19 15 100 0.0206618
2 19 15 100 0.0192533
3 19 15 100 0.0171265
4 19 15 100 0.0414512
5 19 15 100 0.0234362
6 19 15 100 0.0216586
7 19 15 100 0.0288187
8 19 15 100 0.0301048
9 19 15 100 0.0422609
10 19 15 100 0.0312986
11 19 15 100 0.0617714
12 19 15 100 0.0656159
13 19 15 100 0.060943
14 19 15 100 0.0730094
15 19 15 100 0.174478
0 20 15 100 0.331834
1 20 15 100 0.0228116
2 20 15 100 0.0249451
3 20 15 100 0.0210617
4 20 15 100 0.0350448
5 20 15 100 0.0352157
6 20 15 100 0.0208475
7 20 15 100 0.0245242
8 20 15 100 0.0469354
9 20 15 100 0.0245682
10 20 15 100 0.0234147
11 20 15 100 0.0273416
12 20 15 100 0.0787482
13 20 15 100 0.0837182
14 20 15 100 0.0530319
15 20 15 100 0.145957
0 21 15 100 0.285967
1 21 15 100 0.0248722
2 21 15 100 0.0170882
3 21 15 100 0.0121532
4 21 15 100 0.043046
5 21 15 100 0.0155613
6 21 15 100 0.0277437
7 21 15 100 0.0222749
8 21 15 100 0.0349847
9 21 15 100 0.0110487
10 21 15 100 0.0166548
11 21 15 100 0.0502721
12 21 15 100 0.0819104
13 21 15 100 0.0741746
14 21 15 100 0.0403878
15 21 15 100 0.241861
0 22 15 100 0.33141
1 22 15 100 0.0241104
2 22 15 100 0.0402157
3 22 15 100 1.8576e-07
4 22 15 100 0.0322708
5 22 15 100 0.0377721
6 22 15 100 0.0162989
7 22 15 100 0.0161465
8 22 15 100 0.0348028
9 22 15 100 0.0160669
10 22 15 100 0.0402646
11 22 15 100 0.0321357
12 22 15 100 0.0243786
13 22 15 100 0.0882121
14 22 15 100 0.0715619
15 22 15 100 0.194353
0 23 15 100 0.365914
1 23 15 100 0.0234312
2 23 15 100 1.05296e-05
3 23 15 100 0.0462197
4 23 15 100 0.000275194
5 23 15 100 0.0117902
6 23 15 100 0.0346642
7 23 15 100 0.0470376
8 23 15 100 0.0356582
9 23 15 100 0.0114035
10 23 15 100 0.0352145
11 23 15 100 0.0117655
12 23 15 100 0.0470601
13 23 15 100 0.0353608
14 23 15 100 0.0824652
15 23 15 100 0.211729
0 24 15 100 0.163811
1 24 15 100 0.0182459
2 24 15 100 0.018212
3 24 15 100 0.0181818
4 24 15 100 0.0189793
6 24 15 100 0.0533749
7 24 15 100 0.0911287
8 24 15 100 0.0905148
9 24 15 100 0.0183417
10 24 15 100 0.0181816
11 24 15 100 0.0181984
12 24 15 100 0.0545454
13 24 15 100 0.0363618
14 24 15 100 0.0910487
15 24 15 100 0.290874
0 25 15 100 0.217123
1 25 15 100 1.5514e-05
2 25 15 100 1.20015e-06
3 25 15 100 0.0281972
4 25 15 100 1.49795e-06
5 25 15 100 0.0270781
6 25 15 100 0.0272049
7 25 15 100 0.0810768
8 25 15 100 0.108093
9 25 15 100 1.56412e-05
10 25 15 100 0.0296403
11 25 15 100 0.0805006
12 25 15 100 0.081035
13 25 15 100 8.37642e-05
14 25 15 100 0.0539686
15 25 15 100 0.265965
0 26 15 100 0.233684
1 26 15 100 0.0333382
3 26 15 100 0.0665684
4 26 15 100 1.36844e-06
5 26 15 100 0.0333339
6 26 15 100 0.0330485
7 26 15 100 0.133326
8 26 15 100 0.1
9 26 15 100 0.031902
11 26 15 100 0.0333597
12 26 15 100 0.0999985
13 26 15 100 2.97944e-06
14 26 15 100 0.0333333
15 26 15 100 0.168103
0 27 15 100 0.0957188
1 27 15 100 0.0454514
2 27 15 100 1.0025e-05
4 27 15 100 0.0464756
5 27 15 100 0.00314955
6 27 15 100 0.090798
7 27 15 100 0.0909055
8 27 15 100 0.0909095
9 27 15 100 4.80988e-06
10 27 15 100 9.06852e-06
12 27 15 100 0.136351
14 27 15 100 0.0913163
15 27 15 100 0.3089
0 28 15 100 0.134584
1 28 15 100 0.0279005
2 28 15 100 0.00465484
5 28 15 100 0.12461
6 28 15 100 0.000119551
7 28 15 100 0.125
8 28 15 100 0.0624988
9 28 15 100 0.0625583
12 28 15 100 0.107362
13 28 15 100 0.0625032
14 28 15 100 0.0677227
15 28 15 100 0.220486
0 29 15 100 0.230823
1 29 15 100 1.11266e-05
2 29 15 100 0.0768671
4 29 15 100 2.26307e-06
5 29 15 100 0.153846
6 29 15 100 3.93111e-06
9 29 15 100 4.15744e-06
12 29 15 100 0.0769232
13 29 15 100 0.153828
14 29 15 100 0.0769232
15 29 15 100 0.230769
0 30 15 100 0.375136
2 30 15 100 0.124992
6 30 15 100 0.0337451
7 30 15 100 0.0912546
8 30 15 100 8.04146e-06
9 30 15 100 1.35729e-05
12 30 15 100 0.12485
13 30 15 100 0.125
14 30 15 100 0.125
0 31 15 100 0.166667
7 31 15 100 0.166667
13 31 15 100 0.333333
14 31 15 100 0.166667
15 31 15 100 0.166666
0 32 15 100 0.00398211
1 32 15 100 0.00035782
2 32 15 100 0.25
12 32 15 100 0.000188163
13 32 15 100 0.495471
14 32 15 100 0.250001
0 33 15 100 0.259623
5 33 15 100 0.24038
11 33 15 100 3.47327e-06
14 33 15 100 0.250002
15 33 15 100 0.249992
1 34 15 100 1.36023e-05
6 34 15 100 0.5
12 34 15 100 0.25
14 34 15 100 0.249986
0 35 15 100 0.000274971
7 35 15 100 0.333333
12 35 15 100 0.333058
14 35 15 100 0.333333
0 36 15 100 1
11 37 15 100 0.137057
12 37 15 100 0.85228
13 37 15 100 0.0106629
0 38 15 100 0.000262432
12 38 15 100 0.999738
12 39 15 100 1
12 40 15 100 1
12 41 15 100 1
12 42 15 100 1
0 1 16 100 0.00570801
1 1 16 100 0.476216
2 1 16 100 0.141663
3 1 16 100 0.0470635
4 1 16 100 0.0297188
5 1 16 100 0.0414526
6 1 16 100 0.0323978
7 1 16 100 0.0242315
8 1 16 100 0.0330402
9 1 16 100 0.0351806
10 1 16 100 0.0178223
11 1 16 100 0.0152133
12 1 16 100 0.0103107
13 1 16 100 0.00941713
14 1 16 100 0.00980644
15 1 16 100 0.0102293
16 1 16 100 0.0605284
0 2 16 100 0.091996
1 2 16 100 0.100103
2 2 16 100 0.226476
3 2 16 100 0.0950363
4 2 16 100 0.0538971
5 2 16 100 0.0667527
6 2 16 100 0.0620694
7 2 16 100 0.0403636
8 2 16 100 0.0368854
9 2 16 100 0.0442906
10 2 16 100 0.0244767
11 2 16 100 0.0191616
12 2 16 100 0.0184436
13 2 16 100 0.0163705
14 2 16 100 0.0134521
15 2 16 100 0.0109016
16 2 16 100 0.0793235
0 3 16 100 0.0829108
1 3 16 100 0.0566713
2 3 16 100 0.106253
3 3 16 100 0.104193
4 3 16 100 0.0951275
5 3 16 100 0.0863025
6 3 16 100 0.0654703
7 3 16 100 0.0523397
8 3 16 100 0.0633615
9 3 16 100 0.0515167
10 3 16 100 0.0327836
11 3 16 100 0.028804
12 3 16 100 0.0244948
13 3 16 100 0.0259626
14 3 16 100 0.0218085
15 3 16 100 0.0125806
16 3 16 100 0.0894198
0 4 16 100 0.117785
1 4 16 100 0.0455429
2 4 16 100 0.0618758
3 4 16 100 0.0762215
4 4 16 100 0.0848552
5 4 16 100 0.0918583
6 4 16 100 0.069299
7 4 16 100 0.0673996
8 4 16 100 0.0646316
9 4 16 100 0.0515463
10 4 16 100 0.0392486
11 4 16 100 0.0263769
12 4 16 100 0.0225364
13 4 16 100 0.0273102
14 4 16 100 0.0169193
15 4 16 100 0.0222386
16 4 16 100 0.114355
0 5 16 100 0.142177
1 5 16 100 0.0351066
2 5 16 100 0.0559084
3 5 16 100 0.0528749
4 5 16 100 0.0757588
5 5 16 100 0.0801621
6 5 16 100 0.0742194
7 5 16 100 0.0773017
8 5 16 100 0.0681858
9 5 16 100 0.06203
10 5 16 100 0.038015
11 5 16 100 0.0303587
12 5 16 100 0.027994
13 5 16 100 0.0267682
14 5 16 100 0.0224312
15 5 16 100 0.0232862
16 5 16 100 0.107422
0 6 16 100 0.18588
1 6 16 100 0.0280955
2 6 16 100 0.0397339
3 6 16 100 0.0516288
4 6 16 100 0.0429811
5 6 16 100 0.0732732
6 6 16 100 0.0815872
7 6 16 100 0.0727103
8 6 16 100 0.0766271
9 6 16 100 0.0637259
10 6 16 100 0.0379738
11 6 16 100 0.0294737
12 6 16 100 0.0273902
13 6 16 100 0.0287002
14 6 16 100 0.0212526
15 6 16 100 0.026434
16 6 16 100 0.112532
0 7 16 100 0.180935
1 7 16 100 0.0343089
2 7 16 100 0.0399009
3 7 16 100 0.0307139
4 7 16 100 0.0460871
5 7 16 100 0.0653143
6 7 16 100 0.0734868
7 7 16 100 0.0687205
8 7 16 100 0.0666218
9 7 16 100 0.0753071
10 7 16 100 0.0456217
11 7 16 100 0.0373019
12 7 16 100 0.0320073
13 7 16 100 0.044161
14 7 16 100 0.0260869
15 7 16 100 0.0255315
16 7 16 100 0.107893
0 8 16 100 0.188786
1 8 16 100 0.026805
2 8 16 100 0.03722
3 8 16 100 0.0263801
4 8 16 100 0.0342044
5 8 16 100 0.0443503
6 8 16 100 0.0566003
7 8 16 100 0.0643339
8 8 16 100 0.0758345
9 8 16 100 0.0704796
10 8 16 100 0.062251
11 8 16 100 0.0492879
12 8 16 100 0.0398169
13 8 16 100 0.0467801
14 8 16 100 0.030686
15 8 16 100 0.0308403
16 8 16 100 0.115344
0 9 16 100 0.155101
1 9 16 100 0.0276183
2 9 16 100 0.0354743
3 9 16 100 0.0260541
4 9 16 100 0.0356841
5 9 16 100 0.0416396
6 9 16 100 0.05292
7 9 16 100 0.0541012
8 9 16 100 0.0662584
9 9 16 100 0.0675686
10 9 16 100 0.0604497
11 9 16 100 0.064993
12 9 16 100 0.0476715
13 9 16 100 0.0558173
14 9 16 100 0.0327517
15 9 16 100 0.0416656
16 9 16 100 0.134232
0 10 16 100 0.13006
1 10 16 100 0.0279558
2 10 16 100 0.0332947
3 10 16 100 0.0269142
4 10 16 100 0.041404
5 10 16 100 0.0445996
6 10 16 100 0.0433341
7 10 16 100 0.0495824
8 10 16 100 0.0645976
9 10 16 100 0.0624525
10 10 16 100 0.0574387
11 10 16 100 0.0599324
12 10 16 100 0.065573
13 10 16 100 0.053575
14 10 16 100 0.0438316
15 10 16 100 0.0466349
16 10 16 100 0.148819
0 11 16 100 0.155961
1 11 16 100 0.023098
2 11 16 100 0.028967
3 11 16 100 0.0268082
4 11 16 100 0.0329376
5 11 16 100 0.0425774
6 11 16 100 0.0425166
7 11 16 100 0.0442593
8 11 16 100 0.0543414
9 11 16 100 0.0675865
10 11 16 100 0.0512678
11 11 16 100 0.0602272
12 11 16 100 0.0627562
13 11 16 100 0.0617819
14 11 16 100 0.0460934
15 11 16 100 0.0468071
16 11 16 100 0.152013
0 12 16 100 0.19433
1 12 16 100 0.0264579
2 12 16 100 0.0292052
3 12 16 100 0.0198689
4 12 16 100 0.0297271
5 12 16 100 0.0329561
6 12 16 100 0.0362226
7 12 16 100 0.0401496
8 12 16 100 0.0510824
9 12 16 100 0.0553088
10 12 16 100 0.0460579
11 12 16 100 0.057707
12 12 16 100 0.0502115
13 12 16 100 0.0639155
14 12 16 100 0.0430417
15 12 16 100 0.0484637
16 12 16 100 0.175294
0 13 16 100 0.21302
1 13 16 100 0.0217762
2 13 16 100 0.0284085
3 13 16 100 0.0229228
4 13 16 100 0.0332246
5 13 16 100 0.0324343
6 13 16 100 0.0310043
7 13 16 100 0.0402638
8 13 16 100 0.0346709
9 13 16 100 0.045298
10 13 16 100 0.0449931
11 13 16 100 0.0483489
12 13 16 100 0.0549773
13 13 16 100 0.0676201
14 13 16 100 0.0492097
15 13 16 100 0.0498319
16 13 16 100 0.181995
0 14 16 100 0.257878
1 14 16 100 0.0177388
2 14 16 100 0.0207778
3 14 16 100 0.0227177
4 14 16 100 0.0269356
5 14 16 100 0.0399125
6 14 16 100 0.0369263
7 14 16 100 0.0266545
8 14 16 100 0.0350744
9 14 16 100 0.0415085
10 14 16 100 0.0433239
11 14 16 100 0.0431207
12 14 16 100 0.0489701
13 14 16 100 0.0589545
14 14 16 100 0.0492823
15 14 16 100 0.0530288
16 14 16 100 0.177196
0 15 16 100 0.257154
1 15 16 100 0.0200508
2 15 16 100 0.0263716
3 15 16 100 0.025361
4 15 16 100 0.0275546
5 15 16 100 0.0317205
6 15 16 100 0.0355169
7 15 16 100 0.0269793
8 15 16 100 0.0304779
9 15 16 100 0.0445163
10 15 16 100 0.0387804
11 15 16 100 0.0481134
12 15 16 100 0.0544323
13 15 16 100 0.0605936
14 15 16 100 0.0460658
15 15 16 100 0.053375
16 15 16 100 0.172937
0 16 16 100 0.332878
1 16 16 100 0.0207254
2 16 16 100 0.0245612
3 16 16 100 0.0190066
4 16 16 100 0.0285775
5 16 16 100 0.0200224
6 16 16 100 0.03661
7 16 16 100 0.0223997
8 16 16 100 0.0285025
9 16 16 100 0.0355239
10 16 16 100 0.03143
11 16 16 100 0.0407809
12 16 16 100 0.0486942
13 16 16 100 0.0412819
14 16 16 100 0.0583101
15 16 16 100 0.0411685
16 16 16 100 0.169527
0 17 16 100 0.32184
1 17 16 100 0.0234971
2 17 16 100 0.0203431
3 17 16 100 0.0240302
4 17 16 100 0.0267819
5 17 16 100 0.0248483
6 17 16 100 0.0320581
7 17 16 100 0.020806
8 17 16 100 0.0319367
9 17 16 100 0.0330463
10 17 16 100 0.0347489
11 17 16 100 0.0332173
12 17 16 100 0.0430346
13 17 16 100 0.0558605
14 17 16 100 0.0546714
15 17 16 100 0.0575941
16 17 16 100 0.161685
0 18 16 100 0.315876
1 18 16 100 0.0129226
2 18 16 100 0.0188723
3 18 16 100 0.0242482
4 18 16 100 0.0235567
5 18 16 100 0.0259693
6 18 16 100 0.0253608
7 18 16 100 0.0220006
8 18 16 100 0.0179721
9 18 16 100 0.0400905
10 18 16 100 0.0374135
11 18 16 100 0.0321324
12 18 16 100 0.0547633
13 18 16 100 0.052286
14 18 16 100 0.0558101
15 18 16 100 0.0512496
16 18 16 100 0.189476
0 19 16 100 0.346598
1 19 16 100 0.0170702
2 19 16 100 0.0137301
3 19 16 100 0.0251331
4 19 16 100 0.0225204
5 19 16 100 0.0228909
6 19 16 100 0.0315663
7 19 16 100 0.0170594
8 19 16 100 0.0201459
9 19 16 100 0.0396722
10 19 16 100 0.0417966
11 19 16 100 0.0275606
12 19 16 100 0.0439525
13 19 16 100 0.0376041
14 19 16 100 0.0535452
15 19 16 100 0.042261
16 19 16 100 0.196894
0 20 16 100 0.29322
1 20 16 100 0.0221047
2 20 16 100 0.0182214
3 20 16 100 0.0344794
4 20 16 100 0.0251691
5 20 16 100 0.0284205
6 20 16 100 0.033982
7 20 16 100 0.0254242
8 20 16 100 0.0160339
9 20 16 100 0.0335892
10 20 16 100 0.050154
11 20 16 100 0.0349038
12 20 16 100 0.0616969
13 20 16 100 0.041936
14 20 16 100 0.0533484
15 20 16 100 0.0287065
16 20 16 100 0.19861
0 21 16 100 0.285417
1 21 16 100 0.0181074
2 21 16 100 0.0129474
3 21 16 100 0.0406421
4 21 16 100 0.026769
5 21 16 100 0.0271475
6 21 16 100 0.0322092
7 21 16 100 0.0172544
8 21 16 100 0.0225792
9 21 16 100 0.0362202
10 21 16 100 0.0487334
11 21 16 100 0.0319841
12 21 16 100 0.0675712
13 21 16 100 0.0241088
14 21 16 100 0.081231
15 21 16 100 0.0335452
16 21 16 100 0.193533
0 22 16 100 0.346558
1 22 16 100 0.012763
2 22 16 100 0.0319871
3 22 16 100 0.0256367
4 22 16 100 0.00653891
5 22 16 100 0.0128189
6 22 16 100 0.0320854
7 22 16 100 0.00635538
8 22 16 100 0.00645496
9 22 16 100 0.0456102
10 22 16 100 0.0476041
11 22 16 100 0.0572568
12 22 16 100 0.0392673
13 22 16 100 0.0606919
14 22 16 100 0.0448723
15 22 16 100 0.0575369
16 22 16 100 0.165962
0 23 16 100 0.226843
1 23 16 100 5.35961e-05
2 23 16 100 0.0283451
3 23 16 100 0.0217444
4 23 16 100 0.0102511
5 23 16 100 0.0471704
6 23 16 100 0.0377301
7 23 16 100 0.00956469
8 23 16 100 0.0286783
9 23 16 100 0.0373145
10 23 16 100 0.063086
11 23 16 100 0.0646242
12 23 16 100 0.0671026
13 23 16 100 0.0658498
14 23 16 100 0.0635589
15 23 16 100 0.0397859
16 23 16 100 0.188297
0 24 16 100 0.212788
1 24 16 100 0.0252676
2 24 16 100 0.0394821
3 24 16 100 0.0131846
4 24 16 100 0.0125379
5 24 16 100 0.0384577
6 24 16 100 0.071135
7 24 16 100 0.0472419
8 24 16 100 0.0378133
9 24 16 100 0.0262971
10 24 16 100 0.0262988
11 24 16 100 0.0657342
12 24 16 100 0.0663329
13 24 16 100 0.0395091
14 24 16 100 0.0789044
15 24 16 100 0.0543416
16 24 16 100 0.144673
0 25 16 100 0.216596
1 25 16 100 0.0167303
2 25 16 100 0.099861
3 25 16 100 0.016642
4 25 16 100 2.61405e-07
5 25 16 100 0.0333214
6 25 16 100 0.0667088
7 25 16 100 0.0499459
8 25 16 100 0.0167134
9 25 16 100 8.27702e-05
10 25 16 100 0.0168951
11 25 16 100 0.0333657
12 25 16 100 0.0666671
13 25 16 100 0.00446033
14 25 16 100 0.0333243
15 25 16 100 0.0499454
16 25 16 100 0.27874
0 26 16 100 0.234088
2 26 16 100 0.0642345
3 26 16 100 0.0210807
4 26 16 100 0.0212751
5 26 16 100 0.0489477
6 26 16 100 0.069889
7 26 16 100 0.0544087
8 26 16 100 5.59885e-05
9 26 16 100 4.34978e-05
10 26 16 100 0.0212386
11 26 16 100 0.0213336
12 26 16 100 0.0638253
13 26 16 100 0.0425279
14 26 16 100 0.0638459
15 26 16 100 0.0637881
16 26 16 100 0.209418
0 27 16 100 0.210732
1 27 16 100 0.0264979
2 27 16 100 0.0263158
4 27 16 100 0.052631
5 27 16 100 0.0263158
6 27 16 100 0.103474
7 27 16 100 0.0268012
8 27 16 100 0.0284057
9 27 16 100 0.000354574
10 27 16 100 0.0528503
11 27 16 100 0.0262805
12 27 16 100 0.131166
13 27 16 100 0.0263163
15 27 16 100 0.052277
16 27 16 100 0.209581
0 28 16 100 0.158765
1 28 16 100 1.32101e-06
2 28 16 100 0.0799999
3 28 16 100 3.46347e-05
5 28 16 100 0.12
6 28 16 100 0.0800028
7 28 16 100 0.0400048
8 28 16 100 0.080001
9 28 16 100 0.000902962
11 28 16 100 0.0400001
12 28 16 100 0.119988
13 28 16 100 0.0400001
14 28 16 100 2.97189e-06
15 28 16 100 0.0803054
16 28 16 100 0.159991
0 29 16 100 0.175811
2 29 16 100 0.00113795
3 29 16 100 0.0555555
5 29 16 100 0.0555556
6 29 16 100 0.0555259
8 29 16 100 0.0555555
9 29 16 100 0.11111
11 29 16 100 0.0555555
12 29 16 100 0.0947014
13 29 16 100 0.0516818
15 29 16 100 0.111096
16 29 16 100 0.176714
0 30 16 100 0.184258
2 30 16 100 9.62441e-06
3 30 16 100 0.0909074
6 30 16 100 0.000188563
10 30 16 100 0.00115523
11 30 16 100 0.0880197
12 30 16 100 0.17813
13 30 16 100 0.0909095
15 30 16 100 0.0909094
16 30 16 100 0.275513
0 31 16 100 0.214379
2 31 16 100 0.098249
3 31 16 100 0.1
4 31 16 100 0.1
5 31 16 100 0.00189487
9 31 16 100 0.2
12 31 16 100 0.0998225
13 31 16 100 3.49834e-06
14 31 16 100 1.54435e-05
15 31 16 100 8.33765e-06
16 31 16 100 0.185627
0 32 16 100 4.96323e-06
3 32 16 100 0.125
5 32 16 100 0.124997
9 32 16 100 0.125
14 32 16 100 1.95441e-05
16 32 16 100 0.624978
0 33 16 100 0.250371
3 33 16 100 0.125
6 33 16 100 0.125
7 33 16 100 0.116315
13 33 16 100 5.79202e-05
15 33 16 100 2.51084e-05
16 33 16 100 0.38323
0 34 16 100 0.600001
15 34 16 100 0.199999
16 34 16 100 0.2
0 35 16 100 0.500131
11 35 16 100 0.3951
16 35 16 100 0.104769
11 36 16 100 0.5
14 36 16 100 0.5
11 37 16 100 0.5
14 37 16 100 0.438299
16 37 16 100 0.0617011
0 38 16 100 0.500745
11 38 16 100 0.495218
16 38 16 100 0.00403771
0 1 17 100 0.00272202
1 1 17 100 0.451657
2 1 17 100 0.156618
3 1 17 100 0.051344
4 1 17 100 0.0394674
5 1 17 100 0.0325373
6 1 17 100 0.0309523
7 1 17 100 0.0292013
8 1 17 100 0.026058
9 1 17 100 0.0267377
10 1 17 100 0.0253235
11 1 17 100 0.0115275
12 1 17 100 0.0114747
13 1 17 100 0.0116175
14 1 17 100 0.0119756
15 1 17 100 0.00472751
16 1 17 100 0.0066516
17 1 17 100 0.0694072
0 2 17 100 0.0889695
1 2 17 100 0.104268
2 2 17 100 0.227261
3 2 17 100 0.106214
4 2 17 100 0.0558616
5 2 17 100 0.0497036
6 2 17 100 0.0509182
7 2 17 100 0.0448198
8 2 17 100 0.0345863
9 2 17 100 0.0385101
10 2 17 100 0.0329739
11 2 17 100 0.0224293
12 2 17 100 0.0159754
13 2 17 100 0.0173128
14 2 17 100 0.0147228
15 2 17 100 0.0120771
16 2 17 100 0.00795089
17 2 17 100 0.0754458
0 3 17 100 0.0901818
1 3 17 100 0.0596524
2 3 17 100 0.105087
3 3 17 100 0.10601
4 3 17 100 0.0893224
5 3 17 100 0.07489
6 3 17 100 0.0647911
7 3 17 100 0.0633844
8 3 17 100 0.0451189
9 3 17 100 0.0501447
10 3 17 100 0.0379188
11 3 17 100 0.0287939
12 3 17 100 0.0218053
13 3 17 100 0.0221452
14 3 17 100 0.0205742
15 3 17 100 0.0115992
16 3 17 100 0.0134075
17 3 17 100 0.0951732
0 4 17 100 0.125497
1 4 17 100 0.0441799
2 4 17 100 0.0651107
3 4 17 100 0.0791385
4 4 17 100 0.0790821
5 4 17 100 0.0744387
6 4 17 100 0.06817
7 4 17 100 0.062242
8 4 17 100 0.0610254
9 4 17 100 0.0576245
10 4 17 100 0.0458688
11 4 17 100 0.0318798
12 4 17 100 0.0257364
13 4 17 100 0.0262356
14 4 17 100 0.0203387
15 4 17 100 0.0134018
16 4 17 100 0.0179922
17 4 17 100 0.102038
0 5 17 100 0.156878
1 5 17 100 0.0344485
2 5 17 100 0.0574519
3 5 17 100 0.06056
4 5 17 100 0.0633924
5 5 17 100 0.0700451
6 5 17 100 0.0755522
7 5 17 100 0.0685539
8 5 17 100 0.0723489
9 5 17 100 0.0471234
10 5 17 100 0.0488822
11 5 17 100 0.0352601
12 5 17 100 0.0325532
13 5 17 100 0.0219842
14 5 17 100 0.0270528
15 5 17 100 0.0175115
16 5 17 100 0.0158144
17 5 17 100 0.0945875
0 6 17 100 0.177876
1 6 17 100 0.0299347
2 6 17 100 0.0488407
3 6 17 100 0.0491093
4 6 17 100 0.0403175
5 6 17 100 0.0624689
6 6 17 100 0.0713421
7 6 17 100 0.0807676
8 6 17 100 0.06289
9 6 17 100 0.0650574
10 6 17 100 0.0601387
11 6 17 100 0.0369367
12 6 17 100 0.0311816
13 6 17 100 0.0276958
14 6 17 100 0.0294153
15 6 17 100 0.0182098
16 6 17 100 0.0181861
17 6 17 100 0.0896322
0 7 17 100 0.192804
1 7 17 100 0.023544
2 7 17 100 0.0466546
3 7 17 100 0.0344011
4 7 17 100 0.0393419
5 7 17 100 0.0551272
6 7 17 100 0.0605426
7 7 17 100 0.0712503
8 7 17 100 0.0699232
9 7 17 100 0.0663828
10 7 17 100 0.0636269
11 7 17 100 0.0467041
12 7 17 100 0.0340238
13 7 17 100 0.0385868
14 7 17 100 0.0264065
15 7 17 100 0.0178607
16 7 17 100 0.0187783
17 7 17 100 0.0940416
0 8 17 100 0.180077
1 8 17 100 0.0245678
2 8 17 100 0.0400158
3 8 17 100 0.0265053
4 8 17 100 0.0372496
5 8 17 100 0.0356906
6 8 17 100 0.0639317
7 8 17 100 0.0683598
8 8 17 100 0.0640696
9 8 17 100 0.0641143
10 8 17 100 0.0656581
11 8 17 100 0.0568978
12 8 17 100 0.0426282
13 8 17 100 0.0379291
14 8 17 100 0.0323485
15 8 17 100 0.0319339
16 8 17 100 0.0255041
17 8 17 100 0.102519
0 9 17 100 0.175384
1 9 17 100 0.0260777
2 9 17 100 0.0368302
3 9 17 100 0.0264693
4 9 17 100 0.033071
5 9 17 100 0.0367316
6 9 17 100 0.0565326
7 9 17 100 0.0574108
8 9 17 100 0.0710809
9 9 17 100 0.0682847
10 9 17 100 0.0717057
11 9 17 100 0.0569264
12 9 17 100 0.0389791
13 9 17 100 0.0490304
14 9 17 100 0.0340826
15 9 17 100 0.0254871
16 9 17 100 0.0242787
17 9 17 100 0.111638
0 10 17 100 0.16002
1 10 17 100 0.0214081
2 10 17 100 0.0390884
3 10 17 100 0.0252696
4 10 17 100 0.0234062
5 10 17 100 0.0381489
6 10 17 100 0.046487
7 10 17 100 0.0468668
8 10 17 100 0.05798
9 10 17 100 0.0642723
10 10 17 100 0.071179
11 10 17 100 0.0696787
12 10 17 100 0.0524719
13 10 17 100 0.0538931
14 10 17 100 0.0415032
15 10 17 100 0.0300845
16 10 17 100 0.0292907
17 10 17 100 0.128952
0 11 17 100 0.154524
1 11 17 100 0.0234611
2 11 17 100 0.0377952
3 11 17 100 0.0204463
4 11 17 100 0.0322127
5 11 17 100 0.0311324
6 11 17 100 0.0421069
7 11 17 100 0.0386958
8 11 17 100 0.0469065
9 11 17 100 0.063495
10 11 17 100 0.0625597
11 11 17 100 0.0667408
12 11 17 100 0.0560083
13 11 17 100 0.0531878
14 11 17 100 0.0465601
15 11 17 100 0.0382311
16 11 17 100 0.0373588
17 11 17 100 0.148577
0 12 17 100 0.144889
1 12 17 100 0.0156
2 12 17 100 0.0331217
3 12 17 100 0.0249298
4 12 17 100 0.025818
5 12 17 100 0.0270952
6 12 17 100 0.0391225
7 12 17 100 0.0373977
8 12 17 100 0.0478424
9 12 17 100 0.0541126
10 12 17 100 0.0521056
11 12 17 100 0.0645213
12 12 17 100 0.0656434
13 12 17 100 0.0629162
14 12 17 100 0.05374
15 12 17 100 0.0464017
16 12 17 100 0.0400675
17 12 17 100 0.164676
0 13 17 100 0.179938
1 13 17 100 0.020631
2 13 17 100 0.0335277
3 13 17 100 0.0264503
4 13 17 100 0.0234493
5 13 17 100 0.0334981
6 13 17 100 0.0372893
7 13 17 100 0.0347199
8 13 17 100 0.0354017
9 13 17 100 0.0505067
10 13 17 100 0.0529934
11 13 17 100 0.049721
12 13 17 100 0.0566009
13 13 17 100 0.0600423
14 13 17 100 0.0576033
15 13 17 100 0.0434148
16 13 17 100 0.0404903
17 13 17 100 0.163722
0 14 17 100 0.206516
1 14 17 100 0.0176555
2 14 17 100 0.0292212
3 14 17 100 0.0213612
4 14 17 100 0.0227628
5 14 17 100 0.0313555
6 14 17 100 0.0305825
7 14 17 100 0.0311172
8 14 17 100 0.0467348
9 14 17 100 0.0460618
10 14 17 100 0.0381775
11 14 17 100 0.0572036
12 14 17 100 0.0463879
13 14 17 100 0.0536759
14 14 17 100 0.0541564
15 14 17 100 0.0410807
16 14 17 100 0.0476671
17 14 17 100 0.178282
0 15 17 100 0.232066
1 15 17 100 0.0121807
2 15 17 100 0.0285933
3 15 17 100 0.0212584
4 15 17 100 0.0213031
5 15 17 100 0.0313252
6 15 17 100 0.0350091
7 15 17 100 0.031554
8 15 17 100 0.035249
9 15 17 100 0.0351058
10 15 17 100 0.0384867
11 15 17 100 0.0450039
12 15 17 100 0.0426179
13 15 17 100 0.051783
14 15 17 100 0.0598499
15 15 17 100 0.0419441
16 15 17 100 0.0569706
17 15 17 100 0.179699
0 16 17 100 0.290855
1 16 17 100 0.0088493
2 16 17 100 0.0292274
3 16 17 100 0.0184367
4 16 17 100 0.0241881
5 16 17 100 0.0204356
6 16 17 100 0.0270898
7 16 17 100 0.0267201
8 16 17 100 0.0306239
9 16 17 100 0.0390734
10 16 17 100 0.0452929
11 16 17 100 0.0386885
12 16 17 100 0.0466928
13 16 17 100 0.0467026
14 16 17 100 0.0510592
15 16 17 100 0.0420483
16 16 17 100 0.0439651
17 16 17 100 0.170052
0 17 17 100 0.295457
1 17 17 100 0.00699282
2 17 17 100 0.0268713
3 17 17 100 0.0268636
4 17 17 100 0.0238725
5 17 17 100 0.0246561
6 17 17 100 0.0271368
7 17 17 100 0.0287439
8 17 17 100 0.0287488
9 17 17 100 0.0376574
10 17 17 100 0.0430957
11 17 17 100 0.0391157
12 17 17 100 0.0393042
13 17 17 100 0.0411631
14 17 17 100 0.0570386
15 17 17 100 0.0389101
16 17 17 100 0.0490026
17 17 17 100 0.16537
0 18 17 100 0.291211
1 18 17 100 0.00676058
2 18 17 100 0.0280691
3 18 17 100 0.0255427
4 18 17 100 0.026378
5 18 17 100 0.0342427
6 18 17 100 0.0252476
7 18 17 100 0.0242816
8 18 17 100 0.0355397
9 18 17 100 0.0329032
10 18 17 100 0.0298432
11 18 17 100 0.046524
12 18 17 100 0.0418542
13 18 17 100 0.0408379
14 18 17 100 0.0432232
15 18 17 100 0.0452507
16 18 17 100 0.0583859
17 18 17 100 0.163905
0 19 17 100 0.291552
1 19 17 100 0.0205363
2 19 17 100 0.0311964
3 19 17 100 0.0245609
4 19 17 100 0.0257982
5 19 17 100 0.0310738
6 19 17 100 0.023855
7 19 17 100 0.0293237
8 19 17 100 0.0275516
9 19 17 100 0.0375393
10 19 17 100 0.0331241
11 19 17 100 0.033346
12 19 17 100 0.043928
13 19 17 100 0.035562
14 19 17 100 0.0465924
15 19 17 100 0.0436803
16 19 17 100 0.0465831
17 19 17 100 0.174197
0 20 17 100 0.295663
1 20 17 100 0.00830108
2 20 17 100 0.0276939
3 20 17 100 0.0201086
4 20 17 100 0.0324111
5 20 17 100 0.0220856
6 20 17 100 0.015158
7 20 17 100 0.0243862
8 20 17 100 0.0342936
9 20 17 100 0.0502462
10 20 17 100 0.0225017
11 20 17 100 0.0331801
12 20 17 100 0.0372406
13 20 17 100 0.0475382
14 20 17 100 0.0424981
15 20 17 100 0.0432368
16 20 17 100 0.0633438
17 20 17 100 0.180114
0 21 17 100 0.292007
1 21 17 100 0.0172526
2 21 17 100 0.0248452
3 21 17 100 0.0234557
4 21 17 100 0.0285896
5 21 17 100 0.0316536
6 21 17 100 0.0214843
7 21 17 100 0.0176884
8 21 17 100 0.0281557
9 21 17 100 0.0371515
10 21 17 100 0.0182986
11 21 17 100 0.027057
12 21 17 100 0.0415782
13 21 17 100 0.0246568
14 21 17 100 0.0528629
15 21 17 100 0.0561471
16 21 17 100 0.0304386
17 21 17 100 0.226677
0 22 17 100 0.307577
1 22 17 100 0.0148589
2 22 17 100 0.0206414
3 22 17 100 0.0194283
4 22 17 100 0.0336145
5 22 17 100 0.049658
6 22 17 100 0.0148507
7 22 17 100 0.019894
8 22 17 100 0.0229785
9 22 17 100 0.0442998
10 22 17 100 0.0250176
11 22 17 100 0.0296971
12 22 17 100 0.0346755
13 22 17 100 0.0344015
14 22 17 100 0.0593498
15 22 17 100 0.0495309
16 22 17 100 0.0297068
17 22 17 100 0.18982
0 23 17 100 0.350013
1 23 17 100 0.0270497
2 23 17 100 0.0438353
3 23 17 100 2.2537e-05
4 23 17 100 4.97129e-05
5 23 17 100 0.0135893
6 23 17 100 0.0136996
7 23 17 100 0.0351856
8 23 17 100 0.0134191
9 23 17 100 0.054289
10 23 17 100 0.0538825
11 23 17 100 0.0200989
12 23 17 100 0.022801
13 23 17 100 0.0412539
14 23 17 100 0.0498414
15 23 17 100 0.020287
16 23 17 100 0.0732824
17 23 17 100 0.1674
0 24 17 100 0.310618
1 24 17 100 0.0358909
2 24 17 100 0.0116016
3 24 17 100 1.83697e-06
4 24 17 100 0.0119048
5 24 17 100 0.0119047
6 24 17 100 0.0238672
7 24 17 100 0.0357403
8 24 17 100 0.0346754
9 24 17 100 0.0473222
10 24 17 100 0.0357216
11 24 17 100 0.0480522
12 24 17 100 0.0477817
13 24 17 100 0.0595401
14 24 17 100 0.0475955
15 24 17 100 0.0475824
16 24 17 100 0.0593942
17 24 17 100 0.130806
0 25 17 100 0.302169
1 25 17 100 0.0190156
2 25 17 100 1.97835e-05
3 25 17 100 0.0187695
4 25 17 100 0.0188697
5 25 17 100 0.0342441
6 25 17 100 0.0191222
8 25 17 100 0.0189451
9 25 17 100 0.0377673
10 25 17 100 0.0565887
11 25 17 100 0.018518
12 25 17 100 0.0566038
13 25 17 100 0.0377348
14 25 17 100 0.0753628
15 25 17 100 0.0562077
16 25 17 100 0.0938505
17 25 17 100 0.136212
0 26 17 100 0.245118
1 26 17 100 0.0303029
3 26 17 100 0.000149912
4 26 17 100 0.0303031
5 26 17 100 0.0908707
6 26 17 100 0.000222287
7 26 17 100 0.0151171
9 26 17 100 0.0303045
10 26 17 100 0.0301869
11 26 17 100 0.0300759
12 26 17 100 0.0724947
13 26 17 100 1.17819e-06
15 26 17 100 0.0909035
16 26 17 100 0.0308301
17 26 17 100 0.303119
0 27 17 100 0.190596
5 27 17 100 0.0476191
9 27 17 100 0.0952015
10 27 17 100 0.0476191
11 27 17 100 0.0477057
12 27 17 100 0.0952382
14 27 17 100 0.0952378
15 27 17 100 0.0476191
16 27 17 100 0.0952381
17 27 17 100 0.237926
0 28 17 100 0.214832
1 28 17 100 0.0666542
5 28 17 100 0.133332
8 28 17 100 1.73655e-06
9 28 17 100 0.0666668
11 28 17 100 0.0666668
12 28 17 100 0.0633033
13 28 17 100 0.0518118
16 28 17 100 0.136696
17 28 17 100 0.200035
0 29 17 100 0.147198
1 29 17 100 0.0212114
5 29 17 100 0.0812651
8 29 17 100 2.41791e-05
9 29 17 100 0.0834649
11 29 17 100 0.0832016
12 29 17 100 0.166667
13 29 17 100 0.164924
15 29 17 100 0.0833334
16 29 17 100 0.0833333
17 29 17 100 0.0853775
0 30 17 100 0.300435
3 30 17 100 0.011589
6 30 17 100 0.1
8 30 17 100 0.101639
11 30 17 100 0.1865
14 30 17 100 0.0999817
17 30 17 100 0.199856
0 31 17 100 0.000256996
7 31 17 100 0.00127204
8 31 17 100 0.124824
9 31 17 100 0.248589
11 31 17 100 0.125
12 31 17 100 0.124978
13 31 17 100 0.125
16 31 17 100 0.125
17 31 17 100 0.12508
0 32 17 100 0.153753
6 32 17 100 0.142855
11 32 17 100 0.142863
16 32 17 100 0.131957
17 32 17 100 0.428573
0 33 17 100 0.210182
9 33 17 100 0.123149
10 33 17 100 0.166667
12 33 17 100 0.000135303
13 33 17 100 0.000148734
16 33 17 100 0.166541
17 33 17 100 0.333177
0 34 17 100 0.167082
5 34 17 100 0.166667
11 34 17 100 0.166667
17 34 17 100 0.499585
0 35 17 100 2.47855e-06
5 35 17 100 0.2
15 35 17 100 0.399997
17 35 17 100 0.4
0 36 17 100 0.250355
4 36 17 100 2.2211e-05
12 36 17 100 0.249999
13 36 17 100 0.249996
17 36 17 100 0.249627
0 37 17 100 4.85309e-05
15 37 17 100 0.333286
17 37 17 100 0.666666
0 38 17 100 0.000151608
15 38 17 100 0.991139
17 38 17 100 0.00870889
15 39 17 100 1
0 40 17 100 1
15 41 17 100 1
0 42 17 100 2.60861e-05
3 42 17 100 0.000256875
15 42 17 100 0.273689
17 42 17 100 0.726028
0 43 17 100 0.0116928
3 43 17 100 0.988307
0 44 17 100 1
3 45 17 100 0.197728
15 45 17 100 0.802272
0 1 18 100 0.00481198
1 1 18 100 0.44806
2 1 18 100 0.140338
3 1 18 100 0.0490807
4 1 18 100 0.0451295
5 1 18 100 0.0360425
6 1 18 100 0.0291217
7 1 18 100 0.0284867
8 1 18 100 0.0281309
9 1 18 100 0.0214141
10 1 18 100 0.0186489
11 1 18 100 0.0187468
12 1 18 100 0.00848005
13 1 18 100 0.0108829
14 1 18 100 0.00679806
15 1 18 100 0.0158109
16 1 18 100 0.00506835
17 1 18 100 0.0109415
18 1 18 100 0.0740064
0 2 18 100 0.0901811
1 2 18 100 0.103769
2 2 18 100 0.249734
3 2 18 100 0.0906264
4 2 18 100 0.0563595
5 2 18 100 0.0525542
6 2 18 100 0.050242
7 2 18 100 0.0448881
8 2 18 100 0.0368526
9 2 18 100 0.0290974
10 2 18 100 0.0256484
11 2 18 100 0.021333
12 2 18 100 0.0156346
13 2 18 100 0.0135556
14 2 18 100 0.0120875
15 2 18 100 0.0191385
16 2 18 100 0.00708516
17 2 18 100 0.0143301
18 2 18 100 0.0668826
0 3 18 100 0.0919774
1 3 18 100 0.0489728
2 3 18 100 0.0936835
3 3 18 100 0.122842
4 3 18 100 0.0969741
5 3 18 100 0.0679429
6 3 18 100 0.0630325
7 3 18 100 0.0642793
8 3 18 100 0.0513126
9 3 18 100 0.04388
10 3 18 100 0.0325418
11 3 18 100 0.0311776
12 3 18 100 0.0297408
13 3 18 100 0.0150702
14 3 18 100 0.0133431
15 3 18 100 0.0211505
16 3 18 100 0.00985497
17 3 18 100 0.0151325
18 3 18 100 0.0870912
0 4 18 100 0.122907
1 4 18 100 0.0461897
2 4 18 100 0.0589375
3 4 18 100 0.0639297
4 4 18 100 0.0857965
5 4 18 100 0.0909177
6 4 18 100 0.0776352
7 4 18 100 0.0624892
8 4 18 100 0.0549051
9 4 18 100 0.0528932
10 4 18 100 0.0381364
11 4 18 100 0.0336988
12 4 18 100 0.0277376
13 4 18 100 0.0182942
14 4 18 100 0.0191161
15 4 18 100 0.0225707
16 4 18 100 0.0144166
17 4 18 100 0.0147406
18 4 18 100 0.0946884
0 5 18 100 0.152201
1 5 18 100 0.0354341
2 5 18 100 0.0471415
3 5 18 100 0.054869
4 5 18 100 0.0561508
5 5 18 100 0.0755996
6 5 18 100 0.087356
7 5 18 100 0.0800405
8 5 18 100 0.0628646
9 5 18 100 0.0606484
10 5 18 100 0.0433758
11 5 18 100 0.0352752
12 5 18 100 0.0234898
13 5 18 100 0.0207735
14 5 18 100 0.022185
15 5 18 100 0.0212332
16 5 18 100 0.0105767
17 5 18 100 0.0217688
18 5 18 100 0.0890164
0 6 18 100 0.174977
1 6 18 100 0.0286466
2 6 18 100 0.0374361
3 6 18 100 0.0443364
4 6 18 100 0.0403221
5 6 18 100 0.0713032
6 6 18 100 0.0791404
7 6 18 100 0.0864459
8 6 18 100 0.0686228
9 6 18 100 0.0662495
10 6 18 100 0.0434495
11 6 18 100 0.0446785
12 6 18 100 0.0293289
13 6 18 100 0.0176241
14 6 18 100 0.0267612
15 6 18 100 0.0232233
16 6 18 100 0.0177421
17 6 18 100 0.0143212
18 6 18 100 0.085391
0 7 18 100 0.169049
1 7 18 100 0.0266726
2 7 18 100 0.0376503
3 7 18 100 0.0353838
4 7 18 100 0.0352335
5 7 18 100 0.0565382
6 7 18 100 0.0641346
7 7 18 100 0.0781915
8 7 18 100 0.070387
9 7 18 100 0.0629979
10 7 18 100 0.0462315
11 7 18 100 0.0402318
12 7 18 100 0.0427322
13 7 18 100 0.0266007
14 7 18 100 0.0287818
15 7 18 100 0.0282987
16 7 18 100 0.0213131
17 7 18 100 0.0284146
18 7 18 100 0.101158
0 8 18 100 0.183266
1 8 18 100 0.0307353
2 8 18 100 0.0238167
3 8 18 100 0.0256233
4 8 18 100 0.0314554
5 8 18 100 0.0430038
6 8 18 100 0.0556683
7 8 18 100 0.0621505
8 8 18 100 0.0645957
9 8 18 100 0.0653941
10 8 18 100 0.0578192
11 8 18 100 0.0531765
12 8 18 100 0.0501766
13 8 18 100 0.0270487
14 8 18 100 0.0300076
15 8 18 100 0.0309474
16 8 18 100 0.0229374
17 8 18 100 0.0313018
18 8 18 100 0.110876
0 9 18 100 0.185554
1 9 18 100 0.0152836
2 9 18 100 0.0279894
3 9 18 100 0.0258907
4 9 18 100 0.0254266
5 9 18 100 0.0380557
6 9 18 100 0.0488259
7 9 18 100 0.0605407
8 9 18 100 0.0606376
9 9 18 100 0.0742378
10 9 18 100 0.0551625
11 9 18 100 0.0563811
12 9 18 100 0.0570395
13 9 18 100 0.043183
14 9 18 100 0.0291813
15 9 18 100 0.033666
16 9 18 100 0.0248729
17 9 18 100 0.0317118
18 9 18 100 0.10636
0 10 18 100 0.144878
1 10 18 100 0.0161183
2 10 18 100 0.0287264
3 10 18 100 0.0219332
4 10 18 100 0.0252198
5 10 18 100 0.0385422
6 10 18 100 0.0426557
7 10 18 100 0.0513268
8 10 18 100 0.0678772
9 10 18 100 0.0629271
10 10 18 100 0.0724071
11 10 18 100 0.0611003
12 10 18 100 0.0522598
13 10 18 100 0.0577019
14 10 18 100 0.0459887
15 10 18 100 0.0322386
16 10 18 100 0.0249469
17 10 18 100 0.0321333
18 10 18 100 0.121018
0 11 18 100 0.145499
1 11 18 100 0.0127581
2 11 18 100 0.0245896
3 11 18 100 0.0270998
4 11 18 100 0.025419
5 11 18 100 0.036351
6 11 18 100 0.0506353
7 11 18 100 0.0419192
8 11 18 100 0.0500312
9 11 18 100 0.0620912
10 11 18 100 0.0621319
11 11 18 100 0.0682501
12 11 18 100 0.0637506
13 11 18 100 0.052877
14 11 18 100 0.0437382
15 11 18 100 0.0500957
16 11 18 100 0.028633
17 11 18 100 0.0305396
18 11 18 100 0.123591
0 12 18 100 0.139577
1 12 18 100 0.0114891
2 12 18 100 0.0304329
3 12 18 100 0.0189631
4 12 18 100 0.026512
5 12 18 100 0.0360626
6 12 18 100 0.044512
7 12 18 100 0.0336387
8 12 18 100 0.0508915
9 12 18 100 0.0468026
10 12 18 100 0.0496795
11 12 18 100 0.0551122
12 12 18 100 0.061304
13 12 18 100 0.0688108
14 12 18 100 0.0567632
15 12 18 100 0.0483225
16 12 18 100 0.0324358
17 12 18 100 0.0451218
18 12 18 100 0.143568
0 13 18 100 0.164294
1 13 18 100 0.011287
2 13 18 100 0.0246333
3 13 18 100 0.0170077
4 13 18 100 0.0300506
5 13 18 100 0.0399348
6 13 18 100 0.0348187
7 13 18 100 0.0375055
8 13 18 100 0.0458353
9 13 18 100 0.0462646
10 13 18 100 0.049333
11 13 18 100 0.0455116
12 13 18 100 0.0549982
13 13 18 100 0.0439946
14 13 18 100 0.0614738
15 13 18 100 0.0504433
16 13 18 100 0.0344228
17 13 18 100 0.0455982
18 13 18 100 0.162593
0 14 18 100 0.203368
1 14 18 100 0.0120877
2 14 18 100 0.0267714
3 14 18 100 0.0131079
4 14 18 100 0.0216117
5 14 18 100 0.0253166
6 14 18 100 0.0272375
7 14 18 100 0.0397467
8 14 18 100 0.0499487
9 14 18 100 0.0456915
10 14 18 100 0.0443993
11 14 18 100 0.0370051
12 14 18 100 0.0489996
13 14 18 100 0.0482394
14 14 18 100 0.0596005
15 14 18 100 0.0599189
16 14 18 100 0.0372875
17 14 18 100 0.0463356
18 14 18 100 0.153326
0 15 18 100 0.208708
1 15 18 100 0.0124753
2 15 18 100 0.0208171
3 15 18 100 0.0158731
4 15 18 100 0.0261405
5 15 18 100 0.0247895
6 15 18 100 0.0254385
7 15 18 100 0.0381385
8 15 18 100 0.0477766
9 15 18 100 0.0286638
10 15 18 100 0.0335186
11 15 18 100 0.0420797
12 15 18 100 0.0536871
13 15 18 100 0.04865
14 15 18 100 0.0610889
15 15 18 100 0.0523615
16 15 18 100 0.0463157
17 15 18 100 0.0487413
18 15 18 100 0.164736
0 16 18 100 0.241251
1 16 18 100 0.0187965
2 16 18 100 0.0217026
3 16 18 100 0.0141247
4 16 18 100 0.0271159
5 16 18 100 0.0181065
6 16 18 100 0.0202191
7 16 18 100 0.0288648
8 16 18 100 0.0296837
9 16 18 100 0.0308553
10 16 18 100 0.0367472
11 16 18 100 0.0381272
12 16 18 100 0.0483174
13 16 18 100 0.046405
14 16 18 100 0.0525035
15 16 18 100 0.0614643
16 16 18 100 0.0468847
17 16 18 100 0.0486896
18 16 18 100 0.170141
0 17 18 100 0.272374
1 17 18 100 0.0164383
2 17 18 100 0.0252049
3 17 18 100 0.017716
4 17 18 100 0.0301721
5 17 18 100 0.0228984
6 17 18 100 0.018901
7 17 18 100 0.0283296
8 17 18 100 0.0309599
9 17 18 100 0.0257744
10 17 18 100 0.0375473
11 17 18 100 0.037743
12 17 18 100 0.0437312
13 17 18 100 0.0350615
14 17 18 100 0.0539791
15 17 18 100 0.0634484
16 17 18 100 0.0523799
17 17 18 100 0.0532944
18 17 18 100 0.134046
0 18 18 100 0.301346
1 18 18 100 0.0157516
2 18 18 100 0.0292917
3 18 18 100 0.0170383
4 18 18 100 0.0261806
5 18 18 100 0.0249404
6 18 18 100 0.0166356
7 18 18 100 0.0229962
8 18 18 100 0.0336461
9 18 18 100 0.0177563
10 18 18 100 0.0276826
11 18 18 100 0.0431797
12 18 18 100 0.0463932
13 18 18 100 0.0390814
14 18 18 100 0.0498632
15 18 18 100 0.0507894
16 18 18 100 0.0440522
17 18 18 100 0.0455296
18 18 18 100 0.147845
0 19 18 100 0.287358
1 19 18 100 0.0265747
2 19 18 100 0.0355566
3 19 18 100 0.0208344
4 19 18 100 0.0216825
5 19 18 100 0.0251267
6 19 18 100 0.0128201
7 19 18 100 0.0289844
8 19 18 100 0.0256301
9 19 18 100 0.0212077
10 19 18 100 0.0360173
11 19 18 100 0.0394659
12 19 18 100 0.0451453
13 19 18 100 0.0347313
14 19 18 100 0.0419009
15 19 18 100 0.0436668
16 19 18 100 0.0432931
17 19 18 100 0.0497399
18 19 18 100 0.160264
0 20 18 100 0.268829
1 20 18 100 0.0268756
2 20 18 100 0.0301257
3 20 18 100 0.0259176
4 20 18 100 0.0277456
5 20 18 100 0.0116345
6 20 18 100 0.016835
7 20 18 100 0.029225
8 20 18 100 0.0327539
9 20 18 100 0.0322932
10 20 18 100 0.0362564
11 20 18 100 0.0319703
12 20 18 100 0.0562035
13 20 18 100 0.0327433
14 20 18 100 0.0319859
15 20 18 100 0.0299315
16 20 18 100 0.0424218
17 20 18 100 0.0518872
18 20 18 100 0.184365
0 21 18 100 0.262759
1 21 18 100 0.0267929
2 21 18 100 0.0360685
3 21 18 100 0.00993749
4 21 18 100 0.0402344
5 21 18 100 0.0165668
6 21 18 100 0.0133397
7 21 18 100 0.0196251
8 21 18 100 0.0254953
9 21 18 100 0.0209061
10 21 18 100 0.0355067
11 21 18 100 0.0266581
12 21 18 100 0.0597093
13 21 18 100 0.0272289
14 21 18 100 0.0383519
15 21 18 100 0.0452078
16 21 18 100 0.0463227
17 21 18 100 0.0496163
18 21 18 100 0.199673
0 22 18 100 0.345194
1 22 18 100 0.0266149
2 22 18 100 0.0222055
3 22 18 100 0.00927962
4 22 18 100 0.0173115
5 22 18 100 0.0309575
6 22 18 100 0.00443039
7 22 18 100 0.00885494
8 22 18 100 0.0132777
9 22 18 100 0.0177283
10 22 18 100 0.037193
11 22 18 100 0.0265574
12 22 18 100 0.0583257
13 22 18 100 0.0222356
14 22 18 100 0.0389508
15 22 18 100 0.0267499
16 22 18 100 0.0485071
17 22 18 100 0.0574591
18 22 18 100 0.188167
0 23 18 100 0.266004
1 23 18 100 0.0442948
2 23 18 100 0.0304162
3 23 18 100 0.00583801
4 23 18 100 0.030488
5 23 18 100 0.0183326
6 23 18 100 0.0121029
7 23 18 100 0.0245347
8 23 18 100 0.000360765
9 23 18 100 0.0244423
10 23 18 100 0.0503973
11 23 18 100 0.0243604
12 23 18 100 0.0449003
13 23 18 100 0.0221859
14 23 18 100 0.0366238
15 23 18 100 0.0182975
16 23 18 100 0.0729824
17 23 18 100 0.0659213
18 23 18 100 0.207517
0 24 18 100 0.274518
1 24 18 100 0.0441047
2 24 18 100 0.0262984
3 24 18 100 0.000145737
4 24 18 100 0.0262425
5 24 18 100 0.0087659
6 24 18 100 0.0536179
