1 1 100 1 1
1 2 100 1 1
1 3 100 1 1
1 4 100 1 1
1 5 100 1 1
1 6 100 1 1
1 7 100 1 1
1 9 100 1 1
1 10 100 1 1
1 11 100 1 1
1 13 100 1 1
1 14 100 1 1
1 0 100 2 8.65607e-05
2 0 100 2 0.999913
1 1 100 2 0.648253
2 1 100 2 0.351747
1 2 100 2 0.320303
2 2 100 2 0.679697
1 3 100 2 0.348747
2 3 100 2 0.651253
1 4 100 2 0.492838
2 4 100 2 0.507162
1 5 100 2 0.39687
2 5 100 2 0.603129
1 6 100 2 0.276911
2 6 100 2 0.723089
1 7 100 2 0.427399
2 7 100 2 0.572601
1 8 100 2 0.488197
2 8 100 2 0.511803
2 9 100 2 1
1 0 100 3 0.0042717
2 0 100 3 0.961855
3 0 100 3 0.0338735
1 1 100 3 0.574144
2 1 100 3 0.265071
3 1 100 3 0.160785
1 2 100 3 0.226319
2 2 100 3 0.43011
3 2 100 3 0.343571
1 3 100 3 0.192853
2 3 100 3 0.293215
3 3 100 3 0.513932
1 4 100 3 0.205781
2 4 100 3 0.265938
3 4 100 3 0.528281
1 5 100 3 0.239263
2 5 100 3 0.297958
3 5 100 3 0.46278
1 6 100 3 0.251988
2 6 100 3 0.314498
3 6 100 3 0.433514
1 7 100 3 0.254392
2 7 100 3 0.317309
3 7 100 3 0.428299
1 8 100 3 0.392688
2 8 100 3 0.242299
3 8 100 3 0.365013
1 9 100 3 0.341468
2 9 100 3 0.366671
3 9 100 3 0.291861
1 10 100 3 0.298699
2 10 100 3 0.3253
3 10 100 3 0.376001
1 11 100 3 0.259595
2 11 100 3 0.259598
3 11 100 3 0.480807
1 12 100 3 0.333691
2 12 100 3 0.333693
3 12 100 3 0.332616
1 0 100 4 0.00062729
2 0 100 4 0.332235
3 0 100 4 0.665573
4 0 100 4 0.0015643
1 1 100 4 0.590968
2 1 100 4 0.208542
3 1 100 4 0.0934086
4 1 100 4 0.107081
1 2 100 4 0.12949
2 2 100 4 0.382219
3 2 100 4 0.262204
4 2 100 4 0.226087
1 3 100 4 0.113915
2 3 100 4 0.227601
3 3 100 4 0.302208
4 3 100 4 0.356277
1 4 100 4 0.158966
2 4 100 4 0.203054
3 4 100 4 0.248505
4 4 100 4 0.389475
1 5 100 4 0.156736
2 5 100 4 0.183463
3 5 100 4 0.251211
4 5 100 4 0.408591
1 6 100 4 0.195546
2 6 100 4 0.202806
3 6 100 4 0.23794
4 6 100 4 0.363708
1 7 100 4 0.169129
2 7 100 4 0.229907
3 7 100 4 0.239375
4 7 100 4 0.361589
1 8 100 4 0.171152
2 8 100 4 0.2149
3 8 100 4 0.281438
4 8 100 4 0.33251
1 9 100 4 0.20212
2 9 100 4 0.213641
3 9 100 4 0.257603
4 9 100 4 0.326636
1 10 100 4 0.245516
2 10 100 4 0.218142
3 10 100 4 0.22587
4 10 100 4 0.310472
1 11 100 4 0.0215615
2 11 100 4 0.114269
3 11 100 4 0.329067
4 11 100 4 0.535102
1 12 100 4 0.762239
2 12 100 4 0.155621
3 12 100 4 0.08214
1 13 100 4 4.65798e-05
3 13 100 4 0.347918
4 13 100 4 0.652036
1 0 100 5 0.00074306
2 0 100 5 0.151083
3 0 100 5 0.376723
4 0 100 5 0.470872
5 0 100 5 0.000578388
1 1 100 5 0.628113
2 1 100 5 0.187234
3 1 100 5 0.0683446
4 1 100 5 0.0546081
5 1 100 5 0.0616997
1 2 100 5 0.0992132
2 2 100 5 0.375534
3 2 100 5 0.229736
4 2 100 5 0.142413
5 2 100 5 0.153104
1 3 100 5 0.0793139
2 3 100 5 0.187917
3 3 100 5 0.257812
4 3 100 5 0.223484
5 3 100 5 0.251473
1 4 100 5 0.0917175
2 4 100 5 0.14946
3 4 100 5 0.209115
4 4 100 5 0.251177
5 4 100 5 0.29853
1 5 100 5 0.108064
2 5 100 5 0.144005
3 5 100 5 0.184515
4 5 100 5 0.220264
5 5 100 5 0.343152
1 6 100 5 0.115021
2 6 100 5 0.147912
3 6 100 5 0.184166
4 6 100 5 0.198743
5 6 100 5 0.354159
1 7 100 5 0.139563
2 7 100 5 0.17496
3 7 100 5 0.170846
4 7 100 5 0.206322
5 7 100 5 0.308308
1 8 100 5 0.136376
2 8 100 5 0.193119
3 8 100 5 0.170981
4 8 100 5 0.191792
5 8 100 5 0.307732
1 9 100 5 0.126622
2 9 100 5 0.155764
3 9 100 5 0.196712
4 9 100 5 0.193111
5 9 100 5 0.32779
1 10 100 5 0.150759
2 10 100 5 0.187583
3 10 100 5 0.172191
4 10 100 5 0.232152
5 10 100 5 0.257316
1 11 100 5 0.123989
2 11 100 5 0.199552
3 11 100 5 0.105145
4 11 100 5 0.311342
5 11 100 5 0.259972
1 12 100 5 0.139507
2 12 100 5 0.109866
3 12 100 5 0.224094
4 12 100 5 0.253507
5 12 100 5 0.273026
1 13 100 5 0.238261
2 13 100 5 0.25086
3 13 100 5 0.00313158
4 13 100 5 0.149419
5 13 100 5 0.358328
1 14 100 5 0.168795
2 14 100 5 0.187421
3 14 100 5 0.159857
4 14 100 5 0.166629
5 14 100 5 0.317298
1 15 100 5 0.00888156
2 15 100 5 5.84978e-05
3 15 100 5 0.00131642
4 15 100 5 0.00260793
5 15 100 5 0.987136
1 16 100 5 0.996941
2 16 100 5 1.0704e-05
3 16 100 5 1.30507e-05
4 16 100 5 0.000281137
5 16 100 5 0.00275417
4 17 100 5 1
1 0 100 6 0.000711655
2 0 100 6 0.110899
3 0 100 6 0.201652
4 0 100 6 0.288516
5 0 100 6 0.397985
6 0 100 6 0.000236937
1 1 100 6 0.595243
2 1 100 6 0.180166
3 1 100 6 0.0720621
4 1 100 6 0.050585
5 1 100 6 0.0468898
6 1 100 6 0.0550543
1 2 100 6 0.089389
2 2 100 6 0.354544
3 2 100 6 0.211768
4 2 100 6 0.130144
5 2 100 6 0.0911738
6 2 100 6 0.122981
1 3 100 6 0.0713556
2 3 100 6 0.164124
3 3 100 6 0.223018
4 3 100 6 0.193149
5 3 100 6 0.158774
6 3 100 6 0.18958
1 4 100 6 0.0753142
2 4 100 6 0.118193
3 4 100 6 0.176035
4 4 100 6 0.204932
5 4 100 6 0.182263
6 4 100 6 0.243263
1 5 100 6 0.07723
2 5 100 6 0.111646
3 5 100 6 0.166188
4 5 100 6 0.187405
5 5 100 6 0.187199
6 5 100 6 0.270332
1 6 100 6 0.0948776
2 6 100 6 0.12219
3 6 100 6 0.147052
4 6 100 6 0.174294
5 6 100 6 0.173509
6 6 100 6 0.288077
1 7 100 6 0.0871515
2 7 100 6 0.131254
3 7 100 6 0.170414
4 7 100 6 0.16145
5 7 100 6 0.167697
6 7 100 6 0.282035
1 8 100 6 0.111637
2 8 100 6 0.139907
3 8 100 6 0.163807
4 8 100 6 0.16994
5 8 100 6 0.150411
6 8 100 6 0.264298
1 9 100 6 0.111329
2 9 100 6 0.136203
3 9 100 6 0.173435
4 9 100 6 0.155182
5 9 100 6 0.175154
6 9 100 6 0.248696
1 10 100 6 0.111913
2 10 100 6 0.150018
3 10 100 6 0.146927
4 10 100 6 0.176168
5 10 100 6 0.18588
6 10 100 6 0.229094
1 11 100 6 0.135296
2 11 100 6 0.127582
3 11 100 6 0.150024
4 11 100 6 0.179287
5 11 100 6 0.154194
6 11 100 6 0.253617
1 12 100 6 0.125202
2 12 100 6 0.111807
3 12 100 6 0.181682
4 12 100 6 0.106616
5 12 100 6 0.234807
6 12 100 6 0.239886
1 13 100 6 0.145981
2 13 100 6 0.0663787
3 13 100 6 0.187712
4 13 100 6 0.123158
5 13 100 6 0.198417
6 13 100 6 0.278354
1 14 100 6 0.100659
2 14 100 6 0.133234
3 14 100 6 0.154043
4 14 100 6 0.132906
5 14 100 6 0.164557
6 14 100 6 0.314602
1 15 100 6 0.138571
2 15 100 6 0.203933
3 15 100 6 0.21474
4 15 100 6 0.0564301
5 15 100 6 0.134209
6 15 100 6 0.252117
1 16 100 6 0.00685051
2 16 100 6 0.0791899
3 16 100 6 0.272439
4 16 100 6 0.589732
5 16 100 6 0.0517889
1 17 100 6 0.000725723
2 17 100 6 0.00277019
3 17 100 6 0.00884944
4 17 100 6 0.348103
5 17 100 6 0.308807
6 17 100 6 0.330745
1 18 100 6 0.174066
2 18 100 6 0.0827646
3 18 100 6 0.187786
4 18 100 6 0.186039
5 18 100 6 0.186986
6 18 100 6 0.182358
2 19 100 6 0.988215
3 19 100 6 0.00947207
4 19 100 6 0.00117186
5 19 100 6 0.00114101
1 0 100 7 0.000821197
2 0 100 7 0.0789877
3 0 100 7 0.17959
4 0 100 7 0.168027
5 0 100 7 0.26418
6 0 100 7 0.308169
7 0 100 7 0.000224505
1 1 100 7 0.600449
2 1 100 7 0.162724
3 1 100 7 0.0628134
4 1 100 7 0.0483337
5 1 100 7 0.0389323
6 1 100 7 0.0398018
7 1 100 7 0.0469465
1 2 100 7 0.082427
2 2 100 7 0.344407
3 2 100 7 0.18812
4 2 100 7 0.114297
5 2 100 7 0.0902405
6 2 100 7 0.077371
7 2 100 7 0.103137
1 3 100 7 0.0634351
2 3 100 7 0.153912
3 3 100 7 0.198169
4 3 100 7 0.185375
5 3 100 7 0.133861
6 3 100 7 0.117969
7 3 100 7 0.147278
1 4 100 7 0.0608274
2 4 100 7 0.107385
3 4 100 7 0.151463
4 4 100 7 0.176301
5 4 100 7 0.167853
6 4 100 7 0.146507
7 4 100 7 0.189663
1 5 100 7 0.0567772
2 5 100 7 0.0917067
3 5 100 7 0.12799
4 5 100 7 0.162097
5 5 100 7 0.167757
6 5 100 7 0.161698
7 5 100 7 0.231975
1 6 100 7 0.0687134
2 6 100 7 0.102718
3 6 100 7 0.127835
4 6 100 7 0.156382
5 6 100 7 0.155667
6 6 100 7 0.150896
7 6 100 7 0.237789
1 7 100 7 0.0702632
2 7 100 7 0.0980677
3 7 100 7 0.128015
4 7 100 7 0.166066
5 7 100 7 0.147582
6 7 100 7 0.149656
7 7 100 7 0.24035
1 8 100 7 0.0677205
2 8 100 7 0.105543
3 8 100 7 0.126
4 8 100 7 0.162428
5 8 100 7 0.149002
6 8 100 7 0.156071
7 8 100 7 0.233236
1 9 100 7 0.0916213
2 9 100 7 0.113606
3 9 100 7 0.143041
4 9 100 7 0.149641
5 9 100 7 0.13249
6 9 100 7 0.146784
7 9 100 7 0.222817
1 10 100 7 0.0876784
2 10 100 7 0.129036
3 10 100 7 0.123143
4 10 100 7 0.149183
5 10 100 7 0.132656
6 10 100 7 0.133702
7 10 100 7 0.2446
1 11 100 7 0.0931502
2 11 100 7 0.114957
3 11 100 7 0.136556
4 11 100 7 0.152316
5 11 100 7 0.145572
6 11 100 7 0.141903
7 11 100 7 0.215546
1 12 100 7 0.10495
2 12 100 7 0.104509
3 12 100 7 0.15999
4 12 100 7 0.148575
5 12 100 7 0.132835
6 12 100 7 0.145633
7 12 100 7 0.203509
1 13 100 7 0.100317
2 13 100 7 0.0972651
3 13 100 7 0.145555
4 13 100 7 0.124071
5 13 100 7 0.163888
6 13 100 7 0.144939
7 13 100 7 0.223964
1 14 100 7 0.0762187
2 14 100 7 0.116053
3 14 100 7 0.104872
4 14 100 7 0.147785
5 14 100 7 0.135308
6 14 100 7 0.24097
7 14 100 7 0.178793
1 15 100 7 0.0610813
2 15 100 7 0.0824468
3 15 100 7 0.112949
4 15 100 7 0.127067
5 15 100 7 0.178165
6 15 100 7 0.182181
7 15 100 7 0.25611
1 16 100 7 0.105
2 16 100 7 0.0614698
3 16 100 7 0.0926568
4 16 100 7 0.126631
5 16 100 7 0.147217
6 16 100 7 0.237566
7 16 100 7 0.229459
1 17 100 7 0.000310851
2 17 100 7 0.00326286
3 17 100 7 0.215922
4 17 100 7 0.172282
5 17 100 7 0.177172
6 17 100 7 0.000160625
7 17 100 7 0.43089
1 18 100 7 0.261335
2 18 100 7 0.236969
3 18 100 7 0.124698
4 18 100 7 5.24385e-05
5 18 100 7 0.131006
6 18 100 7 0.127602
7 18 100 7 0.118337
4 19 100 7 0.994987
7 19 100 7 0.0050129
1 20 100 7 0.994962
4 20 100 7 0.00501115
5 20 100 7 2.65482e-05
1 21 100 7 0.999812
7 21 100 7 0.000187848
1 22 100 7 0.0533964
2 22 100 7 0.0098792
3 22 100 7 0.0109404
4 22 100 7 3.1995e-05
5 22 100 7 0.226779
6 22 100 7 0.249471
7 22 100 7 0.449502
4 23 100 7 1
1 0 100 8 0.00071695
2 0 100 8 0.0592925
3 0 100 8 0.150977
4 0 100 8 0.165887
5 0 100 8 0.158324
6 0 100 8 0.219017
7 0 100 8 0.245597
8 0 100 8 0.000188405
1 1 100 8 0.568146
2 1 100 8 0.168209
3 1 100 8 0.0646668
4 1 100 8 0.0507335
5 1 100 8 0.0410387
6 1 100 8 0.0332971
7 1 100 8 0.0344944
8 1 100 8 0.0394147
1 2 100 8 0.0890829
2 2 100 8 0.326698
3 2 100 8 0.178388
4 2 100 8 0.104379
5 2 100 8 0.0814037
6 2 100 8 0.0682583
7 2 100 8 0.065598
8 2 100 8 0.0861921
1 3 100 8 0.0590645
2 3 100 8 0.144038
3 3 100 8 0.190485
4 3 100 8 0.159919
5 3 100 8 0.128462
6 3 100 8 0.101647
7 3 100 8 0.0955316
8 3 100 8 0.120853
1 4 100 8 0.0568559
2 4 100 8 0.0935984
3 4 100 8 0.131936
4 4 100 8 0.157695
5 4 100 8 0.152479
6 4 100 8 0.144294
7 4 100 8 0.112626
8 4 100 8 0.150517
1 5 100 8 0.0495676
2 5 100 8 0.0756112
3 5 100 8 0.105854
4 5 100 8 0.135786
5 5 100 8 0.16046
6 5 100 8 0.145599
7 5 100 8 0.145131
8 5 100 8 0.181992
1 6 100 8 0.0591095
2 6 100 8 0.0804089
3 6 100 8 0.0952004
4 6 100 8 0.117457
5 6 100 8 0.146961
6 6 100 8 0.145032
7 6 100 8 0.142784
8 6 100 8 0.213047
1 7 100 8 0.0582974
2 7 100 8 0.0846959
3 7 100 8 0.103316
4 7 100 8 0.1199
5 7 100 8 0.144912
6 7 100 8 0.140596
7 7 100 8 0.138699
8 7 100 8 0.209584
1 8 100 8 0.0622743
2 8 100 8 0.081344
3 8 100 8 0.100483
4 8 100 8 0.119856
5 8 100 8 0.14129
6 8 100 8 0.139331
7 8 100 8 0.131584
8 8 100 8 0.223837
1 9 100 8 0.063132
2 9 100 8 0.0885998
3 9 100 8 0.11015
4 9 100 8 0.133133
5 9 100 8 0.137376
6 9 100 8 0.120312
7 9 100 8 0.125268
8 9 100 8 0.22203
1 10 100 8 0.0610458
2 10 100 8 0.0936742
3 10 100 8 0.111345
4 10 100 8 0.122425
5 10 100 8 0.127358
6 10 100 8 0.118497
7 10 100 8 0.14085
8 10 100 8 0.224805
1 11 100 8 0.0759658
2 11 100 8 0.10637
3 11 100 8 0.110275
4 11 100 8 0.111392
5 11 100 8 0.117306
6 11 100 8 0.131352
7 11 100 8 0.146471
8 11 100 8 0.200868
1 12 100 8 0.0895366
2 12 100 8 0.0854462
3 12 100 8 0.115411
4 12 100 8 0.11031
5 12 100 8 0.119786
6 12 100 8 0.122098
7 12 100 8 0.149189
8 12 100 8 0.208224
1 13 100 8 0.085957
2 13 100 8 0.0887293
3 13 100 8 0.10788
4 13 100 8 0.0920215
5 13 100 8 0.121789
6 13 100 8 0.132473
7 13 100 8 0.127491
8 13 100 8 0.243659
1 14 100 8 0.106066
2 14 100 8 0.112448
3 14 100 8 0.135361
4 14 100 8 0.103512
5 14 100 8 0.12371
6 14 100 8 0.0958376
7 14 100 8 0.128067
8 14 100 8 0.194998
1 15 100 8 0.097248
2 15 100 8 0.112302
3 15 100 8 0.107547
4 15 100 8 0.144094
5 15 100 8 0.111665
6 15 100 8 0.0974502
7 15 100 8 0.138971
8 15 100 8 0.190723
1 16 100 8 0.10847
2 16 100 8 0.0724829
3 16 100 8 0.0721807
4 16 100 8 0.149591
5 16 100 8 0.152868
6 16 100 8 0.0776185
7 16 100 8 0.146744
8 16 100 8 0.220045
1 17 100 8 0.0946707
2 17 100 8 0.158742
3 17 100 8 0.0843026
4 17 100 8 0.170697
5 17 100 8 0.0872455
6 17 100 8 0.114356
7 17 100 8 0.0988462
8 17 100 8 0.19114
1 18 100 8 0.0796239
2 18 100 8 0.0641825
3 18 100 8 0.0972642
4 18 100 8 0.0342183
5 18 100 8 0.156267
6 18 100 8 0.179558
7 18 100 8 0.169273
8 18 100 8 0.219613
1 19 100 8 1.6153e-05
2 19 100 8 8.26001e-05
3 19 100 8 0.00111942
4 19 100 8 0.0431716
5 19 100 8 0.0663628
6 19 100 8 0.46608
7 19 100 8 0.423157
8 19 100 8 1.09284e-05
1 20 100 8 3.78388e-05
2 20 100 8 0.000293444
3 20 100 8 0.0170328
4 20 100 8 0.000480544
5 20 100 8 0.213449
6 20 100 8 0.0588503
7 20 100 8 0.356523
8 20 100 8 0.353333
1 21 100 8 0.071559
2 21 100 8 1.8681e-05
3 21 100 8 0.000443242
4 21 100 8 0.00171841
5 21 100 8 3.72308e-05
6 21 100 8 1.80393e-05
7 21 100 8 2.32271e-05
8 21 100 8 0.926182
4 22 100 8 0.0263281
6 22 100 8 0.0690463
7 22 100 8 0.904626
1 0 100 9 0.000513826
2 0 100 9 0.0553677
3 0 100 9 0.124952
4 0 100 9 0.148371
5 0 100 9 0.149487
6 0 100 9 0.135554
7 0 100 9 0.181088
8 0 100 9 0.204567
9 0 100 9 9.89867e-05
1 1 100 9 0.567382
2 1 100 9 0.161672
3 1 100 9 0.0615139
4 1 100 9 0.0481652
5 1 100 9 0.0422051
6 1 100 9 0.0354451
7 1 100 9 0.0302405
8 1 100 9 0.0243317
9 1 100 9 0.0290451
1 2 100 9 0.0840668
2 2 100 9 0.320755
3 2 100 9 0.178836
4 2 100 9 0.103285
5 2 100 9 0.0767706
6 2 100 9 0.0647214
7 2 100 9 0.054591
8 2 100 9 0.0511895
9 2 100 9 0.0657844
1 3 100 9 0.054582
2 3 100 9 0.131258
3 3 100 9 0.187359
4 3 100 9 0.15324
5 3 100 9 0.116249
6 3 100 9 0.0943709
7 3 100 9 0.083005
8 3 100 9 0.0787442
9 3 100 9 0.101193
1 4 100 9 0.0528227
2 4 100 9 0.0900863
3 4 100 9 0.123096
4 4 100 9 0.141353
5 4 100 9 0.130964
6 4 100 9 0.121514
7 4 100 9 0.111785
8 4 100 9 0.0988555
9 4 100 9 0.129524
1 5 100 9 0.049484
2 5 100 9 0.0627422
3 5 100 9 0.09088
4 5 100 9 0.117718
5 5 100 9 0.141994
6 5 100 9 0.145983
7 5 100 9 0.122753
8 5 100 9 0.115865
9 5 100 9 0.152581
1 6 100 9 0.0452033
2 6 100 9 0.0685414
3 6 100 9 0.0863391
4 6 100 9 0.101275
5 6 100 9 0.130575
6 6 100 9 0.145167
7 6 100 9 0.136522
8 6 100 9 0.117376
9 6 100 9 0.169001
1 7 100 9 0.0439885
2 7 100 9 0.0645001
3 7 100 9 0.0826785
4 7 100 9 0.0957614
5 7 100 9 0.1144
6 7 100 9 0.143204
7 7 100 9 0.138742
8 7 100 9 0.134855
9 7 100 9 0.181871
1 8 100 9 0.0450832
2 8 100 9 0.0700952
3 8 100 9 0.0807998
4 8 100 9 0.0951705
5 8 100 9 0.108194
6 8 100 9 0.135071
7 8 100 9 0.131695
8 8 100 9 0.13552
9 8 100 9 0.198371
1 9 100 9 0.0494842
2 9 100 9 0.0635686
3 9 100 9 0.0846003
4 9 100 9 0.0989018
5 9 100 9 0.109059
6 9 100 9 0.121989
7 9 100 9 0.126056
8 9 100 9 0.136244
9 9 100 9 0.210098
1 10 100 9 0.051165
2 10 100 9 0.0770821
3 10 100 9 0.0863463
4 10 100 9 0.105557
5 10 100 9 0.0954862
6 10 100 9 0.124787
7 10 100 9 0.116094
8 10 100 9 0.13095
9 10 100 9 0.212532
1 11 100 9 0.0581243
2 11 100 9 0.0768772
3 11 100 9 0.0849546
4 11 100 9 0.107644
5 11 100 9 0.117324
6 11 100 9 0.108157
7 11 100 9 0.111537
8 11 100 9 0.13918
9 11 100 9 0.196202
1 12 100 9 0.0651656
2 12 100 9 0.0966092
3 12 100 9 0.0949156
4 12 100 9 0.0897423
5 12 100 9 0.105473
6 12 100 9 0.0881468
7 12 100 9 0.114042
8 12 100 9 0.133307
9 12 100 9 0.212599
1 13 100 9 0.0544523
2 13 100 9 0.0856353
3 13 100 9 0.0989528
4 13 100 9 0.0994898
5 13 100 9 0.0798387
6 13 100 9 0.150274
7 13 100 9 0.114856
8 13 100 9 0.127434
9 13 100 9 0.189067
1 14 100 9 0.0789338
2 14 100 9 0.0693623
3 14 100 9 0.100125
4 14 100 9 0.0952261
5 14 100 9 0.101654
6 14 100 9 0.10806
7 14 100 9 0.123059
8 14 100 9 0.11425
9 14 100 9 0.20933
1 15 100 9 0.0842159
2 15 100 9 0.0856407
3 15 100 9 0.031718
4 15 100 9 0.118917
5 15 100 9 0.111591
6 15 100 9 0.119256
7 15 100 9 0.137909
8 15 100 9 0.143748
9 15 100 9 0.167003
1 16 100 9 0.0736076
2 16 100 9 0.073137
3 16 100 9 0.109855
4 16 100 9 0.0988555
5 16 100 9 0.0675394
6 16 100 9 0.088559
7 16 100 9 0.0938214
8 16 100 9 0.165433
9 16 100 9 0.229192
1 17 100 9 0.0621901
2 17 100 9 0.0974295
3 17 100 9 0.109267
4 17 100 9 0.0973798
5 17 100 9 0.117981
6 17 100 9 0.0702657
7 17 100 9 0.103328
8 17 100 9 0.12113
9 17 100 9 0.221028
1 18 100 9 0.192539
2 18 100 9 0.150588
3 18 100 9 0.105289
4 18 100 9 0.0430006
5 18 100 9 0.0376778
6 18 100 9 0.0928131
7 18 100 9 0.0476691
8 18 100 9 0.184414
9 18 100 9 0.146009
1 19 100 9 0.0312016
2 19 100 9 0.0180694
3 19 100 9 0.0345021
4 19 100 9 0.00113244
5 19 100 9 0.203172
6 19 100 9 0.220462
7 19 100 9 0.108488
8 19 100 9 0.191102
9 19 100 9 0.191872
1 20 100 9 0.0175026
2 20 100 9 2.147e-05
3 20 100 9 0.000252998
4 20 100 9 4.52951e-07
5 20 100 9 0.00506214
6 20 100 9 1.80288e-06
7 20 100 9 0.279627
8 20 100 9 0.267212
9 20 100 9 0.43032
1 21 100 9 0.0184266
2 21 100 9 0.0904205
3 21 100 9 0.118775
4 21 100 9 0.113061
5 21 100 9 0.115882
6 21 100 9 0.118956
7 21 100 9 0.119136
8 21 100 9 0.199059
9 21 100 9 0.106285
1 22 100 9 0.00105478
2 22 100 9 6.41144e-07
3 22 100 9 7.66895e-06
4 22 100 9 0.456745
5 22 100 9 8.66597e-05
6 22 100 9 4.72508e-05
7 22 100 9 8.94944e-05
8 22 100 9 0.0837318
9 22 100 9 0.458237
1 23 100 9 0.90264
2 23 100 9 0.000211675
3 23 100 9 0.00324566
4 23 100 9 0.00189678
5 23 100 9 0.0176034
6 23 100 9 0.000670305
7 23 100 9 0.0698729
8 23 100 9 0.00328519
9 23 100 9 0.000574065
2 24 100 9 3.03214e-06
4 24 100 9 3.02374e-05
5 24 100 9 0.25742
6 24 100 9 0.247467
7 24 100 9 0.106211
8 24 100 9 0.154585
9 24 100 9 0.234284
1 0 100 10 0.00063007
2 0 100 10 0.0517743
3 0 100 10 0.111935
4 0 100 10 0.118822
5 0 100 10 0.138178
6 0 100 10 0.131277
7 0 100 10 0.111906
8 0 100 10 0.160544
9 0 100 10 0.174855
10 0 100 10 7.79238e-05
1 1 100 10 0.550837
2 1 100 10 0.153914
3 1 100 10 0.0594899
4 1 100 10 0.0487884
5 1 100 10 0.0446744
6 1 100 10 0.0359549
7 1 100 10 0.032422
8 1 100 10 0.0254106
9 1 100 10 0.0211852
10 1 100 10 0.0273241
1 2 100 10 0.0851392
2 2 100 10 0.310753
3 2 100 10 0.1766
4 2 100 10 0.0966089
5 2 100 10 0.0719106
6 2 100 10 0.0556886
7 2 100 10 0.0530958
8 2 100 10 0.048798
9 2 100 10 0.0461749
10 2 100 10 0.0552308
1 3 100 10 0.0521104
2 3 100 10 0.127245
3 3 100 10 0.168677
4 3 100 10 0.153302
5 3 100 10 0.106607
6 3 100 10 0.0860735
7 3 100 10 0.0756965
8 3 100 10 0.0699016
9 3 100 10 0.0679631
10 3 100 10 0.0924241
1 4 100 10 0.0505918
2 4 100 10 0.0785814
3 4 100 10 0.110771
4 4 100 10 0.137744
5 4 100 10 0.127887
6 4 100 10 0.109585
7 4 100 10 0.100133
8 4 100 10 0.0861
9 4 100 10 0.0894268
10 4 100 10 0.10918
1 5 100 10 0.0491672
2 5 100 10 0.0620543
3 5 100 10 0.0813307
4 5 100 10 0.110965
5 5 100 10 0.125583
6 5 100 10 0.134548
7 5 100 10 0.120448
8 5 100 10 0.102238
9 5 100 10 0.0904801
10 5 100 10 0.123184
1 6 100 10 0.0465353
2 6 100 10 0.0652848
3 6 100 10 0.0734679
4 6 100 10 0.0910675
5 6 100 10 0.108786
6 6 100 10 0.121733
7 6 100 10 0.13065
8 6 100 10 0.11643
9 6 100 10 0.105864
10 6 100 10 0.140183
1 7 100 10 0.0382728
2 7 100 10 0.0598846
3 7 100 10 0.0720403
4 7 100 10 0.082566
5 7 100 10 0.0949521
6 7 100 10 0.11966
7 7 100 10 0.137359
8 7 100 10 0.12283
9 7 100 10 0.115207
10 7 100 10 0.157229
1 8 100 10 0.0415225
2 8 100 10 0.0609095
3 8 100 10 0.0749475
4 8 100 10 0.0812378
5 8 100 10 0.0938941
6 8 100 10 0.109601
7 8 100 10 0.136484
8 8 100 10 0.123134
9 8 100 10 0.111339
10 8 100 10 0.16693
1 9 100 10 0.0415923
2 9 100 10 0.0568715
3 9 100 10 0.075621
4 9 100 10 0.086515
5 9 100 10 0.0864487
6 9 100 10 0.108722
7 9 100 10 0.12459
8 9 100 10 0.118628
9 9 100 10 0.122279
10 9 100 10 0.178733
1 10 100 10 0.0466859
2 10 100 10 0.0672647
3 10 100 10 0.0812606
4 10 100 10 0.0873346
5 10 100 10 0.0840953
6 10 100 10 0.0907305
7 10 100 10 0.114158
8 10 100 10 0.112617
9 10 100 10 0.119327
10 10 100 10 0.196527
1 11 100 10 0.0533135
2 11 100 10 0.0634651
3 11 100 10 0.0838834
4 11 100 10 0.0905113
5 11 100 10 0.0867333
6 11 100 10 0.0957052
7 11 100 10 0.108216
8 11 100 10 0.104419
9 11 100 10 0.122152
10 11 100 10 0.191602
1 12 100 10 0.0445685
2 12 100 10 0.0644655
3 12 100 10 0.0736289
4 12 100 10 0.077871
5 12 100 10 0.0873195
6 12 100 10 0.090845
7 12 100 10 0.100041
8 12 100 10 0.109338
9 12 100 10 0.140969
10 12 100 10 0.210954
1 13 100 10 0.0448561
2 13 100 10 0.0742488
3 13 100 10 0.0782343
4 13 100 10 0.0911947
5 13 100 10 0.0808358
6 13 100 10 0.0924586
7 13 100 10 0.122185
8 13 100 10 0.105693
9 13 100 10 0.114776
10 13 100 10 0.195518
1 14 100 10 0.0385474
2 14 100 10 0.0791908
3 14 100 10 0.0857781
4 14 100 10 0.0884865
5 14 100 10 0.0827
6 14 100 10 0.0984162
7 14 100 10 0.090438
8 14 100 10 0.111359
9 14 100 10 0.116774
10 14 100 10 0.20831
1 15 100 10 0.0422654
2 15 100 10 0.0541488
3 15 100 10 0.0735745
4 15 100 10 0.105502
5 15 100 10 0.10458
6 15 100 10 0.0730817
7 15 100 10 0.0851698
8 15 100 10 0.122067
9 15 100 10 0.153762
10 15 100 10 0.185849
1 16 100 10 0.0387652
2 16 100 10 0.0360102
3 16 100 10 0.0292919
4 16 100 10 0.0986553
5 16 100 10 0.0986923
6 16 100 10 0.089195
7 16 100 10 0.0707531
8 16 100 10 0.102251
9 16 100 10 0.201265
10 16 100 10 0.235121
1 17 100 10 0.0426021
2 17 100 10 0.0532272
3 17 100 10 0.0766646
4 17 100 10 0.109784
5 17 100 10 0.115361
6 17 100 10 0.133025
7 17 100 10 0.0931358
8 17 100 10 0.0632407
9 17 100 10 0.111956
10 17 100 10 0.201004
1 18 100 10 0.0394719
2 18 100 10 0.0781812
3 18 100 10 0.12897
4 18 100 10 0.0859757
5 18 100 10 0.08538
6 18 100 10 0.0878809
7 18 100 10 0.0912658
8 18 100 10 0.11989
9 18 100 10 0.104935
10 18 100 10 0.17805
1 19 100 10 0.127063
2 19 100 10 0.0821555
3 19 100 10 0.0571791
4 19 100 10 0.0798788
5 19 100 10 0.0787128
6 19 100 10 0.08276
7 19 100 10 0.118898
8 19 100 10 0.0805855
9 19 100 10 0.120217
10 19 100 10 0.172549
1 20 100 10 0.0865396
2 20 100 10 0.00296988
3 20 100 10 0.00207986
4 20 100 10 0.00327751
5 20 100 10 0.0236859
6 20 100 10 0.000365349
7 20 100 10 0.50311
8 20 100 10 0.000381614
9 20 100 10 0.0061464
10 20 100 10 0.371444
1 21 100 10 0.0120553
2 21 100 10 2.50712e-05
3 21 100 10 2.22703e-05
4 21 100 10 2.79512e-05
5 21 100 10 0.345701
6 21 100 10 0.368071
7 21 100 10 0.0493667
8 21 100 10 0.000150632
9 21 100 10 0.217952
10 21 100 10 0.00662901
1 22 100 10 0.12903
2 22 100 10 0.118907
3 22 100 10 0.229955
4 22 100 10 0.128376
5 22 100 10 0.136064
6 22 100 10 0.000262305
7 22 100 10 0.113227
8 22 100 10 0.127398
9 22 100 10 0.0119503
10 22 100 10 0.00483063
1 23 100 10 0.00469566
2 23 100 10 2.30142e-05
3 23 100 10 0.0023592
4 23 100 10 1.40872e-06
5 23 100 10 0.0331506
6 23 100 10 0.00684724
8 23 100 10 0.473449
9 23 100 10 0.479468
10 23 100 10 6.33237e-06
1 24 100 10 0.000594606
2 24 100 10 1.70125e-06
3 24 100 10 1.24342e-06
4 24 100 10 2.39212e-05
5 24 100 10 2.49179e-06
6 24 100 10 0.164856
7 24 100 10 0.0131219
8 24 100 10 4.90168e-06
9 24 100 10 0.332243
10 24 100 10 0.489151
1 25 100 10 0.000909181
2 25 100 10 0.115314
3 25 100 10 0.121254
4 25 100 10 0.0107325
5 25 100 10 0.220786
6 25 100 10 0.121259
7 25 100 10 0.121263
8 25 100 10 0.121273
9 25 100 10 0.0459757
10 25 100 10 0.121233
4 26 100 10 0.264167
9 26 100 10 0.735833
4 27 100 10 1
1 0 100 11 0.000335122
2 0 100 11 0.0490862
3 0 100 11 0.10093
4 0 100 11 0.113823
5 0 100 11 0.108514
6 0 100 11 0.113859
7 0 100 11 0.110934
8 0 100 11 0.103725
9 0 100 11 0.141175
10 0 100 11 0.157468
11 0 100 11 0.000151355
1 1 100 11 0.544045
2 1 100 11 0.149026
3 1 100 11 0.0617049
4 1 100 11 0.0432925
5 1 100 11 0.0422507
6 1 100 11 0.035255
7 1 100 11 0.0306979
8 1 100 11 0.0287183
9 1 100 11 0.0208688
10 1 100 11 0.019533
11 1 100 11 0.024608
1 2 100 11 0.085484
2 2 100 11 0.297781
3 2 100 11 0.155151
4 2 100 11 0.0973361
5 2 100 11 0.0697898
6 2 100 11 0.0625605
7 2 100 11 0.0486103
8 2 100 11 0.0505051
9 2 100 11 0.0401138
10 2 100 11 0.0392079
11 2 100 11 0.0534607
1 3 100 11 0.051037
2 3 100 11 0.120768
3 3 100 11 0.170315
4 3 100 11 0.138715
5 3 100 11 0.108815
6 3 100 11 0.0799762
7 3 100 11 0.0679753
8 3 100 11 0.0671409
9 3 100 11 0.0602161
10 3 100 11 0.0591488
11 3 100 11 0.0758926
1 4 100 11 0.0510331
2 4 100 11 0.076764
3 4 100 11 0.107673
4 4 100 11 0.132674
5 4 100 11 0.133522
6 4 100 11 0.101328
7 4 100 11 0.0905658
8 4 100 11 0.0751485
9 4 100 11 0.069527
10 4 100 11 0.0698351
11 4 100 11 0.0919288
1 5 100 11 0.0468298
2 5 100 11 0.0590158
3 5 100 11 0.0790123
4 5 100 11 0.105238
5 5 100 11 0.118102
6 5 100 11 0.113257
7 5 100 11 0.108636
8 5 100 11 0.0975543
9 5 100 11 0.0818439
10 5 100 11 0.0801147
11 5 100 11 0.110396
1 6 100 11 0.0405224
2 6 100 11 0.0609267
3 6 100 11 0.0695217
4 6 100 11 0.0769953
5 6 100 11 0.106263
6 6 100 11 0.125822
7 6 100 11 0.122903
8 6 100 11 0.110901
9 6 100 11 0.097472
10 6 100 11 0.0816894
11 6 100 11 0.106983
1 7 100 11 0.0393979
2 7 100 11 0.0555373
3 7 100 11 0.0619593
4 7 100 11 0.0688004
5 7 100 11 0.0858528
6 7 100 11 0.102226
7 7 100 11 0.124943
8 7 100 11 0.124783
9 7 100 11 0.109644
10 7 100 11 0.0958408
11 7 100 11 0.131016
1 8 100 11 0.0383983
2 8 100 11 0.0518254
3 8 100 11 0.0623698
4 8 100 11 0.073968
5 8 100 11 0.0777727
6 8 100 11 0.0996869
7 8 100 11 0.112414
8 8 100 11 0.117621
9 8 100 11 0.111542
10 8 100 11 0.107461
11 8 100 11 0.146941
1 9 100 11 0.0378871
2 9 100 11 0.0490203
3 9 100 11 0.0638891
4 9 100 11 0.0694157
5 9 100 11 0.0817239
6 9 100 11 0.0871038
7 9 100 11 0.104229
8 9 100 11 0.128484
9 9 100 11 0.110513
10 9 100 11 0.106245
11 9 100 11 0.161488
1 10 100 11 0.0408295
2 10 100 11 0.0549551
3 10 100 11 0.0677254
4 10 100 11 0.0696679
5 10 100 11 0.0819166
6 10 100 11 0.0838192
7 10 100 11 0.0948833
8 10 100 11 0.112867
9 10 100 11 0.117824
10 10 100 11 0.108719
11 10 100 11 0.166793
1 11 100 11 0.0357931
2 11 100 11 0.0510911
3 11 100 11 0.0648338
4 11 100 11 0.0749263
5 11 100 11 0.0779371
6 11 100 11 0.0914972
7 11 100 11 0.0866292
8 11 100 11 0.108054
9 11 100 11 0.113508
10 11 100 11 0.123023
11 11 100 11 0.172707
1 12 100 11 0.0387961
2 12 100 11 0.046306
3 12 100 11 0.0640605
4 12 100 11 0.0767664
5 12 100 11 0.0633086
6 12 100 11 0.0731047
7 12 100 11 0.0917661
8 12 100 11 0.10219
9 12 100 11 0.121173
10 12 100 11 0.132508
11 12 100 11 0.190021
1 13 100 11 0.0424605
2 13 100 11 0.0493008
3 13 100 11 0.0565761
4 13 100 11 0.0782641
5 13 100 11 0.0760493
6 13 100 11 0.0896679
7 13 100 11 0.0669671
8 13 100 11 0.100009
9 13 100 11 0.118337
10 13 100 11 0.119488
11 13 100 11 0.20288
1 14 100 11 0.0462618
2 14 100 11 0.074412
3 14 100 11 0.0786399
4 14 100 11 0.0693744
5 14 100 11 0.0753779
6 14 100 11 0.067245
7 14 100 11 0.092133
8 14 100 11 0.091989
9 14 100 11 0.0981697
10 14 100 11 0.122188
11 14 100 11 0.18421
1 15 100 11 0.0652051
2 15 100 11 0.0709262
3 15 100 11 0.0598985
4 15 100 11 0.072281
5 15 100 11 0.0549051
6 15 100 11 0.0767393
7 15 100 11 0.0903655
8 15 100 11 0.0865441
9 15 100 11 0.111964
10 15 100 11 0.126342
11 15 100 11 0.184829
1 16 100 11 0.0426425
2 16 100 11 0.060095
3 16 100 11 0.0761985
4 16 100 11 0.0611053
5 16 100 11 0.0721788
6 16 100 11 0.0845943
7 16 100 11 0.085766
8 16 100 11 0.124316
9 16 100 11 0.107977
10 16 100 11 0.124835
11 16 100 11 0.160291
1 17 100 11 0.0831686
2 17 100 11 0.0963711
3 17 100 11 0.0697221
4 17 100 11 0.0990559
5 17 100 11 0.071368
6 17 100 11 0.0777341
7 17 100 11 0.0920246
8 17 100 11 0.0614707
9 17 100 11 0.112463
10 17 100 11 0.0664106
11 17 100 11 0.170212
1 18 100 11 0.0688913
2 18 100 11 0.111264
3 18 100 11 0.0906267
4 18 100 11 0.152473
5 18 100 11 0.060729
6 18 100 11 0.0877521
7 18 100 11 0.0800978
8 18 100 11 0.066231
9 18 100 11 0.0782944
10 18 100 11 0.0962192
11 18 100 11 0.107422
1 19 100 11 0.0547943
2 19 100 11 0.0655036
3 19 100 11 0.0488315
4 19 100 11 0.100987
5 19 100 11 0.0479377
6 19 100 11 0.0521724
7 19 100 11 0.157576
8 19 100 11 0.0698619
9 19 100 11 0.135676
10 19 100 11 0.122932
11 19 100 11 0.143728
1 20 100 11 0.00287751
2 20 100 11 0.0696791
3 20 100 11 0.00409622
4 20 100 11 0.044201
5 20 100 11 0.136742
6 20 100 11 0.143577
7 20 100 11 0.0781451
8 20 100 11 0.174184
9 20 100 11 0.0887985
10 20 100 11 0.144123
11 20 100 11 0.113577
1 21 100 11 0.0359435
2 21 100 11 0.0350852
3 21 100 11 0.034333
4 21 100 11 0.0411819
5 21 100 11 0.151323
6 21 100 11 0.176617
7 21 100 11 0.169562
8 21 100 11 0.0581688
9 21 100 11 0.101376
10 21 100 11 0.0671384
11 21 100 11 0.129271
1 22 100 11 0.0881345
2 22 100 11 0.0943816
3 22 100 11 0.0943875
4 22 100 11 0.00100426
5 22 100 11 0.0952323
6 22 100 11 0.096866
7 22 100 11 0.0977259
8 22 100 11 0.130865
9 22 100 11 0.0942089
10 22 100 11 0.0948087
11 22 100 11 0.112385
1 23 100 11 0.0440645
2 23 100 11 5.6433e-07
4 23 100 11 1.67734e-06
5 23 100 11 0.000239299
6 23 100 11 0.213953
7 23 100 11 0.234606
8 23 100 11 0.0655902
9 23 100 11 0.00888044
10 23 100 11 0.211326
11 23 100 11 0.221337
1 24 100 11 4.3362e-06
2 24 100 11 0.146101
3 24 100 11 0.0563114
4 24 100 11 0.0472952
5 24 100 11 0.0398801
6 24 100 11 0.0324342
7 24 100 11 0.129826
8 24 100 11 0.141644
9 24 100 11 0.139796
10 24 100 11 0.131843
11 24 100 11 0.134866
1 25 100 11 0.00113674
3 25 100 11 0.000251641
5 25 100 11 0.0286725
8 25 100 11 0.121536
10 25 100 11 0.848403
3 26 100 11 0.00245943
4 26 100 11 0.0300028
5 26 100 11 0.947313
7 26 100 11 0.000147829
8 26 100 11 0.0010099
9 26 100 11 0.0178053
10 26 100 11 0.00126154
2 27 100 11 0.999067
3 27 100 11 0.000933203
5 28 100 11 0.384157
9 28 100 11 0.615843
4 29 100 11 0.715958
5 29 100 11 0.284043
1 0 100 12 0.000496946
2 0 100 12 0.0461747
3 0 100 12 0.0892525
4 0 100 12 0.102568
5 0 100 12 0.105685
6 0 100 12 0.0968572
7 0 100 12 0.0981236
8 0 100 12 0.09874
9 0 100 12 0.0911783
10 0 100 12 0.130964
11 0 100 12 0.139948
12 0 100 12 1.24915e-05
1 1 100 12 0.537161
2 1 100 12 0.149738
3 1 100 12 0.0581967
4 1 100 12 0.0450037
5 1 100 12 0.0373768
6 1 100 12 0.0364073
7 1 100 12 0.0282099
8 1 100 12 0.0253716
9 1 100 12 0.0240545
10 1 100 12 0.0176284
11 1 100 12 0.018834
12 1 100 12 0.0220173
1 2 100 12 0.0803983
2 2 100 12 0.295479
3 2 100 12 0.169285
4 2 100 12 0.0961327
5 2 100 12 0.0675443
6 2 100 12 0.0580166
7 2 100 12 0.0455318
8 2 100 12 0.0400832
9 2 100 12 0.0412375
10 2 100 12 0.0342924
11 2 100 12 0.0298912
12 2 100 12 0.0421079
1 3 100 12 0.0509673
2 3 100 12 0.118183
3 3 100 12 0.16883
4 3 100 12 0.136663
5 3 100 12 0.109378
6 3 100 12 0.0873755
7 3 100 12 0.0633743
8 3 100 12 0.0505066
9 3 100 12 0.056658
10 3 100 12 0.0509289
11 3 100 12 0.0477929
12 3 100 12 0.0593425
1 4 100 12 0.041222
2 4 100 12 0.0668798
3 4 100 12 0.111072
4 4 100 12 0.135723
5 4 100 12 0.117818
6 4 100 12 0.109474
7 4 100 12 0.0836169
8 4 100 12 0.0657114
9 4 100 12 0.0663104
10 4 100 12 0.0569807
11 4 100 12 0.0605637
12 4 100 12 0.0846282
1 5 100 12 0.0462037
2 5 100 12 0.0565211
3 5 100 12 0.0772908
4 5 100 12 0.0979367
5 5 100 12 0.116142
6 5 100 12 0.115871
7 5 100 12 0.105161
8 5 100 12 0.0907654
9 5 100 12 0.0733201
10 5 100 12 0.0644283
11 5 100 12 0.065657
12 5 100 12 0.0907036
1 6 100 12 0.0432343
2 6 100 12 0.0612038
3 6 100 12 0.0605067
4 6 100 12 0.071892
5 6 100 12 0.0970782
6 6 100 12 0.110231
7 6 100 12 0.112223
8 6 100 12 0.104753
9 6 100 12 0.093508
10 6 100 12 0.0790653
11 6 100 12 0.0747048
12 6 100 12 0.0916004
1 7 100 12 0.0396576
2 7 100 12 0.0483477
3 7 100 12 0.0550675
4 7 100 12 0.0631365
5 7 100 12 0.0766304
6 7 100 12 0.100124
7 7 100 12 0.115229
8 7 100 12 0.122833
9 7 100 12 0.104922
10 7 100 12 0.0858266
11 7 100 12 0.0780127
12 7 100 12 0.110212
1 8 100 12 0.0310075
2 8 100 12 0.0415945
3 8 100 12 0.052759
4 8 100 12 0.0571218
5 8 100 12 0.0664736
6 8 100 12 0.0835422
7 8 100 12 0.109358
8 8 100 12 0.117438
9 8 100 12 0.125709
10 8 100 12 0.104566
11 8 100 12 0.0925606
12 8 100 12 0.11787
1 9 100 12 0.0313859
2 9 100 12 0.0417182
3 9 100 12 0.0499882
4 9 100 12 0.0621968
5 9 100 12 0.0679784
6 9 100 12 0.0724501
7 9 100 12 0.0924014
8 9 100 12 0.107395
9 9 100 12 0.115725
10 9 100 12 0.112009
11 9 100 12 0.0987507
12 9 100 12 0.148001
1 10 100 12 0.0356219
2 10 100 12 0.0490627
3 10 100 12 0.0513051
4 10 100 12 0.0534853
5 10 100 12 0.0685395
6 10 100 12 0.0708416
7 10 100 12 0.0875192
8 10 100 12 0.105155
9 10 100 12 0.116881
10 10 100 12 0.108898
11 10 100 12 0.103703
12 10 100 12 0.148988
1 11 100 12 0.0380356
2 11 100 12 0.0476509
3 11 100 12 0.0521155
4 11 100 12 0.0650339
5 11 100 12 0.0704843
6 11 100 12 0.0796689
7 11 100 12 0.0786321
8 11 100 12 0.0825067
9 11 100 12 0.100612
10 11 100 12 0.111766
11 11 100 12 0.113195
12 11 100 12 0.160299
1 12 100 12 0.0330257
2 12 100 12 0.0471622
3 12 100 12 0.0520588
4 12 100 12 0.0596544
5 12 100 12 0.0602876
6 12 100 12 0.0715643
7 12 100 12 0.0737862
8 12 100 12 0.0853902
9 12 100 12 0.107559
10 12 100 12 0.112337
11 12 100 12 0.12362
12 12 100 12 0.173555
1 13 100 12 0.0269865
2 13 100 12 0.0515215
3 13 100 12 0.0552749
4 13 100 12 0.0627046
5 13 100 12 0.0541767
6 13 100 12 0.0584181
7 13 100 12 0.0760425
8 13 100 12 0.0885693
9 13 100 12 0.102704
10 13 100 12 0.10639
11 13 100 12 0.122528
12 13 100 12 0.194683
1 14 100 12 0.0294908
2 14 100 12 0.0482386
3 14 100 12 0.0636405
4 14 100 12 0.0755129
5 14 100 12 0.0669252
6 14 100 12 0.0583594
7 14 100 12 0.0786929
8 14 100 12 0.0939974
9 14 100 12 0.0997845
10 14 100 12 0.102766
11 14 100 12 0.105789
12 14 100 12 0.176802
1 15 100 12 0.0484762
2 15 100 12 0.0396077
3 15 100 12 0.0463948
4 15 100 12 0.0480394
5 15 100 12 0.0689595
6 15 100 12 0.0571217
7 15 100 12 0.0586243
8 15 100 12 0.0860171
9 15 100 12 0.113886
10 15 100 12 0.0994669
11 15 100 12 0.141439
12 15 100 12 0.191967
1 16 100 12 0.0233625
2 16 100 12 0.0541931
3 16 100 12 0.0738488
4 16 100 12 0.0876613
5 16 100 12 0.0838142
6 16 100 12 0.0571067
7 16 100 12 0.0725315
8 16 100 12 0.0858839
9 16 100 12 0.110628
10 16 100 12 0.0943302
11 16 100 12 0.0930255
12 16 100 12 0.163614
1 17 100 12 0.0290141
2 17 100 12 0.0308275
3 17 100 12 0.0664175
4 17 100 12 0.0730432
5 17 100 12 0.0455715
6 17 100 12 0.0802777
7 17 100 12 0.0855559
8 17 100 12 0.0947854
9 17 100 12 0.0852946
10 17 100 12 0.0779675
11 17 100 12 0.132386
12 17 100 12 0.19886
1 18 100 12 0.0577379
2 18 100 12 0.106485
3 18 100 12 0.05278
4 18 100 12 0.044446
5 18 100 12 0.0559017
6 18 100 12 0.0601693
7 18 100 12 0.0811595
8 18 100 12 0.069114
9 18 100 12 0.0790807
10 18 100 12 0.0979417
11 18 100 12 0.123366
12 18 100 12 0.171819
1 19 100 12 0.077741
2 19 100 12 0.0701987
3 19 100 12 0.0474495
4 19 100 12 0.0519316
5 19 100 12 0.0711716
6 19 100 12 0.0547259
7 19 100 12 0.0791667
8 19 100 12 0.0653975
9 19 100 12 0.0497138
10 19 100 12 0.125343
11 19 100 12 0.101032
12 19 100 12 0.206129
1 20 100 12 0.0226655
2 20 100 12 0.0766136
3 20 100 12 0.136918
4 20 100 12 0.11026
5 20 100 12 0.0377838
6 20 100 12 0.0327341
7 20 100 12 0.0490826
8 20 100 12 0.0667311
9 20 100 12 0.0803321
10 20 100 12 0.12685
11 20 100 12 0.11424
12 20 100 12 0.14579
1 21 100 12 0.000981843
2 21 100 12 1.01337e-05
3 21 100 12 0.0334923
4 21 100 12 0.139868
5 21 100 12 0.164039
6 21 100 12 0.0060655
7 21 100 12 0.0496484
8 21 100 12 0.130161
9 21 100 12 0.091672
10 21 100 12 0.110279
11 21 100 12 0.138429
12 21 100 12 0.135354
1 22 100 12 0.0028784
2 22 100 12 2.29192e-05
3 22 100 12 7.41639e-05
4 22 100 12 0.11557
5 22 100 12 0.115131
6 22 100 12 0.21804
7 22 100 12 0.111604
8 22 100 12 0.000351459
9 22 100 12 0.000921989
10 22 100 12 0.102533
11 22 100 12 0.218433
12 22 100 12 0.114439
1 23 100 12 0.000721961
2 23 100 12 1.68515e-05
3 23 100 12 0.000160703
4 23 100 12 0.0120622
5 23 100 12 0.00494897
6 23 100 12 0.113579
7 23 100 12 0.000188288
8 23 100 12 0.184855
9 23 100 12 0.178771
10 23 100 12 0.149966
11 23 100 12 0.174922
12 23 100 12 0.179808
1 24 100 12 0.000402413
2 24 100 12 1.51069e-06
3 24 100 12 1.99908e-07
4 24 100 12 0.0704145
5 24 100 12 0.0738897
6 24 100 12 0.156733
7 24 100 12 0.146572
8 24 100 12 0.126223
9 24 100 12 0.139849
10 24 100 12 0.137453
11 24 100 12 0.0742307
12 24 100 12 0.0742311
1 25 100 12 4.16813e-06
2 25 100 12 8.29054e-05
3 25 100 12 0.00261562
4 25 100 12 0.0520731
5 25 100 12 1.34514e-05
6 25 100 12 0.0023643
7 25 100 12 0.0019694
8 25 100 12 0.017145
10 25 100 12 4.30882e-05
11 25 100 12 4.36318e-05
12 25 100 12 0.923645
1 26 100 12 0.0450861
2 26 100 12 3.49734e-05
3 26 100 12 1.80154e-05
4 26 100 12 0.00228003
7 26 100 12 0.000369507
8 26 100 12 0.000158052
9 26 100 12 0.950802
10 26 100 12 1.88608e-05
11 26 100 12 0.00123252
1 27 100 12 0.0716869
3 27 100 12 0.0716871
4 27 100 12 0.0716904
5 27 100 12 0.142729
6 27 100 12 0.142996
7 27 100 12 0.143373
8 27 100 12 0.0751834
9 27 100 12 0.00759949
10 27 100 12 3.25893e-05
11 27 100 12 0.143374
12 27 100 12 0.129648
1 28 100 12 0.00606344
4 28 100 12 1.82239e-06
9 28 100 12 0.993928
10 28 100 12 7.08289e-06
1 0 100 13 0.000318697
2 0 100 13 0.0398643
3 0 100 13 0.0855777
4 0 100 13 0.0932665
5 0 100 13 0.0970574
6 0 100 13 0.0886281
7 0 100 13 0.0836407
8 0 100 13 0.0860394
9 0 100 13 0.0920665
10 0 100 13 0.0838647
11 0 100 13 0.117365
12 0 100 13 0.132304
13 0 100 13 7.04302e-06
1 1 100 13 0.511343
2 1 100 13 0.147782
3 1 100 13 0.061097
4 1 100 13 0.0471526
5 1 100 13 0.0380388
6 1 100 13 0.035915
7 1 100 13 0.0331112
8 1 100 13 0.0260594
9 1 100 13 0.0253356
10 1 100 13 0.0204047
11 1 100 13 0.0179395
12 1 100 13 0.0160683
13 1 100 13 0.0197525
1 2 100 13 0.0913767
2 2 100 13 0.285958
3 2 100 13 0.155122
4 2 100 13 0.086501
5 2 100 13 0.067774
6 2 100 13 0.0599067
7 2 100 13 0.0457244
8 2 100 13 0.046009
9 2 100 13 0.0357612
10 2 100 13 0.0334411
11 2 100 13 0.029304
12 2 100 13 0.0296209
13 2 100 13 0.0335009
1 3 100 13 0.053406
2 3 100 13 0.115272
3 3 100 13 0.165792
4 3 100 13 0.145653
5 3 100 13 0.0999159
6 3 100 13 0.0713354
7 3 100 13 0.0604384
8 3 100 13 0.0507497
9 3 100 13 0.0473096
10 3 100 13 0.0441987
11 3 100 13 0.0442914
12 3 100 13 0.0412421
13 3 100 13 0.0603965
1 4 100 13 0.0539527
2 4 100 13 0.0688344
3 4 100 13 0.108106
4 4 100 13 0.132646
5 4 100 13 0.127365
6 4 100 13 0.108017
7 4 100 13 0.0801729
8 4 100 13 0.0631111
9 4 100 13 0.0540236
10 4 100 13 0.0475553
11 4 100 13 0.0511427
12 4 100 13 0.0414212
13 4 100 13 0.0636529
1 5 100 13 0.0414694
2 5 100 13 0.055657
3 5 100 13 0.0747352
4 5 100 13 0.100731
5 5 100 13 0.113631
6 5 100 13 0.110596
7 5 100 13 0.100895
8 5 100 13 0.0799203
9 5 100 13 0.0694315
10 5 100 13 0.0666011
11 5 100 13 0.0555535
12 5 100 13 0.0567686
13 5 100 13 0.07401
1 6 100 13 0.0317197
2 6 100 13 0.0612606
3 6 100 13 0.0564233
4 6 100 13 0.0717938
5 6 100 13 0.0964659
6 6 100 13 0.112937
7 6 100 13 0.112446
8 6 100 13 0.101542
9 6 100 13 0.0840134
10 6 100 13 0.0799807
11 6 100 13 0.0576582
12 6 100 13 0.0611424
13 6 100 13 0.0726169
1 7 100 13 0.0348641
2 7 100 13 0.0410984
3 7 100 13 0.0468856
4 7 100 13 0.0584585
5 7 100 13 0.0648829
6 7 100 13 0.101415
7 7 100 13 0.109515
8 7 100 13 0.118764
9 7 100 13 0.10222
10 7 100 13 0.0948723
11 7 100 13 0.0711792
12 7 100 13 0.0640676
13 7 100 13 0.0917778
1 8 100 13 0.0306496
2 8 100 13 0.0392349
3 8 100 13 0.045433
4 8 100 13 0.053143
5 8 100 13 0.0649703
6 8 100 13 0.0737056
7 8 100 13 0.0949624
8 8 100 13 0.108075
9 8 100 13 0.108766
10 8 100 13 0.0989722
11 8 100 13 0.0956722
12 8 100 13 0.0785399
13 8 100 13 0.107876
1 9 100 13 0.0330389
2 9 100 13 0.0383827
3 9 100 13 0.0441824
4 9 100 13 0.0486415
5 9 100 13 0.0525665
6 9 100 13 0.0703974
7 9 100 13 0.0866573
8 9 100 13 0.0988437
9 9 100 13 0.102842
10 9 100 13 0.109878
11 9 100 13 0.0989507
12 9 100 13 0.0881898
13 9 100 13 0.12743
1 10 100 13 0.0326067
2 10 100 13 0.036931
3 10 100 13 0.0435424
4 10 100 13 0.0473731
5 10 100 13 0.0594861
6 10 100 13 0.0582794
7 10 100 13 0.0773282
8 10 100 13 0.0855369
9 10 100 13 0.104333
10 10 100 13 0.115631
11 10 100 13 0.098243
12 10 100 13 0.100812
13 10 100 13 0.139896
1 11 100 13 0.0284437
2 11 100 13 0.0414464
3 11 100 13 0.0480245
4 11 100 13 0.0453346
5 11 100 13 0.053135
6 11 100 13 0.0603418
7 11 100 13 0.0696961
8 11 100 13 0.0786595
9 11 100 13 0.0995396
10 11 100 13 0.108008
11 11 100 13 0.112473
12 11 100 13 0.101499
13 11 100 13 0.153398
1 12 100 13 0.0249625
2 12 100 13 0.0495795
3 12 100 13 0.0529091
4 12 100 13 0.0507673
5 12 100 13 0.0514464
6 12 100 13 0.0561681
7 12 100 13 0.0715889
8 12 100 13 0.0818162
9 12 100 13 0.0864274
10 12 100 13 0.104138
11 12 100 13 0.106465
12 12 100 13 0.108492
13 12 100 13 0.155239
1 13 100 13 0.0227804
2 13 100 13 0.0289002
3 13 100 13 0.0421719
4 13 100 13 0.0434705
5 13 100 13 0.0541212
6 13 100 13 0.0508331
7 13 100 13 0.0659278
8 13 100 13 0.0785007
9 13 100 13 0.0933413
10 13 100 13 0.115425
11 13 100 13 0.104769
12 13 100 13 0.118807
13 13 100 13 0.180953
1 14 100 13 0.0303852
2 14 100 13 0.0507793
3 14 100 13 0.0548535
4 14 100 13 0.060934
5 14 100 13 0.0500072
6 14 100 13 0.062651
7 14 100 13 0.0711373
8 14 100 13 0.0593677
9 14 100 13 0.0777923
10 14 100 13 0.116014
11 14 100 13 0.105863
12 14 100 13 0.100041
13 14 100 13 0.160174
1 15 100 13 0.0408792
2 15 100 13 0.059745
3 15 100 13 0.0548193
4 15 100 13 0.0513967
5 15 100 13 0.0554233
6 15 100 13 0.0614219
7 15 100 13 0.0559521
8 15 100 13 0.0754405
9 15 100 13 0.072699
10 15 100 13 0.100162
11 15 100 13 0.0995373
12 15 100 13 0.112714
13 15 100 13 0.159809
1 16 100 13 0.0296108
2 16 100 13 0.0417743
3 16 100 13 0.0429839
4 16 100 13 0.0521187
5 16 100 13 0.050997
6 16 100 13 0.0694877
7 16 100 13 0.0763844
8 16 100 13 0.0770651
9 16 100 13 0.0859285
10 16 100 13 0.103529
11 16 100 13 0.0959753
12 16 100 13 0.0988073
13 16 100 13 0.175338
1 17 100 13 0.0299366
2 17 100 13 0.0470419
3 17 100 13 0.0529991
4 17 100 13 0.0889116
5 17 100 13 0.066718
6 17 100 13 0.0563446
7 17 100 13 0.0592298
8 17 100 13 0.0703963
9 17 100 13 0.065435
10 17 100 13 0.0790118
11 17 100 13 0.103111
12 17 100 13 0.115145
13 17 100 13 0.165719
1 18 100 13 0.0312861
2 18 100 13 0.0351178
3 18 100 13 0.0485175
4 18 100 13 0.0580219
5 18 100 13 0.0841206
6 18 100 13 0.0855445
7 18 100 13 0.0600532
8 18 100 13 0.0895216
9 18 100 13 0.0771468
10 18 100 13 0.0992664
11 18 100 13 0.0951146
12 18 100 13 0.0665469
13 18 100 13 0.169742
1 19 100 13 0.0715843
2 19 100 13 0.0704994
3 19 100 13 0.0285575
4 19 100 13 0.05685
5 19 100 13 0.0549918
6 19 100 13 0.0391599
7 19 100 13 0.0261782
8 19 100 13 0.0270203
9 19 100 13 0.0658331
10 19 100 13 0.126453
11 19 100 13 0.0829899
12 19 100 13 0.175701
13 19 100 13 0.174181
1 20 100 13 0.00159154
2 20 100 13 0.0206009
3 20 100 13 0.0225354
4 20 100 13 0.0650904
5 20 100 13 0.0532523
6 20 100 13 0.0965332
7 20 100 13 0.0578922
8 20 100 13 0.0790919
9 20 100 13 0.0766223
10 20 100 13 0.055079
11 20 100 13 0.156156
12 20 100 13 0.159104
13 20 100 13 0.156451
1 21 100 13 0.0423768
2 21 100 13 0.0759432
3 21 100 13 0.0482096
4 21 100 13 0.0363645
5 21 100 13 0.0469662
6 21 100 13 0.0646089
7 21 100 13 0.0862905
8 21 100 13 0.0705373
9 21 100 13 0.0807749
10 21 100 13 0.0959931
11 21 100 13 0.086289
12 21 100 13 0.137544
13 21 100 13 0.128102
1 22 100 13 0.07997
2 22 100 13 0.100422
3 22 100 13 0.0678174
4 22 100 13 0.00510284
5 22 100 13 0.0812063
6 22 100 13 0.0640653
7 22 100 13 1.65481e-05
8 22 100 13 0.0792719
9 22 100 13 0.0691926
10 22 100 13 0.0639443
11 22 100 13 0.0538667
12 22 100 13 0.0967218
13 22 100 13 0.238403
1 23 100 13 0.000955709
2 23 100 13 0.00406666
3 23 100 13 0.104726
4 23 100 13 2.13285e-05
5 23 100 13 0.00770566
6 23 100 13 0.126932
7 23 100 13 0.150776
8 23 100 13 0.0294265
9 23 100 13 0.0996836
10 23 100 13 0.0102359
11 23 100 13 0.000807312
12 23 100 13 0.21172
13 23 100 13 0.252943
1 24 100 13 0.00229345
2 24 100 13 5.61415e-05
3 24 100 13 0.000135523
4 24 100 13 0.236196
5 24 100 13 0.466553
6 24 100 13 0.0784209
7 24 100 13 0.000228185
8 24 100 13 0.000577139
9 24 100 13 0.000819781
10 24 100 13 0.000255034
11 24 100 13 0.00145459
12 24 100 13 0.00445489
13 24 100 13 0.208555
1 25 100 13 0.000117939
2 25 100 13 5.83123e-06
3 25 100 13 2.70355e-07
4 25 100 13 0.000610999
5 25 100 13 0.114365
6 25 100 13 0.0572296
7 25 100 13 0.166893
8 25 100 13 0.114342
9 25 100 13 0.166551
10 25 100 13 0.0195009
11 25 100 13 0.115804
12 25 100 13 0.114073
13 25 100 13 0.130506
1 26 100 13 0.103222
2 26 100 13 0.100523
3 26 100 13 0.0969913
4 26 100 13 4.00507e-06
5 26 100 13 0.0642058
6 26 100 13 0.103362
7 26 100 13 0.10238
8 26 100 13 0.100306
9 26 100 13 0.00587352
10 26 100 13 2.02773e-06
11 26 100 13 0.104133
12 26 100 13 0.11398
13 26 100 13 0.105018
1 27 100 13 0.000186148
2 27 100 13 0.00137746
3 27 100 13 0.00773238
4 27 100 13 0.000343371
5 27 100 13 2.97234e-05
6 27 100 13 0.000443444
7 27 100 13 4.81783e-06
8 27 100 13 0.0143894
9 27 100 13 0.893293
10 27 100 13 0.0620449
11 27 100 13 0.0201553
1 28 100 13 0.00755647
3 28 100 13 0.0112313
4 28 100 13 0.00187983
5 28 100 13 7.54359e-07
6 28 100 13 7.56958e-07
7 28 100 13 1.22714e-06
10 28 100 13 0.979326
11 28 100 13 3.36154e-06
3 29 100 13 9.18432e-06
4 29 100 13 3.04619e-05
8 29 100 13 0.00150043
9 29 100 13 0.139945
10 29 100 13 0.193199
11 29 100 13 0.38496
12 29 100 13 0.140168
13 29 100 13 0.140189
1 30 100 13 0.00126408
2 30 100 13 2.10299e-06
4 30 100 13 2.14295e-06
5 30 100 13 2.26452e-06
6 30 100 13 0.427991
7 30 100 13 0.393922
8 30 100 13 0.176058
9 30 100 13 0.000727921
10 30 100 13 3.08107e-05
9 31 100 13 0.00257911
11 31 100 13 3.56436e-06
12 31 100 13 0.996438
13 31 100 13 0.000979654
6 32 100 13 0.00253683
11 32 100 13 0.000829214
13 32 100 13 0.996634
10 33 100 13 1
1 0 100 14 0.000537166
2 0 100 14 0.0387268
3 0 100 14 0.0813482
4 0 100 14 0.0856816
5 0 100 14 0.0877467
6 0 100 14 0.087161
7 0 100 14 0.077372
8 0 100 14 0.0770571
9 0 100 14 0.0765558
10 0 100 14 0.0828993
11 0 100 14 0.0761791
12 0 100 14 0.112548
13 0 100 14 0.116057
14 0 100 14 0.000129422
1 1 100 14 0.503426
2 1 100 14 0.148818
3 1 100 14 0.0550588
4 1 100 14 0.0467501
5 1 100 14 0.0404572
6 1 100 14 0.0361503
7 1 100 14 0.0297939
8 1 100 14 0.026824
9 1 100 14 0.0231258
10 1 100 14 0.0238022
11 1 100 14 0.0195827
12 1 100 14 0.0146014
13 1 100 14 0.012917
14 1 100 14 0.0186932
1 2 100 14 0.0966797
2 2 100 14 0.280888
3 2 100 14 0.160305
4 2 100 14 0.0932151
5 2 100 14 0.0634901
6 2 100 14 0.0515012
7 2 100 14 0.0401262
8 2 100 14 0.0383241
9 2 100 14 0.0385989
10 2 100 14 0.0333313
11 2 100 14 0.0300173
12 2 100 14 0.0232626
13 2 100 14 0.0201918
14 2 100 14 0.0300694
1 3 100 14 0.0560777
2 3 100 14 0.11262
3 3 100 14 0.157759
4 3 100 14 0.132755
5 3 100 14 0.10851
6 3 100 14 0.0732771
7 3 100 14 0.0612692
8 3 100 14 0.0522479
9 3 100 14 0.0450284
10 3 100 14 0.0390724
11 3 100 14 0.0419777
12 3 100 14 0.035748
13 3 100 14 0.0347529
14 3 100 14 0.0489052
1 4 100 14 0.0404904
2 4 100 14 0.0766826
3 4 100 14 0.105529
4 4 100 14 0.1218
5 4 100 14 0.117497
6 4 100 14 0.0991639
7 4 100 14 0.0896589
8 4 100 14 0.0599966
9 4 100 14 0.0516191
10 4 100 14 0.0517029
11 4 100 14 0.0478857
12 4 100 14 0.042739
13 4 100 14 0.0419155
14 4 100 14 0.0533189
1 5 100 14 0.0410386
2 5 100 14 0.0560146
3 5 100 14 0.0796198
4 5 100 14 0.0976795
5 5 100 14 0.113389
6 5 100 14 0.113765
7 5 100 14 0.0977876
8 5 100 14 0.0696299
9 5 100 14 0.0642132
10 5 100 14 0.0569297
11 5 100 14 0.054502
12 5 100 14 0.0445686
13 5 100 14 0.0507709
14 5 100 14 0.0600919
1 6 100 14 0.0333183
2 6 100 14 0.0424532
3 6 100 14 0.0578035
4 6 100 14 0.074906
5 6 100 14 0.0926269
6 6 100 14 0.116505
7 6 100 14 0.116944
8 6 100 14 0.0962477
9 6 100 14 0.0783458
10 6 100 14 0.0646481
11 6 100 14 0.0549419
12 6 100 14 0.0545653
13 6 100 14 0.0495496
14 6 100 14 0.0671453
1 7 100 14 0.0310536
2 7 100 14 0.0401074
3 7 100 14 0.0505636
4 7 100 14 0.0567923
5 7 100 14 0.0703185
6 7 100 14 0.0980289
7 7 100 14 0.104113
8 7 100 14 0.115177
9 7 100 14 0.0991441
10 7 100 14 0.0797965
11 7 100 14 0.0694982
12 7 100 14 0.0556627
13 7 100 14 0.0569224
14 7 100 14 0.0728218
1 8 100 14 0.029856
2 8 100 14 0.0329482
3 8 100 14 0.0458169
4 8 100 14 0.0457679
5 8 100 14 0.0549359
6 8 100 14 0.0677016
7 8 100 14 0.0956823
8 8 100 14 0.114445
9 8 100 14 0.111533
10 8 100 14 0.0898849
11 8 100 14 0.0797643
12 8 100 14 0.0737986
13 8 100 14 0.0644377
14 8 100 14 0.0934275
1 9 100 14 0.0257348
2 9 100 14 0.0370279
3 9 100 14 0.0416342
4 9 100 14 0.0476139
5 9 100 14 0.0493046
6 9 100 14 0.0517554
7 9 100 14 0.0743354
8 9 100 14 0.0961306
9 9 100 14 0.112806
10 9 100 14 0.096308
11 9 100 14 0.105061
12 9 100 14 0.0853164
13 9 100 14 0.0779985
14 9 100 14 0.098973
1 10 100 14 0.0266535
2 10 100 14 0.0309812
3 10 100 14 0.0309888
4 10 100 14 0.0488915
5 10 100 14 0.0504122
6 10 100 14 0.0549444
7 10 100 14 0.0577206
8 10 100 14 0.083828
9 10 100 14 0.0950806
10 10 100 14 0.0990667
11 10 100 14 0.111324
12 10 100 14 0.0889064
13 10 100 14 0.0954359
14 10 100 14 0.125766
1 11 100 14 0.0246888
2 11 100 14 0.0337885
3 11 100 14 0.0346924
4 11 100 14 0.0407817
5 11 100 14 0.0469969
6 11 100 14 0.0558066
7 11 100 14 0.0627138
8 11 100 14 0.0673662
9 11 100 14 0.0840058
10 11 100 14 0.0995575
11 11 100 14 0.108617
12 11 100 14 0.0961152
13 11 100 14 0.103887
14 11 100 14 0.140982
1 12 100 14 0.0218702
2 12 100 14 0.0324707
3 12 100 14 0.0360888
4 12 100 14 0.044163
5 12 100 14 0.0468363
6 12 100 14 0.0442371
7 12 100 14 0.0563194
8 12 100 14 0.0671275
9 12 100 14 0.0736848
10 12 100 14 0.100396
11 12 100 14 0.113816
12 12 100 14 0.104142
13 12 100 14 0.104728
14 12 100 14 0.154119
1 13 100 14 0.0254061
2 13 100 14 0.0385075
3 13 100 14 0.0365291
4 13 100 14 0.047109
5 13 100 14 0.0415484
6 13 100 14 0.0469423
7 13 100 14 0.0602603
8 13 100 14 0.0627773
9 13 100 14 0.0766763
10 13 100 14 0.0966091
11 13 100 14 0.0998908
12 13 100 14 0.105457
13 13 100 14 0.105455
14 13 100 14 0.156832
1 14 100 14 0.0326483
2 14 100 14 0.0410859
3 14 100 14 0.0410779
4 14 100 14 0.0401042
5 14 100 14 0.0464937
6 14 100 14 0.0570992
7 14 100 14 0.0595856
8 14 100 14 0.0656727
9 14 100 14 0.0618049
10 14 100 14 0.0812122
11 14 100 14 0.112279
12 14 100 14 0.0986672
13 14 100 14 0.105158
14 14 100 14 0.157111
1 15 100 14 0.0282425
2 15 100 14 0.036432
3 15 100 14 0.0278469
4 15 100 14 0.0310016
5 15 100 14 0.0501553
6 15 100 14 0.0523418
7 15 100 14 0.0586369
8 15 100 14 0.0678776
9 15 100 14 0.0870786
10 15 100 14 0.0856773
11 15 100 14 0.0994175
12 15 100 14 0.112622
13 15 100 14 0.0971137
14 15 100 14 0.165556
1 16 100 14 0.0134045
2 16 100 14 0.0361151
3 16 100 14 0.0411223
4 16 100 14 0.0479377
5 16 100 14 0.0495649
6 16 100 14 0.0503861
7 16 100 14 0.0687931
8 16 100 14 0.0662855
9 16 100 14 0.0792182
10 16 100 14 0.101564
11 16 100 14 0.0986135
12 16 100 14 0.0933151
13 16 100 14 0.0916838
14 16 100 14 0.161996
1 17 100 14 0.0260339
2 17 100 14 0.0353236
3 17 100 14 0.0383936
4 17 100 14 0.0416023
5 17 100 14 0.0574691
6 17 100 14 0.0495637
7 17 100 14 0.0709104
8 17 100 14 0.0750401
9 17 100 14 0.0697731
10 17 100 14 0.0862229
11 17 100 14 0.0990736
12 17 100 14 0.120906
13 17 100 14 0.0896152
14 17 100 14 0.140073
1 18 100 14 0.0523279
2 18 100 14 0.0555464
3 18 100 14 0.0544246
4 18 100 14 0.0444793
5 18 100 14 0.0302648
6 18 100 14 0.0308946
7 18 100 14 0.0525902
8 18 100 14 0.0592786
9 18 100 14 0.0749184
10 18 100 14 0.0639467
11 18 100 14 0.0937977
12 18 100 14 0.120299
13 18 100 14 0.118273
14 18 100 14 0.148959
1 19 100 14 0.0383476
2 19 100 14 0.0433487
3 19 100 14 0.0365747
4 19 100 14 0.0638534
5 19 100 14 0.0511427
6 19 100 14 0.0532866
7 19 100 14 0.0450146
8 19 100 14 0.0641864
9 19 100 14 0.0654944
10 19 100 14 0.0841645
11 19 100 14 0.0717444
12 19 100 14 0.0837472
13 19 100 14 0.131945
14 19 100 14 0.16715
1 20 100 14 0.0148806
2 20 100 14 0.0427886
3 20 100 14 0.0428168
4 20 100 14 0.0312858
5 20 100 14 0.0393147
6 20 100 14 0.0390959
7 20 100 14 0.0607281
8 20 100 14 0.0702851
9 20 100 14 0.105828
10 20 100 14 0.119996
11 20 100 14 0.0671413
12 20 100 14 0.15452
13 20 100 14 0.0929912
14 20 100 14 0.118329
1 21 100 14 0.0290589
2 21 100 14 0.0922327
3 21 100 14 0.0326354
4 21 100 14 0.0906629
5 21 100 14 0.100195
6 21 100 14 0.0861312
7 21 100 14 0.062832
8 21 100 14 0.0567963
9 21 100 14 0.0333048
10 21 100 14 0.0473244
11 21 100 14 0.0397023
12 21 100 14 0.00444312
13 21 100 14 0.15896
14 21 100 14 0.165721
1 22 100 14 0.0138385
2 22 100 14 0.118132
3 22 100 14 0.0631295
4 22 100 14 0.051443
5 22 100 14 0.0543217
6 22 100 14 0.00224323
7 22 100 14 0.0274589
8 22 100 14 0.000266418
9 22 100 14 0.0522105
10 22 100 14 0.115393
11 22 100 14 0.125919
12 22 100 14 0.0797764
13 22 100 14 0.0057046
14 22 100 14 0.290163
1 23 100 14 0.00198703
2 23 100 14 2.95214e-05
3 23 100 14 9.07609e-05
4 23 100 14 3.74174e-06
5 23 100 14 0.000921454
6 23 100 14 0.0739481
7 23 100 14 0.0859357
8 23 100 14 0.115636
9 23 100 14 0.0705816
10 23 100 14 0.0664396
11 23 100 14 0.148968
12 23 100 14 0.178272
13 23 100 14 0.0697184
14 23 100 14 0.187469
1 24 100 14 0.00258786
2 24 100 14 0.00224178
3 24 100 14 0.000667233
4 24 100 14 0.136418
5 24 100 14 7.75104e-05
6 24 100 14 7.391e-06
7 24 100 14 0.000956175
8 24 100 14 0.00033984
9 24 100 14 0.00356742
10 24 100 14 0.00051454
11 24 100 14 0.0012848
12 24 100 14 0.0720712
13 24 100 14 0.274839
14 24 100 14 0.504427
1 25 100 14 0.000522222
2 25 100 14 0.000199638
3 25 100 14 8.78065e-05
4 25 100 14 0.1161
5 25 100 14 0.246339
6 25 100 14 0.00509111
7 25 100 14 0.127407
8 25 100 14 0.00240907
9 25 100 14 8.92359e-05
10 25 100 14 0.00866328
11 25 100 14 0.0340465
12 25 100 14 0.11885
13 25 100 14 0.223203
14 25 100 14 0.116992
1 26 100 14 0.000265451
2 26 100 14 1.61268e-06
3 26 100 14 6.60928e-06
4 26 100 14 2.67677e-06
5 26 100 14 0.0424563
6 26 100 14 0.0379699
7 26 100 14 1.8272e-07
8 26 100 14 0.000272952
9 26 100 14 0.0072659
10 26 100 14 0.144536
11 26 100 14 0.140795
12 26 100 14 0.159805
13 26 100 14 0.322934
14 26 100 14 0.143688
1 27 100 14 1.11843e-05
3 27 100 14 0.000102924
4 27 100 14 2.47136e-06
5 27 100 14 0.000708607
6 27 100 14 0.126649
7 27 100 14 0.597395
8 27 100 14 1.05467e-05
9 27 100 14 0.0058544
10 27 100 14 6.86676e-06
11 27 100 14 4.242e-06
12 27 100 14 0.000148872
13 27 100 14 0.269106
1 28 100 14 1.24752e-05
5 28 100 14 0.0520432
7 28 100 14 3.5232e-05
8 28 100 14 1.45607e-05
9 28 100 14 0.0102059
10 28 100 14 0.000140204
11 28 100 14 0.175796
13 28 100 14 1.77979e-05
14 28 100 14 0.761735
4 29 100 14 0.000114282
5 29 100 14 0.261517
7 29 100 14 7.73636e-05
8 29 100 14 4.47646e-06
9 29 100 14 9.17152e-05
10 29 100 14 3.3834e-05
11 29 100 14 0.701713
12 29 100 14 0.0364192
13 29 100 14 2.94698e-05
4 30 100 14 0.000430256
5 30 100 14 0.111068
6 30 100 14 0.108013
7 30 100 14 1.90899e-05
8 30 100 14 0.111456
9 30 100 14 0.112242
10 30 100 14 0.111017
11 30 100 14 0.111457
12 30 100 14 0.112072
13 30 100 14 0.110795
14 30 100 14 0.111432
6 31 100 14 0.00224012
10 31 100 14 2.90653e-05
13 31 100 14 0.997731
6 32 100 14 5.0059e-05
10 32 100 14 6.33007e-06
14 32 100 14 0.999944
9 33 100 14 1.42689e-05
12 33 100 14 0.00391519
13 33 100 14 5.04159e-06
14 33 100 14 0.996065
9 34 100 14 1
9 35 100 14 1
1 0 100 15 0.000653874
2 0 100 15 0.0340649
3 0 100 15 0.0684102
4 0 100 15 0.0822771
5 0 100 15 0.0791025
6 0 100 15 0.083386
7 0 100 15 0.0738052
8 0 100 15 0.0781534
9 0 100 15 0.072304
10 0 100 15 0.0731684
11 0 100 15 0.0732352
12 0 100 15 0.0765115
13 0 100 15 0.101598
14 0 100 15 0.10332
15 0 100 15 1.00131e-05
1 1 100 15 0.489173
2 1 100 15 0.13986
3 1 100 15 0.0575587
4 1 100 15 0.0382697
5 1 100 15 0.0402558
6 1 100 15 0.036696
7 1 100 15 0.033521
8 1 100 15 0.0325997
9 1 100 15 0.0238282
10 1 100 15 0.0235311
11 1 100 15 0.0190262
12 1 100 15 0.0169251
13 1 100 15 0.0109258
14 1 100 15 0.0157167
15 1 100 15 0.0221133
1 2 100 15 0.0907661
2 2 100 15 0.295389
3 2 100 15 0.159267
4 2 100 15 0.0901521
5 2 100 15 0.0649258
6 2 100 15 0.0482687
7 2 100 15 0.0484551
8 2 100 15 0.0381764
9 2 100 15 0.0329673
10 2 100 15 0.0235016
11 2 100 15 0.0254335
12 2 100 15 0.0242232
13 2 100 15 0.0176442
14 2 100 15 0.0177179
15 2 100 15 0.023112
1 3 100 15 0.0457078
2 3 100 15 0.112455
3 3 100 15 0.150124
4 3 100 15 0.136928
5 3 100 15 0.105002
6 3 100 15 0.0704323
7 3 100 15 0.0619509
8 3 100 15 0.0526953
9 3 100 15 0.0452173
10 3 100 15 0.0448216
11 3 100 15 0.0407355
12 3 100 15 0.0305976
13 3 100 15 0.0348155
14 3 100 15 0.0278589
15 3 100 15 0.0406586
1 4 100 15 0.059316
2 4 100 15 0.0650524
3 4 100 15 0.105403
4 4 100 15 0.114613
5 4 100 15 0.12848
6 4 100 15 0.086079
7 4 100 15 0.0852652
8 4 100 15 0.0625519
9 4 100 15 0.0503593
10 4 100 15 0.0392699
11 4 100 15 0.0379128
12 4 100 15 0.0378888
13 4 100 15 0.0380628
14 4 100 15 0.0393393
15 4 100 15 0.0504064
1 5 100 15 0.0300273
2 5 100 15 0.051831
3 5 100 15 0.0713172
4 5 100 15 0.0855963
5 5 100 15 0.105813
6 5 100 15 0.111582
7 5 100 15 0.0978292
8 5 100 15 0.0754121
9 5 100 15 0.064566
10 5 100 15 0.0548554
11 5 100 15 0.0472777
12 5 100 15 0.0464806
13 5 100 15 0.0463244
14 5 100 15 0.0448209
15 5 100 15 0.0662669
1 6 100 15 0.0327086
2 6 100 15 0.0417481
3 6 100 15 0.0518225
4 6 100 15 0.0706219
5 6 100 15 0.090157
6 6 100 15 0.105394
7 6 100 15 0.107992
8 6 100 15 0.0906703
9 6 100 15 0.0885973
10 6 100 15 0.067722
11 6 100 15 0.0611846
12 6 100 15 0.0534585
13 6 100 15 0.0363714
14 6 100 15 0.0435905
15 6 100 15 0.0579606
1 7 100 15 0.0363108
2 7 100 15 0.046274
3 7 100 15 0.0516765
4 7 100 15 0.0536563
5 7 100 15 0.0638318
6 7 100 15 0.0668641
7 7 100 15 0.0957264
8 7 100 15 0.117362
9 7 100 15 0.102071
10 7 100 15 0.082678
11 7 100 15 0.0640501
12 7 100 15 0.0558691
13 7 100 15 0.0518594
14 7 100 15 0.0432991
15 7 100 15 0.0684716
1 8 100 15 0.0237681
2 8 100 15 0.0350316
3 8 100 15 0.0465366
4 8 100 15 0.0524597
5 8 100 15 0.0510935
6 8 100 15 0.0724665
7 8 100 15 0.0748018
8 8 100 15 0.0859659
9 8 100 15 0.0963431
10 8 100 15 0.0963545
11 8 100 15 0.086473
12 8 100 15 0.0714139
13 8 100 15 0.0637857
14 8 100 15 0.0604333
15 8 100 15 0.0830727
1 9 100 15 0.0355195
2 9 100 15 0.0351225
3 9 100 15 0.0349351
4 9 100 15 0.0363928
5 9 100 15 0.0430066
6 9 100 15 0.0460235
7 9 100 15 0.072108
8 9 100 15 0.0759708
9 9 100 15 0.0971518
10 9 100 15 0.108769
11 9 100 15 0.0951841
12 9 100 15 0.0998043
13 9 100 15 0.0776673
14 9 100 15 0.0673692
15 9 100 15 0.0749751
1 10 100 15 0.0251622
2 10 100 15 0.0407833
3 10 100 15 0.0404253
4 10 100 15 0.0398789
5 10 100 15 0.0488852
6 10 100 15 0.0574264
7 10 100 15 0.0547141
8 10 100 15 0.0678718
9 10 100 15 0.0823899
10 10 100 15 0.0925092
11 10 100 15 0.0943793
12 10 100 15 0.0868314
13 10 100 15 0.0847947
14 10 100 15 0.0735775
15 10 100 15 0.110371
1 11 100 15 0.0232021
2 11 100 15 0.0342938
3 11 100 15 0.0330009
4 11 100 15 0.0408041
5 11 100 15 0.0367168
6 11 100 15 0.0460523
7 11 100 15 0.0540671
8 11 100 15 0.0598043
9 11 100 15 0.078555
10 11 100 15 0.0872239
11 11 100 15 0.0973099
12 11 100 15 0.107937
13 11 100 15 0.0889885
14 11 100 15 0.0935945
15 11 100 15 0.11845
1 12 100 15 0.0248113
2 12 100 15 0.0298876
3 12 100 15 0.0372533
4 12 100 15 0.0396519
5 12 100 15 0.0413355
6 12 100 15 0.0455688
7 12 100 15 0.049134
8 12 100 15 0.0621134
9 12 100 15 0.0672231
10 12 100 15 0.0929662
11 12 100 15 0.0947181
12 12 100 15 0.09302
13 12 100 15 0.0920343
14 12 100 15 0.0959261
15 12 100 15 0.134356
1 13 100 15 0.0279064
2 13 100 15 0.039995
3 13 100 15 0.0408196
4 13 100 15 0.0373873
5 13 100 15 0.0409695
6 13 100 15 0.0475678
7 13 100 15 0.0554191
8 13 100 15 0.0514892
9 13 100 15 0.0573211
10 13 100 15 0.0695901
11 13 100 15 0.0830573
12 13 100 15 0.115434
13 13 100 15 0.0994781
14 13 100 15 0.100064
15 13 100 15 0.133502
1 14 100 15 0.030595
2 14 100 15 0.037834
3 14 100 15 0.0437986
4 14 100 15 0.0473589
5 14 100 15 0.0428059
6 14 100 15 0.0518313
7 14 100 15 0.0470671
8 14 100 15 0.0502094
9 14 100 15 0.0685455
10 14 100 15 0.0629432
11 14 100 15 0.0819819
12 14 100 15 0.0986669
13 14 100 15 0.0984134
14 14 100 15 0.0972132
15 14 100 15 0.140736
1 15 100 15 0.0298722
2 15 100 15 0.0398538
3 15 100 15 0.055281
4 15 100 15 0.0504999
5 15 100 15 0.0450599
6 15 100 15 0.0504082
7 15 100 15 0.0410079
8 15 100 15 0.0545833
9 15 100 15 0.0480309
10 15 100 15 0.0624354
11 15 100 15 0.0966041
12 15 100 15 0.082692
13 15 100 15 0.0995371
14 15 100 15 0.0933344
15 15 100 15 0.1508
1 16 100 15 0.0217083
2 16 100 15 0.0379726
3 16 100 15 0.0385064
4 16 100 15 0.0490473
5 16 100 15 0.0447865
6 16 100 15 0.0520994
7 16 100 15 0.0500225
8 16 100 15 0.0462607
9 16 100 15 0.0701805
10 16 100 15 0.0621911
11 16 100 15 0.0761031
12 16 100 15 0.0905493
13 16 100 15 0.0852844
14 16 100 15 0.119032
15 16 100 15 0.156256
1 17 100 15 0.0322137
2 17 100 15 0.0299607
3 17 100 15 0.0313043
4 17 100 15 0.0576952
5 17 100 15 0.0406287
6 17 100 15 0.0410386
7 17 100 15 0.0570658
8 17 100 15 0.0678891
9 17 100 15 0.0584479
10 17 100 15 0.0818011
11 17 100 15 0.0919286
12 17 100 15 0.0895898
13 17 100 15 0.0835682
14 17 100 15 0.100452
15 17 100 15 0.136416
1 18 100 15 0.0231417
2 18 100 15 0.0320327
3 18 100 15 0.0343275
4 18 100 15 0.0351113
5 18 100 15 0.0432056
6 18 100 15 0.0465459
7 18 100 15 0.0444879
8 18 100 15 0.0572502
9 18 100 15 0.0674604
10 18 100 15 0.0565873
11 18 100 15 0.0965228
12 18 100 15 0.0883392
13 18 100 15 0.121055
14 18 100 15 0.10632
15 18 100 15 0.147612
1 19 100 15 0.0410102
2 19 100 15 0.0235561
3 19 100 15 0.0323962
4 19 100 15 0.0444104
5 19 100 15 0.0400378
6 19 100 15 0.0606132
7 19 100 15 0.0543187
8 19 100 15 0.0383172
9 19 100 15 0.0826266
10 19 100 15 0.0707415
11 19 100 15 0.103154
12 19 100 15 0.0722674
13 19 100 15 0.0704095
14 19 100 15 0.112947
15 19 100 15 0.153194
1 20 100 15 0.0114206
2 20 100 15 0.0406772
3 20 100 15 0.0806913
4 20 100 15 0.0386312
5 20 100 15 0.0576706
6 20 100 15 0.0684742
7 20 100 15 0.0803347
8 20 100 15 0.0491057
9 20 100 15 0.0233898
10 20 100 15 0.0736021
11 20 100 15 0.0847509
12 20 100 15 0.0983777
13 20 100 15 0.111601
14 20 100 15 0.0866053
15 20 100 15 0.0946673
1 21 100 15 0.0718233
2 21 100 15 0.0587572
3 21 100 15 0.0214538
4 21 100 15 0.0940045
5 21 100 15 0.0174616
6 21 100 15 0.0354605
7 21 100 15 0.00250604
8 21 100 15 0.0708471
9 21 100 15 0.0373637
10 21 100 15 0.0356727
11 21 100 15 0.112328
12 21 100 15 0.0827753
13 21 100 15 0.0854819
14 21 100 15 0.0893141
15 21 100 15 0.18475
1 22 100 15 0.0953418
2 22 100 15 0.121152
3 22 100 15 0.0612266
4 22 100 15 0.0188029
5 22 100 15 0.0881008
6 22 100 15 0.0542033
7 22 100 15 0.0322727
8 22 100 15 0.0620997
9 22 100 15 0.0401371
10 22 100 15 0.0198325
11 22 100 15 0.0408707
12 22 100 15 0.0530008
13 22 100 15 0.0834472
14 22 100 15 0.0827613
15 22 100 15 0.146751
1 23 100 15 0.039419
2 23 100 15 0.0531725
3 23 100 15 0.0332023
4 23 100 15 0.0831619
5 23 100 15 0.0794936
6 23 100 15 0.125519
7 23 100 15 0.0849176
8 23 100 15 0.0548114
9 23 100 15 0.0547281
10 23 100 15 0.0644247
11 23 100 15 0.0410274
12 23 100 15 0.119051
13 23 100 15 0.0269976
14 23 100 15 0.0626403
15 23 100 15 0.0774327
1 24 100 15 0.00140939
2 24 100 15 0.00190637
3 24 100 15 0.0292156
4 24 100 15 0.0101927
5 24 100 15 0.0765978
6 24 100 15 0.0504022
7 24 100 15 0.0840739
8 24 100 15 0.128949
9 24 100 15 0.072435
10 24 100 15 0.0419292
11 24 100 15 0.0347326
12 24 100 15 0.0396403
13 24 100 15 0.10732
14 24 100 15 0.144057
15 24 100 15 0.17714
1 25 100 15 0.000418776
2 25 100 15 0.000858271
3 25 100 15 0.0392743
4 25 100 15 0.0623963
5 25 100 15 0.0616452
6 25 100 15 0.000344508
7 25 100 15 0.000137463
8 25 100 15 0.0646297
9 25 100 15 0.0617421
10 25 100 15 0.0925042
11 25 100 15 0.0991316
12 25 100 15 0.12356
13 25 100 15 0.0621503
14 25 100 15 0.120507
15 25 100 15 0.210701
1 26 100 15 8.42361e-06
2 26 100 15 0.000114958
3 26 100 15 9.90419e-05
4 26 100 15 0.000293457
5 26 100 15 0.0590407
6 26 100 15 0.0592356
7 26 100 15 0.149235
8 26 100 15 0.0208353
9 26 100 15 0.0602542
10 26 100 15 0.059615
11 26 100 15 0.0607528
12 26 100 15 0.117838
13 26 100 15 0.0638165
14 26 100 15 0.177459
15 26 100 15 0.171402
4 27 100 15 1.23945e-06
5 27 100 15 2.8734e-05
6 27 100 15 0.0814353
7 27 100 15 0.114556
8 27 100 15 0.0589109
9 27 100 15 0.0600878
10 27 100 15 0.0797518
11 27 100 15 0.175657
12 27 100 15 0.124033
13 27 100 15 0.0604018
14 27 100 15 0.124961
15 27 100 15 0.120176
1 28 100 15 0.000137014
2 28 100 15 8.58035e-07
3 28 100 15 0.125962
4 28 100 15 0.000919474
5 28 100 15 0.00015311
6 28 100 15 0.0043011
7 28 100 15 0.0769287
8 28 100 15 0.196733
9 28 100 15 5.6666e-05
10 28 100 15 4.73561e-05
11 28 100 15 2.08273e-05
12 28 100 15 2.18541e-05
13 28 100 15 0.198082
14 28 100 15 0.200969
15 28 100 15 0.195667
2 29 100 15 4.80342e-07
3 29 100 15 0.00582374
4 29 100 15 0.117913
5 29 100 15 0.17579
6 29 100 15 0.111189
7 29 100 15 0.0014386
8 29 100 15 0.0626019
9 29 100 15 0.0560586
10 29 100 15 2.10848e-06
11 29 100 15 0.0583383
12 29 100 15 0.0603217
13 29 100 15 0.117272
14 29 100 15 0.057582
15 29 100 15 0.17567
1 30 100 15 0.00927367
2 30 100 15 0.00280157
5 30 100 15 0.000112201
7 30 100 15 0.00027879
8 30 100 15 0.916973
10 30 100 15 0.0567741
11 30 100 15 0.0137799
13 30 100 15 5.29342e-06
14 30 100 15 1.40004e-06
2 31 100 15 0.000125813
4 31 100 15 2.76291e-07
5 31 100 15 0.000426336
6 31 100 15 0.160525
7 31 100 15 0.160477
8 31 100 15 0.186945
11 31 100 15 4.04879e-05
12 31 100 15 0.0159054
13 31 100 15 0.154638
14 31 100 15 0.16046
15 31 100 15 0.160457
1 32 100 15 0.999938
5 32 100 15 6.58447e-06
7 32 100 15 5.58074e-05
5 33 100 15 0.999138
13 33 100 15 0.000861873
1 34 100 15 0.000405213
6 34 100 15 0.999594
7 34 100 15 1.27238e-06
5 35 100 15 0.000119847
7 35 100 15 0.999856
13 35 100 15 2.40315e-05
11 37 100 15 0.995814
13 37 100 15 0.00418651
13 39 100 15 1
13 40 100 15 1
13 42 100 15 0.987724
15 42 100 15 0.0122757
1 0 100 16 0.000628784
2 0 100 16 0.0340643
3 0 100 16 0.0662551
4 0 100 16 0.0692923
5 0 100 16 0.0730309
6 0 100 16 0.0724302
7 0 100 16 0.0717202
8 0 100 16 0.071831
9 0 100 16 0.0666385
10 0 100 16 0.0649313
11 0 100 16 0.068446
12 0 100 16 0.0708704
13 0 100 16 0.0703001
14 0 100 16 0.0985087
15 0 100 16 0.101044
16 0 100 16 8.44125e-06
1 1 100 16 0.50458
2 1 100 16 0.135159
3 1 100 16 0.0523389
4 1 100 16 0.041121
5 1 100 16 0.0326458
6 1 100 16 0.0335566
7 1 100 16 0.0324413
8 1 100 16 0.0306537
9 1 100 16 0.029394
10 1 100 16 0.0190578
11 1 100 16 0.0192486
12 1 100 16 0.0148897
13 1 100 16 0.0118219
14 1 100 16 0.0117793
15 1 100 16 0.0125094
16 1 100 16 0.0188028
1 2 100 16 0.101274
2 2 100 16 0.280359
3 2 100 16 0.146637
4 2 100 16 0.0833107
5 2 100 16 0.0617476
6 2 100 16 0.0536772
7 2 100 16 0.0444601
8 2 100 16 0.0311485
9 2 100 16 0.0316087
10 2 100 16 0.0276221
11 2 100 16 0.0292239
12 2 100 16 0.0191346
13 2 100 16 0.0253226
14 2 100 16 0.0229749
15 2 100 16 0.0193242
16 2 100 16 0.0221744
1 3 100 16 0.0470472
2 3 100 16 0.118581
3 3 100 16 0.155183
4 3 100 16 0.126708
5 3 100 16 0.0980044
6 3 100 16 0.0842809
7 3 100 16 0.0523948
8 3 100 16 0.059838
9 3 100 16 0.0415135
10 3 100 16 0.0443958
11 3 100 16 0.0291797
12 3 100 16 0.0342949
13 3 100 16 0.0277003
14 3 100 16 0.0275577
15 3 100 16 0.0178321
16 3 100 16 0.0354889
1 4 100 16 0.0528829
2 4 100 16 0.069807
3 4 100 16 0.112743
4 4 100 16 0.1271
5 4 100 16 0.117673
6 4 100 16 0.0870534
7 4 100 16 0.0764873
8 4 100 16 0.0558596
9 4 100 16 0.0488281
10 4 100 16 0.0436816
11 4 100 16 0.0379232
12 4 100 16 0.0394125
13 4 100 16 0.0362721
14 4 100 16 0.0266369
15 4 100 16 0.0291036
16 4 100 16 0.0385354
1 5 100 16 0.0425211
2 5 100 16 0.0573677
3 5 100 16 0.0771995
4 5 100 16 0.110675
5 5 100 16 0.102655
6 5 100 16 0.093959
7 5 100 16 0.0892917
8 5 100 16 0.0685553
9 5 100 16 0.0616463
10 5 100 16 0.054184
11 5 100 16 0.0455736
12 5 100 16 0.0391582
13 5 100 16 0.0394633
14 5 100 16 0.0342364
15 5 100 16 0.037229
16 5 100 16 0.0462846
1 6 100 16 0.0368182
2 6 100 16 0.0446913
3 6 100 16 0.0643244
4 6 100 16 0.0696077
5 6 100 16 0.103966
6 6 100 16 0.11716
7 6 100 16 0.108181
8 6 100 16 0.0973575
9 6 100 16 0.0719165
10 6 100 16 0.0530496
11 6 100 16 0.0458771
12 6 100 16 0.0453677
13 6 100 16 0.0376873
14 6 100 16 0.0339477
15 6 100 16 0.029828
16 6 100 16 0.0402198
1 7 100 16 0.032835
2 7 100 16 0.0348642
3 7 100 16 0.0439169
4 7 100 16 0.056488
5 7 100 16 0.0700742
6 7 100 16 0.0869704
7 7 100 16 0.0918458
8 7 100 16 0.0994514
9 7 100 16 0.087217
10 7 100 16 0.0650316
11 7 100 16 0.067447
12 7 100 16 0.0555172
13 7 100 16 0.0607428
14 7 100 16 0.0445292
15 7 100 16 0.0454319
16 7 100 16 0.0576374
1 8 100 16 0.0267172
2 8 100 16 0.0399505
3 8 100 16 0.0423864
4 8 100 16 0.0406012
5 8 100 16 0.0546148
6 8 100 16 0.0664525
7 8 100 16 0.0763658
8 8 100 16 0.0883413
9 8 100 16 0.10043
10 8 100 16 0.102753
11 8 100 16 0.0808693
12 8 100 16 0.0625899
13 8 100 16 0.0529906
14 8 100 16 0.0413155
15 8 100 16 0.0577549
16 8 100 16 0.0658677
1 9 100 16 0.0252133
2 9 100 16 0.0328479
3 9 100 16 0.0384077
4 9 100 16 0.0434214
5 9 100 16 0.0489415
6 9 100 16 0.0527772
7 9 100 16 0.0667532
8 9 100 16 0.0740625
9 9 100 16 0.0855923
10 9 100 16 0.109391
11 9 100 16 0.0906046
12 9 100 16 0.0780176
13 9 100 16 0.0694461
14 9 100 16 0.0519284
15 9 100 16 0.0581856
16 9 100 16 0.0744097
1 10 100 16 0.0194131
2 10 100 16 0.0255576
3 10 100 16 0.0274469
4 10 100 16 0.0356693
5 10 100 16 0.0416412
6 10 100 16 0.0518274
7 10 100 16 0.0656815
8 10 100 16 0.0719172
9 10 100 16 0.0813672
10 10 100 16 0.0959281
11 10 100 16 0.0968543
12 10 100 16 0.0908805
13 10 100 16 0.0765059
14 10 100 16 0.0680328
15 10 100 16 0.0668683
16 10 100 16 0.0844085
1 11 100 16 0.0176751
2 11 100 16 0.0256237
3 11 100 16 0.0318083
4 11 100 16 0.0360458
5 11 100 16 0.0379814
6 11 100 16 0.0431406
7 11 100 16 0.0398802
8 11 100 16 0.0604714
9 11 100 16 0.076933
10 11 100 16 0.0814272
11 11 100 16 0.094746
12 11 100 16 0.0976695
13 11 100 16 0.0970646
14 11 100 16 0.0805064
15 11 100 16 0.0675525
16 11 100 16 0.111474
1 12 100 16 0.0164822
2 12 100 16 0.0309129
3 12 100 16 0.0271729
4 12 100 16 0.0345345
5 12 100 16 0.0272015
6 12 100 16 0.0411149
7 12 100 16 0.047676
8 12 100 16 0.0484066
9 12 100 16 0.0539425
10 12 100 16 0.0755431
11 12 100 16 0.0839673
12 12 100 16 0.0917062
13 12 100 16 0.102535
14 12 100 16 0.0958797
15 12 100 16 0.093218
16 12 100 16 0.129707
1 13 100 16 0.0156751
2 13 100 16 0.0236572
3 13 100 16 0.0271014
4 13 100 16 0.0372436
5 13 100 16 0.0405814
6 13 100 16 0.0343013
7 13 100 16 0.0488644
8 13 100 16 0.0484222
9 13 100 16 0.053864
10 13 100 16 0.0681245
11 13 100 16 0.0791858
12 13 100 16 0.0917385
13 13 100 16 0.100394
14 13 100 16 0.0919036
15 13 100 16 0.0964459
16 13 100 16 0.142497
1 14 100 16 0.0246434
2 14 100 16 0.0262075
3 14 100 16 0.0271107
4 14 100 16 0.0336265
5 14 100 16 0.0289186
6 14 100 16 0.0330121
7 14 100 16 0.0431913
8 14 100 16 0.0508542
9 14 100 16 0.0594201
10 14 100 16 0.0547991
11 14 100 16 0.086567
12 14 100 16 0.100501
13 14 100 16 0.104402
14 14 100 16 0.103174
15 14 100 16 0.08932
16 14 100 16 0.134252
1 15 100 16 0.0189647
2 15 100 16 0.0308897
3 15 100 16 0.0337417
4 15 100 16 0.04226
5 15 100 16 0.0457045
6 15 100 16 0.0400911
7 15 100 16 0.0485273
8 15 100 16 0.0516656
9 15 100 16 0.0651434
10 15 100 16 0.0610373
11 15 100 16 0.0708792
12 15 100 16 0.0876509
13 15 100 16 0.0914872
14 15 100 16 0.0804737
15 15 100 16 0.103075
16 15 100 16 0.128409
1 16 100 16 0.0141675
2 16 100 16 0.0220881
3 16 100 16 0.0187858
4 16 100 16 0.0296327
5 16 100 16 0.0275462
6 16 100 16 0.0358731
7 16 100 16 0.0433172
8 16 100 16 0.0421143
9 16 100 16 0.0751983
10 16 100 16 0.0601594
11 16 100 16 0.0784732
12 16 100 16 0.091901
13 16 100 16 0.0857731
14 16 100 16 0.114028
15 16 100 16 0.0889814
16 16 100 16 0.171961
1 17 100 16 0.0222558
2 17 100 16 0.0338242
3 17 100 16 0.0348073
4 17 100 16 0.0220119
5 17 100 16 0.04904
6 17 100 16 0.0374588
7 17 100 16 0.0311935
8 17 100 16 0.0417231
9 17 100 16 0.0540734
10 17 100 16 0.0593618
11 17 100 16 0.0587668
12 17 100 16 0.0684929
13 17 100 16 0.118005
14 17 100 16 0.0943977
15 17 100 16 0.131057
16 17 100 16 0.14353
1 18 100 16 0.0423457
2 18 100 16 0.0339461
3 18 100 16 0.0419692
4 18 100 16 0.0456319
5 18 100 16 0.0417101
6 18 100 16 0.0316838
7 18 100 16 0.0398755
8 18 100 16 0.0489357
9 18 100 16 0.0642258
10 18 100 16 0.0584973
11 18 100 16 0.0532657
12 18 100 16 0.070825
13 18 100 16 0.0784667
14 18 100 16 0.103337
15 18 100 16 0.0735622
16 18 100 16 0.171722
1 19 100 16 0.0283494
2 19 100 16 0.0397062
3 19 100 16 0.023725
4 19 100 16 0.0321653
5 19 100 16 0.0331827
6 19 100 16 0.0460007
7 19 100 16 0.0410664
8 19 100 16 0.0230171
9 19 100 16 0.0383584
10 19 100 16 0.0553844
11 19 100 16 0.0526947
12 19 100 16 0.0497532
13 19 100 16 0.102662
14 19 100 16 0.15953
15 19 100 16 0.10482
16 19 100 16 0.169585
1 20 100 16 0.0257691
2 20 100 16 0.0351521
3 20 100 16 0.0270648
4 20 100 16 0.0297717
5 20 100 16 0.043142
6 20 100 16 0.0482384
7 20 100 16 0.0558339
8 20 100 16 0.0310389
9 20 100 16 0.0364975
10 20 100 16 0.0624462
11 20 100 16 0.086034
12 20 100 16 0.0935066
13 20 100 16 0.0976175
14 20 100 16 0.0756647
15 20 100 16 0.120967
16 20 100 16 0.131256
1 21 100 16 0.0200396
2 21 100 16 0.0424221
3 21 100 16 0.0513137
4 21 100 16 0.0561787
5 21 100 16 0.0250059
6 21 100 16 0.0481682
7 21 100 16 0.0551474
8 21 100 16 0.0561044
9 21 100 16 0.0672472
10 21 100 16 0.0862234
11 21 100 16 0.0438945
12 21 100 16 0.0664083
13 21 100 16 0.0621157
14 21 100 16 0.0636851
15 21 100 16 0.0793714
16 21 100 16 0.176674
1 22 100 16 0.0457486
2 22 100 16 0.0761289
3 22 100 16 0.099827
4 22 100 16 0.0824303
5 22 100 16 0.0588339
6 22 100 16 0.0532169
7 22 100 16 0.0365913
8 22 100 16 0.0602655
9 22 100 16 0.0467107
10 22 100 16 0.0623259
11 22 100 16 0.0357309
12 22 100 16 0.0304298
13 22 100 16 0.0956942
14 22 100 16 0.0743351
15 22 100 16 0.0271109
16 22 100 16 0.11462
1 23 100 16 0.0432701
2 23 100 16 0.0164104
3 23 100 16 0.0383643
4 23 100 16 0.0370621
5 23 100 16 0.0687861
6 23 100 16 3.87177e-05
7 23 100 16 0.037066
8 23 100 16 0.0320348
9 23 100 16 0.0246115
10 23 100 16 0.05548
11 23 100 16 0.0835851
12 23 100 16 0.0706013
13 23 100 16 0.0573563
14 23 100 16 0.182575
15 23 100 16 0.110978
16 23 100 16 0.14178
1 24 100 16 0.00353019
2 24 100 16 0.000482984
3 24 100 16 0.00404274
4 24 100 16 0.0322318
5 24 100 16 0.00355113
6 24 100 16 0.000195393
7 24 100 16 0.0343414
8 24 100 16 0.0423985
9 24 100 16 0.0534135
10 24 100 16 0.033359
11 24 100 16 0.124682
12 24 100 16 0.108816
13 24 100 16 0.254782
14 24 100 16 0.0297605
15 24 100 16 0.0554268
16 24 100 16 0.218986
1 25 100 16 0.0456519
2 25 100 16 0.0206942
3 25 100 16 0.0601099
4 25 100 16 0.0899236
5 25 100 16 0.0943182
6 25 100 16 0.0729976
7 25 100 16 0.0817022
8 25 100 16 0.0532042
9 25 100 16 0.0873989
10 25 100 16 0.0667734
11 25 100 16 0.0665934
12 25 100 16 0.0863619
13 25 100 16 0.0570523
14 25 100 16 0.00159099
15 25 100 16 0.0494198
16 25 100 16 0.0662075
1 26 100 16 0.114112
2 26 100 16 0.115361
3 26 100 16 0.0749281
4 26 100 16 0.0894249
5 26 100 16 0.0751504
6 26 100 16 0.0733019
7 26 100 16 0.0367498
8 26 100 16 0.00192194
9 26 100 16 0.000347337
10 26 100 16 0.0137431
11 26 100 16 0.0028196
12 26 100 16 0.0569347
13 26 100 16 0.000254021
14 26 100 16 0.0961607
15 26 100 16 0.101651
16 26 100 16 0.14714
1 27 100 16 0.000773719
2 27 100 16 3.20316e-06
3 27 100 16 6.06197e-06
4 27 100 16 0.0717167
5 27 100 16 0.000116648
6 27 100 16 0.14997
7 27 100 16 0.0628372
8 27 100 16 0.0100038
9 27 100 16 0.000165878
10 27 100 16 0.089003
11 27 100 16 0.00135396
12 27 100 16 0.00144308
13 27 100 16 0.193575
14 27 100 16 0.126335
15 27 100 16 0.0626347
16 27 100 16 0.230062
1 28 100 16 0.000177167
2 28 100 16 7.86969e-06
3 28 100 16 0.00513457
4 28 100 16 1.53977e-06
5 28 100 16 1.05562e-06
6 28 100 16 0.219891
7 28 100 16 0.316161
8 28 100 16 0.373889
9 28 100 16 0.0607528
10 28 100 16 1.20738e-06
11 28 100 16 7.2254e-06
12 28 100 16 0.00104302
13 28 100 16 0.0038312
14 28 100 16 0.000368876
15 28 100 16 0.0186141
16 28 100 16 0.000118844
1 29 100 16 1.7042e-06
3 29 100 16 0.00010152
6 29 100 16 0.0017254
7 29 100 16 0.195743
8 29 100 16 0.197556
9 29 100 16 0.0305287
10 29 100 16 2.78826e-06
11 29 100 16 0.000836292
12 29 100 16 0.000280613
13 29 100 16 0.000103855
14 29 100 16 0.183282
15 29 100 16 0.194975
16 29 100 16 0.194864
1 30 100 16 0.000796317
2 30 100 16 0.000145135
3 30 100 16 3.3277e-06
4 30 100 16 9.35226e-07
5 30 100 16 0.000304643
6 30 100 16 0.000755293
7 30 100 16 2.23538e-05
9 30 100 16 6.8855e-05
11 30 100 16 0.000818905
12 30 100 16 0.220675
13 30 100 16 0.259939
14 30 100 16 0.000604685
15 30 100 16 0.25794
16 30 100 16 0.257925
1 31 100 16 5.614e-05
2 31 100 16 1.32608e-06
3 31 100 16 9.73289e-05
5 31 100 16 0.0143682
8 31 100 16 0.355241
9 31 100 16 0.358903
10 31 100 16 0.253999
11 31 100 16 0.00524219
12 31 100 16 0.000781131
13 31 100 16 0.00110174
14 31 100 16 0.00584815
15 31 100 16 0.000939744
16 31 100 16 0.00342061
1 32 100 16 2.89301e-07
3 32 100 16 5.83379e-05
4 32 100 16 3.28299e-05
5 32 100 16 0.173543
8 32 100 16 0.00102377
9 32 100 16 4.34164e-05
10 32 100 16 0.132063
11 32 100 16 0.222893
12 32 100 16 0.231404
13 32 100 16 0.0308059
14 32 100 16 0.0233214
15 32 100 16 2.61351e-05
16 32 100 16 0.184786
3 33 100 16 0.0225384
4 33 100 16 4.56216e-05
5 33 100 16 0.67037
9 33 100 16 0.0455975
11 33 100 16 0.00098187
12 33 100 16 0.0923996
13 33 100 16 0.142526
15 33 100 16 0.0255412
1 34 100 16 5.93689e-05
3 34 100 16 0.000855889
9 34 100 16 0.0170628
11 34 100 16 0.000982718
12 34 100 16 0.000162865
13 34 100 16 0.974571
15 34 100 16 0.00630576
9 35 100 16 0.824837
13 35 100 16 0.175163
16 36 100 16 1
9 37 100 16 1
9 38 100 16 1
1 0 100 17 0.000465481
2 0 100 17 0.0302024
3 0 100 17 0.0663346
4 0 100 17 0.070236
5 0 100 17 0.0756249
6 0 100 17 0.0678434
7 0 100 17 0.069001
8 0 100 17 0.0666148
9 0 100 17 0.0588079
10 0 100 17 0.0558142
11 0 100 17 0.0639176
12 0 100 17 0.0638891
13 0 100 17 0.0722803
14 0 100 17 0.0603239
15 0 100 17 0.0912988
16 0 100 17 0.0873338
17 0 100 17 1.18773e-05
1 1 100 17 0.498995
2 1 100 17 0.142857
3 1 100 17 0.0596703
4 1 100 17 0.0441463
5 1 100 17 0.0334997
6 1 100 17 0.0308666
7 1 100 17 0.0296176
8 1 100 17 0.0226226
9 1 100 17 0.023795
10 1 100 17 0.0233838
11 1 100 17 0.0136395
12 1 100 17 0.0149783
13 1 100 17 0.0129792
14 1 100 17 0.0127569
15 1 100 17 0.0113171
16 1 100 17 0.00923823
17 1 100 17 0.015637
1 2 100 17 0.0880431
2 2 100 17 0.272584
3 2 100 17 0.143186
4 2 100 17 0.0791756
5 2 100 17 0.0672204
6 2 100 17 0.0562429
7 2 100 17 0.0506412
8 2 100 17 0.045984
9 2 100 17 0.0315736
10 2 100 17 0.0374209
11 2 100 17 0.0282432
12 2 100 17 0.0257557
13 2 100 17 0.0154597
14 2 100 17 0.0209404
15 2 100 17 0.0119798
16 2 100 17 0.0112075
17 2 100 17 0.0143416
1 3 100 17 0.0542586
2 3 100 17 0.103667
3 3 100 17 0.138958
4 3 100 17 0.128272
5 3 100 17 0.0947901
6 3 100 17 0.0736983
7 3 100 17 0.0567265
8 3 100 17 0.0509493
9 3 100 17 0.0432568
10 3 100 17 0.0393669
11 3 100 17 0.0382065
12 3 100 17 0.0293632
13 3 100 17 0.0319782
14 3 100 17 0.0216326
15 3 100 17 0.024961
16 3 100 17 0.0316641
17 3 100 17 0.0382502
1 4 100 17 0.047538
2 4 100 17 0.072381
3 4 100 17 0.0977217
4 4 100 17 0.118504
5 4 100 17 0.104543
6 4 100 17 0.0937432
7 4 100 17 0.0651825
8 4 100 17 0.0566472
9 4 100 17 0.0512258
10 4 100 17 0.0453616
11 4 100 17 0.0423345
12 4 100 17 0.0442491
13 4 100 17 0.0315261
14 4 100 17 0.0373271
15 4 100 17 0.0304278
16 4 100 17 0.0234973
17 4 100 17 0.0377901
1 5 100 17 0.0385099
2 5 100 17 0.0678028
3 5 100 17 0.0720553
4 5 100 17 0.0944269
5 5 100 17 0.0968954
6 5 100 17 0.0956642
7 5 100 17 0.0896436
8 5 100 17 0.0790324
9 5 100 17 0.0564429
10 5 100 17 0.0532148
11 5 100 17 0.0418081
12 5 100 17 0.0426978
13 5 100 17 0.0342753
14 5 100 17 0.0432855
15 5 100 17 0.0308662
16 5 100 17 0.0260391
17 5 100 17 0.0373398
1 6 100 17 0.0424347
2 6 100 17 0.0469309
3 6 100 17 0.0588596
4 6 100 17 0.0758779
5 6 100 17 0.090031
6 6 100 17 0.0958577
7 6 100 17 0.0956682
8 6 100 17 0.0902292
9 6 100 17 0.0746897
10 6 100 17 0.0660077
11 6 100 17 0.0503238
12 6 100 17 0.0435695
13 6 100 17 0.0317522
14 6 100 17 0.034984
15 6 100 17 0.0364706
16 6 100 17 0.0317184
17 6 100 17 0.0345946
1 7 100 17 0.0253737
2 7 100 17 0.0484774
3 7 100 17 0.0443798
4 7 100 17 0.0607766
5 7 100 17 0.0616929
6 7 100 17 0.0740415
7 7 100 17 0.0822838
8 7 100 17 0.0927237
9 7 100 17 0.0924764
10 7 100 17 0.0750204
11 7 100 17 0.0624108
12 7 100 17 0.0513584
13 7 100 17 0.054954
14 7 100 17 0.0493385
15 7 100 17 0.0395783
16 7 100 17 0.0344205
17 7 100 17 0.0506935
1 8 100 17 0.0260351
2 8 100 17 0.0298986
3 8 100 17 0.0354181
4 8 100 17 0.0477395
5 8 100 17 0.0561969
6 8 100 17 0.0745297
7 8 100 17 0.0885554
8 8 100 17 0.0955244
9 8 100 17 0.0891183
10 8 100 17 0.0915054
11 8 100 17 0.0648045
12 8 100 17 0.0594566
13 8 100 17 0.0508137
14 8 100 17 0.0487076
15 8 100 17 0.0450261
16 8 100 17 0.0442459
17 8 100 17 0.0524242
1 9 100 17 0.020763
2 9 100 17 0.0212324
3 9 100 17 0.0279301
4 9 100 17 0.0302198
5 9 100 17 0.041722
6 9 100 17 0.0485254
7 9 100 17 0.0637094
8 9 100 17 0.077208
9 9 100 17 0.110295
10 9 100 17 0.096893
11 9 100 17 0.0722915
12 9 100 17 0.0654106
13 9 100 17 0.0669233
14 9 100 17 0.070651
15 9 100 17 0.0529615
16 9 100 17 0.0586203
17 9 100 17 0.0746436
1 10 100 17 0.0229604
2 10 100 17 0.0244495
3 10 100 17 0.025213
4 10 100 17 0.0260861
5 10 100 17 0.0288855
6 10 100 17 0.0372855
7 10 100 17 0.0507672
8 10 100 17 0.0662343
9 10 100 17 0.0787566
10 10 100 17 0.0804225
11 10 100 17 0.106319
12 10 100 17 0.0830734
13 10 100 17 0.0778979
14 10 100 17 0.0793853
15 10 100 17 0.0518009
16 10 100 17 0.0705905
17 10 100 17 0.0898719
1 11 100 17 0.0231059
2 11 100 17 0.0278943
3 11 100 17 0.0245382
4 11 100 17 0.0324258
5 11 100 17 0.0290646
6 11 100 17 0.0395658
7 11 100 17 0.0508231
8 11 100 17 0.0581871
9 11 100 17 0.0652044
10 11 100 17 0.081786
11 11 100 17 0.0916454
12 11 100 17 0.096163
13 11 100 17 0.0869191
14 11 100 17 0.0828853
15 11 100 17 0.0700438
16 11 100 17 0.0670489
17 11 100 17 0.0726991
1 12 100 17 0.0184205
2 12 100 17 0.0206605
3 12 100 17 0.032587
4 12 100 17 0.0292513
5 12 100 17 0.032525
6 12 100 17 0.0428605
7 12 100 17 0.0403069
8 12 100 17 0.0507799
9 12 100 17 0.0585116
10 12 100 17 0.071327
11 12 100 17 0.0828347
12 12 100 17 0.087657
13 12 100 17 0.0886945
14 12 100 17 0.0829712
15 12 100 17 0.0836724
16 12 100 17 0.0662018
17 12 100 17 0.110738
1 13 100 17 0.0162199
2 13 100 17 0.0235592
3 13 100 17 0.0294484
4 13 100 17 0.030533
5 13 100 17 0.0376021
6 13 100 17 0.0421102
7 13 100 17 0.0371155
8 13 100 17 0.0399446
9 13 100 17 0.0567812
10 13 100 17 0.067402
11 13 100 17 0.067951
12 13 100 17 0.0840166
13 13 100 17 0.0885478
14 13 100 17 0.0976336
15 13 100 17 0.0751181
16 13 100 17 0.0914254
17 13 100 17 0.114591
1 14 100 17 0.0191298
2 14 100 17 0.0298455
3 14 100 17 0.0359133
4 14 100 17 0.0348841
5 14 100 17 0.034739
6 14 100 17 0.0423106
7 14 100 17 0.0472566
8 14 100 17 0.0428775
9 14 100 17 0.0508158
10 14 100 17 0.0428586
11 14 100 17 0.0667024
12 14 100 17 0.0853983
13 14 100 17 0.0939529
14 14 100 17 0.0887843
15 14 100 17 0.0837795
16 14 100 17 0.0877553
17 14 100 17 0.112996
1 15 100 17 0.014031
2 15 100 17 0.0278145
3 15 100 17 0.0322723
4 15 100 17 0.0244026
5 15 100 17 0.0394725
6 15 100 17 0.035087
7 15 100 17 0.0430765
8 15 100 17 0.0393233
9 15 100 17 0.0520767
10 15 100 17 0.0518522
11 15 100 17 0.0670587
12 15 100 17 0.0675912
13 15 100 17 0.0826422
14 15 100 17 0.099644
15 15 100 17 0.0946292
16 15 100 17 0.0920461
17 15 100 17 0.13698
1 16 100 17 0.0121116
2 16 100 17 0.0337646
3 16 100 17 0.0393501
4 16 100 17 0.0317895
5 16 100 17 0.0349184
6 16 100 17 0.0444569
7 16 100 17 0.0456824
8 16 100 17 0.0360085
9 16 100 17 0.040554
10 16 100 17 0.062661
11 16 100 17 0.0654503
12 16 100 17 0.0740749
13 16 100 17 0.0607298
14 16 100 17 0.0870079
15 16 100 17 0.0831629
16 16 100 17 0.0868843
17 16 100 17 0.161393
1 17 100 17 0.0158406
2 17 100 17 0.0168035
3 17 100 17 0.0334167
4 17 100 17 0.0358578
5 17 100 17 0.0304944
6 17 100 17 0.0308201
7 17 100 17 0.0311567
8 17 100 17 0.0347626
9 17 100 17 0.0478495
10 17 100 17 0.0547129
11 17 100 17 0.0659402
12 17 100 17 0.0704509
13 17 100 17 0.0968249
14 17 100 17 0.101392
15 17 100 17 0.097904
16 17 100 17 0.100948
17 17 100 17 0.134824
1 18 100 17 0.0212078
2 18 100 17 0.0342017
3 18 100 17 0.0334268
4 18 100 17 0.0408809
5 18 100 17 0.0421536
6 18 100 17 0.048954
7 18 100 17 0.0462796
8 18 100 17 0.0515105
9 18 100 17 0.0477147
10 18 100 17 0.0484422
11 18 100 17 0.0655091
12 18 100 17 0.0582022
13 18 100 17 0.0737433
14 18 100 17 0.0673512
15 18 100 17 0.0944421
16 18 100 17 0.0890633
17 18 100 17 0.136917
1 19 100 17 0.0245928
2 19 100 17 0.0380657
3 19 100 17 0.0261299
4 19 100 17 0.0421588
5 19 100 17 0.0389307
6 19 100 17 0.051618
7 19 100 17 0.0506633
8 19 100 17 0.0399725
9 19 100 17 0.0457946
10 19 100 17 0.0531481
11 19 100 17 0.0457897
12 19 100 17 0.0825372
13 19 100 17 0.0906155
14 19 100 17 0.0839366
15 19 100 17 0.0762371
16 19 100 17 0.0926035
17 19 100 17 0.117206
1 20 100 17 0.0176229
2 20 100 17 0.0385182
3 20 100 17 0.0277362
4 20 100 17 0.0303619
5 20 100 17 0.0346785
6 20 100 17 0.0417387
7 20 100 17 0.0625627
8 20 100 17 0.0609011
9 20 100 17 0.0502735
10 20 100 17 0.0640366
11 20 100 17 0.0679778
12 20 100 17 0.057988
13 20 100 17 0.0546434
14 20 100 17 0.07327
15 20 100 17 0.0876038
16 20 100 17 0.107086
17 20 100 17 0.123001
1 21 100 17 0.0334135
2 21 100 17 0.0101098
3 21 100 17 0.0504412
4 21 100 17 0.0382368
5 21 100 17 0.0789958
6 21 100 17 0.0361845
7 21 100 17 0.0100131
8 21 100 17 0.057253
9 21 100 17 0.0644019
10 21 100 17 0.0511516
11 21 100 17 0.0292649
12 21 100 17 0.0169492
13 21 100 17 0.0427767
14 21 100 17 0.11521
15 21 100 17 0.0863018
16 21 100 17 0.113614
17 21 100 17 0.165682
1 22 100 17 0.00342376
2 22 100 17 0.0414458
3 22 100 17 0.0129427
4 22 100 17 0.0217804
5 22 100 17 0.0247384
6 22 100 17 0.0244847
7 22 100 17 0.0181711
8 22 100 17 0.00912467
9 22 100 17 0.066145
10 22 100 17 0.0801725
11 22 100 17 0.0566807
12 22 100 17 0.0793672
13 22 100 17 0.0607254
14 22 100 17 0.105556
15 22 100 17 0.125615
16 22 100 17 0.0749737
17 22 100 17 0.194654
1 23 100 17 0.0794364
2 23 100 17 0.0499504
3 23 100 17 0.0440346
4 23 100 17 0.0771183
5 23 100 17 0.0489386
6 23 100 17 0.0430247
7 23 100 17 0.0331032
8 23 100 17 0.0057977
9 23 100 17 0.0369786
10 23 100 17 0.0446515
11 23 100 17 0.054057
12 23 100 17 0.0170103
13 23 100 17 0.0462129
14 23 100 17 0.0901874
15 23 100 17 0.0601611
16 23 100 17 0.0948433
17 23 100 17 0.174494
1 24 100 17 0.0455591
2 24 100 17 0.0740509
3 24 100 17 0.0412632
4 24 100 17 4.77963e-05
5 24 100 17 0.0312698
6 24 100 17 0.0640825
7 24 100 17 0.0494099
8 24 100 17 0.0439813
9 24 100 17 4.40247e-05
10 24 100 17 0.0337153
11 24 100 17 0.00476621
12 24 100 17 0.0570164
13 24 100 17 0.0331365
14 24 100 17 0.14799
15 24 100 17 0.115789
16 24 100 17 0.157834
17 24 100 17 0.100045
1 25 100 17 0.000162074
2 25 100 17 1.42559e-05
3 25 100 17 2.68415e-05
4 25 100 17 0.000164108
5 25 100 17 0.00627339
6 25 100 17 0.00351339
7 25 100 17 0.0326573
8 25 100 17 0.100287
9 25 100 17 0.120476
10 25 100 17 0.0608877
11 25 100 17 0.0961689
12 25 100 17 0.117393
13 25 100 17 0.0431881
14 25 100 17 0.0607373
15 25 100 17 0.0315013
16 25 100 17 0.187701
17 25 100 17 0.138849
1 26 100 17 0.000162146
2 26 100 17 3.90752e-07
3 26 100 17 4.78106e-06
4 26 100 17 8.3198e-05
5 26 100 17 0.0457204
6 26 100 17 0.0037053
7 26 100 17 0.0533311
8 26 100 17 0.00654967
9 26 100 17 0.0841788
10 26 100 17 0.0096576
11 26 100 17 0.0946365
12 26 100 17 0.175683
13 26 100 17 0.0927893
14 26 100 17 0.0946663
15 26 100 17 0.0965983
16 26 100 17 0.050914
17 26 100 17 0.191319
1 27 100 17 0.00189232
2 27 100 17 6.17509e-06
3 27 100 17 2.6842e-06
4 27 100 17 8.84512e-06
6 27 100 17 8.43912e-06
7 27 100 17 7.92888e-07
8 27 100 17 2.28645e-06
9 27 100 17 0.000210134
10 27 100 17 0.122118
11 27 100 17 0.122045
12 27 100 17 0.120679
13 27 100 17 0.121621
14 27 100 17 0.122027
15 27 100 17 0.14317
16 27 100 17 0.12178
17 27 100 17 0.124429
1 28 100 17 0.147473
2 28 100 17 0.198293
3 28 100 17 0.220596
4 28 100 17 0.0324153
5 28 100 17 0.142086
6 28 100 17 0.0872705
7 28 100 17 0.0829636
8 28 100 17 0.00374689
9 28 100 17 4.6829e-05
10 28 100 17 2.81875e-05
11 28 100 17 2.69779e-07
12 28 100 17 0.000354052
13 28 100 17 1.32428e-05
14 28 100 17 9.43097e-05
16 28 100 17 0.0846191
1 29 100 17 0.000765973
3 29 100 17 1.50028e-06
4 29 100 17 0.00215295
5 29 100 17 5.80902e-06
7 29 100 17 0.000409106
8 29 100 17 0.000195896
9 29 100 17 0.485529
10 29 100 17 7.9242e-06
11 29 100 17 0.000415765
13 29 100 17 0.0297956
14 29 100 17 1.53825e-06
15 29 100 17 0.000120095
17 29 100 17 0.480599
2 30 100 17 4.59301e-06
3 30 100 17 0.0619062
4 30 100 17 2.57713e-07
5 30 100 17 2.78093e-07
6 30 100 17 1.36202e-05
7 30 100 17 6.29878e-06
8 30 100 17 0.00522078
10 30 100 17 0.154795
11 30 100 17 0.00470964
12 30 100 17 0.154451
13 30 100 17 0.154615
14 30 100 17 0.154535
15 30 100 17 0.000110727
16 30 100 17 0.154455
17 30 100 17 0.155177
3 31 100 17 1.21348e-06
4 31 100 17 4.42468e-05
6 31 100 17 5.49283e-07
7 31 100 17 0.000134274
8 31 100 17 0.000766811
9 31 100 17 0.000628606
10 31 100 17 0.195435
11 31 100 17 9.21785e-06
12 31 100 17 0.196154
13 31 100 17 1.13686e-06
14 31 100 17 0.0221416
15 31 100 17 0.189261
16 31 100 17 0.200058
17 31 100 17 0.195364
1 32 100 17 4.09771e-06
3 32 100 17 5.64519e-06
4 32 100 17 8.38481e-05
6 32 100 17 2.14285e-05
7 32 100 17 0.00157525
8 32 100 17 0.0242607
9 32 100 17 9.45557e-05
10 32 100 17 2.227e-05
11 32 100 17 0.00048571
13 32 100 17 2.20861e-06
15 32 100 17 0.972891
16 32 100 17 0.000552785
8 33 100 17 7.02194e-05
10 33 100 17 0.00556832
11 33 100 17 4.89893e-05
13 33 100 17 7.96808e-05
15 33 100 17 9.11878e-05
16 33 100 17 0.994142
1 34 100 17 3.45079e-05
4 34 100 17 1.15136e-05
7 34 100 17 1.68438e-05
8 34 100 17 0.00411269
9 34 100 17 0.104678
10 34 100 17 0.106294
11 34 100 17 0.107673
12 34 100 17 0.104804
13 34 100 17 0.103632
14 34 100 17 0.106534
15 34 100 17 0.10626
16 34 100 17 0.106953
17 34 100 17 0.148997
1 35 100 17 0.104639
5 35 100 17 0.10464
6 35 100 17 0.104638
7 35 100 17 0.109485
8 35 100 17 0.147947
9 35 100 17 0.10464
10 35 100 17 0.0104033
11 35 100 17 0.104327
12 35 100 17 0.10464
16 35 100 17 2.12109e-07
17 35 100 17 0.10464
3 36 100 17 0.000577555
4 36 100 17 0.000408915
7 36 100 17 5.34265e-06
8 36 100 17 4.41916e-06
10 36 100 17 2.68034e-06
11 36 100 17 9.61227e-05
12 36 100 17 0.00247311
13 36 100 17 0.99632
15 36 100 17 0.000111963
1 37 100 17 6.95573e-05
4 37 100 17 0.9858
9 37 100 17 0.000236085
13 37 100 17 0.00694741
16 37 100 17 0.00694741
1 38 100 17 0.0116608
4 38 100 17 0.412862
7 38 100 17 0.0132265
9 38 100 17 0.0811599
13 38 100 17 0.240545
16 38 100 17 0.240545
7 39 100 17 1
4 40 100 17 0.000916632
7 40 100 17 0.972048
9 40 100 17 0.00967371
13 40 100 17 0.00868059
16 40 100 17 0.00868059
4 41 100 17 1
13 42 100 17 0.5
16 42 100 17 0.5
4 43 100 17 0.0607626
7 43 100 17 0.0105593
9 43 100 17 0.117253
13 43 100 17 0.405807
16 43 100 17 0.405618
4 44 100 17 0.000141928
7 44 100 17 0.210078
9 44 100 17 0.734128
13 44 100 17 0.0278259
16 44 100 17 0.0278259
5 45 100 17 4.47314e-07
6 45 100 17 0.0010013
8 45 100 17 0.138682
10 45 100 17 0.144115
11 45 100 17 0.142649
12 45 100 17 0.144117
13 45 100 17 6.12512e-06
14 45 100 17 0.143703
15 45 100 17 0.143505
16 45 100 17 6.12512e-06
17 45 100 17 0.142215
1 0 100 18 0.000129291
2 0 100 18 0.0284402
3 0 100 18 0.0620251
4 0 100 18 0.0696261
5 0 100 18 0.0624247
6 0 100 18 0.0642939
7 0 100 18 0.0633691
8 0 100 18 0.0603264
9 0 100 18 0.0588726
10 0 100 18 0.0584828
11 0 100 18 0.0589616
12 0 100 18 0.0583568
13 0 100 18 0.0627777
14 0 100 18 0.0637718
15 0 100 18 0.064847
16 0 100 18 0.0793296
17 0 100 18 0.0839614
18 0 100 18 3.88047e-06
1 1 100 18 0.457965
2 1 100 18 0.13036
3 1 100 18 0.0577091
4 1 100 18 0.0456283
5 1 100 18 0.0409804
6 1 100 18 0.0309134
7 1 100 18 0.0255294
8 1 100 18 0.0213472
9 1 100 18 0.0353558
10 1 100 18 0.0211127
11 1 100 18 0.0222994
12 1 100 18 0.0230057
13 1 100 18 0.0138336
14 1 100 18 0.011908
15 1 100 18 0.0171373
16 1 100 18 0.012653
17 1 100 18 0.0130566
18 1 100 18 0.0192054
1 2 100 18 0.0959929
2 2 100 18 0.298249
3 2 100 18 0.128082
4 2 100 18 0.0756542
5 2 100 18 0.0555895
6 2 100 18 0.0510958
7 2 100 18 0.0448491
8 2 100 18 0.0306254
9 2 100 18 0.0296083
10 2 100 18 0.0326788
11 2 100 18 0.0261381
12 2 100 18 0.0176218
13 2 100 18 0.0236087
14 2 100 18 0.0198379
15 2 100 18 0.0233925
16 2 100 18 0.0128802
17 2 100 18 0.0148455
18 2 100 18 0.0192499
1 3 100 18 0.0544875
2 3 100 18 0.0985212
3 3 100 18 0.168526
4 3 100 18 0.133388
5 3 100 18 0.0986993
6 3 100 18 0.0766884
7 3 100 18 0.0549685
8 3 100 18 0.0525625
9 3 100 18 0.0484015
10 3 100 18 0.0335807
11 3 100 18 0.0281317
12 3 100 18 0.0306756
13 3 100 18 0.0264927
14 3 100 18 0.015524
15 3 100 18 0.0201318
16 3 100 18 0.0151989
17 3 100 18 0.0194088
18 3 100 18 0.0246119
1 4 100 18 0.0492552
2 4 100 18 0.0696731
3 4 100 18 0.098546
4 4 100 18 0.126766
5 4 100 18 0.129327
6 4 100 18 0.106339
7 4 100 18 0.0667766
8 4 100 18 0.0628704
9 4 100 18 0.0454369
10 4 100 18 0.0359073
11 4 100 18 0.0315107
12 4 100 18 0.0276654
13 4 100 18 0.0298563
14 4 100 18 0.0271393
15 4 100 18 0.0196975
16 4 100 18 0.0246139
17 4 100 18 0.0186398
18 4 100 18 0.0299792
1 5 100 18 0.0418297
2 5 100 18 0.0489239
3 5 100 18 0.0662874
4 5 100 18 0.0847578
5 5 100 18 0.112616
6 5 100 18 0.124277
7 5 100 18 0.101622
8 5 100 18 0.073882
9 5 100 18 0.058494
10 5 100 18 0.0498386
11 5 100 18 0.0461593
12 5 100 18 0.0255905
13 5 100 18 0.0315635
14 5 100 18 0.0244548
15 5 100 18 0.0256854
16 5 100 18 0.0233014
17 5 100 18 0.0288294
18 5 100 18 0.0318866
1 6 100 18 0.0289072
2 6 100 18 0.0501015
3 6 100 18 0.060333
4 6 100 18 0.0559266
5 6 100 18 0.0889666
6 6 100 18 0.0920175
7 6 100 18 0.109694
8 6 100 18 0.0962848
9 6 100 18 0.0815409
10 6 100 18 0.0530493
11 6 100 18 0.0495214
12 6 100 18 0.0470369
13 6 100 18 0.0320513
14 6 100 18 0.0342442
15 6 100 18 0.0268162
16 6 100 18 0.0310294
17 6 100 18 0.0250849
18 6 100 18 0.0373949
1 7 100 18 0.0322104
2 7 100 18 0.0408482
3 7 100 18 0.0499906
4 7 100 18 0.0511107
5 7 100 18 0.0678364
6 7 100 18 0.0794225
7 7 100 18 0.103179
8 7 100 18 0.101021
9 7 100 18 0.0695179
10 7 100 18 0.0771853
11 7 100 18 0.0409624
12 7 100 18 0.0509638
13 7 100 18 0.0532745
14 7 100 18 0.0438536
15 7 100 18 0.0302542
16 7 100 18 0.0339411
17 7 100 18 0.0335038
18 7 100 18 0.0409246
1 8 100 18 0.018515
2 8 100 18 0.018747
3 8 100 18 0.0256738
4 8 100 18 0.0436742
5 8 100 18 0.0437781
6 8 100 18 0.0663545
7 8 100 18 0.0629673
8 8 100 18 0.0897491
9 8 100 18 0.0985774
10 8 100 18 0.0819244
11 8 100 18 0.0881719
12 8 100 18 0.0706822
13 8 100 18 0.0499978
14 8 100 18 0.0436413
15 8 100 18 0.0459576
16 8 100 18 0.0526994
17 8 100 18 0.0491617
18 8 100 18 0.0497272
1 9 100 18 0.0156163
2 9 100 18 0.0201727
3 9 100 18 0.0183265
4 9 100 18 0.031251
5 9 100 18 0.0410329
6 9 100 18 0.0484121
7 9 100 18 0.0682277
8 9 100 18 0.0803801
9 9 100 18 0.0886509
10 9 100 18 0.0907618
11 9 100 18 0.0848228
12 9 100 18 0.0914302
13 9 100 18 0.0614674
14 9 100 18 0.0561167
15 9 100 18 0.0554764
16 9 100 18 0.0436037
17 9 100 18 0.0342357
18 9 100 18 0.070015
1 10 100 18 0.0238098
2 10 100 18 0.0311122
3 10 100 18 0.025061
4 10 100 18 0.0258346
5 10 100 18 0.023918
6 10 100 18 0.0339578
7 10 100 18 0.0609821
8 10 100 18 0.0699886
9 10 100 18 0.0802277
10 10 100 18 0.0940888
11 10 100 18 0.0838996
12 10 100 18 0.0892785
13 10 100 18 0.0778721
14 10 100 18 0.058507
15 10 100 18 0.0568836
16 10 100 18 0.0493202
17 10 100 18 0.0490182
18 10 100 18 0.06624
1 11 100 18 0.0116229
2 11 100 18 0.0238995
3 11 100 18 0.0300085
4 11 100 18 0.031312
5 11 100 18 0.0323945
6 11 100 18 0.0297848
7 11 100 18 0.0411168
8 11 100 18 0.0426116
9 11 100 18 0.0631979
10 11 100 18 0.0751606
11 11 100 18 0.101682
12 11 100 18 0.0890657
13 11 100 18 0.0837268
14 11 100 18 0.0763086
15 11 100 18 0.0732179
16 11 100 18 0.0587582
17 11 100 18 0.0567467
18 11 100 18 0.0793856
1 12 100 18 0.0163472
2 12 100 18 0.0243012
3 12 100 18 0.0216183
4 12 100 18 0.0314205
5 12 100 18 0.0363553
6 12 100 18 0.0280467
7 12 100 18 0.0272329
8 12 100 18 0.0460197
9 12 100 18 0.0500285
10 12 100 18 0.0699035
11 12 100 18 0.0773292
12 12 100 18 0.0889672
13 12 100 18 0.0857138
14 12 100 18 0.0773561
15 12 100 18 0.0839967
16 12 100 18 0.0720301
17 12 100 18 0.0709473
18 12 100 18 0.0923857
1 13 100 18 0.0152748
2 13 100 18 0.0172856
3 13 100 18 0.0207699
4 13 100 18 0.017787
5 13 100 18 0.0304585
6 13 100 18 0.0281706
7 13 100 18 0.0354611
8 13 100 18 0.0291976
9 13 100 18 0.0402827
10 13 100 18 0.0563082
11 13 100 18 0.061147
12 13 100 18 0.073055
13 13 100 18 0.0916134
14 13 100 18 0.109585
15 13 100 18 0.0909005
16 13 100 18 0.0836959
17 13 100 18 0.0868174
18 13 100 18 0.11219
1 14 100 18 0.0170892
2 14 100 18 0.0215032
3 14 100 18 0.027925
4 14 100 18 0.0292969
5 14 100 18 0.0235076
6 14 100 18 0.0335116
7 14 100 18 0.0402578
8 14 100 18 0.037673
9 14 100 18 0.0426813
10 14 100 18 0.0518555
11 14 100 18 0.063531
12 14 100 18 0.0671217
13 14 100 18 0.0837346
14 14 100 18 0.10023
15 14 100 18 0.0911428
16 14 100 18 0.0916108
17 14 100 18 0.0703632
18 14 100 18 0.106965
1 15 100 18 0.0113318
2 15 100 18 0.0172797
3 15 100 18 0.0264995
4 15 100 18 0.0275506
5 15 100 18 0.034637
6 15 100 18 0.0263395
7 15 100 18 0.0316371
8 15 100 18 0.0373907
9 15 100 18 0.0381209
10 15 100 18 0.0520781
11 15 100 18 0.0549742
12 15 100 18 0.0778659
13 15 100 18 0.0720355
14 15 100 18 0.0841118
15 15 100 18 0.108936
16 15 100 18 0.095532
17 15 100 18 0.0922782
18 15 100 18 0.111401
1 16 100 18 0.0115551
2 16 100 18 0.0163092
3 16 100 18 0.0286298
4 16 100 18 0.0249877
5 16 100 18 0.0211068
6 16 100 18 0.0339379
7 16 100 18 0.0311868
8 16 100 18 0.0385986
9 16 100 18 0.051212
10 16 100 18 0.0538408
11 16 100 18 0.0519542
12 16 100 18 0.0554128
13 16 100 18 0.0758986
14 16 100 18 0.0846539
15 16 100 18 0.0954741
16 16 100 18 0.0868006
17 16 100 18 0.0912128
18 16 100 18 0.147228
1 17 100 18 0.0238665
2 17 100 18 0.026036
3 17 100 18 0.0190886
4 17 100 18 0.0336266
5 17 100 18 0.0206051
6 17 100 18 0.0258325
7 17 100 18 0.0328613
8 17 100 18 0.0341486
9 17 100 18 0.0410325
10 17 100 18 0.0495637
11 17 100 18 0.0589795
12 17 100 18 0.0511691
13 17 100 18 0.0813972
14 17 100 18 0.0956822
15 17 100 18 0.0779074
16 17 100 18 0.097894
17 17 100 18 0.095367
18 17 100 18 0.134942
1 18 100 18 0.0147341
2 18 100 18 0.0338814
3 18 100 18 0.0365726
4 18 100 18 0.024876
5 18 100 18 0.0304536
6 18 100 18 0.0231282
7 18 100 18 0.0242609
8 18 100 18 0.0411398
9 18 100 18 0.0337089
10 18 100 18 0.038515
11 18 100 18 0.0517624
12 18 100 18 0.0747668
13 18 100 18 0.0749496
14 18 100 18 0.0867564
15 18 100 18 0.0870444
16 18 100 18 0.0961371
17 18 100 18 0.0936076
18 18 100 18 0.133705
1 19 100 18 0.0356612
2 19 100 18 0.0416218
3 19 100 18 0.0367142
4 19 100 18 0.0346589
5 19 100 18 0.0415682
6 19 100 18 0.036382
7 19 100 18 0.0346741
8 19 100 18 0.0369312
9 19 100 18 0.041901
10 19 100 18 0.0432188
11 19 100 18 0.0561142
12 19 100 18 0.0418021
13 19 100 18 0.0521381
14 19 100 18 0.0840805
15 19 100 18 0.0909741
16 19 100 18 0.0815882
17 19 100 18 0.082712
18 19 100 18 0.127259
1 20 100 18 0.0121034
2 20 100 18 0.0190346
3 20 100 18 0.0256237
4 20 100 18 0.0220033
5 20 100 18 0.0199747
6 20 100 18 0.0234177
7 20 100 18 0.0440917
8 20 100 18 0.0713954
9 20 100 18 0.055572
10 20 100 18 0.058999
11 20 100 18 0.069348
12 20 100 18 0.0571975
13 20 100 18 0.0566785
14 20 100 18 0.0662672
15 20 100 18 0.07641
16 20 100 18 0.0848017
17 20 100 18 0.0861353
18 20 100 18 0.150947
1 21 100 18 0.0350333
2 21 100 18 0.0397145
3 21 100 18 0.0303049
4 21 100 18 0.0412352
5 21 100 18 0.0318742
6 21 100 18 0.0410979
7 21 100 18 0.0374501
8 21 100 18 0.0309912
9 21 100 18 0.0423873
10 21 100 18 0.0331212
11 21 100 18 0.0530793
12 21 100 18 0.0393223
13 21 100 18 0.0628103
14 21 100 18 0.0727471
15 21 100 18 0.065075
16 21 100 18 0.102668
17 21 100 18 0.111347
18 21 100 18 0.129741
1 22 100 18 0.0370102
2 22 100 18 0.0336403
3 22 100 18 0.0263033
4 22 100 18 0.0331546
5 22 100 18 0.0477787
6 22 100 18 0.0246437
7 22 100 18 0.00859808
8 22 100 18 0.0337614
9 22 100 18 0.0530061
10 22 100 18 0.0457007
11 22 100 18 0.0502768
12 22 100 18 0.0614635
13 22 100 18 0.0597689
14 22 100 18 0.0550701
15 22 100 18 0.0836621
16 22 100 18 0.0706029
17 22 100 18 0.127404
18 22 100 18 0.148155
1 23 100 18 0.0792793
2 23 100 18 0.0466862
3 23 100 18 0.00407186
4 23 100 18 0.0699627
5 23 100 18 0.0497326
6 23 100 18 0.0493278
7 23 100 18 0.0411018
8 23 100 18 0.0050896
