0 1 1 100 3.55757e-07
1 1 1 100 1
0 2 1 100 0.0189136
1 2 1 100 0.981086
0 3 1 100 0.159866
1 3 1 100 0.840134
0 4 1 100 0.0870499
1 4 1 100 0.91295
0 5 1 100 0.25
1 5 1 100 0.75
1 6 1 100 1
1 7 1 100 1
0 1 2 100 1.93932e-05
1 1 2 100 0.754262
2 1 2 100 0.245718
0 2 2 100 0.0824333
1 2 2 100 0.449412
2 2 2 100 0.468155
0 3 2 100 0.105123
1 3 2 100 0.394299
2 3 2 100 0.500578
0 4 2 100 0.0240449
1 4 2 100 0.633086
2 4 2 100 0.342869
0 5 2 100 0.0140042
1 5 2 100 0.675877
2 5 2 100 0.310119
0 6 2 100 0.333332
1 6 2 100 0.666668
1 7 2 100 1
0 1 3 100 0.000402918
1 1 3 100 0.630314
2 1 3 100 0.193008
3 1 3 100 0.176275
0 2 3 100 0.0927264
1 2 3 100 0.380791
2 2 3 100 0.318919
3 2 3 100 0.207563
0 3 3 100 0.140163
1 3 3 100 0.180668
2 3 3 100 0.3187
3 3 3 100 0.360468
0 4 3 100 0.0960658
1 4 3 100 0.202413
2 4 3 100 0.393847
3 4 3 100 0.307674
0 5 3 100 0.080787
1 5 3 100 0.201663
2 5 3 100 0.466123
3 5 3 100 0.251427
1 6 3 100 0.328402
2 6 3 100 0.524419
3 6 3 100 0.147179
0 7 3 100 0.0184187
1 7 3 100 0.204955
2 7 3 100 0.595259
3 7 3 100 0.181368
0 8 3 100 0.5
3 8 3 100 0.5
2 9 3 100 1
0 1 4 100 0.0003216
1 1 4 100 0.676455
2 1 4 100 0.107433
3 1 4 100 0.126144
4 1 4 100 0.089646
0 2 4 100 0.0922361
1 2 4 100 0.247394
2 2 4 100 0.336673
3 2 4 100 0.219751
4 2 4 100 0.103945
0 3 4 100 0.182321
1 3 4 100 0.0983613
2 3 4 100 0.26568
3 3 4 100 0.332579
4 3 4 100 0.121058
0 4 4 100 0.154816
1 4 4 100 0.0985764
2 4 4 100 0.233312
3 4 4 100 0.41294
4 4 4 100 0.100356
0 5 4 100 0.110898
1 5 4 100 0.0928509
2 5 4 100 0.212898
3 5 4 100 0.471693
4 5 4 100 0.111659
0 6 4 100 0.0909482
1 6 4 100 0.113954
2 6 4 100 0.202569
3 6 4 100 0.464067
4 6 4 100 0.128461
0 7 4 100 0.0962914
1 7 4 100 0.145182
2 7 4 100 0.152638
3 7 4 100 0.548395
4 7 4 100 0.057494
0 8 4 100 0.077716
1 8 4 100 0.12204
2 8 4 100 0.0858689
3 8 4 100 0.63757
4 8 4 100 0.0768051
1 9 4 100 0.285714
2 9 4 100 0.142857
3 9 4 100 0.428572
4 9 4 100 0.142857
0 1 5 100 0.000724599
1 1 5 100 0.670558
2 1 5 100 0.0795083
3 1 5 100 0.069547
4 1 5 100 0.130072
5 1 5 100 0.04959
0 2 5 100 0.0827378
1 2 5 100 0.22233
2 2 5 100 0.318275
3 2 5 100 0.153911
4 2 5 100 0.159713
5 2 5 100 0.0630323
0 3 5 100 0.172764
1 3 5 100 0.0892287
2 3 5 100 0.222429
3 3 5 100 0.231901
4 3 5 100 0.229231
5 3 5 100 0.054446
0 4 5 100 0.191108
1 4 5 100 0.0665498
2 4 5 100 0.15192
3 4 5 100 0.233772
4 4 5 100 0.298258
5 4 5 100 0.0583928
0 5 5 100 0.183115
1 5 5 100 0.0617962
2 5 5 100 0.126949
3 5 5 100 0.220664
4 5 5 100 0.345301
5 5 5 100 0.0621754
0 6 5 100 0.119584
1 6 5 100 0.0710588
2 6 5 100 0.130804
3 6 5 100 0.224274
4 6 5 100 0.397522
5 6 5 100 0.0567574
0 7 5 100 0.0989507
1 7 5 100 0.084363
2 7 5 100 0.145075
3 7 5 100 0.18604
4 7 5 100 0.419431
5 7 5 100 0.06614
0 8 5 100 0.0914201
1 8 5 100 0.0995327
2 8 5 100 0.161709
3 8 5 100 0.196489
4 8 5 100 0.384554
5 8 5 100 0.066295
0 9 5 100 0.0801779
1 9 5 100 0.143488
2 9 5 100 0.0588395
3 9 5 100 0.157576
4 9 5 100 0.506909
5 9 5 100 0.0530096
1 10 5 100 0.142857
2 10 5 100 0.285714
3 10 5 100 0.142857
4 10 5 100 0.428571
2 11 5 100 1
0 1 6 100 0.000688666
1 1 6 100 0.683349
2 1 6 100 0.0757078
3 1 6 100 0.0499733
4 1 6 100 0.0610314
5 1 6 100 0.093835
6 1 6 100 0.0354149
0 2 6 100 0.0771827
1 2 6 100 0.20419
2 2 6 100 0.31349
3 2 6 100 0.128424
4 2 6 100 0.114287
5 2 6 100 0.117318
6 2 6 100 0.0451088
0 3 6 100 0.172669
1 3 6 100 0.0767661
2 3 6 100 0.19462
3 3 6 100 0.187008
4 3 6 100 0.152819
5 3 6 100 0.181405
6 3 6 100 0.0347131
0 4 6 100 0.186875
1 4 6 100 0.0575104
2 4 6 100 0.120503
3 4 6 100 0.182321
4 4 6 100 0.196789
5 4 6 100 0.211975
6 4 6 100 0.0440274
0 5 6 100 0.221977
1 5 6 100 0.0510632
2 5 6 100 0.101261
3 5 6 100 0.157046
4 5 6 100 0.190008
5 5 6 100 0.245991
6 5 6 100 0.0326537
0 6 6 100 0.173083
1 6 6 100 0.0547079
2 6 6 100 0.104599
3 6 6 100 0.154077
4 6 6 100 0.205686
5 6 6 100 0.276463
6 6 6 100 0.031383
0 7 6 100 0.131493
1 7 6 100 0.0571993
2 7 6 100 0.115737
3 7 6 100 0.141787
4 7 6 100 0.200043
5 7 6 100 0.321101
6 7 6 100 0.0326398
0 8 6 100 0.113858
1 8 6 100 0.0556661
2 8 6 100 0.124208
3 8 6 100 0.154483
4 8 6 100 0.19561
5 8 6 100 0.327272
6 8 6 100 0.0289019
0 9 6 100 0.0854096
1 9 6 100 0.0504035
2 9 6 100 0.104626
3 9 6 100 0.162456
4 9 6 100 0.206941
5 9 6 100 0.363102
6 9 6 100 0.0270606
0 10 6 100 0.103778
1 10 6 100 0.0424311
2 10 6 100 0.132675
3 10 6 100 0.187679
4 10 6 100 0.143589
5 10 6 100 0.370801
6 10 6 100 0.0190464
0 11 6 100 0.0873643
1 11 6 100 0.0688634
2 11 6 100 0.167107
3 11 6 100 0.162631
4 11 6 100 0.0728689
5 11 6 100 0.44032
6 11 6 100 0.000845422
1 12 6 100 0.2
2 12 6 100 0.2
3 12 6 100 0.2
5 12 6 100 0.399999
0 1 7 100 0.000674559
1 1 7 100 0.666627
2 1 7 100 0.0710146
3 1 7 100 0.053865
4 1 7 100 0.0461621
5 1 7 100 0.044859
6 1 7 100 0.0911215
7 1 7 100 0.0256765
0 2 7 100 0.06991
1 2 7 100 0.202874
2 2 7 100 0.294792
3 2 7 100 0.130487
4 2 7 100 0.0858922
5 2 7 100 0.0796644
6 2 7 100 0.10078
7 2 7 100 0.0356011
0 3 7 100 0.166596
1 3 7 100 0.0763376
2 3 7 100 0.169484
3 3 7 100 0.173548
4 3 7 100 0.125412
5 3 7 100 0.114068
6 3 7 100 0.148593
7 3 7 100 0.0259614
0 4 7 100 0.188795
1 4 7 100 0.0583474
2 4 7 100 0.0970082
3 4 7 100 0.160373
4 4 7 100 0.154137
5 4 7 100 0.138131
6 4 7 100 0.174824
7 4 7 100 0.0283839
0 5 7 100 0.212612
1 5 7 100 0.0471471
2 5 7 100 0.0764002
3 5 7 100 0.131353
4 5 7 100 0.147911
5 5 7 100 0.157135
6 5 7 100 0.204904
7 5 7 100 0.0225379
0 6 7 100 0.202087
1 6 7 100 0.0457582
2 6 7 100 0.0694215
3 6 7 100 0.116429
4 6 7 100 0.153386
5 6 7 100 0.165865
6 6 7 100 0.225966
7 6 7 100 0.0210867
0 7 7 100 0.171945
1 7 7 100 0.0462554
2 7 7 100 0.0739942
3 7 7 100 0.115623
4 7 7 100 0.14557
5 7 7 100 0.177591
6 7 7 100 0.251261
7 7 7 100 0.017761
0 8 7 100 0.157552
1 8 7 100 0.0429584
2 8 7 100 0.0757819
3 8 7 100 0.114277
4 8 7 100 0.146276
5 8 7 100 0.165493
6 8 7 100 0.282143
7 8 7 100 0.0155184
0 9 7 100 0.136602
1 9 7 100 0.0377753
2 9 7 100 0.0789643
3 9 7 100 0.119758
4 9 7 100 0.154519
5 9 7 100 0.171445
6 9 7 100 0.286471
7 9 7 100 0.0144661
0 10 7 100 0.0988161
1 10 7 100 0.0603606
2 10 7 100 0.0758914
3 10 7 100 0.113061
4 10 7 100 0.149843
5 10 7 100 0.153551
6 10 7 100 0.332997
7 10 7 100 0.0154806
0 11 7 100 0.0757418
1 11 7 100 0.079187
2 11 7 100 0.111974
3 11 7 100 0.154271
4 11 7 100 0.142715
5 11 7 100 0.148129
6 11 7 100 0.281146
7 11 7 100 0.00683579
0 12 7 100 0.0542613
1 12 7 100 0.0282213
2 12 7 100 0.146266
3 12 7 100 0.0309516
4 12 7 100 0.148821
5 12 7 100 0.20129
6 12 7 100 0.350894
7 12 7 100 0.039295
0 13 7 100 0.222222
2 13 7 100 0.333333
5 13 7 100 0.111106
6 13 7 100 0.333339
4 14 7 100 0.333333
6 14 7 100 0.666667
0 15 7 100 0.496977
6 15 7 100 0.503023
0 16 7 100 0.033933
6 16 7 100 0.966067
6 17 7 100 1
0 1 8 100 0.000704923
1 1 8 100 0.66596
2 1 8 100 0.073107
3 1 8 100 0.053463
4 1 8 100 0.0425702
5 1 8 100 0.0373512
6 1 8 100 0.0424659
7 1 8 100 0.0672283
8 1 8 100 0.0171496
0 2 8 100 0.0712526
1 2 8 100 0.186383
2 2 8 100 0.289713
3 2 8 100 0.124956
4 2 8 100 0.0758141
5 2 8 100 0.0593196
6 2 8 100 0.0783061
7 2 8 100 0.0897411
8 2 8 100 0.0245149
0 3 8 100 0.169886
1 3 8 100 0.0751274
2 3 8 100 0.152739
3 3 8 100 0.171269
4 3 8 100 0.107678
5 3 8 100 0.0852914
6 3 8 100 0.0896535
7 3 8 100 0.128796
8 3 8 100 0.01956
0 4 8 100 0.187663
1 4 8 100 0.0565602
2 4 8 100 0.0932788
3 4 8 100 0.141038
4 4 8 100 0.134658
5 4 8 100 0.10894
6 4 8 100 0.105854
7 4 8 100 0.150041
8 4 8 100 0.0219655
0 5 8 100 0.210517
1 5 8 100 0.04613
2 5 8 100 0.0697585
3 5 8 100 0.108663
4 5 8 100 0.126017
5 5 8 100 0.135818
6 5 8 100 0.121662
7 5 8 100 0.160062
8 5 8 100 0.0213716
0 6 8 100 0.207075
1 6 8 100 0.0418951
2 6 8 100 0.0615625
3 6 8 100 0.0990542
4 6 8 100 0.112385
5 6 8 100 0.137717
6 6 8 100 0.136365
7 6 8 100 0.18522
8 6 8 100 0.0187257
0 7 8 100 0.192601
1 7 8 100 0.03852
2 7 8 100 0.0546425
3 7 8 100 0.0906754
4 7 8 100 0.112249
5 7 8 100 0.14704
6 7 8 100 0.15024
7 7 8 100 0.198089
8 7 8 100 0.0159435
0 8 8 100 0.172225
1 8 8 100 0.0334601
2 8 8 100 0.0598582
3 8 8 100 0.0920277
4 8 8 100 0.111387
5 8 8 100 0.138682
6 8 8 100 0.152283
7 8 8 100 0.224815
8 8 8 100 0.0152609
0 9 8 100 0.162129
1 9 8 100 0.0300655
2 9 8 100 0.0578215
3 9 8 100 0.0837768
4 9 8 100 0.116101
5 9 8 100 0.130695
6 9 8 100 0.162852
7 9 8 100 0.244281
8 9 8 100 0.0122783
0 10 8 100 0.123649
1 10 8 100 0.0318546
2 10 8 100 0.0582705
3 10 8 100 0.103754
4 10 8 100 0.118171
5 10 8 100 0.109821
6 10 8 100 0.157078
7 10 8 100 0.281689
8 10 8 100 0.0157131
0 11 8 100 0.0932548
1 11 8 100 0.0353759
2 11 8 100 0.0797281
3 11 8 100 0.101979
4 11 8 100 0.13485
5 11 8 100 0.116202
6 11 8 100 0.141006
7 11 8 100 0.284593
8 11 8 100 0.0130099
0 12 8 100 0.103486
1 12 8 100 0.0324349
2 12 8 100 0.0896046
3 12 8 100 0.0453644
4 12 8 100 0.13896
5 12 8 100 0.114747
6 12 8 100 0.140321
7 12 8 100 0.323943
8 12 8 100 0.0111395
0 13 8 100 0.0683068
1 13 8 100 3.07371e-05
2 13 8 100 0.0681819
3 13 8 100 0.0682136
4 13 8 100 0.113637
5 13 8 100 0.204303
6 13 8 100 0.136364
7 13 8 100 0.31826
8 13 8 100 0.0227036
0 14 8 100 0.21744
3 14 8 100 0.11109
4 14 8 100 0.11111
5 14 8 100 0.115915
6 14 8 100 0.222222
7 14 8 100 0.222223
2 15 8 100 4.41957e-06
4 15 8 100 0.666662
5 15 8 100 0.333334
0 1 9 100 0.000718439
1 1 9 100 0.645012
2 1 9 100 0.0753217
3 1 9 100 0.05021
4 1 9 100 0.0418094
5 1 9 100 0.0399564
6 1 9 100 0.0348112
7 1 9 100 0.0343342
8 1 9 100 0.0629748
9 1 9 100 0.0148513
0 2 9 100 0.0783049
1 2 9 100 0.178272
2 2 9 100 0.280888
3 2 9 100 0.119414
4 2 9 100 0.0668968
5 2 9 100 0.0573175
6 2 9 100 0.0645479
7 2 9 100 0.0606518
8 2 9 100 0.0709142
9 2 9 100 0.022793
0 3 9 100 0.169842
1 3 9 100 0.0699034
2 3 9 100 0.153125
3 3 9 100 0.162927
4 3 9 100 0.100118
5 3 9 100 0.0718473
6 3 9 100 0.074686
7 3 9 100 0.0742305
8 3 9 100 0.105366
9 3 9 100 0.0179553
0 4 9 100 0.194273
1 4 9 100 0.0530366
2 4 9 100 0.0886169
3 4 9 100 0.138386
4 4 9 100 0.117059
5 4 9 100 0.0932081
6 4 9 100 0.0873586
7 4 9 100 0.0848987
8 4 9 100 0.123322
9 4 9 100 0.0198409
0 5 9 100 0.209415
1 5 9 100 0.0468835
2 5 9 100 0.0661768
3 5 9 100 0.103357
4 5 9 100 0.114635
5 5 9 100 0.111545
6 5 9 100 0.103727
7 5 9 100 0.0960698
8 5 9 100 0.130466
9 5 9 100 0.0177252
0 6 9 100 0.214776
1 6 9 100 0.038576
2 6 9 100 0.056334
3 6 9 100 0.0830017
4 6 9 100 0.102201
5 6 9 100 0.112846
6 6 9 100 0.123507
7 6 9 100 0.109477
8 6 9 100 0.141739
9 6 9 100 0.0175409
0 7 9 100 0.198256
1 7 9 100 0.033892
2 7 9 100 0.0556229
3 7 9 100 0.0795534
4 7 9 100 0.0929246
5 7 9 100 0.109916
6 7 9 100 0.129638
7 7 9 100 0.126765
8 7 9 100 0.15923
9 7 9 100 0.0142014
0 8 9 100 0.190298
1 8 9 100 0.0270668
2 8 9 100 0.0529963
3 8 9 100 0.0792014
4 8 9 100 0.0836429
5 8 9 100 0.107012
6 8 9 100 0.137286
7 8 9 100 0.135343
8 8 9 100 0.175428
9 8 9 100 0.0117259
0 9 9 100 0.190227
1 9 9 100 0.0227833
2 9 9 100 0.0501667
3 9 9 100 0.0768038
4 9 9 100 0.0837763
5 9 9 100 0.0988791
6 9 9 100 0.118346
7 9 9 100 0.139456
8 9 9 100 0.20502
9 9 9 100 0.0145424
0 10 9 100 0.164901
1 10 9 100 0.0260409
2 10 9 100 0.0519618
3 10 9 100 0.0842109
4 10 9 100 0.082114
5 10 9 100 0.100319
6 10 9 100 0.116288
7 10 9 100 0.133955
8 10 9 100 0.230091
9 10 9 100 0.0101191
0 11 9 100 0.130569
1 11 9 100 0.024374
2 11 9 100 0.0563103
3 11 9 100 0.0836108
4 11 9 100 0.0869944
5 11 9 100 0.11602
6 11 9 100 0.120523
7 11 9 100 0.132297
8 11 9 100 0.239148
9 11 9 100 0.0101535
0 12 9 100 0.108188
1 12 9 100 0.0191894
2 12 9 100 0.0648405
3 12 9 100 0.0897296
4 12 9 100 0.111847
5 12 9 100 0.0979333
6 12 9 100 0.104032
7 12 9 100 0.136899
8 12 9 100 0.2614
9 12 9 100 0.00594032
0 13 9 100 0.0677644
1 13 9 100 0.024995
2 13 9 100 0.0386448
3 13 9 100 0.121961
4 13 9 100 0.0765461
5 13 9 100 0.0994986
6 13 9 100 0.115245
7 13 9 100 0.164322
8 13 9 100 0.28662
9 13 9 100 0.00440235
0 14 9 100 0.0961396
1 14 9 100 0.0576923
3 14 9 100 0.17309
4 14 9 100 0.0952494
5 14 9 100 0.0393805
6 14 9 100 0.0769231
7 14 9 100 0.21044
8 14 9 100 0.231853
9 14 9 100 0.0192321
0 15 9 100 6.27099e-06
1 15 9 100 6.55147e-05
3 15 9 100 0.091235
4 15 9 100 0.0909092
5 15 9 100 0.0910266
6 15 9 100 0.181812
7 15 9 100 0.363313
8 15 9 100 0.0908412
9 15 9 100 0.0907918
3 16 9 100 1
3 17 9 100 1
0 1 10 100 0.00112929
1 1 10 100 0.626569
2 1 10 100 0.0731479
3 1 10 100 0.0468972
4 1 10 100 0.041881
5 1 10 100 0.0395522
6 1 10 100 0.0422388
7 1 10 100 0.0320083
8 1 10 100 0.0315288
9 1 10 100 0.0518762
10 1 10 100 0.013171
0 2 10 100 0.0800223
1 2 10 100 0.167678
2 2 10 100 0.275929
3 2 10 100 0.119746
4 2 10 100 0.0668928
5 2 10 100 0.0476519
6 2 10 100 0.0534863
7 2 10 100 0.0499435
8 2 10 100 0.0566957
9 2 10 100 0.0609309
10 2 10 100 0.0210233
0 3 10 100 0.172464
1 3 10 100 0.0637091
2 3 10 100 0.142819
3 3 10 100 0.164977
4 3 10 100 0.096022
5 3 10 100 0.0675687
6 3 10 100 0.0568769
7 3 10 100 0.0613398
8 3 10 100 0.066322
9 3 10 100 0.0940794
10 3 10 100 0.0138208
0 4 10 100 0.188673
1 4 10 100 0.0531143
2 4 10 100 0.0827119
3 4 10 100 0.135191
4 4 10 100 0.112935
5 4 10 100 0.0940599
6 4 10 100 0.0692127
7 4 10 100 0.0657505
8 4 10 100 0.0757437
9 4 10 100 0.104762
10 4 10 100 0.017846
0 5 10 100 0.201082
1 5 10 100 0.0472849
2 5 10 100 0.0637217
3 5 10 100 0.100806
4 5 10 100 0.103013
5 5 10 100 0.101238
6 5 10 100 0.0954125
7 5 10 100 0.0799987
8 5 10 100 0.0808129
9 5 10 100 0.115075
10 5 10 100 0.0115559
0 6 10 100 0.197868
1 6 10 100 0.0424023
2 6 10 100 0.058424
3 6 10 100 0.0784834
4 6 10 100 0.0915913
5 6 10 100 0.105146
6 6 10 100 0.102833
7 6 10 100 0.0967341
8 6 10 100 0.0962085
9 6 10 100 0.11908
10 6 10 100 0.0112298
0 7 10 100 0.195855
1 7 10 100 0.0365633
2 7 10 100 0.0511631
3 7 10 100 0.070059
4 7 10 100 0.08003
5 7 10 100 0.0990443
6 7 10 100 0.110684
7 7 10 100 0.112661
8 7 10 100 0.103258
9 7 10 100 0.130205
10 7 10 100 0.0104778
0 8 10 100 0.193757
1 8 10 100 0.0304297
2 8 10 100 0.0488669
3 8 10 100 0.0668863
4 8 10 100 0.0730713
5 8 10 100 0.0903334
6 8 10 100 0.103169
7 8 10 100 0.116336
8 8 10 100 0.117343
9 8 10 100 0.149161
10 8 10 100 0.0106457
0 9 10 100 0.187876
1 9 10 100 0.0254704
2 9 10 100 0.0462361
3 9 10 100 0.0671344
4 9 10 100 0.0729826
5 9 10 100 0.0798239
6 9 10 100 0.107808
7 9 10 100 0.117816
8 9 10 100 0.119371
9 9 10 100 0.165917
10 9 10 100 0.00956454
0 10 10 100 0.171101
1 10 10 100 0.0219573
2 10 10 100 0.0444357
3 10 10 100 0.0636379
4 10 10 100 0.0766772
5 10 10 100 0.0808031
6 10 10 100 0.101764
7 10 10 100 0.113045
8 10 10 100 0.126635
9 10 10 100 0.190082
10 10 10 100 0.00986166
0 11 10 100 0.159321
1 11 10 100 0.02339
2 11 10 100 0.0413029
3 11 10 100 0.0681782
4 11 10 100 0.0817276
5 11 10 100 0.0711679
6 11 10 100 0.0954188
7 11 10 100 0.118262
8 11 10 100 0.129916
9 11 10 100 0.202868
10 11 10 100 0.00844861
0 12 10 100 0.134085
1 12 10 100 0.031035
2 12 10 100 0.0369827
3 12 10 100 0.0553646
4 12 10 100 0.079362
5 12 10 100 0.0731706
6 12 10 100 0.0904122
7 12 10 100 0.121972
8 12 10 100 0.130133
9 12 10 100 0.23847
10 12 10 100 0.00901151
0 13 10 100 0.135264
1 13 10 100 0.020798
2 13 10 100 0.0491151
3 13 10 100 0.0523491
4 13 10 100 0.0648584
5 13 10 100 0.0757235
6 13 10 100 0.0991519
7 13 10 100 0.109275
8 13 10 100 0.117708
9 13 10 100 0.272145
10 13 10 100 0.0036131
0 14 10 100 0.102502
1 14 10 100 0.0465391
2 14 10 100 0.0309922
3 14 10 100 0.0763269
4 14 10 100 0.0978211
5 14 10 100 0.0537646
6 14 10 100 0.0528964
7 14 10 100 0.122353
8 14 10 100 0.125861
9 14 10 100 0.286481
10 14 10 100 0.0044622
0 15 10 100 0.112768
3 15 10 100 0.0379877
4 15 10 100 0.0506675
5 15 10 100 0.0779307
6 15 10 100 0.100938
7 15 10 100 0.112618
8 15 10 100 0.177293
9 15 10 100 0.329782
10 15 10 100 1.54758e-05
0 16 10 100 0.215633
4 16 10 100 0.000144119
5 16 10 100 0.157705
6 16 10 100 0.0525567
7 16 10 100 8.33939e-06
8 16 10 100 0.100134
9 16 10 100 0.473818
0 17 10 100 0.000128195
2 17 10 100 1.12792e-05
5 17 10 100 0.232536
6 17 10 100 0.125
9 17 10 100 0.642325
5 18 10 100 0.500001
8 18 10 100 0.000112853
9 18 10 100 0.499886
0 19 10 100 5.17194e-05
8 19 10 100 0.0164456
9 19 10 100 0.983503
0 1 11 100 0.000960637
1 1 11 100 0.620238
2 1 11 100 0.0768853
3 1 11 100 0.0457753
4 1 11 100 0.0416324
5 1 11 100 0.0366955
6 1 11 100 0.0315013
7 1 11 100 0.0308152
8 1 11 100 0.0239054
9 1 11 100 0.0290325
10 1 11 100 0.0519391
11 1 11 100 0.0106191
0 2 11 100 0.0825311
1 2 11 100 0.172562
2 2 11 100 0.256129
3 2 11 100 0.11696
4 2 11 100 0.0668625
5 2 11 100 0.0472263
6 2 11 100 0.0436561
7 2 11 100 0.0432108
8 2 11 100 0.0432842
9 2 11 100 0.0457281
10 2 11 100 0.0625207
11 2 11 100 0.0193294
0 3 11 100 0.166414
1 3 11 100 0.0684554
2 3 11 100 0.151114
3 3 11 100 0.145311
4 3 11 100 0.099546
5 3 11 100 0.0641588
6 3 11 100 0.0510801
7 3 11 100 0.0477111
8 3 11 100 0.0517822
9 3 11 100 0.0593879
10 3 11 100 0.0819354
11 3 11 100 0.013104
0 4 11 100 0.196787
1 4 11 100 0.052887
2 4 11 100 0.0798731
3 4 11 100 0.123365
4 4 11 100 0.112803
5 4 11 100 0.0878846
6 4 11 100 0.0603743
7 4 11 100 0.0539388
8 4 11 100 0.0555127
9 4 11 100 0.0664526
10 4 11 100 0.0939086
11 4 11 100 0.0162134
0 5 11 100 0.199257
1 5 11 100 0.0474412
2 5 11 100 0.0595732
3 5 11 100 0.0940006
4 5 11 100 0.100027
5 5 11 100 0.0951431
6 5 11 100 0.0815888
7 5 11 100 0.0696887
8 5 11 100 0.068835
9 5 11 100 0.0694798
10 5 11 100 0.10066
11 5 11 100 0.0143054
0 6 11 100 0.195639
1 6 11 100 0.0400076
2 6 11 100 0.0524054
3 6 11 100 0.0675482
4 6 11 100 0.0882531
5 6 11 100 0.0939578
6 6 11 100 0.0975366
7 6 11 100 0.0843213
8 6 11 100 0.0850757
9 6 11 100 0.0760291
10 6 11 100 0.10769
11 6 11 100 0.0115364
0 7 11 100 0.186839
1 7 11 100 0.0347989
2 7 11 100 0.0451236
3 7 11 100 0.0606827
4 7 11 100 0.0734415
5 7 11 100 0.0819223
6 7 11 100 0.0989846
7 7 11 100 0.0966351
8 7 11 100 0.097531
9 7 11 100 0.0871297
10 7 11 100 0.122516
11 7 11 100 0.0143963
0 8 11 100 0.202515
1 8 11 100 0.03362
2 8 11 100 0.0433935
3 8 11 100 0.0575728
4 8 11 100 0.0639196
5 8 11 100 0.073424
6 8 11 100 0.077597
7 8 11 100 0.104067
8 8 11 100 0.10291
9 8 11 100 0.0980218
10 8 11 100 0.133624
11 8 11 100 0.00933577
0 9 11 100 0.194512
1 9 11 100 0.0252251
2 9 11 100 0.039296
3 9 11 100 0.0612162
4 9 11 100 0.0629605
5 9 11 100 0.0635655
6 9 11 100 0.0744507
7 9 11 100 0.0938997
8 9 11 100 0.113732
9 9 11 100 0.111182
10 9 11 100 0.148628
11 9 11 100 0.0113313
0 10 11 100 0.178106
1 10 11 100 0.0239241
2 10 11 100 0.0377093
3 10 11 100 0.0582257
4 10 11 100 0.0612969
5 10 11 100 0.0630108
6 10 11 100 0.0641957
7 10 11 100 0.0839513
8 10 11 100 0.119628
9 10 11 100 0.118474
10 10 11 100 0.179125
11 10 11 100 0.0123537
0 11 11 100 0.174192
1 11 11 100 0.0232986
2 11 11 100 0.0397523
3 11 11 100 0.0579151
4 11 11 100 0.0608184
5 11 11 100 0.065065
6 11 11 100 0.0614425
7 11 11 100 0.0744472
8 11 11 100 0.108415
9 11 11 100 0.126549
10 11 11 100 0.198213
11 11 11 100 0.00989304
0 12 11 100 0.18321
1 12 11 100 0.0155311
2 12 11 100 0.0335864
3 12 11 100 0.0527505
4 12 11 100 0.05742
5 12 11 100 0.066155
6 12 11 100 0.054773
7 12 11 100 0.0758609
8 12 11 100 0.105136
9 12 11 100 0.129802
10 12 11 100 0.212677
11 12 11 100 0.0130985
0 13 11 100 0.145457
1 13 11 100 0.0202433
2 13 11 100 0.0339078
3 13 11 100 0.0574122
4 13 11 100 0.0573213
5 13 11 100 0.0607788
6 13 11 100 0.0545357
7 13 11 100 0.06146
8 13 11 100 0.111109
9 13 11 100 0.153132
10 13 11 100 0.236258
11 13 11 100 0.0083846
0 14 11 100 0.150359
1 14 11 100 0.0151857
2 14 11 100 0.0376599
3 14 11 100 0.0539459
4 14 11 100 0.0735486
5 14 11 100 0.0503277
6 14 11 100 0.0610694
7 14 11 100 0.0731835
8 14 11 100 0.10551
9 14 11 100 0.128065
10 14 11 100 0.241183
11 14 11 100 0.00996162
0 15 11 100 0.115579
1 15 11 100 0.00847728
2 15 11 100 0.0425014
3 15 11 100 0.0667214
4 15 11 100 0.0636041
5 15 11 100 0.0812807
6 15 11 100 0.0463768
7 15 11 100 0.0657417
8 15 11 100 0.139673
9 15 11 100 0.103718
10 15 11 100 0.253591
11 15 11 100 0.0127359
0 16 11 100 0.0341714
1 16 11 100 1.46143e-07
2 16 11 100 0.0392567
3 16 11 100 0.0918915
4 16 11 100 0.0526554
5 16 11 100 0.0787487
6 16 11 100 0.0398105
7 16 11 100 0.0539391
8 16 11 100 0.0928812
9 16 11 100 0.197188
10 16 11 100 0.306077
11 16 11 100 0.0133805
0 17 11 100 0.166819
3 17 11 100 0.0555556
4 17 11 100 0.111111
5 17 11 100 0.0782378
7 17 11 100 0.0555556
8 17 11 100 0.111114
9 17 11 100 0.274525
10 17 11 100 0.147082
0 18 11 100 0.167008
4 18 11 100 9.28533e-06
9 18 11 100 0.609989
10 18 11 100 0.222994
4 19 11 100 1
0 1 12 100 0.000699847
1 1 12 100 0.613418
2 1 12 100 0.0741307
3 1 12 100 0.045691
4 1 12 100 0.0392499
5 1 12 100 0.0368046
6 1 12 100 0.0313513
7 1 12 100 0.0288634
8 1 12 100 0.0238061
9 1 12 100 0.0251105
10 1 12 100 0.0247186
11 1 12 100 0.045025
12 1 12 100 0.0111313
0 2 12 100 0.0873827
1 2 12 100 0.165678
2 2 12 100 0.263627
3 2 12 100 0.109834
4 2 12 100 0.0607656
5 2 12 100 0.0473935
6 2 12 100 0.0404187
7 2 12 100 0.0372563
8 2 12 100 0.0386141
9 2 12 100 0.0369588
10 2 12 100 0.0450893
11 2 12 100 0.05033
12 2 12 100 0.0166517
0 3 12 100 0.16372
1 3 12 100 0.0649751
2 3 12 100 0.13429
3 3 12 100 0.147295
4 3 12 100 0.0968497
5 3 12 100 0.0644016
6 3 12 100 0.0464898
7 3 12 100 0.0442368
8 3 12 100 0.0456099
9 3 12 100 0.0502834
10 3 12 100 0.0555862
11 3 12 100 0.0732314
12 3 12 100 0.013032
0 4 12 100 0.187125
1 4 12 100 0.0494017
2 4 12 100 0.0739946
3 4 12 100 0.119248
4 4 12 100 0.112752
5 4 12 100 0.089252
6 4 12 100 0.0591927
7 4 12 100 0.0516467
8 4 12 100 0.0465632
9 4 12 100 0.0542023
10 4 12 100 0.0615104
11 4 12 100 0.0804631
12 4 12 100 0.0146478
0 5 12 100 0.202082
1 5 12 100 0.0422856
2 5 12 100 0.0552764
3 5 12 100 0.0851715
4 5 12 100 0.0986004
5 5 12 100 0.101876
6 5 12 100 0.07829
7 5 12 100 0.0656573
8 5 12 100 0.0546912
9 5 12 100 0.057294
10 5 12 100 0.0638679
11 5 12 100 0.0823865
12 5 12 100 0.012521
0 6 12 100 0.196239
1 6 12 100 0.0336628
2 6 12 100 0.0507902
3 6 12 100 0.0662889
4 6 12 100 0.0805305
5 6 12 100 0.094927
6 6 12 100 0.088922
7 6 12 100 0.0819641
8 6 12 100 0.0730196
9 6 12 100 0.0655887
10 6 12 100 0.0679787
11 6 12 100 0.0905241
12 6 12 100 0.00956427
0 7 12 100 0.192617
1 7 12 100 0.0316383
2 7 12 100 0.0403001
3 7 12 100 0.0582028
4 7 12 100 0.0675286
5 7 12 100 0.0778145
6 7 12 100 0.087987
7 7 12 100 0.0917999
8 7 12 100 0.0901924
9 7 12 100 0.0785391
10 7 12 100 0.0760244
11 7 12 100 0.0960465
12 7 12 100 0.0113099
0 8 12 100 0.19308
1 8 12 100 0.0299292
2 8 12 100 0.0387204
3 8 12 100 0.0526679
4 8 12 100 0.062063
5 8 12 100 0.0647967
6 8 12 100 0.0757009
7 8 12 100 0.0937778
8 8 12 100 0.0990581
9 8 12 100 0.0918125
10 8 12 100 0.0838812
11 8 12 100 0.103217
12 8 12 100 0.0112953
0 9 12 100 0.189389
1 9 12 100 0.0260749
2 9 12 100 0.0353856
3 9 12 100 0.0528311
4 9 12 100 0.0560361
5 9 12 100 0.0592565
6 9 12 100 0.0663384
7 9 12 100 0.0802877
8 9 12 100 0.101242
9 9 12 100 0.102273
10 9 12 100 0.102042
11 9 12 100 0.115972
12 9 12 100 0.0128726
0 10 12 100 0.19338
1 10 12 100 0.0199244
2 10 12 100 0.0335973
3 10 12 100 0.0514408
4 10 12 100 0.0518676
5 10 12 100 0.0625575
6 10 12 100 0.0560315
7 10 12 100 0.0680116
8 10 12 100 0.0910245
9 10 12 100 0.109104
10 10 12 100 0.11096
11 10 12 100 0.14257
12 10 12 100 0.00953131
0 11 12 100 0.173079
1 11 12 100 0.0200898
2 11 12 100 0.0316908
3 11 12 100 0.0437807
4 11 12 100 0.0560694
5 11 12 100 0.0633166
6 11 12 100 0.0544573
7 11 12 100 0.0641006
8 11 12 100 0.0879191
9 11 12 100 0.108982
10 11 12 100 0.11766
11 11 12 100 0.166709
12 11 12 100 0.0121462
0 12 12 100 0.180774
1 12 12 100 0.0211141
2 12 12 100 0.0345162
3 12 12 100 0.038396
4 12 12 100 0.0593063
5 12 12 100 0.0633773
6 12 12 100 0.0574778
7 12 12 100 0.0535797
8 12 12 100 0.0769979
9 12 12 100 0.103375
10 12 12 100 0.125576
11 12 12 100 0.176664
12 12 12 100 0.00884581
0 13 12 100 0.167416
1 13 12 100 0.0155793
2 13 12 100 0.0328769
3 13 12 100 0.0483152
4 13 12 100 0.0514534
5 13 12 100 0.0561069
6 13 12 100 0.0431163
7 13 12 100 0.0696612
8 13 12 100 0.0757206
9 13 12 100 0.0998545
10 13 12 100 0.127241
11 13 12 100 0.204862
12 13 12 100 0.00779764
0 14 12 100 0.153404
1 14 12 100 0.0116502
2 14 12 100 0.0300618
3 14 12 100 0.0490788
4 14 12 100 0.0516889
5 14 12 100 0.0533527
6 14 12 100 0.0636684
7 14 12 100 0.065185
8 14 12 100 0.0830163
9 14 12 100 0.095799
10 14 12 100 0.11824
11 14 12 100 0.218259
12 14 12 100 0.00659612
0 15 12 100 0.154757
1 15 12 100 0.0154799
2 15 12 100 0.0221708
3 15 12 100 0.0264402
4 15 12 100 0.0401404
5 15 12 100 0.0576414
6 15 12 100 0.0508037
7 15 12 100 0.0623644
8 15 12 100 0.0968459
9 15 12 100 0.0939592
10 15 12 100 0.155612
11 15 12 100 0.217287
12 15 12 100 0.00649836
0 16 12 100 0.107862
1 16 12 100 0.0142495
2 16 12 100 0.0335314
3 16 12 100 0.0533816
4 16 12 100 0.0294279
5 16 12 100 0.0477727
6 16 12 100 0.0377554
7 16 12 100 0.0524889
8 16 12 100 0.0805104
9 16 12 100 0.141324
10 16 12 100 0.122824
11 16 12 100 0.269393
12 16 12 100 0.00947916
0 17 12 100 0.0628792
1 17 12 100 0.0143883
3 17 12 100 0.128392
4 17 12 100 0.0525441
5 17 12 100 0.0285712
6 17 12 100 0.0417838
7 17 12 100 0.0142871
8 17 12 100 0.0714866
9 17 12 100 0.116067
10 17 12 100 0.239365
11 17 12 100 0.215951
12 17 12 100 0.0142857
0 18 12 100 0.178282
3 18 12 100 0.08681
4 18 12 100 0.0434783
5 18 12 100 0.0438558
6 18 12 100 0.0439148
7 18 12 100 0.0431145
9 18 12 100 0.12989
10 18 12 100 0.0831236
11 18 12 100 0.347531
0 19 12 100 0.300006
6 19 12 100 0.0983058
10 19 12 100 0.299999
11 19 12 100 0.301689
3 20 12 100 0.333333
7 20 12 100 0.333334
10 20 12 100 0.333334
0 21 12 100 1.16575e-05
7 21 12 100 0.999988
7 22 12 100 1
0 1 13 100 0.000824684
1 1 13 100 0.598051
2 1 13 100 0.0798962
3 1 13 100 0.0452299
4 1 13 100 0.0406621
5 1 13 100 0.0317158
6 1 13 100 0.03079
7 1 13 100 0.0292314
8 1 13 100 0.0260634
9 1 13 100 0.0273569
10 1 13 100 0.0239119
11 1 13 100 0.0233748
12 1 13 100 0.0331091
13 1 13 100 0.00978306
0 2 13 100 0.089523
1 2 13 100 0.16352
2 2 13 100 0.25738
3 2 13 100 0.108968
4 2 13 100 0.0628243
5 2 13 100 0.0466992
6 2 13 100 0.0393932
7 2 13 100 0.0372588
8 2 13 100 0.0334669
9 2 13 100 0.0306568
10 2 13 100 0.03307
11 2 13 100 0.0406968
12 2 13 100 0.0380594
13 2 13 100 0.0184838
0 3 13 100 0.171401
1 3 13 100 0.0685512
2 3 13 100 0.126565
3 3 13 100 0.148974
4 3 13 100 0.101193
5 3 13 100 0.0708138
6 3 13 100 0.0485482
7 3 13 100 0.0365056
8 3 13 100 0.0373456
9 3 13 100 0.0314317
10 3 13 100 0.0363233
11 3 13 100 0.0490268
12 3 13 100 0.0606256
13 3 13 100 0.0126955
0 4 13 100 0.195016
1 4 13 100 0.0531144
2 4 13 100 0.0754015
3 4 13 100 0.109104
4 4 13 100 0.113184
5 4 13 100 0.0916181
6 4 13 100 0.0605248
7 4 13 100 0.0483213
8 4 13 100 0.0439906
9 4 13 100 0.0394412
10 4 13 100 0.0362213
11 4 13 100 0.0543345
12 4 13 100 0.0637944
13 4 13 100 0.0159338
0 5 13 100 0.200652
1 5 13 100 0.0483885
2 5 13 100 0.0598516
3 5 13 100 0.0803525
4 5 13 100 0.099276
5 5 13 100 0.0997116
6 5 13 100 0.0782501
7 5 13 100 0.0534995
8 5 13 100 0.0489812
9 5 13 100 0.0431008
10 5 13 100 0.0465017
11 5 13 100 0.0609278
12 5 13 100 0.0655201
13 5 13 100 0.0149872
0 6 13 100 0.201643
1 6 13 100 0.0463088
2 6 13 100 0.0459993
3 6 13 100 0.0634189
4 6 13 100 0.07576
5 6 13 100 0.0868721
6 6 13 100 0.0843098
7 6 13 100 0.0719729
8 6 13 100 0.0628877
9 6 13 100 0.0546686
10 6 13 100 0.0509083
11 6 13 100 0.0668423
12 6 13 100 0.0743267
13 6 13 100 0.014081
0 7 13 100 0.190609
1 7 13 100 0.0381124
2 7 13 100 0.0387761
3 7 13 100 0.0593796
4 7 13 100 0.064323
5 7 13 100 0.0742932
6 7 13 100 0.0807695
7 7 13 100 0.0866398
8 7 13 100 0.0824491
9 7 13 100 0.0701793
10 7 13 100 0.0592999
11 7 13 100 0.0623189
12 7 13 100 0.0781327
13 7 13 100 0.0147174
0 8 13 100 0.190499
1 8 13 100 0.0319902
2 8 13 100 0.0399512
3 8 13 100 0.0472911
4 8 13 100 0.0515485
5 8 13 100 0.0662643
6 8 13 100 0.0659087
7 8 13 100 0.0812636
8 8 13 100 0.0819032
9 8 13 100 0.0871497
10 8 13 100 0.0809808
11 8 13 100 0.0771825
12 8 13 100 0.0854497
13 8 13 100 0.0126176
0 9 13 100 0.184133
1 9 13 100 0.0274106
2 9 13 100 0.0354895
3 9 13 100 0.04333
4 9 13 100 0.0511172
5 9 13 100 0.0634603
6 9 13 100 0.0609229
7 9 13 100 0.0697483
8 9 13 100 0.0803764
9 9 13 100 0.0919898
10 9 13 100 0.0869756
11 9 13 100 0.0923552
12 9 13 100 0.101812
13 9 13 100 0.0108795
0 10 13 100 0.185588
1 10 13 100 0.0227135
2 10 13 100 0.0284152
3 10 13 100 0.0435987
4 10 13 100 0.0472436
5 10 13 100 0.0630186
6 10 13 100 0.0526493
7 10 13 100 0.0617388
8 10 13 100 0.0744726
9 10 13 100 0.0840101
10 10 13 100 0.0938475
11 10 13 100 0.0987443
12 10 13 100 0.132717
13 10 13 100 0.0112435
0 11 13 100 0.18821
1 11 13 100 0.0220413
2 11 13 100 0.0266231
3 11 13 100 0.0381729
4 11 13 100 0.0474436
5 11 13 100 0.0598058
6 11 13 100 0.0474999
7 11 13 100 0.050665
8 11 13 100 0.0747137
9 11 13 100 0.0829516
10 11 13 100 0.0960927
11 11 13 100 0.112114
12 11 13 100 0.14025
13 11 13 100 0.0134163
0 12 13 100 0.185335
1 12 13 100 0.0209655
2 12 13 100 0.0259506
3 12 13 100 0.0432748
4 12 13 100 0.0434359
5 12 13 100 0.0541546
6 12 13 100 0.052785
7 12 13 100 0.0558176
8 12 13 100 0.0658537
9 12 13 100 0.0890363
10 12 13 100 0.088375
11 12 13 100 0.107908
12 12 13 100 0.15699
13 12 13 100 0.0101181
0 13 13 100 0.185991
1 13 13 100 0.0146216
2 13 13 100 0.0238695
3 13 13 100 0.0394966
4 13 13 100 0.0416408
5 13 13 100 0.0648797
6 13 13 100 0.0470957
7 13 13 100 0.0541739
8 13 13 100 0.0626739
9 13 13 100 0.0736534
10 13 13 100 0.0980904
11 13 13 100 0.126152
12 13 13 100 0.158807
13 13 13 100 0.00885403
0 14 13 100 0.164035
1 14 13 100 0.0128543
2 14 13 100 0.0302493
3 14 13 100 0.0316682
4 14 13 100 0.0332057
5 14 13 100 0.058802
6 14 13 100 0.0439412
7 14 13 100 0.041917
8 14 13 100 0.067765
9 14 13 100 0.0749712
10 14 13 100 0.107685
11 14 13 100 0.123618
12 14 13 100 0.199645
13 14 13 100 0.00964211
0 15 13 100 0.151902
1 15 13 100 0.0161065
2 15 13 100 0.0291968
3 15 13 100 0.0411389
4 15 13 100 0.0352934
5 15 13 100 0.0558159
6 15 13 100 0.0467573
7 15 13 100 0.0387788
8 15 13 100 0.0709188
9 15 13 100 0.0688728
10 15 13 100 0.108895
11 15 13 100 0.122514
12 15 13 100 0.205283
13 15 13 100 0.00852616
0 16 13 100 0.125129
1 16 13 100 0.013716
2 16 13 100 0.0281235
3 16 13 100 0.0481501
4 16 13 100 0.0375758
5 16 13 100 0.0466533
6 16 13 100 0.0391416
7 16 13 100 0.0458057
8 16 13 100 0.059736
9 16 13 100 0.0679194
10 16 13 100 0.118161
11 16 13 100 0.14712
12 16 13 100 0.216164
13 16 13 100 0.00660564
0 17 13 100 0.146563
1 17 13 100 0.0104712
2 17 13 100 0.0052515
3 17 13 100 0.0531138
4 17 13 100 0.0206718
5 17 13 100 0.0416086
6 17 13 100 0.0356818
7 17 13 100 0.0359203
8 17 13 100 0.0659284
9 17 13 100 0.0685776
10 17 13 100 0.130358
11 17 13 100 0.135563
12 17 13 100 0.239819
13 17 13 100 0.0104715
0 18 13 100 0.122579
1 18 13 100 4.50695e-07
2 18 13 100 0.0235294
3 18 13 100 0.0353955
4 18 13 100 0.0588195
5 18 13 100 0.0235284
6 18 13 100 0.07059
7 18 13 100 0.0590057
8 18 13 100 0.0823852
9 18 13 100 0.0707116
10 18 13 100 0.0475895
11 18 13 100 0.15665
12 18 13 100 0.237451
13 18 13 100 0.011765
0 19 13 100 0.1757
3 19 13 100 0.0435152
4 19 13 100 8.72705e-07
6 19 13 100 0.0434783
7 19 13 100 5.37612e-07
8 19 13 100 0.0434775
9 19 13 100 0.085133
10 19 13 100 0.164337
11 19 13 100 0.0541738
12 19 13 100 0.390184
0 20 13 100 0.235618
2 20 13 100 5.58822e-06
8 20 13 100 1.63287e-05
9 20 13 100 0.199995
10 20 13 100 0.164251
11 20 13 100 0.1
12 20 13 100 0.300115
3 21 13 100 7.11947e-05
8 21 13 100 0.25
11 21 13 100 0.249928
12 21 13 100 0.5
12 22 13 100 1
0 1 14 100 0.00165909
1 1 14 100 0.576584
2 1 14 100 0.0797059
3 1 14 100 0.0474992
4 1 14 100 0.0448901
5 1 14 100 0.0328655
6 1 14 100 0.027813
7 1 14 100 0.0270324
8 1 14 100 0.0286058
9 1 14 100 0.0313359
10 1 14 100 0.0176871
11 1 14 100 0.0234368
12 1 14 100 0.0216843
13 1 14 100 0.0278341
14 1 14 100 0.0113664
0 2 14 100 0.0902739
1 2 14 100 0.165472
2 2 14 100 0.247425
3 2 14 100 0.102432
4 2 14 100 0.0580378
5 2 14 100 0.0433094
6 2 14 100 0.0416441
7 2 14 100 0.0331109
8 2 14 100 0.0316397
9 2 14 100 0.0337891
10 2 14 100 0.0286709
11 2 14 100 0.0324016
12 2 14 100 0.0343241
13 2 14 100 0.0366945
14 2 14 100 0.0207749
0 3 14 100 0.181141
1 3 14 100 0.0736203
2 3 14 100 0.118228
3 3 14 100 0.142535
4 3 14 100 0.0941933
5 3 14 100 0.0636723
6 3 14 100 0.0465144
7 3 14 100 0.0439605
8 3 14 100 0.0318209
9 3 14 100 0.0355732
10 3 14 100 0.0328658
11 3 14 100 0.0343994
12 3 14 100 0.0379721
13 3 14 100 0.0478242
14 3 14 100 0.0156786
0 4 14 100 0.199444
1 4 14 100 0.0537465
2 4 14 100 0.0686229
3 4 14 100 0.112785
4 4 14 100 0.103094
5 4 14 100 0.0832473
6 4 14 100 0.0583619
7 4 14 100 0.0485773
8 4 14 100 0.0394038
9 4 14 100 0.0401262
10 4 14 100 0.0350354
11 4 14 100 0.0448773
12 4 14 100 0.04147
13 4 14 100 0.0561044
14 4 14 100 0.0151039
0 5 14 100 0.199295
1 5 14 100 0.0488076
2 5 14 100 0.0601207
3 5 14 100 0.0768915
4 5 14 100 0.0921661
5 5 14 100 0.0873034
6 5 14 100 0.0863896
7 5 14 100 0.0584683
8 5 14 100 0.0448486
9 5 14 100 0.0413119
10 5 14 100 0.0427031
11 5 14 100 0.0445267
12 5 14 100 0.0459352
13 5 14 100 0.0585997
14 5 14 100 0.0126327
0 6 14 100 0.20152
1 6 14 100 0.0432818
2 6 14 100 0.0460648
3 6 14 100 0.0642197
4 6 14 100 0.0730337
5 6 14 100 0.0828486
6 6 14 100 0.0851829
7 6 14 100 0.074111
8 6 14 100 0.0606532
9 6 14 100 0.0458077
10 6 14 100 0.0419218
11 6 14 100 0.0522178
12 6 14 100 0.0459613
13 6 14 100 0.0670507
14 6 14 100 0.0161247
0 7 14 100 0.181307
1 7 14 100 0.040667
2 7 14 100 0.0388915
3 7 14 100 0.0480346
4 7 14 100 0.067383
5 7 14 100 0.0712545
6 7 14 100 0.0684547
7 7 14 100 0.079439
8 7 14 100 0.0756394
9 7 14 100 0.0662343
10 7 14 100 0.057808
11 7 14 100 0.0566634
12 7 14 100 0.0601695
13 7 14 100 0.0739085
14 7 14 100 0.0141459
0 8 14 100 0.183477
1 8 14 100 0.0335819
2 8 14 100 0.0378412
3 8 14 100 0.0466942
4 8 14 100 0.0515493
5 8 14 100 0.0611218
6 8 14 100 0.064472
7 8 14 100 0.0725451
8 8 14 100 0.0785687
9 8 14 100 0.0757807
10 8 14 100 0.0679011
11 8 14 100 0.0698181
12 8 14 100 0.0627428
13 8 14 100 0.0791795
14 8 14 100 0.0147264
0 9 14 100 0.191031
1 9 14 100 0.0311643
2 9 14 100 0.0359679
3 9 14 100 0.0419345
4 9 14 100 0.0408866
5 9 14 100 0.0493237
6 9 14 100 0.0634041
7 9 14 100 0.0653081
8 9 14 100 0.0673327
9 9 14 100 0.07963
10 9 14 100 0.0813284
11 9 14 100 0.0814277
12 9 14 100 0.0730909
13 9 14 100 0.0849067
14 9 14 100 0.0132629
0 10 14 100 0.178392
1 10 14 100 0.030939
2 10 14 100 0.0263755
3 10 14 100 0.0412495
4 10 14 100 0.0416551
5 10 14 100 0.0480862
6 10 14 100 0.0537349
7 10 14 100 0.0639674
8 10 14 100 0.067841
9 10 14 100 0.080762
10 10 14 100 0.0780107
11 10 14 100 0.0879166
12 10 14 100 0.0897797
13 10 14 100 0.100078
14 10 14 100 0.0112127
0 11 14 100 0.193985
1 11 14 100 0.0244569
2 11 14 100 0.0242271
3 11 14 100 0.0391049
4 11 14 100 0.0367068
5 11 14 100 0.0414747
6 11 14 100 0.0479494
7 11 14 100 0.0611733
8 11 14 100 0.0599159
9 11 14 100 0.0744042
10 11 14 100 0.0787444
11 11 14 100 0.0972468
12 11 14 100 0.0922514
13 11 14 100 0.118594
14 11 14 100 0.00976491
0 12 14 100 0.179024
1 12 14 100 0.0193144
2 12 14 100 0.0222637
3 12 14 100 0.0354253
4 12 14 100 0.0353232
5 12 14 100 0.0438331
6 12 14 100 0.0511321
7 12 14 100 0.0513632
8 12 14 100 0.0572587
9 12 14 100 0.0668164
10 12 14 100 0.0810698
11 12 14 100 0.110809
12 12 14 100 0.097112
13 12 14 100 0.135553
14 12 14 100 0.0137014
0 13 14 100 0.180541
1 13 14 100 0.0156297
2 13 14 100 0.0148025
3 13 14 100 0.0412192
4 13 14 100 0.0388316
5 13 14 100 0.0388409
6 13 14 100 0.0426165
7 13 14 100 0.0515671
8 13 14 100 0.0472012
9 13 14 100 0.0683932
10 13 14 100 0.082938
11 13 14 100 0.113236
12 13 14 100 0.100179
13 13 14 100 0.150866
14 13 14 100 0.0131384
0 14 14 100 0.179283
1 14 14 100 0.016649
2 14 14 100 0.0118879
3 14 14 100 0.0365383
4 14 14 100 0.0367116
5 14 14 100 0.0434698
6 14 14 100 0.0433377
7 14 14 100 0.0407918
8 14 14 100 0.0493881
9 14 14 100 0.0611856
10 14 14 100 0.0825627
11 14 14 100 0.112696
12 14 14 100 0.124061
13 14 14 100 0.147775
14 14 14 100 0.0136621
0 15 14 100 0.215062
1 15 14 100 0.0153519
2 15 14 100 0.00781546
3 15 14 100 0.0294582
4 15 14 100 0.0436229
5 15 14 100 0.0493575
6 15 14 100 0.0381529
7 15 14 100 0.0376936
8 15 14 100 0.0524291
9 15 14 100 0.0557764
10 15 14 100 0.0630586
11 15 14 100 0.0985843
12 15 14 100 0.113169
13 15 14 100 0.17211
14 15 14 100 0.00835759
0 16 14 100 0.160123
1 16 14 100 0.0140223
2 16 14 100 0.0137816
3 16 14 100 0.0287251
4 16 14 100 0.0362935
5 16 14 100 0.0410011
6 16 14 100 0.0448468
7 16 14 100 0.0429834
8 16 14 100 0.043253
9 16 14 100 0.0538251
10 16 14 100 0.0677454
11 16 14 100 0.105578
12 16 14 100 0.11096
13 16 14 100 0.228529
14 16 14 100 0.00833299
0 17 14 100 0.180302
1 17 14 100 0.00872216
2 17 14 100 0.014546
3 17 14 100 0.0316954
4 17 14 100 0.0407427
5 17 14 100 0.0434745
6 17 14 100 0.0320752
7 17 14 100 0.0520402
8 17 14 100 0.0549201
9 17 14 100 0.057027
10 17 14 100 0.0894419
11 17 14 100 0.0692643
12 17 14 100 0.123067
13 17 14 100 0.202681
14 17 14 100 1.52249e-06
0 18 14 100 0.100526
1 18 14 100 0.0165893
2 18 14 100 0.00500565
3 18 14 100 0.0207388
4 18 14 100 0.0233405
5 18 14 100 0.0613997
6 18 14 100 0.0218866
7 18 14 100 0.0339109
8 18 14 100 0.0642499
9 18 14 100 0.0588664
10 18 14 100 0.0703715
11 18 14 100 0.101732
12 18 14 100 0.106057
13 18 14 100 0.309693
14 18 14 100 0.00563384
0 19 14 100 0.115208
2 19 14 100 0.0322582
3 19 14 100 0.0308177
4 19 14 100 0.0645628
5 19 14 100 0.0161265
6 19 14 100 0.0161293
7 19 14 100 0.0645479
8 19 14 100 0.0645112
9 19 14 100 0.0308579
10 19 14 100 0.129033
11 19 14 100 0.0801856
12 19 14 100 0.0342936
13 19 14 100 0.321468
14 19 14 100 4.1339e-07
0 20 14 100 0.145023
2 20 14 100 5.51302e-06
3 20 14 100 1.23468e-05
4 20 14 100 0.0993646
5 20 14 100 0.100215
7 20 14 100 0.0333334
8 20 14 100 8.39234e-05
9 20 14 100 0.08865
10 20 14 100 0.100002
11 20 14 100 0.0666668
12 20 14 100 0.033095
13 20 14 100 0.333548
0 21 14 100 0.230221
4 21 14 100 0.153846
8 21 14 100 0.076923
9 21 14 100 0.153846
11 21 14 100 2.68993e-05
12 21 14 100 0.000588378
13 21 14 100 0.307625
14 21 14 100 0.076923
0 22 14 100 5.08706e-05
5 22 14 100 0.00011933
6 22 14 100 1.01521e-05
7 22 14 100 0.333335
11 22 14 100 0.333326
12 22 14 100 0.333127
13 22 14 100 3.25066e-05
10 23 14 100 1
0 1 15 100 0.000433231
1 1 15 100 0.564552
2 1 15 100 0.0877199
3 1 15 100 0.0457888
4 1 15 100 0.0459893
5 1 15 100 0.0413471
6 1 15 100 0.0284484
7 1 15 100 0.0267112
8 1 15 100 0.0234919
9 1 15 100 0.0195633
10 1 15 100 0.0198147
11 1 15 100 0.0256843
12 1 15 100 0.0172831
13 1 15 100 0.0170911
14 1 15 100 0.0286947
15 1 15 100 0.00738709
0 2 15 100 0.0985539
1 2 15 100 0.151639
2 2 15 100 0.242311
3 2 15 100 0.0998171
4 2 15 100 0.0624566
5 2 15 100 0.0473294
6 2 15 100 0.046225
7 2 15 100 0.0286861
8 2 15 100 0.0347466
9 2 15 100 0.0237669
10 2 15 100 0.0266652
11 2 15 100 0.027503
12 2 15 100 0.0314047
13 2 15 100 0.0284636
14 2 15 100 0.0361986
15 2 15 100 0.0142334
0 3 15 100 0.175563
1 3 15 100 0.0636024
2 3 15 100 0.118787
3 3 15 100 0.133861
4 3 15 100 0.0950262
5 3 15 100 0.0706238
6 3 15 100 0.0571726
7 3 15 100 0.0391975
8 3 15 100 0.0333664
9 3 15 100 0.0275603
10 3 15 100 0.0268228
11 3 15 100 0.0258939
12 3 15 100 0.0350529
13 3 15 100 0.0352643
14 3 15 100 0.0520461
15 3 15 100 0.0101605
0 4 15 100 0.191911
1 4 15 100 0.052278
2 4 15 100 0.0728815
3 4 15 100 0.105348
4 4 15 100 0.110116
5 4 15 100 0.08506
6 4 15 100 0.0593995
7 4 15 100 0.0475165
8 4 15 100 0.0391982
9 4 15 100 0.0293351
10 4 15 100 0.0341007
11 4 15 100 0.0312193
12 4 15 100 0.0363224
13 4 15 100 0.0376768
14 4 15 100 0.0542533
15 4 15 100 0.0133847
0 5 15 100 0.211168
1 5 15 100 0.0437899
2 5 15 100 0.0487966
3 5 15 100 0.0748814
4 5 15 100 0.0942734
5 5 15 100 0.0840511
6 5 15 100 0.0786785
7 5 15 100 0.0675599
8 5 15 100 0.0494855
9 5 15 100 0.0374613
10 5 15 100 0.0344276
11 5 15 100 0.0346106
12 5 15 100 0.035522
13 5 15 100 0.0384683
14 5 15 100 0.0551956
15 5 15 100 0.0116308
0 6 15 100 0.184654
1 6 15 100 0.0409276
2 6 15 100 0.0445714
3 6 15 100 0.0564903
4 6 15 100 0.0751869
5 6 15 100 0.0785166
6 6 15 100 0.0886181
7 6 15 100 0.0751561
8 6 15 100 0.0626106
9 6 15 100 0.0469142
10 6 15 100 0.0456303
11 6 15 100 0.0427641
12 6 15 100 0.0417583
13 6 15 100 0.0439949
14 6 15 100 0.0595866
15 6 15 100 0.0126204
0 7 15 100 0.179542
1 7 15 100 0.0337039
2 7 15 100 0.0401953
3 7 15 100 0.0439499
4 7 15 100 0.0598429
5 7 15 100 0.0665252
6 7 15 100 0.0876475
7 7 15 100 0.08097
8 7 15 100 0.070695
9 7 15 100 0.0654139
10 7 15 100 0.054779
11 7 15 100 0.0464957
12 7 15 100 0.0469538
13 7 15 100 0.0471054
14 7 15 100 0.0654208
15 7 15 100 0.0107601
0 8 15 100 0.184324
1 8 15 100 0.0301264
2 8 15 100 0.0329001
3 8 15 100 0.0410334
4 8 15 100 0.045479
5 8 15 100 0.0533243
6 8 15 100 0.0707029
7 8 15 100 0.077104
8 8 15 100 0.0844114
9 8 15 100 0.0664946
10 8 15 100 0.0675597
11 8 15 100 0.0602956
12 8 15 100 0.0602057
13 8 15 100 0.0494115
14 8 15 100 0.0636632
15 8 15 100 0.012964
0 9 15 100 0.180851
1 9 15 100 0.0273426
2 9 15 100 0.0291116
3 9 15 100 0.0390317
4 9 15 100 0.0360506
5 9 15 100 0.0435899
6 9 15 100 0.0588563
7 9 15 100 0.0705901
8 9 15 100 0.0720695
9 9 15 100 0.0766549
10 9 15 100 0.0775869
11 9 15 100 0.0700435
12 9 15 100 0.0652927
13 9 15 100 0.063759
14 9 15 100 0.075648
15 9 15 100 0.0135217
0 10 15 100 0.188123
1 10 15 100 0.0199329
2 10 15 100 0.025735
3 10 15 100 0.0354804
4 10 15 100 0.0354172
5 10 15 100 0.0379889
6 10 15 100 0.0498013
7 10 15 100 0.0591115
8 10 15 100 0.0646798
9 10 15 100 0.0742955
10 10 15 100 0.0762193
11 10 15 100 0.0773148
12 10 15 100 0.0767746
13 10 15 100 0.0777438
14 10 15 100 0.0895145
15 10 15 100 0.0118677
0 11 15 100 0.191811
1 11 15 100 0.0177969
2 11 15 100 0.0240101
3 11 15 100 0.0348923
4 11 15 100 0.0302633
5 11 15 100 0.0361217
6 11 15 100 0.0406413
7 11 15 100 0.0470041
8 11 15 100 0.0622786
9 11 15 100 0.06534
10 11 15 100 0.0771865
11 11 15 100 0.0825267
12 11 15 100 0.0860403
13 11 15 100 0.0856874
14 11 15 100 0.105272
15 11 15 100 0.0131278
0 12 15 100 0.197841
1 12 15 100 0.0182401
2 12 15 100 0.0202152
3 12 15 100 0.0318777
4 12 15 100 0.0319256
5 12 15 100 0.0368423
6 12 15 100 0.0391953
7 12 15 100 0.0461742
8 12 15 100 0.0433483
9 12 15 100 0.0628686
10 12 15 100 0.0697657
11 12 15 100 0.0793217
12 12 15 100 0.0932376
13 12 15 100 0.095057
14 12 15 100 0.124256
15 12 15 100 0.00983335
0 13 15 100 0.191183
1 13 15 100 0.0149971
2 13 15 100 0.0170586
3 13 15 100 0.0329429
4 13 15 100 0.0374349
5 13 15 100 0.0339028
6 13 15 100 0.0310835
7 13 15 100 0.0456224
8 13 15 100 0.0513202
9 13 15 100 0.0517379
10 13 15 100 0.069279
11 13 15 100 0.0780527
12 13 15 100 0.0901279
13 13 15 100 0.105322
14 13 15 100 0.137466
15 13 15 100 0.0124688
0 14 15 100 0.195389
1 14 15 100 0.0169677
2 14 15 100 0.0242832
3 14 15 100 0.0216032
4 14 15 100 0.0263457
5 14 15 100 0.0342931
6 14 15 100 0.0393204
7 14 15 100 0.043297
8 14 15 100 0.0505938
9 14 15 100 0.055313
10 14 15 100 0.0581026
11 14 15 100 0.0725728
12 14 15 100 0.0959908
13 14 15 100 0.0995358
14 14 15 100 0.152558
15 14 15 100 0.0138342
0 15 15 100 0.174266
1 15 15 100 0.0209751
2 15 15 100 0.0173131
3 15 15 100 0.0207323
4 15 15 100 0.0238297
5 15 15 100 0.0326216
6 15 15 100 0.0403136
7 15 15 100 0.0384641
8 15 15 100 0.0512576
9 15 15 100 0.0452929
10 15 15 100 0.062639
11 15 15 100 0.0738018
12 15 15 100 0.10737
13 15 15 100 0.103874
14 15 15 100 0.172078
15 15 15 100 0.0151702
0 16 15 100 0.161662
1 16 15 100 0.0128242
2 16 15 100 0.022996
3 16 15 100 0.0309017
4 16 15 100 0.0205895
5 16 15 100 0.0334765
6 16 15 100 0.0218098
7 16 15 100 0.0369589
8 16 15 100 0.0477945
9 16 15 100 0.0581257
10 16 15 100 0.0542544
11 16 15 100 0.0728438
12 16 15 100 0.114597
13 16 15 100 0.132663
14 16 15 100 0.166569
15 16 15 100 0.011934
0 17 15 100 0.166339
1 17 15 100 0.0123347
2 17 15 100 0.0204043
3 17 15 100 0.0426385
4 17 15 100 0.0299235
5 17 15 100 0.0287722
6 17 15 100 0.0287327
7 17 15 100 0.04303
8 17 15 100 0.0466168
9 17 15 100 0.0456987
10 17 15 100 0.057995
11 17 15 100 0.0596739
12 17 15 100 0.105507
13 17 15 100 0.109329
14 17 15 100 0.194789
15 17 15 100 0.00821647
0 18 15 100 0.150672
1 18 15 100 0.0169253
2 18 15 100 0.0253489
3 18 15 100 0.0217442
4 18 15 100 0.0217356
5 18 15 100 0.043233
6 18 15 100 0.036032
7 18 15 100 0.0533705
8 18 15 100 0.0439329
9 18 15 100 0.0470656
10 18 15 100 0.0515172
11 18 15 100 0.0616795
12 18 15 100 0.106359
13 18 15 100 0.145198
14 18 15 100 0.17502
15 18 15 100 0.00016611
0 19 15 100 0.125527
1 19 15 100 0.0133429
2 19 15 100 0.00740877
3 19 15 100 0.0221344
4 19 15 100 0.0222236
5 19 15 100 0.0444196
6 19 15 100 0.0445305
7 19 15 100 0.029638
8 19 15 100 0.00740877
9 19 15 100 0.0679476
10 19 15 100 0.0662606
11 19 15 100 0.0741614
12 19 15 100 0.0957738
13 19 15 100 0.15533
14 19 15 100 0.223893
0 20 15 100 0.165364
1 20 15 100 0.0163935
3 20 15 100 0.0327901
4 20 15 100 0.0327868
5 20 15 100 0.0327928
6 20 15 100 0.0491808
7 20 15 100 0.0791763
8 20 15 100 0.0476677
9 20 15 100 0.0171337
10 20 15 100 0.0658918
11 20 15 100 0.0491833
12 20 15 100 0.0497358
13 20 15 100 0.181905
14 20 15 100 0.179999
0 21 15 100 0.104399
1 21 15 100 7.06434e-05
3 21 15 100 0.0714283
4 21 15 100 0.0357366
6 21 15 100 0.035714
7 21 15 100 0.0714261
9 21 15 100 0.0740823
10 21 15 100 0.142857
11 21 15 100 0.035714
12 21 15 100 0.178573
13 21 15 100 0.0357144
14 21 15 100 0.214284
0 22 15 100 0.00406939
4 22 15 100 0.111407
6 22 15 100 0.111111
11 22 15 100 0.0841645
12 22 15 100 0.355915
14 22 15 100 0.333333
0 23 15 100 0.25
4 23 15 100 0.25
12 23 15 100 0.25
14 23 15 100 0.25
7 24 15 100 1
0 1 16 100 0.000921198
1 1 16 100 0.569648
2 1 16 100 0.0951076
3 1 16 100 0.0480055
4 1 16 100 0.0406285
5 1 16 100 0.0362176
6 1 16 100 0.0237779
7 1 16 100 0.0252715
8 1 16 100 0.0173884
9 1 16 100 0.0162861
10 1 16 100 0.0251845
11 1 16 100 0.0113105
12 1 16 100 0.0147298
13 1 16 100 0.0153822
14 1 16 100 0.0241841
15 1 16 100 0.0314844
16 1 16 100 0.00447185
0 2 16 100 0.0956942
1 2 16 100 0.157214
2 2 16 100 0.24294
3 2 16 100 0.109737
4 2 16 100 0.0568876
5 2 16 100 0.0543603
6 2 16 100 0.0372438
7 2 16 100 0.0374625
8 2 16 100 0.0218732
9 2 16 100 0.0215041
10 2 16 100 0.024381
11 2 16 100 0.0208483
12 2 16 100 0.0200476
13 2 16 100 0.025152
14 2 16 100 0.0267309
15 2 16 100 0.0315748
16 2 16 100 0.0163495
0 3 16 100 0.189342
1 3 16 100 0.0636616
2 3 16 100 0.111979
3 3 16 100 0.140902
4 3 16 100 0.0882842
5 3 16 100 0.0636362
6 3 16 100 0.0493338
7 3 16 100 0.0452961
8 3 16 100 0.0281883
9 3 16 100 0.0226347
10 3 16 100 0.0259405
11 3 16 100 0.0290291
12 3 16 100 0.0247598
13 3 16 100 0.0354456
14 3 16 100 0.035589
15 3 16 100 0.0378989
16 3 16 100 0.00807848
0 4 16 100 0.197241
1 4 16 100 0.0554004
2 4 16 100 0.0691695
3 4 16 100 0.0955227
4 4 16 100 0.100102
5 4 16 100 0.0792386
6 4 16 100 0.0602329
7 4 16 100 0.0580788
8 4 16 100 0.0386164
9 4 16 100 0.0319195
10 4 16 100 0.0286164
11 4 16 100 0.0282664
12 4 16 100 0.0240667
13 4 16 100 0.0361452
14 4 16 100 0.0434253
15 4 16 100 0.0441532
16 4 16 100 0.00980586
0 5 16 100 0.201905
1 5 16 100 0.0463424
2 5 16 100 0.0490559
3 5 16 100 0.075358
4 5 16 100 0.0925413
5 5 16 100 0.0904973
6 5 16 100 0.0801038
7 5 16 100 0.0595428
8 5 16 100 0.0428398
9 5 16 100 0.0353221
10 5 16 100 0.0330387
11 5 16 100 0.0296261
12 5 16 100 0.0249238
13 5 16 100 0.0353735
14 5 16 100 0.0388697
15 5 16 100 0.0549982
16 5 16 100 0.00966165
0 6 16 100 0.196167
1 6 16 100 0.0484099
2 6 16 100 0.0420586
3 6 16 100 0.0597648
4 6 16 100 0.0740575
5 6 16 100 0.0902644
6 6 16 100 0.0740996
7 6 16 100 0.0775404
8 6 16 100 0.0569208
9 6 16 100 0.0391443
10 6 16 100 0.0368864
11 6 16 100 0.0367309
12 6 16 100 0.0298734
13 6 16 100 0.0347642
14 6 16 100 0.041465
15 6 16 100 0.0528249
16 6 16 100 0.0090274
0 7 16 100 0.186837
1 7 16 100 0.0416493
2 7 16 100 0.0339642
3 7 16 100 0.048666
4 7 16 100 0.0593568
5 7 16 100 0.070183
6 7 16 100 0.0748816
7 7 16 100 0.0791772
8 7 16 100 0.0600483
9 7 16 100 0.0562111
10 7 16 100 0.0499638
11 7 16 100 0.0463033
12 7 16 100 0.0377292
13 7 16 100 0.0451657
14 7 16 100 0.0454015
15 7 16 100 0.0555191
16 7 16 100 0.0089426
0 8 16 100 0.195618
1 8 16 100 0.0388154
2 8 16 100 0.0261386
3 8 16 100 0.0403823
4 8 16 100 0.049079
5 8 16 100 0.0488184
6 8 16 100 0.0660566
7 8 16 100 0.0806387
8 8 16 100 0.0708027
9 8 16 100 0.0695192
10 8 16 100 0.0577474
11 8 16 100 0.0458755
12 8 16 100 0.0473235
13 8 16 100 0.0421666
14 8 16 100 0.0513549
15 8 16 100 0.0598153
16 8 16 100 0.00984848
0 9 16 100 0.175939
1 9 16 100 0.0410305
2 9 16 100 0.0222105
3 9 16 100 0.0366155
4 9 16 100 0.0449185
5 9 16 100 0.0519754
6 9 16 100 0.0521171
7 9 16 100 0.0616721
8 9 16 100 0.0687685
9 9 16 100 0.058708
10 9 16 100 0.0652658
11 9 16 100 0.0700121
12 9 16 100 0.0534013
13 9 16 100 0.0555286
14 9 16 100 0.0625188
15 9 16 100 0.067997
16 9 16 100 0.0113213
0 10 16 100 0.184565
1 10 16 100 0.034635
2 10 16 100 0.0209538
3 10 16 100 0.0376709
4 10 16 100 0.0330931
5 10 16 100 0.0417235
6 10 16 100 0.0466874
7 10 16 100 0.0543771
8 10 16 100 0.0618563
9 10 16 100 0.0599522
10 10 16 100 0.0638915
11 10 16 100 0.076084
12 10 16 100 0.0629968
13 10 16 100 0.0690361
14 10 16 100 0.0655862
15 10 16 100 0.0763151
16 10 16 100 0.0105757
0 11 16 100 0.177008
1 11 16 100 0.0254738
2 11 16 100 0.0165771
3 11 16 100 0.0310909
4 11 16 100 0.0320247
5 11 16 100 0.037619
6 11 16 100 0.0356219
7 11 16 100 0.0516438
8 11 16 100 0.0530635
9 11 16 100 0.0506073
10 11 16 100 0.0734329
11 11 16 100 0.0754218
12 11 16 100 0.0742555
13 11 16 100 0.0728195
14 11 16 100 0.0843763
15 11 16 100 0.0976086
16 11 16 100 0.0113559
0 12 16 100 0.191834
1 12 16 100 0.0281858
2 12 16 100 0.0163971
3 12 16 100 0.0291962
4 12 16 100 0.0319929
5 12 16 100 0.0275101
6 12 16 100 0.0327766
7 12 16 100 0.0490983
8 12 16 100 0.047801
9 12 16 100 0.0521221
10 12 16 100 0.0618922
11 12 16 100 0.0809392
12 12 16 100 0.0696888
13 12 16 100 0.0963008
14 12 16 100 0.0719247
15 12 16 100 0.102218
16 12 16 100 0.0101219
0 13 16 100 0.195292
1 13 16 100 0.0248596
2 13 16 100 0.0172885
3 13 16 100 0.0274017
4 13 16 100 0.0328132
5 13 16 100 0.0276705
6 13 16 100 0.0287441
7 13 16 100 0.0475848
8 13 16 100 0.0440263
9 13 16 100 0.044523
10 13 16 100 0.0619566
11 13 16 100 0.0787309
12 13 16 100 0.0787738
13 13 16 100 0.0910427
14 13 16 100 0.0869358
15 13 16 100 0.105487
16 13 16 100 0.00686905
0 14 16 100 0.189131
1 14 16 100 0.0242844
2 14 16 100 0.0207594
3 14 16 100 0.0252915
4 14 16 100 0.0279495
5 14 16 100 0.0268366
6 14 16 100 0.0246686
7 14 16 100 0.0379067
8 14 16 100 0.0409294
9 14 16 100 0.0372907
10 14 16 100 0.0580413
11 14 16 100 0.077689
12 14 16 100 0.0788372
13 14 16 100 0.104458
14 14 16 100 0.0969843
15 14 16 100 0.123041
16 14 16 100 0.00590185
0 15 16 100 0.183192
1 15 16 100 0.0249919
2 15 16 100 0.024505
3 15 16 100 0.024748
4 15 16 100 0.0225652
5 15 16 100 0.0217855
6 15 16 100 0.0301941
7 15 16 100 0.0428441
8 15 16 100 0.0392564
9 15 16 100 0.0471635
10 15 16 100 0.0508096
11 15 16 100 0.0664494
12 15 16 100 0.0840396
13 15 16 100 0.0973768
14 15 16 100 0.105877
15 15 16 100 0.126539
16 15 16 100 0.00766227
0 16 16 100 0.144855
1 16 16 100 0.0219249
2 16 16 100 0.01283
3 16 16 100 0.0278601
4 16 16 100 0.0257608
5 16 16 100 0.0236315
6 16 16 100 0.0359001
7 16 16 100 0.0427692
8 16 16 100 0.0411099
9 16 16 100 0.038641
10 16 16 100 0.0513253
11 16 16 100 0.0852539
12 16 16 100 0.0804651
13 16 16 100 0.104434
14 16 16 100 0.116721
15 16 16 100 0.13981
16 16 16 100 0.00670836
0 17 16 100 0.170986
1 17 16 100 0.0210125
2 17 16 100 0.0148792
3 17 16 100 0.021272
4 17 16 100 0.0193627
5 17 16 100 0.0273297
6 17 16 100 0.0305907
7 17 16 100 0.0448395
8 17 16 100 0.0257501
9 17 16 100 0.0376844
10 17 16 100 0.035848
11 17 16 100 0.06824
12 17 16 100 0.083266
13 17 16 100 0.120496
14 17 16 100 0.110207
15 17 16 100 0.161503
16 17 16 100 0.0067327
0 18 16 100 0.185654
1 18 16 100 0.0193372
2 18 16 100 0.019353
3 18 16 100 0.0179343
4 18 16 100 0.0265993
5 18 16 100 0.022908
6 18 16 100 0.0351426
7 18 16 100 0.0379666
8 18 16 100 0.0375962
9 18 16 100 0.0409292
10 18 16 100 0.0482988
11 18 16 100 0.059283
12 18 16 100 0.0691152
13 18 16 100 0.0938108
14 18 16 100 0.113389
15 18 16 100 0.16122
16 18 16 100 0.0114626
0 19 16 100 0.184606
1 19 16 100 0.0203206
2 19 16 100 0.025361
3 19 16 100 0.0193558
4 19 16 100 0.00709234
5 19 16 100 0.0409158
6 19 16 100 0.035915
7 19 16 100 0.0325196
8 19 16 100 0.0488324
9 19 16 100 0.0455594
10 19 16 100 0.0540423
11 19 16 100 0.0638803
12 19 16 100 0.0578457
13 19 16 100 0.0785523
14 19 16 100 0.134864
15 19 16 100 0.150314
16 19 16 100 2.43162e-05
0 20 16 100 0.133256
1 20 16 100 0.014793
2 20 16 100 0.0296383
3 20 16 100 0.0222323
4 20 16 100 0.0325851
5 20 16 100 0.0361638
6 20 16 100 0.0370379
7 20 16 100 0.0148148
8 20 16 100 0.0444612
9 20 16 100 0.00670084
10 20 16 100 0.0726925
11 20 16 100 0.058296
12 20 16 100 0.0872407
13 20 16 100 0.11327
14 20 16 100 0.123491
15 20 16 100 0.1659
16 20 16 100 0.00742703
0 21 16 100 0.151139
1 21 16 100 0.0165577
2 21 16 100 0.0145063
3 21 16 100 7.34932e-06
4 21 16 100 0.05
5 21 16 100 0.0166667
6 21 16 100 0.0166875
7 21 16 100 0.00139946
8 21 16 100 0.0633595
9 21 16 100 0.000172018
10 21 16 100 0.0870608
11 21 16 100 0.0496474
12 21 16 100 0.116264
13 21 16 100 0.0971486
14 21 16 100 0.0848851
15 21 16 100 0.217836
16 21 16 100 0.0166635
0 22 16 100 0.0412084
1 22 16 100 0.0400001
2 22 16 100 0.0399964
3 22 16 100 0.0400096
4 22 16 100 0.0384706
5 22 16 100 2.72804e-05
8 22 16 100 0.0800002
10 22 16 100 0.199501
11 22 16 100 0.0793468
12 22 16 100 0.00152056
13 22 16 100 0.0400001
14 22 16 100 0.0806872
15 22 16 100 0.319229
16 22 16 100 2.47243e-06
0 23 16 100 0.111014
2 23 16 100 0.111111
10 23 16 100 0.321077
11 23 16 100 0.000134329
12 23 16 100 0.111094
13 23 16 100 0.154309
14 23 16 100 0.0154899
15 23 16 100 0.175771
0 24 16 100 0.249443
9 24 16 100 0.000562638
10 24 16 100 0.531714
11 24 16 100 0.21828
13 25 16 100 1
0 1 17 100 0.000984893
1 1 17 100 0.587611
2 1 17 100 0.0840018
3 1 17 100 0.0562706
4 1 17 100 0.0441131
5 1 17 100 0.036493
6 1 17 100 0.0247484
7 1 17 100 0.025085
8 1 17 100 0.0193135
9 1 17 100 0.015273
10 1 17 100 0.0127619
11 1 17 100 0.0112538
12 1 17 100 0.00990686
13 1 17 100 0.0167222
14 1 17 100 0.0160868
15 1 17 100 0.0184611
16 1 17 100 0.0153445
17 1 17 100 0.00556918
0 2 17 100 0.103331
1 2 17 100 0.158661
2 2 17 100 0.234759
3 2 17 100 0.10693
4 2 17 100 0.0650506
5 2 17 100 0.0472726
6 2 17 100 0.0433063
7 2 17 100 0.0320018
8 2 17 100 0.0258403
9 2 17 100 0.0246623
10 2 17 100 0.0136754
11 2 17 100 0.0174696
12 2 17 100 0.0180043
13 2 17 100 0.0174792
14 2 17 100 0.0258318
15 2 17 100 0.0299759
16 2 17 100 0.0243863
17 2 17 100 0.0113621
0 3 17 100 0.185794
1 3 17 100 0.0784186
2 3 17 100 0.119415
3 3 17 100 0.13038
4 3 17 100 0.0927845
5 3 17 100 0.0617982
6 3 17 100 0.0464463
7 3 17 100 0.0394754
8 3 17 100 0.0272031
9 3 17 100 0.0301126
10 3 17 100 0.0186761
11 3 17 100 0.0181197
12 3 17 100 0.0229294
13 3 17 100 0.0237638
14 3 17 100 0.0253455
15 3 17 100 0.0304579
16 3 17 100 0.0393458
17 3 17 100 0.00953462
0 4 17 100 0.191034
1 4 17 100 0.0559339
2 4 17 100 0.0678641
3 4 17 100 0.100253
4 4 17 100 0.0984526
5 4 17 100 0.0804278
6 4 17 100 0.0654719
7 4 17 100 0.0451643
8 4 17 100 0.0371632
9 4 17 100 0.0315028
10 4 17 100 0.0185284
11 4 17 100 0.0287786
12 4 17 100 0.0326703
13 4 17 100 0.0207521
14 4 17 100 0.0304262
15 4 17 100 0.0364424
16 4 17 100 0.045973
17 4 17 100 0.0131615
0 5 17 100 0.198596
1 5 17 100 0.0506117
2 5 17 100 0.0525234
3 5 17 100 0.0789322
4 5 17 100 0.0870856
5 5 17 100 0.0807646
6 5 17 100 0.0757124
7 5 17 100 0.0593181
8 5 17 100 0.0476446
9 5 17 100 0.0434733
10 5 17 100 0.0288886
11 5 17 100 0.0258954
12 5 17 100 0.0271433
13 5 17 100 0.0225816
14 5 17 100 0.028041
15 5 17 100 0.0356091
16 5 17 100 0.0416839
17 5 17 100 0.0154952
0 6 17 100 0.200854
1 6 17 100 0.0408986
2 6 17 100 0.0468355
3 6 17 100 0.0612853
4 6 17 100 0.0756855
5 6 17 100 0.0694529
6 6 17 100 0.0745322
7 6 17 100 0.064564
8 6 17 100 0.0626744
9 6 17 100 0.0444957
10 6 17 100 0.033066
11 6 17 100 0.0298722
12 6 17 100 0.0307521
13 6 17 100 0.0270363
14 6 17 100 0.0375699
15 6 17 100 0.0355221
16 6 17 100 0.0528958
17 6 17 100 0.0120074
0 7 17 100 0.196869
1 7 17 100 0.0400811
2 7 17 100 0.0371136
3 7 17 100 0.0494512
4 7 17 100 0.0579925
5 7 17 100 0.070069
6 7 17 100 0.066246
7 7 17 100 0.0595433
8 7 17 100 0.0650551
9 7 17 100 0.0598951
10 7 17 100 0.037437
11 7 17 100 0.0369241
12 7 17 100 0.0362449
13 7 17 100 0.0341864
14 7 17 100 0.0395905
15 7 17 100 0.0405455
16 7 17 100 0.0560648
17 7 17 100 0.0166907
0 8 17 100 0.176079
1 8 17 100 0.0354615
2 8 17 100 0.0317006
3 8 17 100 0.0459575
4 8 17 100 0.0487647
5 8 17 100 0.0594844
6 8 17 100 0.0663251
7 8 17 100 0.0678596
8 8 17 100 0.0660999
9 8 17 100 0.0655953
10 8 17 100 0.0501528
11 8 17 100 0.0425638
12 8 17 100 0.0417196
13 8 17 100 0.0410057
14 8 17 100 0.047149
15 8 17 100 0.0423456
16 8 17 100 0.0585166
17 8 17 100 0.0132197
0 9 17 100 0.181447
1 9 17 100 0.0296558
2 9 17 100 0.0255995
3 9 17 100 0.0344892
4 9 17 100 0.046855
5 9 17 100 0.04305
6 9 17 100 0.0496011
7 9 17 100 0.0584283
8 9 17 100 0.0700381
9 9 17 100 0.0723985
10 9 17 100 0.0660229
11 9 17 100 0.0611841
12 9 17 100 0.0439633
13 9 17 100 0.0457825
14 9 17 100 0.0426889
15 9 17 100 0.053286
16 9 17 100 0.0656076
17 9 17 100 0.00990217
0 10 17 100 0.197338
1 10 17 100 0.0248213
2 10 17 100 0.0251008
3 10 17 100 0.0304881
4 10 17 100 0.0384282
5 10 17 100 0.0430842
6 10 17 100 0.045849
7 10 17 100 0.0462548
8 10 17 100 0.0513646
9 10 17 100 0.0649596
10 10 17 100 0.0635305
11 10 17 100 0.0650401
12 10 17 100 0.0642768
13 10 17 100 0.0494212
14 10 17 100 0.0534308
15 10 17 100 0.0527564
16 10 17 100 0.071166
17 10 17 100 0.0126898
0 11 17 100 0.185182
1 11 17 100 0.0271552
2 11 17 100 0.0238029
3 11 17 100 0.0240793
4 11 17 100 0.0350664
5 11 17 100 0.040107
6 11 17 100 0.0372966
7 11 17 100 0.0383436
8 11 17 100 0.0450621
9 11 17 100 0.0630479
10 11 17 100 0.0662833
11 11 17 100 0.0747047
12 11 17 100 0.0715351
13 11 17 100 0.0520511
14 11 17 100 0.0630698
15 11 17 100 0.0650977
16 11 17 100 0.0772906
17 11 17 100 0.0108252
0 12 17 100 0.204543
1 12 17 100 0.0179999
2 12 17 100 0.0234611
3 12 17 100 0.023789
4 12 17 100 0.0285264
5 12 17 100 0.0397743
6 12 17 100 0.0409624
7 12 17 100 0.0293682
8 12 17 100 0.0391656
9 12 17 100 0.0570374
10 12 17 100 0.0588696
11 12 17 100 0.0691765
12 12 17 100 0.0716624
13 12 17 100 0.0705067
14 12 17 100 0.0739831
15 12 17 100 0.0597045
16 12 17 100 0.0799671
17 12 17 100 0.0115033
0 13 17 100 0.210604
1 13 17 100 0.019272
2 13 17 100 0.017078
3 13 17 100 0.0294542
4 13 17 100 0.0311174
5 13 17 100 0.0248789
6 13 17 100 0.0282746
7 13 17 100 0.0350617
8 13 17 100 0.0430822
9 13 17 100 0.0393972
10 13 17 100 0.0508224
11 13 17 100 0.0588134
12 13 17 100 0.0920013
13 13 17 100 0.0657086
14 13 17 100 0.0700131
15 13 17 100 0.0791692
16 13 17 100 0.0893533
17 13 17 100 0.015898
0 14 17 100 0.176674
1 14 17 100 0.0221856
2 14 17 100 0.0152957
3 14 17 100 0.0210203
4 14 17 100 0.0301733
5 14 17 100 0.0308438
6 14 17 100 0.0274295
7 14 17 100 0.0323464
8 14 17 100 0.0330804
9 14 17 100 0.0514925
10 14 17 100 0.0484002
11 14 17 100 0.0579821
12 14 17 100 0.0709567
13 14 17 100 0.0870228
14 14 17 100 0.0892009
15 14 17 100 0.086236
16 14 17 100 0.107128
17 14 17 100 0.0125315
0 15 17 100 0.210404
1 15 17 100 0.0233038
2 15 17 100 0.0105692
3 15 17 100 0.0242835
4 15 17 100 0.0257204
5 15 17 100 0.0349482
6 15 17 100 0.029657
7 15 17 100 0.030053
8 15 17 100 0.037184
9 15 17 100 0.0438263
10 15 17 100 0.0511314
11 15 17 100 0.0448198
12 15 17 100 0.0602122
13 15 17 100 0.0643518
14 15 17 100 0.0730227
15 15 17 100 0.116299
16 15 17 100 0.109327
17 15 17 100 0.0108869
0 16 17 100 0.178849
1 16 17 100 0.0236304
2 16 17 100 0.0179312
3 16 17 100 0.0145332
4 16 17 100 0.0280531
5 16 17 100 0.0213168
6 16 17 100 0.0239918
7 16 17 100 0.0266491
8 16 17 100 0.0439044
9 16 17 100 0.0371148
10 16 17 100 0.0514703
11 16 17 100 0.0416891
12 16 17 100 0.0602418
13 16 17 100 0.0673849
14 16 17 100 0.107967
15 16 17 100 0.111775
16 16 17 100 0.137704
17 16 17 100 0.00579391
0 17 17 100 0.209251
1 17 17 100 0.0225134
2 17 17 100 0.0162518
3 17 17 100 0.0142149
4 17 17 100 0.0242698
5 17 17 100 0.011014
6 17 17 100 0.0193688
7 17 17 100 0.0334384
8 17 17 100 0.0368107
9 17 17 100 0.0478533
10 17 17 100 0.0401046
11 17 17 100 0.0334318
12 17 17 100 0.0588122
13 17 17 100 0.0696642
14 17 17 100 0.0806722
15 17 17 100 0.136031
16 17 17 100 0.13582
17 17 17 100 0.0104786
0 18 17 100 0.180095
1 18 17 100 0.0196929
2 18 17 100 0.0108005
3 18 17 100 0.020251
4 18 17 100 0.0240422
5 18 17 100 0.0113871
6 18 17 100 0.0214041
7 18 17 100 0.0389632
8 18 17 100 0.0352932
9 18 17 100 0.0351579
10 18 17 100 0.0608564
11 18 17 100 0.0343302
12 18 17 100 0.0640227
13 18 17 100 0.062967
14 18 17 100 0.0913438
15 18 17 100 0.109028
16 18 17 100 0.173195
17 18 17 100 0.00716984
0 19 17 100 0.185477
1 19 17 100 0.0270097
2 19 17 100 0.0137011
3 19 17 100 0.0273141
4 19 17 100 0.0218222
5 19 17 100 0.0221163
6 19 17 100 0.0170145
7 19 17 100 0.0291367
8 19 17 100 0.0145455
9 19 17 100 0.0410486
10 19 17 100 0.0403187
11 19 17 100 0.0330476
12 19 17 100 0.0742218
13 19 17 100 0.0802828
14 19 17 100 0.0794149
15 19 17 100 0.136092
16 19 17 100 0.143573
17 19 17 100 0.0138635
0 20 17 100 0.195213
1 20 17 100 0.0153247
2 20 17 100 0.0047283
3 20 17 100 0.022831
4 20 17 100 0.0275713
5 20 17 100 0.0410844
6 20 17 100 0.0274412
7 20 17 100 0.0206058
8 20 17 100 0.0278083
9 20 17 100 0.0406478
10 20 17 100 0.041135
11 20 17 100 0.0411157
12 20 17 100 0.0593292
13 20 17 100 0.0530603
14 20 17 100 0.0895694
15 20 17 100 0.123453
16 20 17 100 0.164251
17 20 17 100 0.00483015
0 21 17 100 0.209229
1 21 17 100 0.000818963
2 21 17 100 0.00869567
3 21 17 100 0.026087
4 21 17 100 0.00768073
5 21 17 100 0.0260904
6 21 17 100 0.036566
7 21 17 100 0.026087
8 21 17 100 0.00871823
9 21 17 100 0.0404281
10 21 17 100 0.0174054
11 21 17 100 0.0522267
12 21 17 100 0.0601557
13 21 17 100 0.0434751
14 21 17 100 0.131236
15 21 17 100 0.134736
16 21 17 100 0.161669
17 21 17 100 0.00869583
0 22 17 100 0.173847
1 22 17 100 0.0173158
2 22 17 100 0.0343346
3 22 17 100 0.0344832
4 22 17 100 0.0172422
5 22 17 100 3.41623e-07
6 22 17 100 2.3293e-05
7 22 17 100 9.52346e-05
8 22 17 100 1.07731e-05
9 22 17 100 0.017246
10 22 17 100 0.0455908
11 22 17 100 0.0740079
12 22 17 100 0.103459
13 22 17 100 0.0689932
14 22 17 100 0.132762
15 22 17 100 0.126862
16 22 17 100 0.13754
17 22 17 100 0.0161866
0 23 17 100 0.275829
1 23 17 100 3.69434e-07
2 23 17 100 2.04512e-06
4 23 17 100 0.0345651
6 23 17 100 0.0689889
9 23 17 100 0.0344828
10 23 17 100 0.0351971
11 23 17 100 2.62655e-06
12 23 17 100 0.137976
13 23 17 100 0.0344843
14 23 17 100 0.13132
15 23 17 100 0.206775
16 23 17 100 0.0403197
17 23 17 100 5.64018e-05
0 24 17 100 7.73936e-05
1 24 17 100 0.000113872
4 24 17 100 0.0686075
6 24 17 100 0.0666666
9 24 17 100 0.0666669
11 24 17 100 0.00010259
12 24 17 100 0.199893
13 24 17 100 0.0666284
14 24 17 100 0.0666669
15 24 17 100 0.13318
16 24 17 100 0.331397
0 25 17 100 0.156536
9 25 17 100 0.152192
11 25 17 100 0.161862
12 25 17 100 0.0147522
15 25 17 100 0.333518
16 25 17 100 0.18114
0 26 17 100 0.666667
11 26 17 100 0.333333
4 27 17 100 2.61253e-05
9 27 17 100 0.00843814
11 27 17 100 0.324895
12 27 17 100 0.666641
0 1 18 100 0.000546581
1 1 18 100 0.567092
2 1 18 100 0.0765894
3 1 18 100 0.0442134
4 1 18 100 0.048193
5 1 18 100 0.0324033
6 1 18 100 0.0221677
7 1 18 100 0.0209882
8 1 18 100 0.0195134
9 1 18 100 0.0184589
10 1 18 100 0.0166956
11 1 18 100 0.0175308
12 1 18 100 0.018423
13 1 18 100 0.0136817
14 1 18 100 0.0128546
15 1 18 100 0.0230857
16 1 18 100 0.0177907
17 1 18 100 0.0206983
18 1 18 100 0.00907315
0 2 18 100 0.0894801
1 2 18 100 0.15076
2 2 18 100 0.236075
3 2 18 100 0.105576
4 2 18 100 0.0651229
5 2 18 100 0.0444908
6 2 18 100 0.0413054
7 2 18 100 0.0266475
8 2 18 100 0.0202899
9 2 18 100 0.0203751
10 2 18 100 0.019376
11 2 18 100 0.0217772
12 2 18 100 0.021293
13 2 18 100 0.0131576
14 2 18 100 0.019843
15 2 18 100 0.0256997
16 2 18 100 0.0271862
17 2 18 100 0.0318459
18 2 18 100 0.0196982
0 3 18 100 0.214711
1 3 18 100 0.0641581
2 3 18 100 0.109458
3 3 18 100 0.12862
4 3 18 100 0.0861174
5 3 18 100 0.0699297
6 3 18 100 0.0395527
7 3 18 100 0.0343526
8 3 18 100 0.023175
9 3 18 100 0.0261226
10 3 18 100 0.0192981
11 3 18 100 0.0192924
12 3 18 100 0.0230829
13 3 18 100 0.0119652
14 3 18 100 0.0215226
15 3 18 100 0.0292829
16 3 18 100 0.0310817
17 3 18 100 0.0318322
18 3 18 100 0.0164461
0 4 18 100 0.192436
1 4 18 100 0.0501869
2 4 18 100 0.0582449
3 4 18 100 0.103894
4 4 18 100 0.0950511
5 4 18 100 0.0927229
6 4 18 100 0.0590457
7 4 18 100 0.0501684
8 4 18 100 0.0286629
9 4 18 100 0.0379038
10 4 18 100 0.0261844
11 4 18 100 0.022609
12 4 18 100 0.0235942
13 4 18 100 0.018334
14 4 18 100 0.0212826
15 4 18 100 0.0277908
16 4 18 100 0.0349246
17 4 18 100 0.0408893
18 4 18 100 0.0160747
0 5 18 100 0.197395
1 5 18 100 0.0487282
2 5 18 100 0.0485933
3 5 18 100 0.0742334
4 5 18 100 0.0883207
5 5 18 100 0.0856456
6 5 18 100 0.0671009
7 5 18 100 0.0640876
8 5 18 100 0.0446737
9 5 18 100 0.0364128
10 5 18 100 0.0289238
11 5 18 100 0.0295283
12 5 18 100 0.0266496
13 5 18 100 0.0205302
14 5 18 100 0.0265944
15 5 18 100 0.0325172
16 5 18 100 0.0329172
17 5 18 100 0.0341028
18 5 18 100 0.0130455
0 6 18 100 0.192203
1 6 18 100 0.0367528
2 6 18 100 0.050139
3 6 18 100 0.0597119
4 6 18 100 0.0669343
5 6 18 100 0.0668039
6 6 18 100 0.0861537
7 6 18 100 0.0758124
8 6 18 100 0.0477001
9 6 18 100 0.0496766
10 6 18 100 0.0446714
11 6 18 100 0.0296133
12 6 18 100 0.0340087
13 6 18 100 0.0256078
14 6 18 100 0.0219206
15 6 18 100 0.0305779
16 6 18 100 0.0358469
17 6 18 100 0.034204
18 6 18 100 0.0116621
0 7 18 100 0.187808
1 7 18 100 0.0324967
2 7 18 100 0.0395893
3 7 18 100 0.042236
4 7 18 100 0.0577084
5 7 18 100 0.0627135
6 7 18 100 0.0772365
7 7 18 100 0.0717148
8 7 18 100 0.0621625
9 7 18 100 0.059794
10 7 18 100 0.0534022
11 7 18 100 0.0387727
12 7 18 100 0.0307931
13 7 18 100 0.0290929
14 7 18 100 0.0332665
15 7 18 100 0.0353456
16 7 18 100 0.0409567
17 7 18 100 0.034797
18 7 18 100 0.0101138
0 8 18 100 0.191784
1 8 18 100 0.0308751
2 8 18 100 0.0350805
3 8 18 100 0.04565
4 8 18 100 0.0409206
5 8 18 100 0.0514575
6 8 18 100 0.054999
7 8 18 100 0.0674774
8 8 18 100 0.0687908
9 8 18 100 0.0594653
10 8 18 100 0.0665531
11 8 18 100 0.0411689
12 8 18 100 0.0418711
13 8 18 100 0.032839
14 8 18 100 0.03186
15 8 18 100 0.0418356
16 8 18 100 0.0428096
17 8 18 100 0.042168
18 8 18 100 0.0123941
0 9 18 100 0.18821
1 9 18 100 0.026644
2 9 18 100 0.0341834
3 9 18 100 0.0336876
4 9 18 100 0.0420435
5 9 18 100 0.0363198
6 9 18 100 0.0462151
7 9 18 100 0.0495401
8 9 18 100 0.0602099
9 9 18 100 0.0614237
10 9 18 100 0.0711363
11 9 18 100 0.054542
12 9 18 100 0.0472043
13 9 18 100 0.042264
14 9 18 100 0.0425314
15 9 18 100 0.0455445
16 9 18 100 0.0563411
17 9 18 100 0.0495703
18 9 18 100 0.0123895
0 10 18 100 0.171424
1 10 18 100 0.0241712
2 10 18 100 0.0313183
3 10 18 100 0.0379229
4 10 18 100 0.0329311
5 10 18 100 0.0267934
6 10 18 100 0.0365074
7 10 18 100 0.0468179
8 10 18 100 0.0460022
9 10 18 100 0.0748779
10 10 18 100 0.0672972
11 10 18 100 0.0627635
12 10 18 100 0.0672139
13 10 18 100 0.0519118
14 10 18 100 0.0432939
15 10 18 100 0.0484035
16 10 18 100 0.0533111
17 10 18 100 0.0612269
18 10 18 100 0.0158118
0 11 18 100 0.179285
1 11 18 100 0.0230256
2 11 18 100 0.0252256
3 11 18 100 0.0272596
4 11 18 100 0.0285027
5 11 18 100 0.0236449
6 11 18 100 0.0308899
7 11 18 100 0.0423145
8 11 18 100 0.0446389
9 11 18 100 0.0477683
10 11 18 100 0.0702077
11 11 18 100 0.0630181
12 11 18 100 0.0737916
13 11 18 100 0.0542186
14 11 18 100 0.0545365
15 11 18 100 0.0625364
16 11 18 100 0.0688679
17 11 18 100 0.0669541
18 11 18 100 0.0133133
0 12 18 100 0.188426
1 12 18 100 0.0160769
2 12 18 100 0.0201571
3 12 18 100 0.0248011
4 12 18 100 0.0283244
5 12 18 100 0.0210098
6 12 18 100 0.026589
7 12 18 100 0.0333986
8 12 18 100 0.039196
9 12 18 100 0.0500282
10 12 18 100 0.0614573
11 12 18 100 0.0618857
12 12 18 100 0.0697093
13 12 18 100 0.0651312
14 12 18 100 0.0566325
15 12 18 100 0.0697664
16 12 18 100 0.0741435
17 12 18 100 0.080133
18 12 18 100 0.0131339
0 13 18 100 0.196434
1 13 18 100 0.013576
2 13 18 100 0.0167597
3 13 18 100 0.0239851
4 13 18 100 0.0218619
5 13 18 100 0.0246413
6 13 18 100 0.0272572
7 13 18 100 0.0353745
8 13 18 100 0.0341548
9 13 18 100 0.0395775
10 13 18 100 0.0499626
11 13 18 100 0.0628559
12 13 18 100 0.0661926
13 13 18 100 0.0601801
14 13 18 100 0.0726137
15 13 18 100 0.0760478
16 13 18 100 0.0771643
17 13 18 100 0.0865845
18 13 18 100 0.0147766
0 14 18 100 0.209752
1 14 18 100 0.00993568
2 14 18 100 0.0240874
3 14 18 100 0.0214839
4 14 18 100 0.0240179
5 14 18 100 0.0237734
6 14 18 100 0.0212217
7 14 18 100 0.0352653
8 14 18 100 0.0287475
9 14 18 100 0.0441997
10 14 18 100 0.0494971
11 14 18 100 0.0470868
12 14 18 100 0.0515099
13 14 18 100 0.061672
14 14 18 100 0.0708135
15 14 18 100 0.0806195
16 14 18 100 0.0864043
17 14 18 100 0.0935856
18 14 18 100 0.0163265
0 15 18 100 0.183948
1 15 18 100 0.0153443
2 15 18 100 0.0275508
3 15 18 100 0.0204678
4 15 18 100 0.0259146
5 15 18 100 0.0215371
6 15 18 100 0.0194832
7 15 18 100 0.0190055
8 15 18 100 0.0314975
9 15 18 100 0.0383027
10 15 18 100 0.0482926
11 15 18 100 0.0540385
12 15 18 100 0.0667749
13 15 18 100 0.0639179
14 15 18 100 0.0676452
15 15 18 100 0.0944319
16 15 18 100 0.0939682
17 15 18 100 0.0984797
18 15 18 100 0.00939993
0 16 18 100 0.194046
1 16 18 100 0.0123776
2 16 18 100 0.0123449
3 16 18 100 0.0206657
4 16 18 100 0.0211848
5 16 18 100 0.0234037
6 16 18 100 0.017406
7 16 18 100 0.0285219
8 16 18 100 0.0310174
9 16 18 100 0.0450445
10 16 18 100 0.0355558
11 16 18 100 0.0524762
12 16 18 100 0.0679551
13 16 18 100 0.0508551
14 16 18 100 0.0643762
15 16 18 100 0.101064
16 16 18 100 0.102167
17 16 18 100 0.104655
18 16 18 100 0.0148833
0 17 18 100 0.205038
1 17 18 100 0.00907428
2 17 18 100 0.0125713
3 17 18 100 0.0145302
4 17 18 100 0.0208337
5 17 18 100 0.0262841
6 17 18 100 0.0211981
7 17 18 100 0.0212198
8 17 18 100 0.0358178
9 17 18 100 0.0370869
10 17 18 100 0.0320578
11 17 18 100 0.0516326
12 17 18 100 0.0550845
13 17 18 100 0.0522121
14 17 18 100 0.0687322
15 17 18 100 0.0953795
16 17 18 100 0.110818
17 17 18 100 0.117981
18 17 18 100 0.0124476
0 18 18 100 0.20177
1 18 18 100 0.0121413
2 18 18 100 0.0141604
3 18 18 100 0.0206272
4 18 18 100 0.0230534
5 18 18 100 0.0203667
6 18 18 100 0.0211743
7 18 18 100 0.0208793
8 18 18 100 0.0248894
9 18 18 100 0.0478429
10 18 18 100 0.0403625
11 18 18 100 0.0447689
12 18 18 100 0.0551881
13 18 18 100 0.0565201
14 18 18 100 0.0640344
15 18 18 100 0.0846946
16 18 18 100 0.114334
17 18 18 100 0.122888
18 18 18 100 0.010305
0 19 18 100 0.179632
1 19 18 100 0.0119343
2 19 18 100 0.00991885
3 19 18 100 0.0173421
4 19 18 100 0.0148396
5 19 18 100 0.0177639
6 19 18 100 0.0304622
7 19 18 100 0.0315225
8 19 18 100 0.0197541
9 19 18 100 0.0350354
10 19 18 100 0.0274705
11 19 18 100 0.0373554
12 19 18 100 0.048419
13 19 18 100 0.0681058
14 19 18 100 0.0730382
15 19 18 100 0.0906742
16 19 18 100 0.11351
17 19 18 100 0.15669
18 19 18 100 0.0165309
0 20 18 100 0.218406
1 20 18 100 0.00367647
2 20 18 100 0.0109635
3 20 18 100 0.0366381
4 20 18 100 0.0181228
5 20 18 100 0.0110037
6 20 18 100 0.0221186
7 20 18 100 0.011128
8 20 18 100 0.0253399
9 20 18 100 0.0282148
10 20 18 100 0.0360749
11 20 18 100 0.0425239
12 20 18 100 0.0682155
13 20 18 100 0.054798
14 20 18 100 0.0578058
15 20 18 100 0.0774965
16 20 18 100 0.147955
17 20 18 100 0.125802
18 20 18 100 0.00371745
0 21 18 100 0.156028
1 21 18 100 0.00588724
2 21 18 100 0.00571478
3 21 18 100 0.00583896
4 21 18 100 0.0114448
5 21 18 100 0.0272448
6 21 18 100 0.0114636
7 21 18 100 0.0473178
8 21 18 100 0.0169702
9 21 18 100 0.0286354
10 21 18 100 0.0409149
11 21 18 100 0.0569366
12 21 18 100 0.0570243
13 21 18 100 0.0457967
14 21 18 100 0.0688292
15 21 18 100 0.0962039
16 21 18 100 0.102311
17 21 18 100 0.204022
18 21 18 100 0.0114164
0 22 18 100 0.189638
1 22 18 100 3.22542e-07
2 22 18 100 0.0103558
4 22 18 100 0.0109236
5 22 18 100 0.0328921
6 22 18 100 0.0382065
7 22 18 100 0.022491
8 22 18 100 0.032602
9 22 18 100 0.0119602
10 22 18 100 0.0314355
11 22 18 100 0.0653788
12 22 18 100 0.0652277
13 22 18 100 0.0652758
14 22 18 100 0.0544102
15 22 18 100 0.0761428
16 22 18 100 0.136369
17 22 18 100 0.14582
18 22 18 100 0.0108713
0 23 18 100 0.171905
2 23 18 100 0.0204134
3 23 18 100 2.79897e-06
4 23 18 100 0.0204081
5 23 18 100 0.0407006
6 23 18 100 0.020476
7 23 18 100 0.0204169
8 23 18 100 0.0204085
10 23 18 100 0.000240268
11 23 18 100 0.0205239
12 23 18 100 0.0635786
13 23 18 100 0.0612321
14 23 18 100 0.083793
15 23 18 100 0.142947
16 23 18 100 0.107729
17 23 18 100 0.205225
0 24 18 100 0.0902047
2 24 18 100 2.58542e-05
3 24 18 100 0.0454543
6 24 18 100 0.00014561
8 24 18 100 0.0454507
9 24 18 100 0.0454126
11 24 18 100 0.0450293
12 24 18 100 0.046143
13 24 18 100 0.136776
14 24 18 100 0.13628
15 24 18 100 0.0454677
16 24 18 100 0.136338
17 24 18 100 0.227272
0 25 18 100 0.428423
4 25 18 100 1.96242e-05
5 25 18 100 8.20375e-05
12 25 18 100 0.142856
13 25 18 100 0.142844
14 25 18 100 1.28906e-05
15 25 18 100 4.73662e-05
17 25 18 100 0.285715
3 26 18 100 1.39316e-05
8 26 18 100 0.249987
10 26 18 100 0.25
13 26 18 100 0.249999
15 26 18 100 0.25
0 1 19 100 0.000721574
1 1 19 100 0.544321
2 1 19 100 0.0959633
3 1 19 100 0.0594659
4 1 19 100 0.0424567
5 1 19 100 0.0240609
6 1 19 100 0.0369657
7 1 19 100 0.0264908
8 1 19 100 0.0169355
9 1 19 100 0.0125497
10 1 19 100 0.0193071
11 1 19 100 0.0185489
12 1 19 100 0.014325
13 1 19 100 0.0123862
14 1 19 100 0.00958811
15 1 19 100 0.00576313
16 1 19 100 0.0100027
17 1 19 100 0.0156962
18 1 19 100 0.0258649
19 1 19 100 0.00858606
0 2 19 100 0.0932273
1 2 19 100 0.15125
2 2 19 100 0.229962
3 2 19 100 0.110249
4 2 19 100 0.0615691
5 2 19 100 0.0423818
6 2 19 100 0.0545747
7 2 19 100 0.0380516
8 2 19 100 0.0253091
9 2 19 100 0.0210664
10 2 19 100 0.0174743
11 2 19 100 0.0172382
12 2 19 100 0.0198094
13 2 19 100 0.015624
14 2 19 100 0.0140979
15 2 19 100 0.0144512
16 2 19 100 0.0175849
17 2 19 100 0.0183096
18 2 19 100 0.0257718
19 2 19 100 0.0119975
0 3 19 100 0.180418
1 3 19 100 0.0609102
2 3 19 100 0.122594
3 3 19 100 0.137134
4 3 19 100 0.0850078
5 3 19 100 0.0629489
6 3 19 100 0.0564043
7 3 19 100 0.0423608
8 3 19 100 0.0271146
9 3 19 100 0.0225127
10 3 19 100 0.0279059
11 3 19 100 0.0168262
12 3 19 100 0.0173176
13 3 19 100 0.0188948
14 3 19 100 0.0181609
15 3 19 100 0.0152428
16 3 19 100 0.0218691
17 3 19 100 0.0264042
18 3 19 100 0.0312472
19 3 19 100 0.00872573
0 4 19 100 0.19989
1 4 19 100 0.0409738
2 4 19 100 0.0599245
3 4 19 100 0.105708
4 4 19 100 0.101077
5 4 19 100 0.0791525
6 4 19 100 0.0715177
7 4 19 100 0.0540301
8 4 19 100 0.0402055
9 4 19 100 0.026631
10 4 19 100 0.0264651
11 4 19 100 0.0194632
12 4 19 100 0.0229595
13 4 19 100 0.0182729
14 4 19 100 0.0129267
15 4 19 100 0.0125677
16 4 19 100 0.0278495
17 4 19 100 0.0285385
18 4 19 100 0.0404344
19 4 19 100 0.0114132
0 5 19 100 0.212153
1 5 19 100 0.03722
2 5 19 100 0.0491017
3 5 19 100 0.0791537
4 5 19 100 0.0907962
5 5 19 100 0.0813004
6 5 19 100 0.0844884
7 5 19 100 0.0523305
8 5 19 100 0.0472452
9 5 19 100 0.043024
10 5 19 100 0.029818
11 5 19 100 0.021233
12 5 19 100 0.0198888
13 5 19 100 0.0205678
14 5 19 100 0.0160479
15 5 19 100 0.0228566
16 5 19 100 0.0265434
17 5 19 100 0.0220852
18 5 19 100 0.0342642
19 5 19 100 0.00988171
0 6 19 100 0.207516
1 6 19 100 0.031632
2 6 19 100 0.039934
3 6 19 100 0.0420417
4 6 19 100 0.0574572
5 6 19 100 0.0757879
6 6 19 100 0.0801833
7 6 19 100 0.0782239
8 6 19 100 0.0679803
9 6 19 100 0.0435366
10 6 19 100 0.0396387
11 6 19 100 0.0371644
12 6 19 100 0.0219022
13 6 19 100 0.0271533
14 6 19 100 0.0259876
15 6 19 100 0.0268368
16 6 19 100 0.0286497
17 6 19 100 0.0271848
18 6 19 100 0.0319223
19 6 19 100 0.00926755
0 7 19 100 0.179305
1 7 19 100 0.0339998
2 7 19 100 0.0339894
3 7 19 100 0.0432426
4 7 19 100 0.0523265
5 7 19 100 0.0566882
6 7 19 100 0.0812589
7 7 19 100 0.0732819
8 7 19 100 0.0595833
9 7 19 100 0.0566512
10 7 19 100 0.0558523
11 7 19 100 0.0398198
12 7 19 100 0.0330057
13 7 19 100 0.0334015
14 7 19 100 0.0278862
15 7 19 100 0.0268856
16 7 19 100 0.0342963
17 7 19 100 0.0276427
18 7 19 100 0.0400564
19 7 19 100 0.0108274
0 8 19 100 0.192805
1 8 19 100 0.0307512
2 8 19 100 0.025733
3 8 19 100 0.0367572
4 8 19 100 0.0408302
5 8 19 100 0.050738
6 8 19 100 0.0667519
7 8 19 100 0.071535
8 8 19 100 0.0658123
9 8 19 100 0.0578273
10 8 19 100 0.0559086
11 8 19 100 0.0427015
12 8 19 100 0.0413441
13 8 19 100 0.0344353
14 8 19 100 0.0377052
15 8 19 100 0.0335967
16 8 19 100 0.0272897
17 8 19 100 0.0355593
18 8 19 100 0.0441174
19 8 19 100 0.00780175
0 9 19 100 0.190438
1 9 19 100 0.0237475
2 9 19 100 0.0277036
3 9 19 100 0.0308734
4 9 19 100 0.0345045
5 9 19 100 0.0442523
6 9 19 100 0.0493711
7 9 19 100 0.0560117
8 9 19 100 0.0582813
9 9 19 100 0.0649029
10 9 19 100 0.0600669
11 9 19 100 0.0481732
12 9 19 100 0.0450496
13 9 19 100 0.0404094
14 9 19 100 0.0398738
15 9 19 100 0.0459225
16 9 19 100 0.0431821
17 9 19 100 0.0431734
18 9 19 100 0.0464706
19 9 19 100 0.00759226
0 10 19 100 0.186397
1 10 19 100 0.0193487
2 10 19 100 0.0203052
3 10 19 100 0.0372907
4 10 19 100 0.0259009
5 10 19 100 0.0344066
6 10 19 100 0.0439543
7 10 19 100 0.0522554
8 10 19 100 0.0448488
9 10 19 100 0.0572743
10 10 19 100 0.0616297
11 10 19 100 0.0579752
12 10 19 100 0.0509052
13 10 19 100 0.0560446
14 10 19 100 0.0442378
15 10 19 100 0.0412045
16 10 19 100 0.053232
17 10 19 100 0.0451676
18 10 19 100 0.053901
19 10 19 100 0.0137202
0 11 19 100 0.194759
1 11 19 100 0.0162007
2 11 19 100 0.0223324
3 11 19 100 0.0283108
4 11 19 100 0.0346389
5 11 19 100 0.0362673
6 11 19 100 0.0358714
7 11 19 100 0.036958
8 11 19 100 0.0384847
9 11 19 100 0.0563509
10 11 19 100 0.0427833
11 11 19 100 0.0628995
12 11 19 100 0.0590978
13 11 19 100 0.0552513
14 11 19 100 0.0552292
15 11 19 100 0.0531117
16 11 19 100 0.0517842
17 11 19 100 0.0543627
18 11 19 100 0.0571244
19 11 19 100 0.00818139
0 12 19 100 0.184671
1 12 19 100 0.0194201
2 12 19 100 0.0184817
3 12 19 100 0.0266921
4 12 19 100 0.0261023
5 12 19 100 0.0281192
6 12 19 100 0.0335972
7 12 19 100 0.0345387
8 12 19 100 0.0475249
9 12 19 100 0.040709
10 12 19 100 0.0559021
11 12 19 100 0.0449019
12 12 19 100 0.0502067
13 12 19 100 0.058929
14 12 19 100 0.0695096
15 12 19 100 0.0596606
16 12 19 100 0.0700001
17 12 19 100 0.0576679
18 12 19 100 0.0640892
19 12 19 100 0.00927708
0 13 19 100 0.186458
1 13 19 100 0.0175422
2 13 19 100 0.0172485
3 13 19 100 0.0251274
4 13 19 100 0.0189218
5 13 19 100 0.0310129
6 13 19 100 0.0296031
7 13 19 100 0.0271002
8 13 19 100 0.0293092
9 13 19 100 0.0357213
10 13 19 100 0.0647842
11 13 19 100 0.05533
12 13 19 100 0.0661833
13 13 19 100 0.0513121
14 13 19 100 0.0634489
15 13 19 100 0.0639599
16 13 19 100 0.0677648
17 13 19 100 0.0630314
18 13 19 100 0.0743546
19 13 19 100 0.0117863
0 14 19 100 0.184242
1 14 19 100 0.0158736
2 14 19 100 0.0184587
3 14 19 100 0.0144532
4 14 19 100 0.0145084
5 14 19 100 0.0258338
6 14 19 100 0.0269417
7 14 19 100 0.033083
8 14 19 100 0.0299091
9 14 19 100 0.037538
10 14 19 100 0.0518925
11 14 19 100 0.0552713
12 14 19 100 0.0449165
13 14 19 100 0.0650395
14 14 19 100 0.0685836
15 14 19 100 0.0706346
16 14 19 100 0.0788673
17 14 19 100 0.0767389
18 14 19 100 0.0689708
19 14 19 100 0.018243
0 15 19 100 0.206686
1 15 19 100 0.0150334
2 15 19 100 0.0185857
3 15 19 100 0.0141691
4 15 19 100 0.00962992
5 15 19 100 0.021577
6 15 19 100 0.0207369
7 15 19 100 0.0299482
8 15 19 100 0.0332244
9 15 19 100 0.0237428
10 15 19 100 0.0466822
11 15 19 100 0.04271
12 15 19 100 0.0569273
13 15 19 100 0.0645728
14 15 19 100 0.058656
15 15 19 100 0.0799618
16 15 19 100 0.0825695
17 15 19 100 0.0819848
18 15 19 100 0.0776821
19 15 19 100 0.0149206
0 16 19 100 0.198822
1 16 19 100 0.0115767
2 16 19 100 0.00825565
3 16 19 100 0.0122261
4 16 19 100 0.0125441
5 16 19 100 0.0203662
6 16 19 100 0.0208501
7 16 19 100 0.0325541
8 16 19 100 0.0266064
9 16 19 100 0.0323647
10 16 19 100 0.0444051
11 16 19 100 0.0379116
12 16 19 100 0.0504435
13 16 19 100 0.058711
14 16 19 100 0.0670697
15 16 19 100 0.082866
16 16 19 100 0.0927797
17 16 19 100 0.0816067
18 16 19 100 0.0974211
19 16 19 100 0.0106191
0 17 19 100 0.183812
1 17 19 100 0.0190833
2 17 19 100 0.00883803
3 17 19 100 0.0127436
4 17 19 100 0.0189353
5 17 19 100 0.0176849
6 17 19 100 0.0253284
7 17 19 100 0.0224862
8 17 19 100 0.030264
9 17 19 100 0.0278964
10 17 19 100 0.0367949
11 17 19 100 0.0417577
12 17 19 100 0.0385647
13 17 19 100 0.0528821
14 17 19 100 0.0624469
15 17 19 100 0.0866385
16 17 19 100 0.106318
17 17 19 100 0.102222
18 17 19 100 0.0952356
19 17 19 100 0.0100668
0 18 19 100 0.196263
1 18 19 100 0.0108799
2 18 19 100 0.0111008
3 18 19 100 0.00859434
4 18 19 100 0.0155674
5 18 19 100 0.0235718
6 18 19 100 0.0155366
7 18 19 100 0.0225521
8 18 19 100 0.0181055
9 18 19 100 0.0292556
10 18 19 100 0.0440005
11 18 19 100 0.034963
12 18 19 100 0.0494888
13 18 19 100 0.0478129
14 18 19 100 0.0751474
15 18 19 100 0.0622753
16 18 19 100 0.107639
17 18 19 100 0.102144
18 18 19 100 0.114377
19 18 19 100 0.0107251
0 19 19 100 0.199486
1 19 19 100 0.0122238
2 19 19 100 0.018002
3 19 19 100 0.012068
4 19 19 100 0.0143215
5 19 19 100 0.0156395
6 19 19 100 0.024325
7 19 19 100 0.0380836
8 19 19 100 0.0147885
9 19 19 100 0.0123947
10 19 19 100 0.0305806
11 19 19 100 0.0316567
12 19 19 100 0.0463912
13 19 19 100 0.0551579
14 19 19 100 0.0669652
15 19 19 100 0.0622226
16 19 19 100 0.108356
17 19 19 100 0.103969
18 19 19 100 0.121275
19 19 19 100 0.0120918
0 20 19 100 0.172778
1 20 19 100 0.0169333
2 20 19 100 0.0170382
3 20 19 100 0.00568856
4 20 19 100 0.0141516
5 20 19 100 0.0141558
6 20 19 100 0.0225877
7 20 19 100 0.0268256
8 20 19 100 0.0274271
9 20 19 100 0.00626729
10 20 19 100 0.0202232
11 20 19 100 0.0396174
12 20 19 100 0.0402287
13 20 19 100 0.0508682
14 20 19 100 0.0754408
15 20 19 100 0.0845042
16 20 19 100 0.110479
17 20 19 100 0.102657
18 20 19 100 0.146755
19 20 19 100 0.00537251
0 21 19 100 0.173561
1 21 19 100 0.00879054
2 21 19 100 0.00935238
3 21 19 100 0.013102
4 21 19 100 0.00871358
5 21 19 100 0.00805013
6 21 19 100 0.0175781
7 21 19 100 0.00877614
8 21 19 100 0.0218008
9 21 19 100 0.00454232
10 21 19 100 0.0179366
11 21 19 100 0.0511756
12 21 19 100 0.048316
13 21 19 100 0.0443065
14 21 19 100 0.0790185
15 21 19 100 0.0747938
16 21 19 100 0.110392
17 21 19 100 0.139642
18 21 19 100 0.147212
19 21 19 100 0.0129402
0 22 19 100 0.170315
1 22 19 100 0.00728274
2 22 19 100 0.0144948
3 22 19 100 0.0072425
4 22 19 100 3.38264e-06
5 22 19 100 0.000142139
6 22 19 100 0.00724666
7 22 19 100 0.0362559
8 22 19 100 0.029034
9 22 19 100 0.00725159
10 22 19 100 0.0370251
11 22 19 100 0.0383904
12 22 19 100 0.0220831
13 22 19 100 0.0653635
14 22 19 100 0.0907051
15 22 19 100 0.0673797
16 22 19 100 0.110977
17 22 19 100 0.094388
18 22 19 100 0.194223
19 22 19 100 0.000195955
0 23 19 100 0.237464
1 23 19 100 0.0120493
2 23 19 100 0.012048
3 23 19 100 0.0127511
4 23 19 100 0.0112358
5 23 19 100 0.0240797
6 23 19 100 9.26414e-06
7 23 19 100 0.0241291
8 23 19 100 0.0124882
10 23 19 100 0.000408837
11 23 19 100 0.0139988
12 23 19 100 0.0602284
13 23 19 100 0.0745163
14 23 19 100 0.0366045
15 23 19 100 0.115767
16 23 19 100 0.106859
17 23 19 100 0.0967421
18 23 19 100 0.148621
0 24 19 100 0.188713
1 24 19 100 0.0425519
3 24 19 100 0.0212766
4 24 19 100 1.84473e-06
5 24 19 100 1.08871e-05
8 24 19 100 0.0212831
9 24 19 100 4.88829e-06
10 24 19 100 0.0212772
11 24 19 100 0.0226899
12 24 19 100 0.0212772
13 24 19 100 0.0851048
14 24 19 100 0.106333
15 24 19 100 0.0618684
16 24 19 100 0.103406
17 24 19 100 0.0885039
18 24 19 100 0.215696
19 24 19 100 1.22825e-06
0 25 19 100 0.177075
5 25 19 100 0.0909041
6 25 19 100 0.0454546
8 25 19 100 0.0908255
13 25 19 100 0.0455382
14 25 19 100 2.27077e-05
15 25 19 100 0.0454537
16 25 19 100 0.136364
17 25 19 100 0.180596
18 25 19 100 0.187766
0 26 19 100 0.222224
1 26 19 100 1.44627e-06
5 26 19 100 0.111111
6 26 19 100 0.11111
12 26 19 100 0.0183468
13 26 19 100 0.111111
14 26 19 100 3.66054e-05
16 26 19 100 0.111111
17 26 19 100 0.111192
18 26 19 100 0.203755
0 27 19 100 0.199977
6 27 19 100 0.2
8 27 19 100 0.2
10 27 19 100 3.13872e-05
13 27 19 100 0.2
14 27 19 100 0.199991
8 28 19 100 0.255289
17 28 19 100 0.078046
18 28 19 100 0.666665
18 29 19 100 1
0 1 20 100 0.000340854
1 1 20 100 0.527878
2 1 20 100 0.0902775
3 1 20 100 0.0484619
4 1 20 100 0.0442728
5 1 20 100 0.0342056
6 1 20 100 0.038408
7 1 20 100 0.0198822
8 1 20 100 0.0198294
9 1 20 100 0.00922432
10 1 20 100 0.0168837
11 1 20 100 0.0159247
12 1 20 100 0.0100087
13 1 20 100 0.0117766
14 1 20 100 0.0146787
15 1 20 100 0.00574567
16 1 20 100 0.0130523
17 1 20 100 0.0188757
18 1 20 100 0.0242286
19 1 20 100 0.0284202
20 1 20 100 0.00762424
0 2 20 100 0.126854
1 2 20 100 0.139945
2 2 20 100 0.200526
3 2 20 100 0.101837
4 2 20 100 0.0617669
5 2 20 100 0.0481651
6 2 20 100 0.0420026
7 2 20 100 0.0294741
8 2 20 100 0.0191114
9 2 20 100 0.0276951
10 2 20 100 0.0194418
11 2 20 100 0.0243155
12 2 20 100 0.0159261
13 2 20 100 0.0142601
14 2 20 100 0.0169324
15 2 20 100 0.0129683
16 2 20 100 0.0132838
17 2 20 100 0.0121248
18 2 20 100 0.0227023
19 2 20 100 0.0297993
20 2 20 100 0.0208689
0 3 20 100 0.191378
1 3 20 100 0.0747987
2 3 20 100 0.117661
3 3 20 100 0.119267
4 3 20 100 0.0768809
5 3 20 100 0.0574738
6 3 20 100 0.0560424
7 3 20 100 0.0283716
8 3 20 100 0.0366333
9 3 20 100 0.0198409
10 3 20 100 0.0227704
11 3 20 100 0.0238541
12 3 20 100 0.0133396
13 3 20 100 0.016175
14 3 20 100 0.0199865
15 3 20 100 0.0196734
16 3 20 100 0.0185774
17 3 20 100 0.0220063
18 3 20 100 0.0254045
19 3 20 100 0.0284652
20 3 20 100 0.0114006
0 4 20 100 0.200599
1 4 20 100 0.0522733
2 4 20 100 0.0642473
3 4 20 100 0.101575
4 4 20 100 0.111004
5 4 20 100 0.075673
6 4 20 100 0.0494096
7 4 20 100 0.0407251
8 4 20 100 0.032871
9 4 20 100 0.0292263
10 4 20 100 0.0216185
11 4 20 100 0.0274631
12 4 20 100 0.0187788
13 4 20 100 0.0195067
14 4 20 100 0.0128816
15 4 20 100 0.0184769
16 4 20 100 0.0251122
17 4 20 100 0.0293748
18 4 20 100 0.0245204
19 4 20 100 0.0350525
20 4 20 100 0.00961117
0 5 20 100 0.18476
1 5 20 100 0.0565977
2 5 20 100 0.0541023
3 5 20 100 0.0663872
4 5 20 100 0.0885677
5 5 20 100 0.0733035
6 5 20 100 0.0851876
7 5 20 100 0.0565723
8 5 20 100 0.0334183
9 5 20 100 0.0293596
10 5 20 100 0.0271704
11 5 20 100 0.0332192
12 5 20 100 0.0210626
13 5 20 100 0.021428
14 5 20 100 0.0169525
15 5 20 100 0.0261349
16 5 20 100 0.0225451
17 5 20 100 0.0311585
18 5 20 100 0.0216247
19 5 20 100 0.0363848
20 5 20 100 0.0140633
0 6 20 100 0.210685
1 6 20 100 0.046758
2 6 20 100 0.0389311
3 6 20 100 0.0583379
4 6 20 100 0.0640514
5 6 20 100 0.0699258
6 6 20 100 0.0788797
7 6 20 100 0.0595747
8 6 20 100 0.0475272
9 6 20 100 0.0301337
10 6 20 100 0.0335162
11 6 20 100 0.0424758
12 6 20 100 0.0232716
13 6 20 100 0.0222424
14 6 20 100 0.0212536
15 6 20 100 0.0213086
16 6 20 100 0.0243424
17 6 20 100 0.0309196
18 6 20 100 0.0248213
19 6 20 100 0.0373288
20 6 20 100 0.0137156
0 7 20 100 0.2033
1 7 20 100 0.046002
2 7 20 100 0.0407746
3 7 20 100 0.0467749
4 7 20 100 0.0456763
5 7 20 100 0.0581691
6 7 20 100 0.0750236
7 7 20 100 0.0651073
8 7 20 100 0.0456912
9 7 20 100 0.0502762
10 7 20 100 0.0373115
11 7 20 100 0.0403559
12 7 20 100 0.0343252
13 7 20 100 0.0201294
14 7 20 100 0.0242121
15 7 20 100 0.0272361
16 7 20 100 0.0230862
17 7 20 100 0.0331246
18 7 20 100 0.031151
19 7 20 100 0.0372476
20 7 20 100 0.0150253
0 8 20 100 0.186281
1 8 20 100 0.0344324
2 8 20 100 0.0363068
3 8 20 100 0.0330855
4 8 20 100 0.0427336
5 8 20 100 0.0461671
6 8 20 100 0.0615917
7 8 20 100 0.0742462
8 8 20 100 0.0658856
9 8 20 100 0.0549223
10 8 20 100 0.0540202
11 8 20 100 0.0415314
12 8 20 100 0.0387458
13 8 20 100 0.0357724
14 8 20 100 0.0209031
15 8 20 100 0.0265796
16 8 20 100 0.0265898
17 8 20 100 0.0334374
18 8 20 100 0.0368354
19 8 20 100 0.0328076
20 8 20 100 0.0171253
0 9 20 100 0.196705
1 9 20 100 0.0387256
2 9 20 100 0.0340793
3 9 20 100 0.026528
4 9 20 100 0.033863
5 9 20 100 0.0414984
6 9 20 100 0.0720062
7 9 20 100 0.0534425
8 9 20 100 0.0509281
9 9 20 100 0.0492702
10 9 20 100 0.0571868
11 9 20 100 0.0430109
12 9 20 100 0.0454529
13 9 20 100 0.0383965
14 9 20 100 0.0268633
15 9 20 100 0.0337396
16 9 20 100 0.0334098
17 9 20 100 0.0375532
18 9 20 100 0.0272595
19 9 20 100 0.0478088
20 9 20 100 0.0122716
0 10 20 100 0.189339
1 10 20 100 0.0326791
2 10 20 100 0.0195556
3 10 20 100 0.0257079
4 10 20 100 0.0270867
5 10 20 100 0.0375305
6 10 20 100 0.0428034
7 10 20 100 0.0615648
8 10 20 100 0.0605864
9 10 20 100 0.0450373
10 10 20 100 0.060488
11 10 20 100 0.0625424
12 10 20 100 0.0356307
13 10 20 100 0.0413383
14 10 20 100 0.0343519
15 10 20 100 0.0373608
16 10 20 100 0.0397868
17 10 20 100 0.0393058
18 10 20 100 0.0368677
19 10 20 100 0.0552371
20 10 20 100 0.0151994
0 11 20 100 0.185107
1 11 20 100 0.0302318
2 11 20 100 0.0310507
3 11 20 100 0.0220447
4 11 20 100 0.0266853
5 11 20 100 0.0300707
6 11 20 100 0.0439427
7 11 20 100 0.0381099
8 11 20 100 0.0481662
9 11 20 100 0.0443578
10 11 20 100 0.0607639
11 11 20 100 0.0637116
12 11 20 100 0.0487908
13 11 20 100 0.0423238
14 11 20 100 0.0430345
15 11 20 100 0.0422134
16 11 20 100 0.0463563
17 11 20 100 0.0436721
18 11 20 100 0.0448321
19 11 20 100 0.0449678
20 11 20 100 0.0195666
0 12 20 100 0.193474
1 12 20 100 0.0230962
2 12 20 100 0.0224525
3 12 20 100 0.0165235
4 12 20 100 0.0242023
5 12 20 100 0.0241466
6 12 20 100 0.0361357
7 12 20 100 0.0282057
8 12 20 100 0.0441773
9 12 20 100 0.0361767
10 12 20 100 0.0496222
11 12 20 100 0.0757123
12 12 20 100 0.0510762
13 12 20 100 0.0484192
14 12 20 100 0.0499059
15 12 20 100 0.0486641
16 12 20 100 0.0438174
17 12 20 100 0.0544908
18 12 20 100 0.0504887
19 12 20 100 0.0591188
20 12 20 100 0.0200943
0 13 20 100 0.213653
1 13 20 100 0.0233953
2 13 20 100 0.0151306
3 13 20 100 0.023142
4 13 20 100 0.0150691
5 13 20 100 0.0203047
6 13 20 100 0.0299439
7 13 20 100 0.0330203
8 13 20 100 0.0291235
9 13 20 100 0.0379759
10 13 20 100 0.0360911
11 13 20 100 0.0493595
12 13 20 100 0.0567133
13 13 20 100 0.0556929
14 13 20 100 0.0488145
15 13 20 100 0.0552434
16 13 20 100 0.0623979
17 13 20 100 0.0589244
18 13 20 100 0.0555914
19 13 20 100 0.0634285
20 13 20 100 0.0169851
0 14 20 100 0.164407
1 14 20 100 0.0269836
2 14 20 100 0.0144915
3 14 20 100 0.0172892
4 14 20 100 0.0141871
5 14 20 100 0.01817
6 14 20 100 0.0309673
7 14 20 100 0.0203404
8 14 20 100 0.0288152
9 14 20 100 0.0259306
10 14 20 100 0.0409986
11 14 20 100 0.065574
12 14 20 100 0.0600045
13 14 20 100 0.0576575
14 14 20 100 0.0526553
15 14 20 100 0.0721466
16 14 20 100 0.0623444
17 14 20 100 0.0766235
18 14 20 100 0.055584
19 14 20 100 0.0759714
20 14 20 100 0.0188577
0 15 20 100 0.198761
1 15 20 100 0.0281176
2 15 20 100 0.0139987
3 15 20 100 0.0138394
4 15 20 100 0.0165918
5 15 20 100 0.0256835
6 15 20 100 0.0270246
7 15 20 100 0.0226747
8 15 20 100 0.022461
9 15 20 100 0.0255678
10 15 20 100 0.0284792
11 15 20 100 0.041336
12 15 20 100 0.0467536
13 15 20 100 0.0550537
14 15 20 100 0.0481888
15 15 20 100 0.0757207
16 15 20 100 0.060177
17 15 20 100 0.0722775
18 15 20 100 0.0701342
19 15 20 100 0.0893463
20 15 20 100 0.0178122
0 16 20 100 0.2032
1 16 20 100 0.0183601
2 16 20 100 0.0179088
3 16 20 100 0.0144673
4 16 20 100 0.0122094
5 16 20 100 0.0163204
6 16 20 100 0.0207901
7 16 20 100 0.0263495
8 16 20 100 0.0240733
9 16 20 100 0.0190189
10 16 20 100 0.0361221
11 16 20 100 0.0465615
12 16 20 100 0.0421719
13 16 20 100 0.0475182
14 16 20 100 0.054531
15 16 20 100 0.0711756
16 16 20 100 0.0687265
17 16 20 100 0.0790277
18 16 20 100 0.0727361
19 16 20 100 0.0898166
20 16 20 100 0.0189151
0 17 20 100 0.189402
1 17 20 100 0.0129529
2 17 20 100 0.00893954
3 17 20 100 0.0163574
4 17 20 100 0.00971762
5 17 20 100 0.0223278
6 17 20 100 0.0312499
7 17 20 100 0.0159076
8 17 20 100 0.0180791
9 17 20 100 0.0201263
10 17 20 100 0.0354537
11 17 20 100 0.0370482
12 17 20 100 0.040363
13 17 20 100 0.0479475
14 17 20 100 0.0473486
15 17 20 100 0.0682733
16 17 20 100 0.0854158
17 17 20 100 0.0834709
18 17 20 100 0.0736936
19 17 20 100 0.117585
20 17 20 100 0.0183401
0 18 20 100 0.207299
1 18 20 100 0.0160417
2 18 20 100 0.0103835
3 18 20 100 0.0142557
4 18 20 100 0.00725641
5 18 20 100 0.0220192
6 18 20 100 0.0159086
7 18 20 100 0.0226014
8 18 20 100 0.0178992
9 18 20 100 0.026742
10 18 20 100 0.023988
11 18 20 100 0.0348141
12 18 20 100 0.0312217
13 18 20 100 0.0560023
14 18 20 100 0.0525077
15 18 20 100 0.066118
16 18 20 100 0.076517
17 18 20 100 0.0911082
18 18 20 100 0.0747023
19 18 20 100 0.113161
20 18 20 100 0.0194525
0 19 20 100 0.20828
1 19 20 100 0.0139322
2 19 20 100 0.00655954
3 19 20 100 0.0131736
4 19 20 100 0.00882408
5 19 20 100 0.026772
6 19 20 100 0.0156926
7 19 20 100 0.0201015
8 19 20 100 0.0213621
9 19 20 100 0.0328945
10 19 20 100 0.0343387
11 19 20 100 0.0345047
12 19 20 100 0.0352748
13 19 20 100 0.0408481
14 19 20 100 0.0488237
15 19 20 100 0.0558339
16 19 20 100 0.0829438
17 19 20 100 0.0790022
18 19 20 100 0.0682352
19 19 20 100 0.137292
20 19 20 100 0.0153111
0 20 20 100 0.185487
1 20 20 100 0.00822632
2 20 20 100 0.00568628
3 20 20 100 0.00567643
4 20 20 100 0.0112224
5 20 20 100 0.0306206
6 20 20 100 0.00560442
7 20 20 100 0.0141666
8 20 20 100 0.0280532
9 20 20 100 0.0144675
10 20 20 100 0.0289391
11 20 20 100 0.0697675
12 20 20 100 0.0252123
13 20 20 100 0.022402
14 20 20 100 0.0472068
15 20 20 100 0.0646387
16 20 20 100 0.0990321
17 20 20 100 0.102042
18 20 20 100 0.0653623
19 20 20 100 0.140859
20 20 20 100 0.0253286
0 21 20 100 0.176189
1 21 20 100 0.00375984
2 21 20 100 0.00384502
3 21 20 100 6.35214e-06
4 21 20 100 0.0113059
5 21 20 100 0.0300336
6 21 20 100 0.0225794
7 21 20 100 0.0186092
8 21 20 100 0.0153156
9 21 20 100 0.0189714
10 21 20 100 0.0150576
11 21 20 100 0.0503277
12 21 20 100 0.0476034
13 21 20 100 0.0558762
14 21 20 100 0.0308652
15 21 20 100 0.0668524
16 21 20 100 0.0484267
17 21 20 100 0.128061
18 21 20 100 0.106762
19 21 20 100 0.130489
20 21 20 100 0.0190633
0 22 20 100 0.169354
1 22 20 100 0.0117001
2 22 20 100 6.35396e-06
3 22 20 100 0.00590459
4 22 20 100 8.34266e-06
5 22 20 100 0.0120658
6 22 20 100 0.0175475
7 22 20 100 0.0174847
8 22 20 100 0.0235793
9 22 20 100 0.00584927
10 22 20 100 0.04144
11 22 20 100 0.029242
12 22 20 100 0.0170526
13 22 20 100 0.0876811
14 22 20 100 0.0235177
15 22 20 100 0.0651188
16 22 20 100 0.0883051
17 22 20 100 0.0933815
18 22 20 100 0.0822347
19 22 20 100 0.184321
20 22 20 100 0.0242057
0 23 20 100 0.236866
1 23 20 100 4.1073e-05
2 23 20 100 0.0197946
3 23 20 100 0.00990092
4 23 20 100 0.0197028
5 23 20 100 0.0197965
6 23 20 100 0.019562
7 23 20 100 0.009901
8 23 20 100 0.019802
9 23 20 100 0.00991255
10 23 20 100 0.0299651
11 23 20 100 0.0297222
12 23 20 100 0.0198028
13 23 20 100 0.0693777
14 23 20 100 0.00990574
15 23 20 100 0.0198059
16 23 20 100 0.0693122
17 23 20 100 0.0990948
18 23 20 100 0.118356
19 23 20 100 0.129949
20 23 20 100 0.0394291
0 24 20 100 0.167064
1 24 20 100 6.25075e-07
2 24 20 100 0.0166254
3 24 20 100 0.000434669
4 24 20 100 0.0168966
5 24 20 100 0.0164065
6 24 20 100 0.0437979
7 24 20 100 1.20936e-05
8 24 20 100 0.0053864
9 24 20 100 3.31921e-06
10 24 20 100 0.065428
11 24 20 100 0.0656147
12 24 20 100 0.016215
13 24 20 100 0.0655663
14 24 20 100 5.61476e-06
15 24 20 100 0.0459835
16 24 20 100 0.131128
17 24 20 100 0.0182107
18 24 20 100 0.114941
19 24 20 100 0.193671
20 24 20 100 0.0166094
0 25 20 100 0.137943
2 25 20 100 0.0344828
3 25 20 100 8.22102e-05
6 25 20 100 0.0689695
8 25 20 100 6.53207e-06
9 25 20 100 2.39396e-05
10 25 20 100 4.10815e-06
11 25 20 100 0.0689045
12 25 20 100 0.068896
13 25 20 100 0.103441
14 25 20 100 2.8312e-05
15 25 20 100 0.0344569
16 25 20 100 0.104474
17 25 20 100 0.103444
18 25 20 100 0.103425
19 25 20 100 0.171418
0 26 20 100 0.00568606
6 26 20 100 0.0769219
8 26 20 100 0.076923
9 26 20 100 1.49434e-05
11 26 20 100 0.230787
13 26 20 100 0.0769232
14 26 20 100 0.00126451
15 26 20 100 3.42918e-05
16 26 20 100 0.223804
17 26 20 100 0.0256267
18 26 20 100 0.051273
19 26 20 100 0.230741
0 27 20 100 0.200078
14 27 20 100 1.55416e-05
16 27 20 100 0.199889
18 27 20 100 0.257224
19 27 20 100 0.342776
20 27 20 100 1.72044e-05
0 28 20 100 0.203008
5 28 20 100 0.00703416
15 28 20 100 0.192964
16 28 20 100 0.2
19 28 20 100 0.396993
15 29 20 100 0.333335
18 29 20 100 0.33333
19 29 20 100 0.333335
0 1 21 100 0.0011729
1 1 21 100 0.536884
2 1 21 100 0.0838132
3 1 21 100 0.0615285
4 1 21 100 0.0451974
5 1 21 100 0.0349577
6 1 21 100 0.0353291
7 1 21 100 0.0243444
8 1 21 100 0.0136139
9 1 21 100 0.0230388
10 1 21 100 0.0188051
11 1 21 100 0.00746928
12 1 21 100 0.00969545
13 1 21 100 0.0153678
14 1 21 100 0.0127471
15 1 21 100 0.00824264
16 1 21 100 0.0139376
17 1 21 100 0.00937457
18 1 21 100 0.0133532
19 1 21 100 0.0129945
20 1 21 100 0.00947985
21 1 21 100 0.00865331
0 2 21 100 0.0959023
1 2 21 100 0.141982
2 2 21 100 0.228188
3 2 21 100 0.119516
4 2 21 100 0.0498183
5 2 21 100 0.0579192
6 2 21 100 0.0349414
7 2 21 100 0.0347018
8 2 21 100 0.0261295
9 2 21 100 0.0219348
10 2 21 100 0.0234061
11 2 21 100 0.0229019
12 2 21 100 0.010418
13 2 21 100 0.0183112
14 2 21 100 0.0170073
15 2 21 100 0.0100995
16 2 21 100 0.0141174
17 2 21 100 0.00896937
18 2 21 100 0.020244
19 2 21 100 0.0162891
20 2 21 100 0.0157854
21 2 21 100 0.0114174
0 3 21 100 0.182669
1 3 21 100 0.0614445
2 3 21 100 0.125326
3 3 21 100 0.146216
4 3 21 100 0.0975482
5 3 21 100 0.0636705
6 3 21 100 0.0531732
7 3 21 100 0.0415861
8 3 21 100 0.0206979
9 3 21 100 0.0177837
10 3 21 100 0.0247212
11 3 21 100 0.0188198
12 3 21 100 0.0159182
13 3 21 100 0.0137405
14 3 21 100 0.0128622
15 3 21 100 0.0171367
16 3 21 100 0.0176498
17 3 21 100 0.0122487
18 3 21 100 0.0192352
19 3 21 100 0.0173316
20 3 21 100 0.0142843
21 3 21 100 0.00593747
0 4 21 100 0.230705
1 4 21 100 0.0404969
2 4 21 100 0.0657599
3 4 21 100 0.113961
4 4 21 100 0.104307
5 4 21 100 0.0655346
6 4 21 100 0.0591462
7 4 21 100 0.0430986
8 4 21 100 0.0410412
9 4 21 100 0.0291394
10 4 21 100 0.0223079
11 4 21 100 0.0232341
12 4 21 100 0.0204131
13 4 21 100 0.0134773
14 4 21 100 0.0180764
15 4 21 100 0.0135757
16 4 21 100 0.0132103
17 4 21 100 0.0147899
18 4 21 100 0.0190149
19 4 21 100 0.0216302
20 4 21 100 0.0175772
21 4 21 100 0.00950342
0 5 21 100 0.211884
1 5 21 100 0.0388638
2 5 21 100 0.0499697
3 5 21 100 0.0821264
4 5 21 100 0.0922969
5 5 21 100 0.0719036
6 5 21 100 0.0771022
7 5 21 100 0.0553454
8 5 21 100 0.0371841
9 5 21 100 0.0400619
10 5 21 100 0.0350497
11 5 21 100 0.0224456
12 5 21 100 0.0281472
13 5 21 100 0.0159162
14 5 21 100 0.0112989
15 5 21 100 0.0139918
16 5 21 100 0.0188092
17 5 21 100 0.0202862
18 5 21 100 0.0204628
19 5 21 100 0.0237535
20 5 21 100 0.0194062
21 5 21 100 0.0136953
0 6 21 100 0.201554
1 6 21 100 0.034645
2 6 21 100 0.0379157
3 6 21 100 0.0632897
4 6 21 100 0.0730541
5 6 21 100 0.0782631
6 6 21 100 0.0765397
7 6 21 100 0.0619101
8 6 21 100 0.0555719
9 6 21 100 0.0449489
10 6 21 100 0.0331639
11 6 21 100 0.0370435
12 6 21 100 0.0184161
13 6 21 100 0.0225649
14 6 21 100 0.0181243
15 6 21 100 0.017163
16 6 21 100 0.0203518
17 6 21 100 0.0229451
18 6 21 100 0.0190794
19 6 21 100 0.0258521
20 6 21 100 0.0283783
21 6 21 100 0.00922565
0 7 21 100 0.214058
1 7 21 100 0.0330667
2 7 21 100 0.0313819
3 7 21 100 0.046451
4 7 21 100 0.0589421
5 7 21 100 0.0610044
6 7 21 100 0.0671198
7 7 21 100 0.0665462
8 7 21 100 0.0663501
9 7 21 100 0.0576343
10 7 21 100 0.0410581
11 7 21 100 0.0434934
12 7 21 100 0.0283412
13 7 21 100 0.0255773
14 7 21 100 0.0226555
15 7 21 100 0.0232393
16 7 21 100 0.0159384
17 7 21 100 0.0161073
18 7 21 100 0.0196416
19 7 21 100 0.0242591
20 7 21 100 0.0255724
21 7 21 100 0.0115621
0 8 21 100 0.209864
1 8 21 100 0.0384034
2 8 21 100 0.0210609
3 8 21 100 0.0422299
