1 1 100 1 1
1 2 100 1 1
1 3 100 1 1
1 4 100 1 1
1 5 100 1 1
1 6 100 1 1
1 7 100 1 1
1 0 100 2 0.000228758
2 0 100 2 0.999771
1 1 100 2 0.685087
2 1 100 2 0.314913
1 2 100 2 0.380572
2 2 100 2 0.619428
1 3 100 2 0.36863
2 3 100 2 0.63137
1 4 100 2 0.505106
2 4 100 2 0.494894
1 5 100 2 0.630157
2 5 100 2 0.369843
2 6 100 2 1
2 7 100 2 1
1 0 100 3 0.000511015
2 0 100 3 0.451643
3 0 100 3 0.547846
1 1 100 3 0.54066
2 1 100 3 0.25385
3 1 100 3 0.20549
1 2 100 3 0.456514
2 2 100 3 0.31447
3 2 100 3 0.229016
1 3 100 3 0.244614
2 3 100 3 0.326159
3 3 100 3 0.429227
1 4 100 3 0.281836
2 4 100 3 0.37575
3 4 100 3 0.342414
1 5 100 3 0.276316
2 5 100 3 0.389465
3 5 100 3 0.334219
1 6 100 3 0.362886
2 6 100 3 0.441187
3 6 100 3 0.195927
1 7 100 3 0.593584
2 7 100 3 0.405831
3 7 100 3 0.000585316
1 8 100 3 0.332764
2 8 100 3 0.332712
3 8 100 3 0.334524
1 9 100 3 0.499852
2 9 100 3 0.499855
3 9 100 3 0.000292581
1 0 100 4 0.000692607
2 0 100 4 0.0674149
3 0 100 4 0.186899
4 0 100 4 0.744994
1 1 100 4 0.626091
2 1 100 4 0.154186
3 1 100 4 0.128451
4 1 100 4 0.0912727
1 2 100 4 0.314367
2 2 100 4 0.381534
3 2 100 4 0.183548
4 2 100 4 0.120552
1 3 100 4 0.139532
2 3 100 4 0.34031
3 3 100 4 0.331546
4 3 100 4 0.188612
1 4 100 4 0.159921
2 4 100 4 0.319581
3 4 100 4 0.361174
4 4 100 4 0.159323
1 5 100 4 0.15112
2 5 100 4 0.302016
3 5 100 4 0.388516
4 5 100 4 0.158348
1 6 100 4 0.177473
2 6 100 4 0.305919
3 6 100 4 0.38959
4 6 100 4 0.127018
1 7 100 4 0.223944
2 7 100 4 0.288946
3 7 100 4 0.396001
4 7 100 4 0.0911088
1 8 100 4 0.351539
2 8 100 4 0.235982
3 8 100 4 0.390755
4 8 100 4 0.0217243
1 9 100 4 0.31989
2 9 100 4 0.249451
3 9 100 4 0.213546
4 9 100 4 0.217114
1 0 100 5 0.000337693
2 0 100 5 0.0646582
3 0 100 5 0.0633343
4 0 100 5 0.117354
5 0 100 5 0.754316
1 1 100 5 0.614617
2 1 100 5 0.126883
3 1 100 5 0.0968638
4 1 100 5 0.0942131
5 1 100 5 0.067423
1 2 100 5 0.272191
2 2 100 5 0.353444
3 2 100 5 0.182336
4 2 100 5 0.123555
5 2 100 5 0.068474
1 3 100 5 0.113781
2 3 100 5 0.28531
3 3 100 5 0.289795
4 3 100 5 0.218333
5 3 100 5 0.0927799
1 4 100 5 0.096186
2 4 100 5 0.212806
3 4 100 5 0.297756
4 4 100 5 0.299003
5 4 100 5 0.0942489
1 5 100 5 0.100282
2 5 100 5 0.196649
3 5 100 5 0.286005
4 5 100 5 0.314564
5 5 100 5 0.1025
1 6 100 5 0.103362
2 6 100 5 0.204164
3 6 100 5 0.278438
4 6 100 5 0.320711
5 6 100 5 0.0933257
1 7 100 5 0.127614
2 7 100 5 0.216125
3 7 100 5 0.253021
4 7 100 5 0.304898
5 7 100 5 0.0983415
1 8 100 5 0.152349
2 8 100 5 0.220004
3 8 100 5 0.278533
4 8 100 5 0.282016
5 8 100 5 0.0670975
1 9 100 5 0.199721
2 9 100 5 0.162613
3 9 100 5 0.260536
4 9 100 5 0.301141
5 9 100 5 0.0759886
1 10 100 5 0.25125
2 10 100 5 0.173743
3 10 100 5 0.251323
4 10 100 5 0.233713
5 10 100 5 0.0899712
1 11 100 5 0.000169423
2 11 100 5 0.266539
3 11 100 5 0.239221
4 11 100 5 0.267682
5 11 100 5 0.226388
1 0 100 6 0.000884677
2 0 100 6 0.0612331
3 0 100 6 0.0682737
4 0 100 6 0.0829206
5 0 100 6 0.0919502
6 0 100 6 0.694738
1 1 100 6 0.601433
2 1 100 6 0.109153
3 1 100 6 0.0831977
4 1 100 6 0.0741614
5 1 100 6 0.078873
6 1 100 6 0.0531822
1 2 100 6 0.226368
2 2 100 6 0.320307
3 2 100 6 0.169341
4 2 100 6 0.13368
5 2 100 6 0.0975934
6 2 100 6 0.0527114
1 3 100 6 0.0923563
2 3 100 6 0.242031
3 3 100 6 0.241067
4 3 100 6 0.195123
5 3 100 6 0.180145
6 3 100 6 0.0492775
1 4 100 6 0.0767158
2 4 100 6 0.17298
3 4 100 6 0.23734
4 4 100 6 0.237009
5 4 100 6 0.206788
6 4 100 6 0.0691669
1 5 100 6 0.0774769
2 5 100 6 0.151333
3 5 100 6 0.212664
4 5 100 6 0.237992
5 5 100 6 0.253226
6 5 100 6 0.0673081
1 6 100 6 0.0783696
2 6 100 6 0.160158
3 6 100 6 0.209073
4 6 100 6 0.232371
5 6 100 6 0.257698
6 6 100 6 0.0623299
1 7 100 6 0.0805048
2 7 100 6 0.16046
3 7 100 6 0.198062
4 7 100 6 0.23701
5 7 100 6 0.263298
6 7 100 6 0.0606656
1 8 100 6 0.101643
2 8 100 6 0.166092
3 8 100 6 0.191193
4 8 100 6 0.221714
5 8 100 6 0.257159
6 8 100 6 0.0621994
1 9 100 6 0.108895
2 9 100 6 0.143511
3 9 100 6 0.199401
4 9 100 6 0.215729
5 9 100 6 0.272582
6 9 100 6 0.0598815
1 10 100 6 0.0904557
2 10 100 6 0.157935
3 10 100 6 0.217039
4 10 100 6 0.198131
5 10 100 6 0.294207
6 10 100 6 0.0422324
1 11 100 6 0.119379
2 11 100 6 0.11351
3 11 100 6 0.224307
4 11 100 6 0.182182
5 11 100 6 0.326488
6 11 100 6 0.0341349
1 12 100 6 0.175585
2 12 100 6 0.0929283
3 12 100 6 0.263398
4 12 100 6 0.26338
5 12 100 6 0.134645
6 12 100 6 0.070064
1 0 100 7 0.000728769
2 0 100 7 0.0755122
3 0 100 7 0.0565551
4 0 100 7 0.0668548
5 0 100 7 0.0950672
6 0 100 7 0.0779193
7 0 100 7 0.627363
1 1 100 7 0.584897
2 1 100 7 0.0968553
3 1 100 7 0.0740662
4 1 100 7 0.0679121
5 1 100 7 0.0605027
6 1 100 7 0.0687357
7 1 100 7 0.0470313
1 2 100 7 0.223795
2 2 100 7 0.303512
3 2 100 7 0.160391
4 2 100 7 0.105693
5 2 100 7 0.0947995
6 2 100 7 0.0738451
7 2 100 7 0.0379636
1 3 100 7 0.0841216
2 3 100 7 0.202689
3 3 100 7 0.221954
4 3 100 7 0.176007
5 3 100 7 0.150565
6 3 100 7 0.131997
7 3 100 7 0.0326666
1 4 100 7 0.0692183
2 4 100 7 0.137788
3 4 100 7 0.205122
4 4 100 7 0.208528
5 4 100 7 0.173552
6 4 100 7 0.162009
7 4 100 7 0.0437821
1 5 100 7 0.0641181
2 5 100 7 0.126
3 5 100 7 0.172757
4 5 100 7 0.199087
5 5 100 7 0.193703
6 5 100 7 0.197351
7 5 100 7 0.0469827
1 6 100 7 0.0645721
2 6 100 7 0.119383
3 6 100 7 0.164239
4 6 100 7 0.193671
5 6 100 7 0.197336
6 6 100 7 0.210573
7 6 100 7 0.0502261
1 7 100 7 0.068704
2 7 100 7 0.125643
3 7 100 7 0.158506
4 7 100 7 0.17826
5 7 100 7 0.199321
6 7 100 7 0.222569
7 7 100 7 0.046998
1 8 100 7 0.0623088
2 8 100 7 0.124173
3 8 100 7 0.151102
4 8 100 7 0.178575
5 8 100 7 0.199971
6 8 100 7 0.236218
7 8 100 7 0.0476523
1 9 100 7 0.0724404
2 9 100 7 0.116475
3 9 100 7 0.157136
4 9 100 7 0.179305
5 9 100 7 0.197947
6 9 100 7 0.23276
7 9 100 7 0.043937
1 10 100 7 0.0850049
2 10 100 7 0.123734
3 10 100 7 0.162432
4 10 100 7 0.176958
5 10 100 7 0.1781
6 10 100 7 0.235967
7 10 100 7 0.0378046
1 11 100 7 0.0906605
2 11 100 7 0.12796
3 11 100 7 0.147013
4 11 100 7 0.185141
5 11 100 7 0.185001
6 11 100 7 0.223392
7 11 100 7 0.0408333
1 12 100 7 0.118384
2 12 100 7 0.170359
3 12 100 7 0.154349
4 12 100 7 0.143744
5 12 100 7 0.153203
6 12 100 7 0.192845
7 12 100 7 0.0671149
1 13 100 7 0.209803
2 13 100 7 0.179147
3 13 100 7 0.164678
4 13 100 7 0.000171409
5 13 100 7 0.163732
6 13 100 7 0.280691
7 13 100 7 0.00177744
1 14 100 7 0.170407
2 14 100 7 0.147793
3 14 100 7 0.170427
4 14 100 7 0.170426
5 14 100 7 0.170519
6 14 100 7 0.170426
7 14 100 7 2.64533e-06
2 15 100 7 0.0640528
7 15 100 7 0.935947
7 16 100 7 1
7 17 100 7 1
1 0 100 8 0.000966188
2 0 100 8 0.0681174
3 0 100 8 0.0563324
4 0 100 8 0.0764837
5 0 100 8 0.0722104
6 0 100 8 0.0947504
7 0 100 8 0.0677391
8 0 100 8 0.563401
1 1 100 8 0.565258
2 1 100 8 0.0929497
3 1 100 8 0.0689983
4 1 100 8 0.0622645
5 1 100 8 0.0594924
6 1 100 8 0.052599
7 1 100 8 0.0582035
8 1 100 8 0.0402342
1 2 100 8 0.191007
2 2 100 8 0.285318
3 2 100 8 0.145101
4 2 100 8 0.10102
5 2 100 8 0.0872876
6 2 100 8 0.0883371
7 2 100 8 0.0712127
8 2 100 8 0.030716
1 3 100 8 0.0735482
2 3 100 8 0.17306
3 3 100 8 0.209544
4 3 100 8 0.15266
5 3 100 8 0.127401
6 3 100 8 0.118071
7 3 100 8 0.122783
8 3 100 8 0.0229318
1 4 100 8 0.0602817
2 4 100 8 0.123012
3 4 100 8 0.175883
4 4 100 8 0.180978
5 4 100 8 0.154206
6 4 100 8 0.137027
7 4 100 8 0.135059
8 4 100 8 0.0335536
1 5 100 8 0.0617899
2 5 100 8 0.10918
3 5 100 8 0.144482
4 5 100 8 0.162422
5 5 100 8 0.169168
6 5 100 8 0.157441
7 5 100 8 0.151895
8 5 100 8 0.0436208
1 6 100 8 0.0607123
2 6 100 8 0.10542
3 6 100 8 0.137455
4 6 100 8 0.150059
5 6 100 8 0.173072
6 6 100 8 0.161984
7 6 100 8 0.174258
8 6 100 8 0.0370379
1 7 100 8 0.0564707
2 7 100 8 0.0979334
3 7 100 8 0.136524
4 7 100 8 0.151851
5 7 100 8 0.174069
6 7 100 8 0.167999
7 7 100 8 0.180446
8 7 100 8 0.0347072
1 8 100 8 0.0554575
2 8 100 8 0.095858
3 8 100 8 0.125544
4 8 100 8 0.14537
5 8 100 8 0.165015
6 8 100 8 0.175805
7 8 100 8 0.20007
8 8 100 8 0.03688
1 9 100 8 0.0467036
2 9 100 8 0.0943699
3 9 100 8 0.119642
4 9 100 8 0.152028
5 9 100 8 0.168609
6 9 100 8 0.181017
7 9 100 8 0.204711
8 9 100 8 0.0329195
1 10 100 8 0.0548663
2 10 100 8 0.105607
3 10 100 8 0.130426
4 10 100 8 0.137234
5 10 100 8 0.155437
6 10 100 8 0.172084
7 10 100 8 0.209499
8 10 100 8 0.0348461
1 11 100 8 0.0753832
2 11 100 8 0.103489
3 11 100 8 0.135179
4 11 100 8 0.147091
5 11 100 8 0.150684
6 11 100 8 0.165446
7 11 100 8 0.199187
8 11 100 8 0.0235398
1 12 100 8 0.0578943
2 12 100 8 0.100125
3 12 100 8 0.111085
4 12 100 8 0.124088
5 12 100 8 0.173747
6 12 100 8 0.172737
7 12 100 8 0.224476
8 12 100 8 0.0358481
1 13 100 8 0.102778
2 13 100 8 0.0880914
3 13 100 8 0.132523
4 13 100 8 0.141854
5 13 100 8 0.119794
6 13 100 8 0.150432
7 13 100 8 0.227295
8 13 100 8 0.0372331
1 14 100 8 0.00375683
2 14 100 8 0.0781592
3 14 100 8 0.0735575
4 14 100 8 0.195953
5 14 100 8 0.123016
6 14 100 8 0.228979
7 14 100 8 0.233377
8 14 100 8 0.0632021
1 15 100 8 5.59079e-06
2 15 100 8 0.0924318
3 15 100 8 0.105366
4 15 100 8 0.210914
5 15 100 8 0.202711
6 15 100 8 0.18762
7 15 100 8 0.0951298
8 15 100 8 0.105822
1 0 100 9 0.000925087
2 0 100 9 0.0603558
3 0 100 9 0.0564534
4 0 100 9 0.0850038
5 0 100 9 0.0763754
6 0 100 9 0.0617492
7 0 100 9 0.0859409
8 0 100 9 0.0655876
9 0 100 9 0.507609
1 1 100 9 0.541606
2 1 100 9 0.0905992
3 1 100 9 0.0652733
4 1 100 9 0.0574542
5 1 100 9 0.056999
6 1 100 9 0.0502189
7 1 100 9 0.0458154
8 1 100 9 0.0549145
9 1 100 9 0.0371191
1 2 100 9 0.190787
2 2 100 9 0.267226
3 2 100 9 0.132264
4 2 100 9 0.0889826
5 2 100 9 0.0822568
6 2 100 9 0.0790818
7 2 100 9 0.0750701
8 2 100 9 0.0602582
9 2 100 9 0.0240737
1 3 100 9 0.0705986
2 3 100 9 0.162805
3 3 100 9 0.190792
4 3 100 9 0.135769
5 3 100 9 0.1093
6 3 100 9 0.109365
7 3 100 9 0.100611
8 3 100 9 0.099374
9 3 100 9 0.021386
1 4 100 9 0.0618179
2 4 100 9 0.11263
3 4 100 9 0.16027
4 4 100 9 0.149329
5 4 100 9 0.137765
6 4 100 9 0.12075
7 4 100 9 0.11548
8 4 100 9 0.113236
9 4 100 9 0.0287222
1 5 100 9 0.0625863
2 5 100 9 0.0990264
3 5 100 9 0.129956
4 5 100 9 0.146221
5 5 100 9 0.146304
6 5 100 9 0.136448
7 5 100 9 0.12609
8 5 100 9 0.126718
9 5 100 9 0.0266512
1 6 100 9 0.054198
2 6 100 9 0.0893136
3 6 100 9 0.114163
4 6 100 9 0.136267
5 6 100 9 0.145519
6 6 100 9 0.155817
7 6 100 9 0.140766
8 6 100 9 0.135443
9 6 100 9 0.0285126
1 7 100 9 0.0541335
2 7 100 9 0.0889757
3 7 100 9 0.11035
4 7 100 9 0.123251
5 7 100 9 0.1438
6 7 100 9 0.154057
7 7 100 9 0.144423
8 7 100 9 0.149603
9 7 100 9 0.0314054
1 8 100 9 0.0453838
2 8 100 9 0.0873094
3 8 100 9 0.112609
4 8 100 9 0.121114
5 8 100 9 0.136739
6 8 100 9 0.152629
7 8 100 9 0.151973
8 8 100 9 0.159718
9 8 100 9 0.0325242
1 9 100 9 0.0433681
2 9 100 9 0.0801688
3 9 100 9 0.105357
4 9 100 9 0.114612
5 9 100 9 0.132338
6 9 100 9 0.148977
7 9 100 9 0.159679
8 9 100 9 0.185538
9 9 100 9 0.0299622
1 10 100 9 0.0491662
2 10 100 9 0.0850239
3 10 100 9 0.111534
4 10 100 9 0.115652
5 10 100 9 0.126734
6 10 100 9 0.154534
7 10 100 9 0.151154
8 10 100 9 0.18433
9 10 100 9 0.0218718
1 11 100 9 0.0548308
2 11 100 9 0.0924301
3 11 100 9 0.10905
4 11 100 9 0.109517
5 11 100 9 0.129249
6 11 100 9 0.143964
7 11 100 9 0.152996
8 11 100 9 0.17841
9 11 100 9 0.0295527
1 12 100 9 0.0584697
2 12 100 9 0.0977703
3 12 100 9 0.105667
4 12 100 9 0.119849
5 12 100 9 0.110819
6 12 100 9 0.146647
7 12 100 9 0.15617
8 12 100 9 0.184435
9 12 100 9 0.0201733
1 13 100 9 0.066689
2 13 100 9 0.083343
3 13 100 9 0.0920756
4 13 100 9 0.125605
5 13 100 9 0.118139
6 13 100 9 0.130595
7 13 100 9 0.149543
8 13 100 9 0.20175
9 13 100 9 0.0322599
1 14 100 9 0.0286694
2 14 100 9 0.0676757
3 14 100 9 0.107923
4 14 100 9 0.107361
5 14 100 9 0.133782
6 14 100 9 0.163966
7 14 100 9 0.162744
8 14 100 9 0.198998
9 14 100 9 0.0288813
1 15 100 9 0.0415573
2 15 100 9 0.0766289
3 15 100 9 0.116062
4 15 100 9 0.0695811
5 15 100 9 0.076173
6 15 100 9 0.155195
7 15 100 9 0.170096
8 15 100 9 0.253623
9 15 100 9 0.0410847
4 16 100 9 0.000239852
8 16 100 9 0.944415
9 16 100 9 0.0553448
2 17 100 9 0.00394747
8 17 100 9 0.993199
9 17 100 9 0.00285329
1 0 100 10 0.000830364
2 0 100 10 0.0522957
3 0 100 10 0.0567962
4 0 100 10 0.0781297
5 0 100 10 0.0883588
6 0 100 10 0.0693803
7 0 100 10 0.0569498
8 0 100 10 0.077195
9 0 100 10 0.0593176
10 0 100 10 0.460747
1 1 100 10 0.529397
2 1 100 10 0.0934698
3 1 100 10 0.0616646
4 1 100 10 0.060156
5 1 100 10 0.0556939
6 1 100 10 0.0494682
7 1 100 10 0.0456989
8 1 100 10 0.0372877
9 1 100 10 0.0422856
10 1 100 10 0.0248786
1 2 100 10 0.166487
2 2 100 10 0.256111
3 2 100 10 0.122915
4 2 100 10 0.0864628
5 2 100 10 0.067407
6 2 100 10 0.0715638
7 2 100 10 0.0689033
8 2 100 10 0.0754985
9 2 100 10 0.0581452
10 2 100 10 0.0265059
1 3 100 10 0.0638176
2 3 100 10 0.151588
3 3 100 10 0.181505
4 3 100 10 0.122888
5 3 100 10 0.0961636
6 3 100 10 0.0877436
7 3 100 10 0.0943748
8 3 100 10 0.0892692
9 3 100 10 0.0915899
10 3 100 10 0.0210609
1 4 100 10 0.059624
2 4 100 10 0.100791
3 4 100 10 0.147151
4 4 100 10 0.139228
5 4 100 10 0.119923
6 4 100 10 0.107666
7 4 100 10 0.100532
8 4 100 10 0.0989389
9 4 100 10 0.0982797
10 4 100 10 0.0278658
1 5 100 10 0.0621512
2 5 100 10 0.0861918
3 5 100 10 0.121251
4 5 100 10 0.13053
5 5 100 10 0.127078
6 5 100 10 0.127227
7 5 100 10 0.113089
8 5 100 10 0.103658
9 5 100 10 0.107505
10 5 100 10 0.0213178
1 6 100 10 0.0568526
2 6 100 10 0.0857508
3 6 100 10 0.10257
4 6 100 10 0.124211
5 6 100 10 0.133123
6 6 100 10 0.126057
7 6 100 10 0.125258
8 6 100 10 0.114145
9 6 100 10 0.1095
10 6 100 10 0.0225324
1 7 100 10 0.0521963
2 7 100 10 0.0795374
3 7 100 10 0.0945478
4 7 100 10 0.108977
5 7 100 10 0.128579
6 7 100 10 0.138538
7 7 100 10 0.132529
8 7 100 10 0.118961
9 7 100 10 0.121483
10 7 100 10 0.0246519
1 8 100 10 0.0476039
2 8 100 10 0.0748369
3 8 100 10 0.0895634
4 8 100 10 0.0998144
5 8 100 10 0.109236
6 8 100 10 0.131687
7 8 100 10 0.15045
8 8 100 10 0.132064
9 8 100 10 0.136766
10 8 100 10 0.0279781
1 9 100 10 0.0351873
2 9 100 10 0.0699399
3 9 100 10 0.0894117
4 9 100 10 0.0965937
5 9 100 10 0.10619
6 9 100 10 0.130362
7 9 100 10 0.144731
8 9 100 10 0.148866
9 9 100 10 0.153814
10 9 100 10 0.0249038
1 10 100 10 0.0443095
2 10 100 10 0.0726965
3 10 100 10 0.0965224
4 10 100 10 0.0970952
5 10 100 10 0.10779
6 10 100 10 0.124069
7 10 100 10 0.13267
8 10 100 10 0.137755
9 10 100 10 0.161347
10 10 100 10 0.0257465
1 11 100 10 0.0392096
2 11 100 10 0.0651503
3 11 100 10 0.0805681
4 11 100 10 0.0931518
5 11 100 10 0.102257
6 11 100 10 0.117501
7 11 100 10 0.145983
8 11 100 10 0.150508
9 11 100 10 0.181749
10 11 100 10 0.023922
1 12 100 10 0.0471153
2 12 100 10 0.0706121
3 12 100 10 0.0843435
4 12 100 10 0.0892073
5 12 100 10 0.0952778
6 12 100 10 0.110573
7 12 100 10 0.138292
8 12 100 10 0.146574
9 12 100 10 0.191885
10 12 100 10 0.0261189
1 13 100 10 0.0497509
2 13 100 10 0.0842602
3 13 100 10 0.0896759
4 13 100 10 0.0871677
5 13 100 10 0.0993474
6 13 100 10 0.111755
7 13 100 10 0.130768
8 13 100 10 0.138486
9 13 100 10 0.182804
10 13 100 10 0.0259844
1 14 100 10 0.0651245
2 14 100 10 0.0901277
3 14 100 10 0.0901935
4 14 100 10 0.101845
5 14 100 10 0.0899995
6 14 100 10 0.100482
7 14 100 10 0.134336
8 14 100 10 0.155019
9 14 100 10 0.150272
10 14 100 10 0.0226003
1 15 100 10 0.0392268
2 15 100 10 0.0553758
3 15 100 10 0.0634802
4 15 100 10 0.105728
5 15 100 10 0.0668984
6 15 100 10 0.0910111
7 15 100 10 0.132142
8 15 100 10 0.201739
9 15 100 10 0.205045
10 15 100 10 0.0393541
1 16 100 10 0.0450446
2 16 100 10 0.0448081
3 16 100 10 0.0146775
4 16 100 10 0.0985896
5 16 100 10 0.173679
6 16 100 10 0.0451095
7 16 100 10 0.176279
8 16 100 10 0.133694
9 16 100 10 0.223316
10 16 100 10 0.0448033
1 17 100 10 4.73724e-06
4 17 100 10 1.33722e-06
5 17 100 10 0.000124955
6 17 100 10 0.2008
7 17 100 10 0.189886
8 17 100 10 0.200801
9 17 100 10 0.401902
10 17 100 10 0.00648038
2 18 100 10 0.00045105
3 18 100 10 0.148376
4 18 100 10 0.113655
5 18 100 10 0.148471
6 18 100 10 0.146488
7 18 100 10 0.148376
8 18 100 10 0.144947
9 18 100 10 0.148376
10 18 100 10 0.000858603
1 19 100 10 6.15652e-06
5 19 100 10 0.000118561
10 19 100 10 0.999875
1 0 100 11 0.000760692
2 0 100 11 0.0481675
3 0 100 11 0.052117
4 0 100 11 0.0688392
5 0 100 11 0.0855743
6 0 100 11 0.0885725
7 0 100 11 0.0611904
8 0 100 11 0.0532583
9 0 100 11 0.0682262
10 0 100 11 0.0539071
11 0 100 11 0.419387
1 1 100 11 0.505152
2 1 100 11 0.0899274
3 1 100 11 0.0592983
4 1 100 11 0.0539872
5 1 100 11 0.0536164
6 1 100 11 0.0470498
7 1 100 11 0.0464386
8 1 100 11 0.0406104
9 1 100 11 0.0381264
10 1 100 11 0.0433726
11 1 100 11 0.0224213
1 2 100 11 0.167274
2 2 100 11 0.239613
3 2 100 11 0.120704
4 2 100 11 0.0801433
5 2 100 11 0.068072
6 2 100 11 0.0650281
7 2 100 11 0.0656445
8 2 100 11 0.061555
9 2 100 11 0.0589865
10 2 100 11 0.0504112
11 2 100 11 0.0225682
1 3 100 11 0.0625072
2 3 100 11 0.157507
3 3 100 11 0.166904
4 3 100 11 0.119036
5 3 100 11 0.085878
6 3 100 11 0.0765868
7 3 100 11 0.0772756
8 3 100 11 0.0817908
9 3 100 11 0.0792514
10 3 100 11 0.0765499
11 3 100 11 0.0167133
1 4 100 11 0.0539011
2 4 100 11 0.0953389
3 4 100 11 0.138477
4 4 100 11 0.131876
5 4 100 11 0.114112
6 4 100 11 0.0903715
7 4 100 11 0.0883803
8 4 100 11 0.0887806
9 4 100 11 0.0912993
10 4 100 11 0.0885593
11 4 100 11 0.0189043
1 5 100 11 0.0548178
2 5 100 11 0.0873331
3 5 100 11 0.112651
4 5 100 11 0.121235
5 5 100 11 0.115987
6 5 100 11 0.110336
7 5 100 11 0.0998575
8 5 100 11 0.0979547
9 5 100 11 0.0867477
10 5 100 11 0.0910037
11 5 100 11 0.0220756
1 6 100 11 0.0520047
2 6 100 11 0.07587
3 6 100 11 0.0884918
4 6 100 11 0.107766
5 6 100 11 0.121468
6 6 100 11 0.12051
7 6 100 11 0.114938
8 6 100 11 0.105894
9 6 100 11 0.0984747
10 6 100 11 0.0984954
11 6 100 11 0.016089
1 7 100 11 0.0518792
2 7 100 11 0.071715
3 7 100 11 0.0897978
4 7 100 11 0.0999403
5 7 100 11 0.104514
6 7 100 11 0.118051
7 7 100 11 0.12512
8 7 100 11 0.117148
9 7 100 11 0.102725
10 7 100 11 0.0984168
11 7 100 11 0.0206924
1 8 100 11 0.0472225
2 8 100 11 0.0632096
3 8 100 11 0.0792798
4 8 100 11 0.0903517
5 8 100 11 0.0974496
6 8 100 11 0.109954
7 8 100 11 0.131563
8 8 100 11 0.126854
9 8 100 11 0.117375
10 8 100 11 0.11515
11 8 100 11 0.0215904
1 9 100 11 0.0382123
2 9 100 11 0.0628702
3 9 100 11 0.0764602
4 9 100 11 0.0873374
5 9 100 11 0.088478
6 9 100 11 0.104275
7 9 100 11 0.120849
8 9 100 11 0.135354
9 9 100 11 0.127665
10 9 100 11 0.132061
11 9 100 11 0.0264376
1 10 100 11 0.0406854
2 10 100 11 0.0613239
3 10 100 11 0.0778516
4 10 100 11 0.0875713
5 10 100 11 0.0950573
6 10 100 11 0.0853316
7 10 100 11 0.112156
8 10 100 11 0.128742
9 10 100 11 0.135077
10 10 100 11 0.147683
11 10 100 11 0.0285215
1 11 100 11 0.0387129
2 11 100 11 0.0663181
3 11 100 11 0.0835589
4 11 100 11 0.0863658
5 11 100 11 0.0857271
6 11 100 11 0.0971744
7 11 100 11 0.108791
8 11 100 11 0.120533
9 11 100 11 0.133494
10 11 100 11 0.156864
11 11 100 11 0.0224604
1 12 100 11 0.0357737
2 12 100 11 0.057097
3 12 100 11 0.071712
4 12 100 11 0.077191
5 12 100 11 0.0797475
6 12 100 11 0.0872223
7 12 100 11 0.116329
8 12 100 11 0.13231
9 12 100 11 0.14832
10 12 100 11 0.164395
11 12 100 11 0.0299024
1 13 100 11 0.0437807
2 13 100 11 0.0683227
3 13 100 11 0.0843054
4 13 100 11 0.0847733
5 13 100 11 0.0847398
6 13 100 11 0.0905645
7 13 100 11 0.100472
8 13 100 11 0.126094
9 13 100 11 0.134346
10 13 100 11 0.162349
11 13 100 11 0.0202523
1 14 100 11 0.0354019
2 14 100 11 0.0628018
3 14 100 11 0.0890579
4 14 100 11 0.0732652
5 14 100 11 0.0593575
6 14 100 11 0.0897589
7 14 100 11 0.106545
8 14 100 11 0.144998
9 14 100 11 0.138679
10 14 100 11 0.177935
11 14 100 11 0.0221995
1 15 100 11 0.0547177
2 15 100 11 0.068293
3 15 100 11 0.0710862
4 15 100 11 0.0870337
5 15 100 11 0.0938016
6 15 100 11 0.0892749
7 15 100 11 0.0974031
8 15 100 11 0.123755
9 15 100 11 0.10746
10 15 100 11 0.172408
11 15 100 11 0.0347672
1 16 100 11 0.0020767
2 16 100 11 0.0111573
3 16 100 11 0.0536847
4 16 100 11 0.0899178
5 16 100 11 0.103737
6 16 100 11 0.110075
7 16 100 11 0.110952
8 16 100 11 0.130901
9 16 100 11 0.173393
10 16 100 11 0.211135
11 16 100 11 0.00297045
1 17 100 11 0.0263714
2 17 100 11 0.0555835
3 17 100 11 0.0962255
4 17 100 11 0.0921324
5 17 100 11 0.102691
6 17 100 11 0.104271
7 17 100 11 0.142272
8 17 100 11 0.0023028
9 17 100 11 0.139867
10 17 100 11 0.182124
11 17 100 11 0.0561597
1 18 100 11 5.15821e-06
2 18 100 11 3.43211e-07
4 18 100 11 0.16891
5 18 100 11 0.164812
6 18 100 11 0.164313
7 18 100 11 0.164826
8 18 100 11 0.161144
9 18 100 11 0.164821
10 18 100 11 0.00167251
11 18 100 11 0.00949611
1 19 100 11 0.143242
2 19 100 11 0.143194
3 19 100 11 0.143287
4 19 100 11 0.143287
5 19 100 11 0.142977
8 19 100 11 1.15475e-06
9 19 100 11 0.140725
10 19 100 11 0.143287
1 0 100 12 0.00105005
2 0 100 12 0.045811
3 0 100 12 0.0456146
4 0 100 12 0.061398
5 0 100 12 0.0789534
6 0 100 12 0.0875241
7 0 100 12 0.0743561
8 0 100 12 0.0543642
9 0 100 12 0.0446526
10 0 100 12 0.0676143
11 0 100 12 0.0584976
12 0 100 12 0.380164
1 1 100 12 0.499564
2 1 100 12 0.0972022
3 1 100 12 0.0619291
4 1 100 12 0.0526829
5 1 100 12 0.0487421
6 1 100 12 0.0428568
7 1 100 12 0.0408816
8 1 100 12 0.0395395
9 1 100 12 0.0345326
10 1 100 12 0.0290137
11 1 100 12 0.0330217
12 1 100 12 0.0200338
1 2 100 12 0.161752
2 2 100 12 0.244566
3 2 100 12 0.118314
4 2 100 12 0.0718819
5 2 100 12 0.0575118
6 2 100 12 0.0578817
7 2 100 12 0.0542603
8 2 100 12 0.0547001
9 2 100 12 0.0576528
10 2 100 12 0.0553323
11 2 100 12 0.0442929
12 2 100 12 0.0218533
1 3 100 12 0.0553974
2 3 100 12 0.134079
3 3 100 12 0.163817
4 3 100 12 0.113328
5 3 100 12 0.0873174
6 3 100 12 0.0728972
7 3 100 12 0.0753209
8 3 100 12 0.0724774
9 3 100 12 0.0726501
10 3 100 12 0.0682519
11 3 100 12 0.0668956
12 3 100 12 0.0175684
1 4 100 12 0.0514007
2 4 100 12 0.0860666
3 4 100 12 0.128231
4 4 100 12 0.1329
5 4 100 12 0.105384
6 4 100 12 0.0849227
7 4 100 12 0.0779368
8 4 100 12 0.0742238
9 4 100 12 0.0816989
10 4 100 12 0.0818411
11 4 100 12 0.0734567
12 4 100 12 0.0219372
1 5 100 12 0.0511454
2 5 100 12 0.072252
3 5 100 12 0.102066
4 5 100 12 0.117668
5 5 100 12 0.113982
6 5 100 12 0.102571
7 5 100 12 0.0921138
8 5 100 12 0.084769
9 5 100 12 0.0827111
10 5 100 12 0.0825618
11 5 100 12 0.0798411
12 5 100 12 0.0183191
1 6 100 12 0.0463958
2 6 100 12 0.0710798
3 6 100 12 0.0859074
4 6 100 12 0.100933
5 6 100 12 0.104277
6 6 100 12 0.110968
7 6 100 12 0.108704
8 6 100 12 0.0977316
9 6 100 12 0.0901502
10 6 100 12 0.084458
11 6 100 12 0.0844581
12 6 100 12 0.0149356
1 7 100 12 0.0408368
2 7 100 12 0.0632885
3 7 100 12 0.0798217
4 7 100 12 0.0897147
5 7 100 12 0.0978061
6 7 100 12 0.103954
7 7 100 12 0.107414
8 7 100 12 0.109641
9 7 100 12 0.100668
10 7 100 12 0.093435
11 7 100 12 0.091726
12 7 100 12 0.0216938
1 8 100 12 0.0413389
2 8 100 12 0.057943
3 8 100 12 0.0732352
4 8 100 12 0.0829509
5 8 100 12 0.0878697
6 8 100 12 0.101407
7 8 100 12 0.114339
8 8 100 12 0.12082
9 8 100 12 0.113395
10 8 100 12 0.0955923
11 8 100 12 0.0926946
12 8 100 12 0.0184141
1 9 100 12 0.0421154
2 9 100 12 0.0599076
3 9 100 12 0.0703188
4 9 100 12 0.076808
5 9 100 12 0.0839628
6 9 100 12 0.0886165
7 9 100 12 0.101644
8 9 100 12 0.120487
9 9 100 12 0.115761
10 9 100 12 0.113533
11 9 100 12 0.106131
12 9 100 12 0.0207157
1 10 100 12 0.0328103
2 10 100 12 0.0547903
3 10 100 12 0.0721959
4 10 100 12 0.0701204
5 10 100 12 0.0836057
6 10 100 12 0.0788148
7 10 100 12 0.0974343
8 10 100 12 0.118856
9 10 100 12 0.127242
10 10 100 12 0.111395
11 10 100 12 0.12847
12 10 100 12 0.0242646
1 11 100 12 0.0350958
2 11 100 12 0.0548725
3 11 100 12 0.0666401
4 11 100 12 0.0747871
5 11 100 12 0.0764059
6 11 100 12 0.0821651
7 11 100 12 0.0965619
8 11 100 12 0.110284
9 11 100 12 0.128961
10 11 100 12 0.117041
11 11 100 12 0.134584
12 11 100 12 0.0226008
1 12 100 12 0.0413791
2 12 100 12 0.0647161
3 12 100 12 0.0660195
4 12 100 12 0.0764721
5 12 100 12 0.0764506
6 12 100 12 0.078019
7 12 100 12 0.0792252
8 12 100 12 0.101299
9 12 100 12 0.117997
10 12 100 12 0.129524
11 12 100 12 0.144441
12 12 100 12 0.0244576
1 13 100 12 0.0278749
2 13 100 12 0.0525205
3 13 100 12 0.0673252
4 13 100 12 0.0709238
5 13 100 12 0.0796697
6 13 100 12 0.0741055
7 13 100 12 0.0871058
8 13 100 12 0.0972356
9 13 100 12 0.126858
10 13 100 12 0.137317
11 13 100 12 0.160748
12 13 100 12 0.0183163
1 14 100 12 0.0363206
2 14 100 12 0.0468663
3 14 100 12 0.062117
4 14 100 12 0.0673981
5 14 100 12 0.0662875
6 14 100 12 0.0766958
7 14 100 12 0.0814726
8 14 100 12 0.113712
9 14 100 12 0.131422
10 14 100 12 0.125985
11 14 100 12 0.165212
12 14 100 12 0.026511
1 15 100 12 0.0333361
2 15 100 12 0.0439542
3 15 100 12 0.0600205
4 15 100 12 0.0697257
5 15 100 12 0.057649
6 15 100 12 0.064245
7 15 100 12 0.0750429
8 15 100 12 0.119632
9 15 100 12 0.137074
10 15 100 12 0.140699
11 15 100 12 0.174413
12 15 100 12 0.02421
1 16 100 12 0.0403628
2 16 100 12 0.0652579
3 16 100 12 0.0736879
4 16 100 12 0.0772903
5 16 100 12 0.0741866
6 16 100 12 0.0738273
7 16 100 12 0.0848484
8 16 100 12 0.10206
9 16 100 12 0.124576
10 16 100 12 0.119712
11 16 100 12 0.154248
12 16 100 12 0.00994225
1 17 100 12 0.0200693
2 17 100 12 0.0634062
3 17 100 12 0.0747591
4 17 100 12 0.073191
5 17 100 12 0.047875
6 17 100 12 0.0984572
7 17 100 12 0.0658657
8 17 100 12 0.110109
9 17 100 12 0.137879
10 17 100 12 0.146699
11 17 100 12 0.147554
12 17 100 12 0.0141361
1 18 100 12 0.00147082
2 18 100 12 6.89618e-05
3 18 100 12 0.11944
4 18 100 12 0.11355
5 18 100 12 0.118853
6 18 100 12 0.118756
7 18 100 12 0.0608258
8 18 100 12 0.116929
9 18 100 12 0.119527
10 18 100 12 0.119526
11 18 100 12 0.0959805
12 18 100 12 0.0150727
1 19 100 12 3.38564e-05
2 19 100 12 4.77042e-07
3 19 100 12 1.65886e-05
7 19 100 12 0.112223
8 19 100 12 0.107522
9 19 100 12 0.104497
10 19 100 12 0.228308
11 19 100 12 0.428476
12 19 100 12 0.0189224
1 20 100 12 0.00596443
4 20 100 12 0.000282603
9 20 100 12 0.782012
11 20 100 12 0.211741
8 21 100 12 0.499607
10 21 100 12 0.499607
12 21 100 12 0.000785301
1 22 100 12 0.114371
2 22 100 12 0.114201
3 22 100 12 0.112427
4 22 100 12 0.114371
5 22 100 12 0.0961938
6 22 100 12 0.114371
7 22 100 12 0.114371
8 22 100 12 2.18718e-07
9 22 100 12 0.114371
10 22 100 12 2.18718e-07
11 22 100 12 0.105323
1 0 100 13 0.00190812
2 0 100 13 0.0428641
3 0 100 13 0.0449625
4 0 100 13 0.0552229
5 0 100 13 0.0694616
6 0 100 13 0.0830901
7 0 100 13 0.0791166
8 0 100 13 0.071797
9 0 100 13 0.0457189
10 0 100 13 0.0464414
11 0 100 13 0.0620434
12 0 100 13 0.055679
13 0 100 13 0.341694
1 1 100 13 0.495049
2 1 100 13 0.0975593
3 1 100 13 0.0557081
4 1 100 13 0.046152
5 1 100 13 0.0430906
6 1 100 13 0.0403047
7 1 100 13 0.0365854
8 1 100 13 0.0382291
9 1 100 13 0.0348915
10 1 100 13 0.033473
11 1 100 13 0.0305173
12 1 100 13 0.0309363
13 1 100 13 0.0175039
1 2 100 13 0.157531
2 2 100 13 0.235185
3 2 100 13 0.115045
4 2 100 13 0.0669262
5 2 100 13 0.0551341
6 2 100 13 0.0509184
7 2 100 13 0.0497307
8 2 100 13 0.0496582
9 2 100 13 0.0495215
10 2 100 13 0.048726
11 2 100 13 0.0515633
12 2 100 13 0.0433024
13 2 100 13 0.0267583
1 3 100 13 0.0602954
2 3 100 13 0.13392
3 3 100 13 0.16194
4 3 100 13 0.113496
5 3 100 13 0.078058
6 3 100 13 0.0682156
7 3 100 13 0.064876
8 3 100 13 0.0556908
9 3 100 13 0.060294
10 3 100 13 0.0624192
11 3 100 13 0.0620038
12 3 100 13 0.058634
13 3 100 13 0.020156
1 4 100 13 0.0496106
2 4 100 13 0.09027
3 4 100 13 0.130076
4 4 100 13 0.128463
5 4 100 13 0.103204
6 4 100 13 0.0789871
7 4 100 13 0.0681849
8 4 100 13 0.0655004
9 4 100 13 0.0644518
10 4 100 13 0.0684182
11 4 100 13 0.0672336
12 4 100 13 0.0639342
13 4 100 13 0.0216666
1 5 100 13 0.0506082
2 5 100 13 0.074428
3 5 100 13 0.0954206
4 5 100 13 0.109654
5 5 100 13 0.108107
6 5 100 13 0.097037
7 5 100 13 0.0793274
8 5 100 13 0.0716093
9 5 100 13 0.0773157
10 5 100 13 0.0776567
11 5 100 13 0.0706707
12 5 100 13 0.0676924
13 5 100 13 0.020474
1 6 100 13 0.0430797
2 6 100 13 0.0617541
3 6 100 13 0.0838595
4 6 100 13 0.0900328
5 6 100 13 0.104384
6 6 100 13 0.102079
7 6 100 13 0.0943861
8 6 100 13 0.0904167
9 6 100 13 0.0817255
10 6 100 13 0.0791575
11 6 100 13 0.0771365
12 6 100 13 0.0769458
13 6 100 13 0.0150426
1 7 100 13 0.0413706
2 7 100 13 0.0582147
3 7 100 13 0.0761603
4 7 100 13 0.0845577
5 7 100 13 0.0908908
6 7 100 13 0.0950014
7 7 100 13 0.109675
8 7 100 13 0.100435
9 7 100 13 0.0896618
10 7 100 13 0.0787036
11 7 100 13 0.0780156
12 7 100 13 0.0741594
13 7 100 13 0.0231542
1 8 100 13 0.0399673
2 8 100 13 0.0538497
3 8 100 13 0.0641515
4 8 100 13 0.0751369
5 8 100 13 0.080272
6 8 100 13 0.0882195
7 8 100 13 0.0989613
8 8 100 13 0.103347
9 8 100 13 0.115838
10 8 100 13 0.101425
11 8 100 13 0.0776931
12 8 100 13 0.0811369
13 8 100 13 0.0200022
1 9 100 13 0.0352283
2 9 100 13 0.0518656
3 9 100 13 0.0640035
4 9 100 13 0.0710847
5 9 100 13 0.0773044
6 9 100 13 0.0837024
7 9 100 13 0.0924547
8 9 100 13 0.0971624
9 9 100 13 0.113842
10 9 100 13 0.106691
11 9 100 13 0.0979447
12 9 100 13 0.089521
13 9 100 13 0.0191955
1 10 100 13 0.031801
2 10 100 13 0.0448158
3 10 100 13 0.0596543
4 10 100 13 0.0729094
5 10 100 13 0.0757052
6 10 100 13 0.0834059
7 10 100 13 0.0853923
8 10 100 13 0.0974022
9 10 100 13 0.107248
10 10 100 13 0.112128
11 10 100 13 0.104932
12 10 100 13 0.104805
13 10 100 13 0.0198009
1 11 100 13 0.0250684
2 11 100 13 0.0442111
3 11 100 13 0.0588039
4 11 100 13 0.0719427
5 11 100 13 0.0782225
6 11 100 13 0.0618434
7 11 100 13 0.0822299
8 11 100 13 0.0966944
9 11 100 13 0.110526
10 11 100 13 0.111345
11 11 100 13 0.115013
12 11 100 13 0.121826
13 11 100 13 0.0222732
1 12 100 13 0.0294662
2 12 100 13 0.0503916
3 12 100 13 0.0555028
4 12 100 13 0.065669
5 12 100 13 0.0660064
6 12 100 13 0.0749321
7 12 100 13 0.0793799
8 12 100 13 0.0892714
9 12 100 13 0.114092
10 12 100 13 0.114285
11 12 100 13 0.112368
12 12 100 13 0.129805
13 12 100 13 0.0188299
1 13 100 13 0.0324761
2 13 100 13 0.0455997
3 13 100 13 0.0544753
4 13 100 13 0.0676795
5 13 100 13 0.0642231
6 13 100 13 0.0606631
7 13 100 13 0.0766614
8 13 100 13 0.0818554
9 13 100 13 0.106696
10 13 100 13 0.12563
11 13 100 13 0.124369
12 13 100 13 0.131896
13 13 100 13 0.0277751
1 14 100 13 0.029847
2 14 100 13 0.0369167
3 14 100 13 0.0500522
4 14 100 13 0.0606722
5 14 100 13 0.0650484
6 14 100 13 0.0658855
7 14 100 13 0.0594498
8 14 100 13 0.0815514
9 14 100 13 0.108242
10 14 100 13 0.124078
11 14 100 13 0.125446
12 14 100 13 0.163895
13 14 100 13 0.0289161
1 15 100 13 0.0404177
2 15 100 13 0.0465783
3 15 100 13 0.0547896
4 15 100 13 0.0712473
5 15 100 13 0.0708415
6 15 100 13 0.0718827
7 15 100 13 0.0760384
8 15 100 13 0.0817935
9 15 100 13 0.0889415
10 15 100 13 0.113106
11 15 100 13 0.11425
12 15 100 13 0.142115
13 15 100 13 0.0279991
1 16 100 13 0.0408823
2 16 100 13 0.0575556
3 16 100 13 0.0600222
4 16 100 13 0.0730217
5 16 100 13 0.0702171
6 16 100 13 0.0752476
7 16 100 13 0.0665265
8 16 100 13 0.0843986
9 16 100 13 0.0726371
10 16 100 13 0.0989688
11 16 100 13 0.127548
12 16 100 13 0.144845
13 16 100 13 0.0281302
1 17 100 13 0.0347297
2 17 100 13 0.0392646
3 17 100 13 0.0740704
4 17 100 13 0.069965
5 17 100 13 0.0785209
6 17 100 13 0.0804632
7 17 100 13 0.0721885
8 17 100 13 0.0686803
9 17 100 13 0.0967106
10 17 100 13 0.118174
11 17 100 13 0.0926615
12 17 100 13 0.157934
13 17 100 13 0.0166368
1 18 100 13 0.0326852
2 18 100 13 0.0487885
3 18 100 13 0.0658949
4 18 100 13 0.0637252
5 18 100 13 0.0439656
6 18 100 13 0.0804235
7 18 100 13 0.0666737
8 18 100 13 0.125675
9 18 100 13 0.120604
10 18 100 13 0.112027
11 18 100 13 0.0723539
12 18 100 13 0.13186
13 18 100 13 0.0353232
1 19 100 13 0.0852104
2 19 100 13 0.0619344
3 19 100 13 0.000903428
5 19 100 13 1.36527e-07
6 19 100 13 8.29809e-06
7 19 100 13 5.65618e-06
8 19 100 13 9.96045e-05
9 19 100 13 0.0628501
10 19 100 13 0.0789857
11 19 100 13 0.265684
12 19 100 13 0.44245
13 19 100 13 0.00186802
1 20 100 13 7.38098e-06
2 20 100 13 0.0932562
3 20 100 13 0.0661482
4 20 100 13 0.0661313
5 20 100 13 7.35879e-05
6 20 100 13 0.0639567
7 20 100 13 0.0609836
8 20 100 13 0.0661654
9 20 100 13 0.0965208
10 20 100 13 0.132311
11 20 100 13 0.19723
12 20 100 13 0.15706
13 20 100 13 0.000155984
3 21 100 13 0.00299548
5 21 100 13 5.08762e-05
8 21 100 13 0.496355
9 21 100 13 0.493212
10 21 100 13 0.00335161
12 21 100 13 2.21104e-05
13 21 100 13 0.00401338
4 22 100 13 2.03317e-05
10 22 100 13 0.147148
11 22 100 13 0.426372
12 22 100 13 0.426375
13 22 100 13 8.49352e-05
1 0 100 14 0.00138023
2 0 100 14 0.038726
3 0 100 14 0.0437603
4 0 100 14 0.0513018
5 0 100 14 0.0621981
6 0 100 14 0.0739253
7 0 100 14 0.0803517
8 0 100 14 0.0742005
9 0 100 14 0.0575112
10 0 100 14 0.0441961
11 0 100 14 0.0416618
12 0 100 14 0.0623479
13 0 100 14 0.0579706
14 0 100 14 0.310468
1 1 100 14 0.455035
2 1 100 14 0.0975345
3 1 100 14 0.0627392
4 1 100 14 0.0533466
5 1 100 14 0.04575
6 1 100 14 0.0450672
7 1 100 14 0.0353903
8 1 100 14 0.036729
9 1 100 14 0.0386696
10 1 100 14 0.0328588
11 1 100 14 0.0307044
12 1 100 14 0.0260486
13 1 100 14 0.0245862
14 1 100 14 0.0155401
1 2 100 14 0.149991
2 2 100 14 0.228679
3 2 100 14 0.103839
4 2 100 14 0.0677272
5 2 100 14 0.0588806
6 2 100 14 0.0544394
7 2 100 14 0.0487685
8 2 100 14 0.0459266
9 2 100 14 0.045158
10 2 100 14 0.0471477
11 2 100 14 0.0421013
12 2 100 14 0.043124
13 2 100 14 0.0370586
14 2 100 14 0.0271594
1 3 100 14 0.060779
2 3 100 14 0.120212
3 3 100 14 0.148869
4 3 100 14 0.109202
5 3 100 14 0.0843307
6 3 100 14 0.0706821
7 3 100 14 0.0567138
8 3 100 14 0.0596882
9 3 100 14 0.0588482
10 3 100 14 0.0555111
11 3 100 14 0.0556761
12 3 100 14 0.0487402
13 3 100 14 0.052921
14 3 100 14 0.0178264
1 4 100 14 0.047956
2 4 100 14 0.0707339
3 4 100 14 0.123842
4 4 100 14 0.114198
5 4 100 14 0.097152
6 4 100 14 0.0768155
7 4 100 14 0.0683628
8 4 100 14 0.0634905
9 4 100 14 0.0653548
10 4 100 14 0.0633531
11 4 100 14 0.0670472
12 4 100 14 0.0632389
13 4 100 14 0.0566575
14 4 100 14 0.0217973
1 5 100 14 0.0484014
2 5 100 14 0.0729843
3 5 100 14 0.0856665
4 5 100 14 0.103647
5 5 100 14 0.10436
6 5 100 14 0.0967655
7 5 100 14 0.0813663
8 5 100 14 0.0627392
9 5 100 14 0.065334
10 5 100 14 0.0691878
11 5 100 14 0.0636552
12 5 100 14 0.061576
13 5 100 14 0.0641947
14 5 100 14 0.0201222
1 6 100 14 0.0418188
2 6 100 14 0.0655725
3 6 100 14 0.0750864
4 6 100 14 0.0887621
5 6 100 14 0.0990894
6 6 100 14 0.0987073
7 6 100 14 0.0966155
8 6 100 14 0.0798452
9 6 100 14 0.0748663
10 6 100 14 0.067106
11 6 100 14 0.0730509
12 6 100 14 0.0627073
13 6 100 14 0.0588224
14 6 100 14 0.0179498
1 7 100 14 0.0372673
2 7 100 14 0.0538827
3 7 100 14 0.0744911
4 7 100 14 0.0814493
5 7 100 14 0.0854156
6 7 100 14 0.08203
7 7 100 14 0.0940204
8 7 100 14 0.094758
9 7 100 14 0.087252
10 7 100 14 0.0796121
11 7 100 14 0.0761536
12 7 100 14 0.0712484
13 7 100 14 0.0689264
14 7 100 14 0.013493
1 8 100 14 0.0414939
2 8 100 14 0.0570652
3 8 100 14 0.0626933
4 8 100 14 0.0773647
5 8 100 14 0.0812612
6 8 100 14 0.0791639
7 8 100 14 0.0853844
8 8 100 14 0.0970094
9 8 100 14 0.0917667
10 8 100 14 0.0881604
11 8 100 14 0.0827429
12 8 100 14 0.0715579
13 8 100 14 0.0649774
14 8 100 14 0.0193589
1 9 100 14 0.0400284
2 9 100 14 0.0531034
3 9 100 14 0.0550242
4 9 100 14 0.0583835
5 9 100 14 0.0689876
6 9 100 14 0.0755533
7 9 100 14 0.0822743
8 9 100 14 0.0884442
9 9 100 14 0.093225
10 9 100 14 0.102847
11 9 100 14 0.0942647
12 9 100 14 0.0868472
13 9 100 14 0.0769031
14 9 100 14 0.0241146
1 10 100 14 0.0274658
2 10 100 14 0.0481967
3 10 100 14 0.0579264
4 10 100 14 0.0657839
5 10 100 14 0.0616365
6 10 100 14 0.0699068
7 10 100 14 0.0702604
8 10 100 14 0.0845748
9 10 100 14 0.0985323
10 10 100 14 0.105409
11 10 100 14 0.100207
12 10 100 14 0.0958096
13 10 100 14 0.0932752
14 10 100 14 0.0210158
1 11 100 14 0.0349809
2 11 100 14 0.0386325
3 11 100 14 0.0552832
4 11 100 14 0.0586155
5 11 100 14 0.0598029
6 11 100 14 0.0664972
7 11 100 14 0.0707096
8 11 100 14 0.0843926
9 11 100 14 0.0940046
10 11 100 14 0.0995113
11 11 100 14 0.106737
12 11 100 14 0.105055
13 11 100 14 0.103824
14 11 100 14 0.0219534
1 12 100 14 0.0242654
2 12 100 14 0.0396871
3 12 100 14 0.0484999
4 12 100 14 0.0548992
5 12 100 14 0.0593632
6 12 100 14 0.0615782
7 12 100 14 0.0689008
8 12 100 14 0.0755329
9 12 100 14 0.0858874
10 12 100 14 0.110698
11 12 100 14 0.117652
12 12 100 14 0.108187
13 12 100 14 0.123365
14 12 100 14 0.021484
1 13 100 14 0.0231766
2 13 100 14 0.0306332
3 13 100 14 0.0461678
4 13 100 14 0.052682
5 13 100 14 0.0542833
6 13 100 14 0.0590929
7 13 100 14 0.060166
8 13 100 14 0.0734661
9 13 100 14 0.0932429
10 13 100 14 0.108272
11 13 100 14 0.120526
12 13 100 14 0.116103
13 13 100 14 0.135715
14 13 100 14 0.0264731
1 14 100 14 0.0303035
2 14 100 14 0.0457638
3 14 100 14 0.0513854
4 14 100 14 0.0593138
5 14 100 14 0.0620954
6 14 100 14 0.0597927
7 14 100 14 0.0605139
8 14 100 14 0.0683487
9 14 100 14 0.0861474
10 14 100 14 0.102199
11 14 100 14 0.110648
12 14 100 14 0.111105
13 14 100 14 0.127595
14 14 100 14 0.0247879
1 15 100 14 0.0352739
2 15 100 14 0.046037
3 15 100 14 0.0538264
4 15 100 14 0.0578497
5 15 100 14 0.0558208
6 15 100 14 0.0549078
7 15 100 14 0.0524342
8 15 100 14 0.0615431
9 15 100 14 0.0757704
10 15 100 14 0.087993
11 15 100 14 0.129477
12 15 100 14 0.129083
13 15 100 14 0.139688
14 15 100 14 0.020296
1 16 100 14 0.0266488
2 16 100 14 0.0242041
3 16 100 14 0.0426506
4 16 100 14 0.0526535
5 16 100 14 0.0436913
6 16 100 14 0.0469442
7 16 100 14 0.0612759
8 16 100 14 0.055212
9 16 100 14 0.0873762
10 16 100 14 0.108051
11 16 100 14 0.120721
12 16 100 14 0.124992
13 16 100 14 0.186278
14 16 100 14 0.0193016
1 17 100 14 0.0145257
2 17 100 14 0.0401473
3 17 100 14 0.0511248
4 17 100 14 0.0589063
5 17 100 14 0.0730008
6 17 100 14 0.0495352
7 17 100 14 0.0657758
8 17 100 14 0.0715059
9 17 100 14 0.0780596
10 17 100 14 0.0987046
11 17 100 14 0.0904317
12 17 100 14 0.140257
13 17 100 14 0.14763
14 17 100 14 0.0203947
1 18 100 14 0.027469
2 18 100 14 0.0350731
3 18 100 14 0.0633002
4 18 100 14 0.065062
5 18 100 14 0.0462095
6 18 100 14 0.0569946
7 18 100 14 0.0679965
8 18 100 14 0.0850867
9 18 100 14 0.0953241
10 18 100 14 0.102605
11 18 100 14 0.093614
12 18 100 14 0.0893395
13 18 100 14 0.150404
14 18 100 14 0.0215216
1 19 100 14 0.0313141
2 19 100 14 0.0521841
3 19 100 14 0.0643675
4 19 100 14 0.0542624
5 19 100 14 0.0522286
6 19 100 14 0.0525357
7 19 100 14 0.0923033
8 19 100 14 0.0837393
9 19 100 14 0.0527004
10 19 100 14 0.094329
11 19 100 14 0.131222
12 19 100 14 0.129555
13 19 100 14 0.1068
14 19 100 14 0.00245841
1 20 100 14 0.0126234
2 20 100 14 0.0843081
3 20 100 14 0.0947527
4 20 100 14 0.0826603
5 20 100 14 0.0448087
6 20 100 14 0.0562554
7 20 100 14 0.0561999
8 20 100 14 0.0613419
9 20 100 14 0.0934294
10 20 100 14 0.11256
11 20 100 14 0.0565099
12 20 100 14 0.096109
13 20 100 14 0.142766
14 20 100 14 0.00567499
1 21 100 14 0.0710136
2 21 100 14 0.000338166
3 21 100 14 0.0631255
4 21 100 14 0.0698179
5 21 100 14 0.0695202
6 21 100 14 0.0696765
7 21 100 14 0.0697249
8 21 100 14 0.0688459
9 21 100 14 0.139186
10 21 100 14 9.61161e-06
11 21 100 14 0.130318
12 21 100 14 0.10896
13 21 100 14 0.069429
14 21 100 14 0.0700348
2 22 100 14 0.0719896
3 22 100 14 0.0719953
5 22 100 14 0.0713201
6 22 100 14 0.071327
7 22 100 14 0.143802
8 22 100 14 0.0248441
9 22 100 14 0.071995
10 22 100 14 0.143981
11 22 100 14 0.14399
12 22 100 14 7.36198e-05
13 22 100 14 0.112735
14 22 100 14 0.0719472
14 23 100 14 1
1 0 100 15 0.00167555
2 0 100 15 0.0377377
3 0 100 15 0.0440709
4 0 100 15 0.0470643
5 0 100 15 0.0584389
6 0 100 15 0.0676005
7 0 100 15 0.0692388
8 0 100 15 0.0730276
9 0 100 15 0.0656015
10 0 100 15 0.0579105
11 0 100 15 0.044898
12 0 100 15 0.0404091
13 0 100 15 0.0534329
14 0 100 15 0.0510458
15 0 100 15 0.287848
1 1 100 15 0.472453
2 1 100 15 0.103902
3 1 100 15 0.0550007
4 1 100 15 0.0533819
5 1 100 15 0.0456222
6 1 100 15 0.0330132
7 1 100 15 0.0345931
8 1 100 15 0.0316686
9 1 100 15 0.0278617
10 1 100 15 0.0307456
11 1 100 15 0.0293247
12 1 100 15 0.0275276
13 1 100 15 0.0230082
14 1 100 15 0.0189741
15 1 100 15 0.0129237
1 2 100 15 0.138284
2 2 100 15 0.219309
3 2 100 15 0.113648
4 2 100 15 0.071205
5 2 100 15 0.0542835
6 2 100 15 0.0487874
7 2 100 15 0.0450568
8 2 100 15 0.0430634
9 2 100 15 0.0389901
10 2 100 15 0.039392
11 2 100 15 0.0393769
12 2 100 15 0.040936
13 2 100 15 0.0443503
14 2 100 15 0.0373718
15 2 100 15 0.0259458
1 3 100 15 0.0581856
2 3 100 15 0.118732
3 3 100 15 0.142321
4 3 100 15 0.105865
5 3 100 15 0.0845061
6 3 100 15 0.0644699
7 3 100 15 0.0592113
8 3 100 15 0.0528351
9 3 100 15 0.0493579
10 3 100 15 0.0502078
11 3 100 15 0.0482837
12 3 100 15 0.0525048
13 3 100 15 0.0463234
14 3 100 15 0.0488914
15 3 100 15 0.0183045
1 4 100 15 0.043915
2 4 100 15 0.0815329
3 4 100 15 0.112751
4 4 100 15 0.120428
5 4 100 15 0.0916683
6 4 100 15 0.0777622
7 4 100 15 0.0639322
8 4 100 15 0.0544247
9 4 100 15 0.0596067
10 4 100 15 0.0620469
11 4 100 15 0.0558904
12 4 100 15 0.0533199
13 4 100 15 0.0534761
14 4 100 15 0.0502365
15 4 100 15 0.0190093
1 5 100 15 0.047822
2 5 100 15 0.0674503
3 5 100 15 0.094177
4 5 100 15 0.108161
5 5 100 15 0.0959524
6 5 100 15 0.0874026
7 5 100 15 0.0827418
8 5 100 15 0.0600112
9 5 100 15 0.0600051
10 5 100 15 0.0585439
11 5 100 15 0.0560038
12 5 100 15 0.0579353
13 5 100 15 0.0512853
14 5 100 15 0.0545787
15 5 100 15 0.01793
1 6 100 15 0.0423536
2 6 100 15 0.0696976
3 6 100 15 0.0753765
4 6 100 15 0.0856489
5 6 100 15 0.0979848
6 6 100 15 0.0909107
7 6 100 15 0.0822122
8 6 100 15 0.0717688
9 6 100 15 0.0646594
10 6 100 15 0.0596625
11 6 100 15 0.0627572
12 6 100 15 0.0585636
13 6 100 15 0.0614009
14 6 100 15 0.0605657
15 6 100 15 0.0164377
1 7 100 15 0.0369871
2 7 100 15 0.0478775
3 7 100 15 0.0624882
4 7 100 15 0.0737134
5 7 100 15 0.0784338
6 7 100 15 0.0920197
7 7 100 15 0.0898499
8 7 100 15 0.095383
9 7 100 15 0.0822927
10 7 100 15 0.0655956
11 7 100 15 0.0641825
12 7 100 15 0.0704466
13 7 100 15 0.0640936
14 7 100 15 0.0612946
15 7 100 15 0.015342
1 8 100 15 0.0397513
2 8 100 15 0.0453208
3 8 100 15 0.0561549
4 8 100 15 0.0668731
5 8 100 15 0.0780161
6 8 100 15 0.0846064
7 8 100 15 0.0926557
8 8 100 15 0.0889002
9 8 100 15 0.0850579
10 8 100 15 0.0787504
11 8 100 15 0.0707003
12 8 100 15 0.0735663
13 8 100 15 0.0647787
14 8 100 15 0.0596328
15 8 100 15 0.0152351
1 9 100 15 0.0322516
2 9 100 15 0.0430428
3 9 100 15 0.0492269
4 9 100 15 0.0544645
5 9 100 15 0.0660676
6 9 100 15 0.0723729
7 9 100 15 0.0785978
8 9 100 15 0.0857024
9 9 100 15 0.09154
10 9 100 15 0.0903792
11 9 100 15 0.0934175
12 9 100 15 0.0767811
13 9 100 15 0.0749627
14 9 100 15 0.071777
15 9 100 15 0.019416
1 10 100 15 0.0342228
2 10 100 15 0.0425396
3 10 100 15 0.0472144
4 10 100 15 0.055687
5 10 100 15 0.0594461
6 10 100 15 0.0718958
7 10 100 15 0.0729866
8 10 100 15 0.0732964
9 10 100 15 0.0860904
10 10 100 15 0.0905755
11 10 100 15 0.0954899
12 10 100 15 0.0852057
13 10 100 15 0.0816306
14 10 100 15 0.0807439
15 10 100 15 0.0229755
1 11 100 15 0.0284352
2 11 100 15 0.0432767
3 11 100 15 0.0505624
4 11 100 15 0.0449827
5 11 100 15 0.054461
6 11 100 15 0.0526562
7 11 100 15 0.0628173
8 11 100 15 0.0747915
9 11 100 15 0.0912893
10 11 100 15 0.096524
11 11 100 15 0.108045
12 11 100 15 0.0957433
13 11 100 15 0.0864787
14 11 100 15 0.0870984
15 11 100 15 0.0228387
1 12 100 15 0.0265455
2 12 100 15 0.033655
3 12 100 15 0.0440884
4 12 100 15 0.049655
5 12 100 15 0.0529832
6 12 100 15 0.0565866
7 12 100 15 0.0553379
8 12 100 15 0.0603364
9 12 100 15 0.0792688
10 12 100 15 0.093269
11 12 100 15 0.105274
12 12 100 15 0.113521
13 12 100 15 0.107197
14 12 100 15 0.101611
15 12 100 15 0.0206711
1 13 100 15 0.0245786
2 13 100 15 0.0312571
3 13 100 15 0.0479702
4 13 100 15 0.0546906
5 13 100 15 0.0491465
6 13 100 15 0.0539188
7 13 100 15 0.0590083
8 13 100 15 0.0670932
9 13 100 15 0.0727384
10 13 100 15 0.0876625
11 13 100 15 0.097612
12 13 100 15 0.106429
13 13 100 15 0.109638
14 13 100 15 0.117015
15 13 100 15 0.0212428
1 14 100 15 0.0216167
2 14 100 15 0.0253741
3 14 100 15 0.0451087
4 14 100 15 0.0474026
5 14 100 15 0.0536803
6 14 100 15 0.0593696
7 14 100 15 0.0574645
8 14 100 15 0.0674532
9 14 100 15 0.0699255
10 14 100 15 0.0828625
11 14 100 15 0.0968492
12 14 100 15 0.118763
13 14 100 15 0.110789
14 14 100 15 0.117142
15 14 100 15 0.0261991
1 15 100 15 0.0211264
2 15 100 15 0.027352
3 15 100 15 0.03278
4 15 100 15 0.0433508
5 15 100 15 0.049525
6 15 100 15 0.049556
7 15 100 15 0.0541882
8 15 100 15 0.0661176
9 15 100 15 0.0771407
10 15 100 15 0.0914962
11 15 100 15 0.109063
12 15 100 15 0.116702
13 15 100 15 0.103459
14 15 100 15 0.131232
15 15 100 15 0.0269109
1 16 100 15 0.0295617
2 16 100 15 0.0441617
3 16 100 15 0.0528721
4 16 100 15 0.048872
5 16 100 15 0.0457433
6 16 100 15 0.0472989
7 16 100 15 0.0534002
8 16 100 15 0.0648003
9 16 100 15 0.0691082
10 16 100 15 0.0808254
11 16 100 15 0.0843815
12 16 100 15 0.104889
13 16 100 15 0.117495
14 16 100 15 0.131304
15 16 100 15 0.0252867
1 17 100 15 0.0471977
2 17 100 15 0.0454486
3 17 100 15 0.0564279
4 17 100 15 0.0625419
5 17 100 15 0.0524544
6 17 100 15 0.0460008
7 17 100 15 0.0454818
8 17 100 15 0.0571153
9 17 100 15 0.049777
10 17 100 15 0.0693081
11 17 100 15 0.0739479
12 17 100 15 0.092892
13 17 100 15 0.120142
14 17 100 15 0.151715
15 17 100 15 0.0295503
1 18 100 15 0.0379383
2 18 100 15 0.0431809
3 18 100 15 0.0442221
4 18 100 15 0.0505534
5 18 100 15 0.0534654
6 18 100 15 0.0386541
7 18 100 15 0.0461899
8 18 100 15 0.065477
9 18 100 15 0.054772
10 18 100 15 0.0585144
11 18 100 15 0.0931438
12 18 100 15 0.108232
13 18 100 15 0.128348
14 18 100 15 0.146753
15 18 100 15 0.0305551
1 19 100 15 0.0408294
2 19 100 15 0.045466
3 19 100 15 0.0265669
4 19 100 15 0.0418673
5 19 100 15 0.0574278
6 19 100 15 0.048065
7 19 100 15 0.0515673
8 19 100 15 0.0317774
9 19 100 15 0.0745107
10 19 100 15 0.0708275
11 19 100 15 0.103844
12 19 100 15 0.109954
13 19 100 15 0.116085
14 19 100 15 0.16786
15 19 100 15 0.0133504
1 20 100 15 0.0222515
2 20 100 15 0.0367569
3 20 100 15 0.0193713
4 20 100 15 0.0685519
5 20 100 15 0.0583721
6 20 100 15 0.00222607
7 20 100 15 0.0630328
8 20 100 15 0.0405486
9 20 100 15 0.0572551
10 20 100 15 0.0819689
11 20 100 15 0.0758883
12 20 100 15 0.0972498
13 20 100 15 0.186479
14 20 100 15 0.141891
15 20 100 15 0.0481571
1 21 100 15 0.0370819
2 21 100 15 0.0202863
3 21 100 15 0.0554717
4 21 100 15 0.055934
5 21 100 15 0.0373383
6 21 100 15 0.0559923
7 21 100 15 0.108653
8 21 100 15 0.0587063
9 21 100 15 0.0404614
10 21 100 15 0.0748861
11 21 100 15 0.109859
12 21 100 15 0.0984293
13 21 100 15 0.087962
14 21 100 15 0.158195
15 21 100 15 0.000743873
1 22 100 15 1.88729e-07
4 22 100 15 0.000311984
5 22 100 15 0.0589405
6 22 100 15 0.118899
7 22 100 15 0.0594519
8 22 100 15 0.0621515
9 22 100 15 0.0594578
10 22 100 15 6.60235e-07
11 22 100 15 0.0591294
12 22 100 15 0.195295
13 22 100 15 0.146025
14 22 100 15 0.180902
15 22 100 15 0.059435
4 23 100 15 3.4948e-05
11 23 100 15 0.00723922
12 23 100 15 0.938311
14 23 100 15 0.0431466
15 23 100 15 0.0112679
1 24 100 15 2.25149e-05
7 24 100 15 0.99983
15 24 100 15 0.000147092
1 0 100 16 0.00121127
2 0 100 16 0.0398203
3 0 100 16 0.0387413
4 0 100 16 0.0463068
5 0 100 16 0.0525005
6 0 100 16 0.058848
7 0 100 16 0.0694849
8 0 100 16 0.0644385
9 0 100 16 0.0655001
10 0 100 16 0.0551602
11 0 100 16 0.051772
12 0 100 16 0.0405148
13 0 100 16 0.0369829
14 0 100 16 0.0554194
15 0 100 16 0.0545018
16 0 100 16 0.268797
1 1 100 16 0.477847
2 1 100 16 0.103921
3 1 100 16 0.0579268
4 1 100 16 0.0510692
5 1 100 16 0.0388389
6 1 100 16 0.0357063
7 1 100 16 0.0314823
8 1 100 16 0.0304151
9 1 100 16 0.0264614
10 1 100 16 0.0227219
11 1 100 16 0.0199239
12 1 100 16 0.0214698
13 1 100 16 0.0233024
14 1 100 16 0.0208084
15 1 100 16 0.0216779
16 1 100 16 0.0164275
1 2 100 16 0.138499
2 2 100 16 0.227543
3 2 100 16 0.11162
4 2 100 16 0.0687504
5 2 100 16 0.0609711
6 2 100 16 0.0491704
7 2 100 16 0.0456693
8 2 100 16 0.0399171
9 2 100 16 0.0374972
10 2 100 16 0.0337955
11 2 100 16 0.0313023
12 2 100 16 0.0338484
13 2 100 16 0.0332673
14 2 100 16 0.0303653
15 2 100 16 0.0296613
16 2 100 16 0.0281228
1 3 100 16 0.057387
2 3 100 16 0.115087
3 3 100 16 0.154068
4 3 100 16 0.100878
5 3 100 16 0.0757068
6 3 100 16 0.0723899
7 3 100 16 0.0573169
8 3 100 16 0.0480179
9 3 100 16 0.0524556
10 3 100 16 0.0487251
11 3 100 16 0.0422355
12 3 100 16 0.0394531
13 3 100 16 0.0472031
14 3 100 16 0.042461
15 3 100 16 0.0320054
16 3 100 16 0.0146107
1 4 100 16 0.0522821
2 4 100 16 0.0782648
3 4 100 16 0.108867
4 4 100 16 0.117324
5 4 100 16 0.0945708
6 4 100 16 0.0690693
7 4 100 16 0.0648505
8 4 100 16 0.0558827
9 4 100 16 0.0568884
10 4 100 16 0.0537439
11 4 100 16 0.0465872
12 4 100 16 0.0499704
13 4 100 16 0.0471152
14 4 100 16 0.0434887
15 4 100 16 0.0423111
16 4 100 16 0.0187846
1 5 100 16 0.0358509
2 5 100 16 0.0669666
3 5 100 16 0.0878917
4 5 100 16 0.0945481
5 5 100 16 0.0915177
6 5 100 16 0.0967299
7 5 100 16 0.069137
8 5 100 16 0.0558207
9 5 100 16 0.0599363
10 5 100 16 0.0628071
11 5 100 16 0.0513458
12 5 100 16 0.0493565
13 5 100 16 0.0568021
14 5 100 16 0.0527791
15 5 100 16 0.0529687
16 5 100 16 0.0155417
1 6 100 16 0.03442
2 6 100 16 0.0567541
3 6 100 16 0.075631
4 6 100 16 0.082107
5 6 100 16 0.0924587
6 6 100 16 0.0847685
7 6 100 16 0.076584
8 6 100 16 0.0748878
9 6 100 16 0.0621799
10 6 100 16 0.0604599
11 6 100 16 0.0555449
12 6 100 16 0.0605348
13 6 100 16 0.0565692
14 6 100 16 0.0582565
15 6 100 16 0.0532463
16 6 100 16 0.0155974
1 7 100 16 0.0349853
2 7 100 16 0.045516
3 7 100 16 0.0680934
4 7 100 16 0.0732106
5 7 100 16 0.0798973
6 7 100 16 0.0871667
7 7 100 16 0.0859786
8 7 100 16 0.0835745
9 7 100 16 0.0647313
10 7 100 16 0.0680427
11 7 100 16 0.0638092
12 7 100 16 0.0622542
13 7 100 16 0.0582876
14 7 100 16 0.0553709
15 7 100 16 0.050539
16 7 100 16 0.0185427
1 8 100 16 0.0366492
2 8 100 16 0.0446973
3 8 100 16 0.0520314
4 8 100 16 0.0639218
5 8 100 16 0.0720071
6 8 100 16 0.0796271
7 8 100 16 0.0823167
8 8 100 16 0.0905832
9 8 100 16 0.087463
10 8 100 16 0.0727689
11 8 100 16 0.0609215
12 8 100 16 0.0662694
13 8 100 16 0.0606106
14 8 100 16 0.0583539
15 8 100 16 0.0563906
16 8 100 16 0.0153882
1 9 100 16 0.0410601
2 9 100 16 0.0391135
3 9 100 16 0.0472987
4 9 100 16 0.0595706
5 9 100 16 0.0615454
6 9 100 16 0.0678346
7 9 100 16 0.0708546
8 9 100 16 0.0790983
9 9 100 16 0.0823926
10 9 100 16 0.0785049
11 9 100 16 0.0829724
12 9 100 16 0.0842283
13 9 100 16 0.0705019
14 9 100 16 0.0633506
15 9 100 16 0.0566933
16 9 100 16 0.01498
1 10 100 16 0.0299373
2 10 100 16 0.0368199
3 10 100 16 0.0424243
4 10 100 16 0.0466698
5 10 100 16 0.0557123
6 10 100 16 0.0594458
7 10 100 16 0.0610893
8 10 100 16 0.0721023
9 10 100 16 0.081896
10 10 100 16 0.0869324
11 10 100 16 0.0913279
12 10 100 16 0.0761017
13 10 100 16 0.0913484
14 10 100 16 0.0746642
15 10 100 16 0.0730383
16 10 100 16 0.0204902
1 11 100 16 0.0252647
2 11 100 16 0.0340586
3 11 100 16 0.0514969
4 11 100 16 0.0469852
5 11 100 16 0.0538563
6 11 100 16 0.0548544
7 11 100 16 0.0601222
8 11 100 16 0.0657304
9 11 100 16 0.0723902
10 11 100 16 0.0914065
11 11 100 16 0.0788135
12 11 100 16 0.0871694
13 11 100 16 0.0923049
14 11 100 16 0.0818395
15 11 100 16 0.0828396
16 11 100 16 0.0208676
1 12 100 16 0.0293466
2 12 100 16 0.0316966
3 12 100 16 0.0446675
4 12 100 16 0.0458289
5 12 100 16 0.0517786
6 12 100 16 0.0504723
7 12 100 16 0.061569
8 12 100 16 0.068469
9 12 100 16 0.0700176
10 12 100 16 0.0799164
11 12 100 16 0.0984627
12 12 100 16 0.090262
13 12 100 16 0.0906757
14 12 100 16 0.0797587
15 12 100 16 0.0869203
16 12 100 16 0.020158
1 13 100 16 0.0201271
2 13 100 16 0.0265251
3 13 100 16 0.0321455
4 13 100 16 0.0520742
5 13 100 16 0.045267
6 13 100 16 0.0482309
7 13 100 16 0.0594543
8 13 100 16 0.0614314
9 13 100 16 0.0683275
10 13 100 16 0.0780998
11 13 100 16 0.0979517
12 13 100 16 0.0983726
13 13 100 16 0.0959795
14 13 100 16 0.101206
15 13 100 16 0.0963554
16 13 100 16 0.0184518
1 14 100 16 0.0271078
2 14 100 16 0.0340961
3 14 100 16 0.0436986
4 14 100 16 0.0379428
5 14 100 16 0.0482897
6 14 100 16 0.045682
7 14 100 16 0.04298
8 14 100 16 0.0565824
9 14 100 16 0.0627539
10 14 100 16 0.0736888
11 14 100 16 0.0800337
12 14 100 16 0.104086
13 14 100 16 0.107739
14 14 100 16 0.1006
15 14 100 16 0.110052
16 14 100 16 0.0246671
1 15 100 16 0.0272467
2 15 100 16 0.0354136
3 15 100 16 0.0302774
4 15 100 16 0.042505
5 15 100 16 0.0417539
6 15 100 16 0.0397417
7 15 100 16 0.0451302
8 15 100 16 0.0503484
9 15 100 16 0.0658358
10 15 100 16 0.0720343
11 15 100 16 0.094701
12 15 100 16 0.103338
13 15 100 16 0.109213
14 15 100 16 0.100489
15 15 100 16 0.120561
16 15 100 16 0.0214116
1 16 100 16 0.0157316
2 16 100 16 0.0240053
3 16 100 16 0.0353804
4 16 100 16 0.0452839
5 16 100 16 0.0463991
6 16 100 16 0.0549021
7 16 100 16 0.0500825
8 16 100 16 0.0569949
9 16 100 16 0.050024
10 16 100 16 0.075495
11 16 100 16 0.0917583
12 16 100 16 0.0992068
13 16 100 16 0.111118
14 16 100 16 0.109157
15 16 100 16 0.110463
16 16 100 16 0.0239976
1 17 100 16 0.0220984
2 17 100 16 0.0187985
3 17 100 16 0.030844
4 17 100 16 0.0347694
5 17 100 16 0.03591
6 17 100 16 0.0350476
7 17 100 16 0.0478066
8 17 100 16 0.0636101
9 17 100 16 0.0605991
10 17 100 16 0.0567241
11 17 100 16 0.0991915
12 17 100 16 0.101555
13 17 100 16 0.11105
14 17 100 16 0.116119
15 17 100 16 0.142388
16 17 100 16 0.0234887
1 18 100 16 0.0375401
2 18 100 16 0.0204774
3 18 100 16 0.0344789
4 18 100 16 0.0597146
5 18 100 16 0.0476583
6 18 100 16 0.0511534
7 18 100 16 0.0621206
8 18 100 16 0.0577911
9 18 100 16 0.052658
10 18 100 16 0.0585103
11 18 100 16 0.0715482
12 18 100 16 0.103475
13 18 100 16 0.0879715
14 18 100 16 0.11505
15 18 100 16 0.122614
16 18 100 16 0.0172384
1 19 100 16 0.0331078
2 19 100 16 0.0253908
3 19 100 16 0.0357686
4 19 100 16 0.0367228
5 19 100 16 0.0543901
6 19 100 16 0.0473582
7 19 100 16 0.0621557
8 19 100 16 0.0479265
9 19 100 16 0.0703793
10 19 100 16 0.0835716
11 19 100 16 0.0622256
12 19 100 16 0.0870146
13 19 100 16 0.109021
14 19 100 16 0.108488
15 19 100 16 0.123374
16 19 100 16 0.0131055
1 20 100 16 0.0337266
2 20 100 16 0.0412757
3 20 100 16 0.0414363
4 20 100 16 0.0563373
5 20 100 16 0.0583594
6 20 100 16 0.0587156
7 20 100 16 0.0127625
8 20 100 16 0.0621159
9 20 100 16 0.0390925
10 20 100 16 0.0816908
11 20 100 16 0.0818391
12 20 100 16 0.0889782
13 20 100 16 0.0909393
14 20 100 16 0.0948395
15 20 100 16 0.133404
16 20 100 16 0.0244871
1 21 100 16 0.0356897
2 21 100 16 0.0385572
3 21 100 16 0.0352748
4 21 100 16 0.0425013
5 21 100 16 0.0369321
6 21 100 16 0.0497836
7 21 100 16 0.053675
8 21 100 16 0.058376
9 21 100 16 0.0604206
10 21 100 16 0.0618912
11 21 100 16 0.0778312
12 21 100 16 0.125892
13 21 100 16 0.0842425
14 21 100 16 0.106522
15 21 100 16 0.130719
16 21 100 16 0.00169197
1 22 100 16 0.0485745
2 22 100 16 0.0479858
3 22 100 16 0.0032456
4 22 100 16 0.0485774
5 22 100 16 0.0728432
6 22 100 16 0.079662
7 22 100 16 0.0731203
8 22 100 16 0.0946895
9 22 100 16 0.0658119
10 22 100 16 0.0696325
11 22 100 16 0.0332748
12 22 100 16 0.0487403
13 22 100 16 0.0720638
14 22 100 16 0.142023
15 22 100 16 0.0965787
16 22 100 16 0.00317666
1 23 100 16 0.0743434
2 23 100 16 0.164154
3 23 100 16 0.0822866
4 23 100 16 0.0820103
5 23 100 16 1.57636e-07
6 23 100 16 0.0822557
7 23 100 16 4.47289e-06
8 23 100 16 5.97857e-07
9 23 100 16 0.113201
10 23 100 16 0.0738854
11 23 100 16 0.0823205
12 23 100 16 2.0063e-05
13 23 100 16 4.04146e-05
14 23 100 16 0.0830691
15 23 100 16 0.161153
16 23 100 16 0.0012547
2 24 100 16 1.05404e-06
9 24 100 16 5.57576e-07
10 24 100 16 0.259118
11 24 100 16 0.48218
15 24 100 16 0.2587
1 0 100 17 0.00135282
2 0 100 17 0.0328762
3 0 100 17 0.038347
4 0 100 17 0.0442827
5 0 100 17 0.0519965
6 0 100 17 0.053994
7 0 100 17 0.0638892
8 0 100 17 0.0632213
9 0 100 17 0.0653289
10 0 100 17 0.0568372
11 0 100 17 0.0568865
12 0 100 17 0.0494405
13 0 100 17 0.0394715
14 0 100 17 0.0390608
15 0 100 17 0.048357
16 0 100 17 0.0518506
17 0 100 17 0.242807
1 1 100 17 0.44754
2 1 100 17 0.102164
3 1 100 17 0.0570355
4 1 100 17 0.0519952
5 1 100 17 0.0481293
6 1 100 17 0.0329169
7 1 100 17 0.0346949
8 1 100 17 0.0298952
9 1 100 17 0.0243973
10 1 100 17 0.0216238
11 1 100 17 0.0241592
12 1 100 17 0.0214044
13 1 100 17 0.0312592
14 1 100 17 0.0243804
15 1 100 17 0.018315
16 1 100 17 0.0156407
17 1 100 17 0.0144495
1 2 100 17 0.132673
2 2 100 17 0.209823
3 2 100 17 0.10562
4 2 100 17 0.0686747
5 2 100 17 0.0535094
6 2 100 17 0.0580193
7 2 100 17 0.0446972
8 2 100 17 0.0451249
9 2 100 17 0.0370282
10 2 100 17 0.0366807
11 2 100 17 0.030516
12 2 100 17 0.0306687
13 2 100 17 0.0321558
14 2 100 17 0.0326753
15 2 100 17 0.0347917
16 2 100 17 0.0263363
17 2 100 17 0.0210059
1 3 100 17 0.0667004
2 3 100 17 0.119586
3 3 100 17 0.137893
4 3 100 17 0.106319
5 3 100 17 0.0698126
6 3 100 17 0.061023
7 3 100 17 0.0536805
8 3 100 17 0.0405611
9 3 100 17 0.0382453
10 3 100 17 0.0393461
11 3 100 17 0.0341833
12 3 100 17 0.032477
13 3 100 17 0.044755
14 3 100 17 0.0450534
15 3 100 17 0.0461799
16 3 100 17 0.040887
17 3 100 17 0.0232968
1 4 100 17 0.0420157
2 4 100 17 0.0706104
3 4 100 17 0.120658
4 4 100 17 0.113787
5 4 100 17 0.0961756
6 4 100 17 0.0682283
7 4 100 17 0.0535086
8 4 100 17 0.0435403
9 4 100 17 0.0519251
10 4 100 17 0.0484819
11 4 100 17 0.0535755
12 4 100 17 0.0483778
13 4 100 17 0.0426381
14 4 100 17 0.0443383
15 4 100 17 0.0395524
16 4 100 17 0.042353
17 4 100 17 0.0202343
1 5 100 17 0.0435019
2 5 100 17 0.0563921
3 5 100 17 0.0784866
4 5 100 17 0.0801131
5 5 100 17 0.0892479
6 5 100 17 0.0933897
7 5 100 17 0.0662574
8 5 100 17 0.0604845
9 5 100 17 0.0587071
10 5 100 17 0.0518267
11 5 100 17 0.045782
12 5 100 17 0.051386
13 5 100 17 0.0491497
14 5 100 17 0.0545078
15 5 100 17 0.0506872
16 5 100 17 0.0479548
17 5 100 17 0.0221256
1 6 100 17 0.0426641
2 6 100 17 0.050755
3 6 100 17 0.0658767
4 6 100 17 0.0834321
5 6 100 17 0.0810179
6 6 100 17 0.0757648
7 6 100 17 0.0822748
8 6 100 17 0.0736419
9 6 100 17 0.0628777
10 6 100 17 0.0578145
11 6 100 17 0.0498063
12 6 100 17 0.0477324
13 6 100 17 0.0629764
14 6 100 17 0.0491496
15 6 100 17 0.0544733
16 6 100 17 0.0427377
17 6 100 17 0.0170047
1 7 100 17 0.0317712
2 7 100 17 0.0536462
3 7 100 17 0.0600434
4 7 100 17 0.0674799
5 7 100 17 0.0783239
6 7 100 17 0.0817111
7 7 100 17 0.0765392
8 7 100 17 0.0667658
9 7 100 17 0.0696834
10 7 100 17 0.0629198
11 7 100 17 0.0605848
12 7 100 17 0.0562517
13 7 100 17 0.0582327
14 7 100 17 0.0559158
15 7 100 17 0.0512689
16 7 100 17 0.0509322
17 7 100 17 0.01793
1 8 100 17 0.0348274
2 8 100 17 0.0420059
3 8 100 17 0.0554114
4 8 100 17 0.0614276
5 8 100 17 0.0707656
6 8 100 17 0.0820015
7 8 100 17 0.0776724
8 8 100 17 0.0735648
9 8 100 17 0.0728357
10 8 100 17 0.0700447
11 8 100 17 0.066004
12 8 100 17 0.0554455
13 8 100 17 0.0462634
14 8 100 17 0.0623313
15 8 100 17 0.0596611
16 8 100 17 0.0498771
17 8 100 17 0.0198606
1 9 100 17 0.0361587
2 9 100 17 0.0483047
3 9 100 17 0.0524085
4 9 100 17 0.0623403
5 9 100 17 0.0567711
6 9 100 17 0.0635661
7 9 100 17 0.0689195
8 9 100 17 0.0850746
9 9 100 17 0.075052
10 9 100 17 0.0737997
11 9 100 17 0.069446
12 9 100 17 0.0636022
13 9 100 17 0.0596551
14 9 100 17 0.0571809
15 9 100 17 0.0590898
16 9 100 17 0.0504004
17 9 100 17 0.0182303
1 10 100 17 0.0289814
2 10 100 17 0.0325115
3 10 100 17 0.0471036
4 10 100 17 0.0529491
5 10 100 17 0.0541438
6 10 100 17 0.0654459
7 10 100 17 0.0614429
8 10 100 17 0.0709529
9 10 100 17 0.0779056
10 10 100 17 0.088952
11 10 100 17 0.069486
12 10 100 17 0.0701818
13 10 100 17 0.0788632
14 10 100 17 0.0598772
15 10 100 17 0.0546991
16 10 100 17 0.0670002
17 10 100 17 0.0195037
1 11 100 17 0.0183238
2 11 100 17 0.0255464
3 11 100 17 0.0293876
4 11 100 17 0.0379654
5 11 100 17 0.0511031
6 11 100 17 0.0552299
7 11 100 17 0.065645
8 11 100 17 0.071188
9 11 100 17 0.0773336
10 11 100 17 0.0878383
11 11 100 17 0.0908779
12 11 100 17 0.0865692
13 11 100 17 0.0695764
14 11 100 17 0.0769425
15 11 100 17 0.066716
16 11 100 17 0.0632005
17 11 100 17 0.0265566
1 12 100 17 0.0165038
2 12 100 17 0.0315168
3 12 100 17 0.0346946
4 12 100 17 0.0328476
5 12 100 17 0.0454952
6 12 100 17 0.046235
7 12 100 17 0.05151
8 12 100 17 0.0596708
9 12 100 17 0.0679306
10 12 100 17 0.0769917
11 12 100 17 0.089907
12 12 100 17 0.0998734
13 12 100 17 0.0964826
14 12 100 17 0.0886355
15 12 100 17 0.0796948
16 12 100 17 0.0662633
17 12 100 17 0.0157472
1 13 100 17 0.0227654
2 13 100 17 0.0254739
3 13 100 17 0.0369996
4 13 100 17 0.0379401
5 13 100 17 0.0404008
6 13 100 17 0.0446215
7 13 100 17 0.0577865
8 13 100 17 0.0561723
9 13 100 17 0.0610004
10 13 100 17 0.0767875
11 13 100 17 0.0839358
12 13 100 17 0.106828
13 13 100 17 0.0800749
14 13 100 17 0.0828061
15 13 100 17 0.0793244
16 13 100 17 0.0829205
17 13 100 17 0.024162
1 14 100 17 0.0192452
2 14 100 17 0.0254081
3 14 100 17 0.0346858
4 14 100 17 0.0399633
5 14 100 17 0.0423637
6 14 100 17 0.0385829
7 14 100 17 0.0472829
8 14 100 17 0.0534208
9 14 100 17 0.0518147
10 14 100 17 0.0589455
11 14 100 17 0.0777289
12 14 100 17 0.0838818
13 14 100 17 0.111499
14 14 100 17 0.099057
15 14 100 17 0.0955774
16 14 100 17 0.0978401
17 14 100 17 0.0227029
1 15 100 17 0.032579
2 15 100 17 0.039117
3 15 100 17 0.0470784
4 15 100 17 0.0430875
5 15 100 17 0.0528529
6 15 100 17 0.0491231
7 15 100 17 0.0418936
8 15 100 17 0.0446733
9 15 100 17 0.0468378
10 15 100 17 0.0540975
11 15 100 17 0.0637807
12 15 100 17 0.069162
13 15 100 17 0.0925375
14 15 100 17 0.0938002
15 15 100 17 0.0966385
16 15 100 17 0.100609
17 15 100 17 0.0321326
1 16 100 17 0.0303144
2 16 100 17 0.0423393
3 16 100 17 0.0365468
4 16 100 17 0.0539106
5 16 100 17 0.0358974
6 16 100 17 0.0561853
7 16 100 17 0.0389977
8 16 100 17 0.0418184
9 16 100 17 0.0595793
10 16 100 17 0.0565414
11 16 100 17 0.0465058
12 16 100 17 0.0743723
13 16 100 17 0.0829526
14 16 100 17 0.118818
15 16 100 17 0.0917365
16 16 100 17 0.118525
17 16 100 17 0.0149599
1 17 100 17 0.0293214
2 17 100 17 0.0347688
3 17 100 17 0.0395491
4 17 100 17 0.0386015
5 17 100 17 0.034209
6 17 100 17 0.0374742
7 17 100 17 0.0508187
8 17 100 17 0.0591529
9 17 100 17 0.0507823
10 17 100 17 0.0579468
11 17 100 17 0.0748289
12 17 100 17 0.0709411
13 17 100 17 0.0856298
14 17 100 17 0.0902058
15 17 100 17 0.0981244
16 17 100 17 0.118526
17 17 100 17 0.0291195
1 18 100 17 0.0280013
2 18 100 17 0.02938
3 18 100 17 0.0304753
4 18 100 17 0.035867
5 18 100 17 0.0302019
6 18 100 17 0.0303538
7 18 100 17 0.0409012
8 18 100 17 0.0479857
9 18 100 17 0.0486134
10 18 100 17 0.0732495
11 18 100 17 0.0648455
12 18 100 17 0.0889384
13 18 100 17 0.0860922
14 18 100 17 0.0975798
15 18 100 17 0.115798
16 18 100 17 0.134068
17 18 100 17 0.017649
1 19 100 17 0.0341713
2 19 100 17 0.0361705
3 19 100 17 0.0369278
4 19 100 17 0.0204348
5 19 100 17 0.0270685
6 19 100 17 0.024658
7 19 100 17 0.0402001
8 19 100 17 0.0601874
9 19 100 17 0.0500575
10 19 100 17 0.0672032
11 19 100 17 0.0752222
12 19 100 17 0.0832354
13 19 100 17 0.100116
14 19 100 17 0.0874872
15 19 100 17 0.106238
16 19 100 17 0.124424
17 19 100 17 0.0261981
1 20 100 17 0.0396654
2 20 100 17 0.033206
3 20 100 17 0.0404887
4 20 100 17 0.0590572
5 20 100 17 0.0632368
6 20 100 17 0.0374735
7 20 100 17 0.0264107
8 20 100 17 0.0586954
9 20 100 17 0.0494054
10 20 100 17 0.0435621
11 20 100 17 0.074062
12 20 100 17 0.0545345
13 20 100 17 0.0757605
14 20 100 17 0.0935334
15 20 100 17 0.11454
16 20 100 17 0.121272
17 20 100 17 0.015096
1 21 100 17 0.00850558
2 21 100 17 0.0412704
3 21 100 17 0.0374788
4 21 100 17 0.0172179
5 21 100 17 0.0516938
6 21 100 17 0.0458335
7 21 100 17 0.0302319
8 21 100 17 0.0600781
9 21 100 17 0.0872961
10 21 100 17 0.058088
11 21 100 17 0.0788184
12 21 100 17 0.0830477
13 21 100 17 0.0543103
14 21 100 17 0.0874479
15 21 100 17 0.0821401
16 21 100 17 0.165921
17 21 100 17 0.0106208
1 22 100 17 0.0362951
2 22 100 17 0.0372241
3 22 100 17 2.9878e-07
4 22 100 17 0.0301772
5 22 100 17 0.018491
6 22 100 17 5.13774e-05
7 22 100 17 0.0187637
8 22 100 17 0.0188082
9 22 100 17 0.027753
10 22 100 17 0.0539747
11 22 100 17 0.0828293
12 22 100 17 0.0756909
13 22 100 17 0.108956
14 22 100 17 0.0928971
15 22 100 17 0.186648
16 22 100 17 0.186382
17 22 100 17 0.0250582
1 23 100 17 0.0575977
2 23 100 17 9.55873e-07
4 23 100 17 0.000139633
5 23 100 17 0.0554514
7 23 100 17 0.0904948
8 23 100 17 0.0576706
9 23 100 17 0.057607
10 23 100 17 0.0576123
11 23 100 17 0.0570393
12 23 100 17 0.23579
13 23 100 17 0.0577283
14 23 100 17 0.108132
15 23 100 17 0.0617886
16 23 100 17 0.0588639
17 23 100 17 0.0440831
1 24 100 17 0.0815901
4 24 100 17 0.0582057
5 24 100 17 0.0406705
6 24 100 17 0.0813292
7 24 100 17 0.0820554
8 24 100 17 0.0422391
9 24 100 17 0.040658
10 24 100 17 1.92113e-06
11 24 100 17 0.0417774
12 24 100 17 0.156985
13 24 100 17 0.0408394
14 24 100 17 0.15988
15 24 100 17 0.0426205
16 24 100 17 0.127002
17 24 100 17 0.00414594
1 25 100 17 0.0987943
2 25 100 17 0.000764283
4 25 100 17 6.59968e-07
5 25 100 17 0.0987181
7 25 100 17 0.0971991
8 25 100 17 7.46034e-07
10 25 100 17 0.0987956
11 25 100 17 0.0987978
12 25 100 17 0.0987984
13 25 100 17 9.46087e-05
14 25 100 17 0.0994034
15 25 100 17 0.197603
16 25 100 17 0.110999
17 25 100 17 3.09328e-05
5 26 100 17 0.00827524
15 26 100 17 0.16881
16 26 100 17 0.00712236
17 26 100 17 0.815792
9 27 100 17 0.00627039
12 27 100 17 0.266612
13 27 100 17 0.276534
14 27 100 17 0.241796
15 27 100 17 3.43644e-07
16 27 100 17 0.204
17 27 100 17 0.00478612
1 0 100 18 0.00155086
2 0 100 18 0.0320015
3 0 100 18 0.0323021
4 0 100 18 0.0369154
5 0 100 18 0.0428075
6 0 100 18 0.0518098
7 0 100 18 0.0554345
8 0 100 18 0.0636946
9 0 100 18 0.0620369
10 0 100 18 0.0584715
11 0 100 18 0.0598574
12 0 100 18 0.0479033
13 0 100 18 0.0451551
14 0 100 18 0.0393862
15 0 100 18 0.0382167
16 0 100 18 0.0467103
17 0 100 18 0.054935
18 0 100 18 0.230811
1 1 100 18 0.414672
2 1 100 18 0.110708
3 1 100 18 0.0639195
4 1 100 18 0.0586884
5 1 100 18 0.0453295
6 1 100 18 0.0374549
7 1 100 18 0.0329949
8 1 100 18 0.0337859
9 1 100 18 0.0287974
10 1 100 18 0.0223252
11 1 100 18 0.0201971
12 1 100 18 0.0243081
13 1 100 18 0.0228222
14 1 100 18 0.0196431
15 1 100 18 0.0195201
16 1 100 18 0.0191926
17 1 100 18 0.0158579
18 1 100 18 0.00978287
1 2 100 18 0.138635
2 2 100 18 0.217628
3 2 100 18 0.10859
4 2 100 18 0.0755485
5 2 100 18 0.052196
6 2 100 18 0.050555
7 2 100 18 0.0460436
8 2 100 18 0.0390517
9 2 100 18 0.0300612
10 2 100 18 0.0263281
11 2 100 18 0.0259727
12 2 100 18 0.0224966
13 2 100 18 0.0263308
14 2 100 18 0.0316193
15 2 100 18 0.0239194
16 2 100 18 0.0328843
17 2 100 18 0.0322428
18 2 100 18 0.0198965
1 3 100 18 0.0594059
2 3 100 18 0.108712
3 3 100 18 0.156994
4 3 100 18 0.0988758
5 3 100 18 0.0713124
6 3 100 18 0.0618681
7 3 100 18 0.0477243
8 3 100 18 0.045629
9 3 100 18 0.0451278
10 3 100 18 0.0355812
11 3 100 18 0.0382671
12 3 100 18 0.033904
13 3 100 18 0.0293673
14 3 100 18 0.0362574
15 3 100 18 0.0330809
16 3 100 18 0.036359
17 3 100 18 0.035301
18 3 100 18 0.0262323
1 4 100 18 0.0506898
2 4 100 18 0.0673755
3 4 100 18 0.117361
4 4 100 18 0.111077
5 4 100 18 0.104707
6 4 100 18 0.0765069
7 4 100 18 0.0612553
8 4 100 18 0.0488088
9 4 100 18 0.0389971
10 4 100 18 0.0423978
11 4 100 18 0.0349071
12 4 100 18 0.0321879
13 4 100 18 0.0389136
14 4 100 18 0.0329796
15 4 100 18 0.0406859
16 4 100 18 0.0422019
17 4 100 18 0.0365769
18 4 100 18 0.02237
1 5 100 18 0.0541104
2 5 100 18 0.0602127
3 5 100 18 0.0830804
4 5 100 18 0.0945702
5 5 100 18 0.0858962
6 5 100 18 0.0844775
7 5 100 18 0.0782752
8 5 100 18 0.062989
9 5 100 18 0.039567
10 5 100 18 0.0439805
11 5 100 18 0.0468291
12 5 100 18 0.0372974
13 5 100 18 0.0366698
14 5 100 18 0.046982
15 5 100 18 0.0441871
16 5 100 18 0.0377222
17 5 100 18 0.0413402
18 5 100 18 0.0218134
1 6 100 18 0.0340341
2 6 100 18 0.0579054
3 6 100 18 0.0574085
4 6 100 18 0.0773604
5 6 100 18 0.0807099
6 6 100 18 0.0908412
7 6 100 18 0.0820831
8 6 100 18 0.0616811
9 6 100 18 0.0622026
10 6 100 18 0.0552267
11 6 100 18 0.0496359
12 6 100 18 0.0506236
13 6 100 18 0.0490406
14 6 100 18 0.0410946
15 6 100 18 0.0534067
16 6 100 18 0.0470635
17 6 100 18 0.0356039
18 6 100 18 0.0140783
1 7 100 18 0.0303438
2 7 100 18 0.0370472
3 7 100 18 0.0420434
4 7 100 18 0.0609184
5 7 100 18 0.0815013
6 7 100 18 0.0867181
7 7 100 18 0.0801497
8 7 100 18 0.0707763
9 7 100 18 0.075038
10 7 100 18 0.060797
11 7 100 18 0.065387
12 7 100 18 0.0579797
13 7 100 18 0.0568119
14 7 100 18 0.0562822
15 7 100 18 0.0491319
16 7 100 18 0.0390344
17 7 100 18 0.0367274
18 7 100 18 0.0133123
1 8 100 18 0.0359882
2 8 100 18 0.0456542
3 8 100 18 0.0505481
4 8 100 18 0.0526843
5 8 100 18 0.0613581
6 8 100 18 0.0579183
7 8 100 18 0.0823682
8 8 100 18 0.0848057
9 8 100 18 0.0892851
10 8 100 18 0.0713938
11 8 100 18 0.0557815
12 8 100 18 0.0619686
13 8 100 18 0.0560779
14 8 100 18 0.0436674
15 8 100 18 0.0453116
16 8 100 18 0.0500348
17 8 100 18 0.0435242
18 8 100 18 0.01163
1 9 100 18 0.0286903
2 9 100 18 0.0319108
3 9 100 18 0.0418494
4 9 100 18 0.0541966
5 9 100 18 0.0679024
6 9 100 18 0.0688835
7 9 100 18 0.0655626
8 9 100 18 0.0777049
9 9 100 18 0.0700152
10 9 100 18 0.0769562
11 9 100 18 0.0754942
12 9 100 18 0.059437
13 9 100 18 0.0563262
14 9 100 18 0.060212
15 9 100 18 0.0539023
16 9 100 18 0.0519158
17 9 100 18 0.0455762
18 9 100 18 0.0134645
1 10 100 18 0.0252487
2 10 100 18 0.0324752
3 10 100 18 0.0478184
4 10 100 18 0.0433791
5 10 100 18 0.0502646
6 10 100 18 0.0505453
7 10 100 18 0.0649527
8 10 100 18 0.0626525
9 10 100 18 0.080793
10 10 100 18 0.0738731
11 10 100 18 0.0895167
12 10 100 18 0.0722725
13 10 100 18 0.0719492
14 10 100 18 0.0645829
15 10 100 18 0.0526543
16 10 100 18 0.0528669
17 10 100 18 0.046342
18 10 100 18 0.0178131
1 11 100 18 0.0283673
2 11 100 18 0.0338124
3 11 100 18 0.0399552
4 11 100 18 0.0439939
5 11 100 18 0.0447686
6 11 100 18 0.0463125
7 11 100 18 0.0425441
8 11 100 18 0.0462459
9 11 100 18 0.0621214
10 11 100 18 0.076767
11 11 100 18 0.0760575
12 11 100 18 0.0832972
13 11 100 18 0.0754454
14 11 100 18 0.0776381
15 11 100 18 0.0769552
16 11 100 18 0.0630298
17 11 100 18 0.0625191
18 11 100 18 0.0201698
1 12 100 18 0.0209206
2 12 100 18 0.025268
3 12 100 18 0.030691
4 12 100 18 0.0416902
5 12 100 18 0.0422651
6 12 100 18 0.041969
7 12 100 18 0.044308
8 12 100 18 0.0568101
9 12 100 18 0.0611676
10 12 100 18 0.0723265
11 12 100 18 0.0564226
12 12 100 18 0.0885205
13 12 100 18 0.0834853
14 12 100 18 0.0817505
15 12 100 18 0.0787477
16 12 100 18 0.0756278
17 12 100 18 0.0771976
18 12 100 18 0.0208318
1 13 100 18 0.0233264
2 13 100 18 0.0284541
3 13 100 18 0.0369469
4 13 100 18 0.0299596
5 13 100 18 0.039843
6 13 100 18 0.0392585
7 13 100 18 0.0395096
8 13 100 18 0.0392358
9 13 100 18 0.0523929
10 13 100 18 0.0702617
11 13 100 18 0.0754805
12 13 100 18 0.0808783
13 13 100 18 0.0834833
14 13 100 18 0.0883549
15 13 100 18 0.091803
16 13 100 18 0.0823622
17 13 100 18 0.0790317
18 13 100 18 0.0194175
1 14 100 18 0.0164884
2 14 100 18 0.030063
3 14 100 18 0.0398085
4 14 100 18 0.036456
5 14 100 18 0.0401105
6 14 100 18 0.0434086
7 14 100 18 0.0404236
8 14 100 18 0.0533549
9 14 100 18 0.0510558
10 14 100 18 0.06005
11 14 100 18 0.0567568
12 14 100 18 0.0664398
13 14 100 18 0.0869727
14 14 100 18 0.0776557
15 14 100 18 0.0900225
16 14 100 18 0.0953451
17 14 100 18 0.0870557
18 14 100 18 0.0285324
1 15 100 18 0.0338148
2 15 100 18 0.0345472
3 15 100 18 0.0340762
4 15 100 18 0.0384113
5 15 100 18 0.0317024
6 15 100 18 0.032088
7 15 100 18 0.0364123
8 15 100 18 0.0409727
9 15 100 18 0.0466797
10 15 100 18 0.0577377
11 15 100 18 0.0586301
12 15 100 18 0.0804023
13 15 100 18 0.0867272
14 15 100 18 0.101867
15 15 100 18 0.0925016
16 15 100 18 0.0839373
17 15 100 18 0.0813644
18 15 100 18 0.028128
1 16 100 18 0.0208081
2 16 100 18 0.01438
3 16 100 18 0.0253529
4 16 100 18 0.0362681
5 16 100 18 0.0342188
6 16 100 18 0.0283922
7 16 100 18 0.0354054
8 16 100 18 0.0402458
9 16 100 18 0.0507365
10 16 100 18 0.0461093
11 16 100 18 0.0663315
12 16 100 18 0.085649
13 16 100 18 0.087094
14 16 100 18 0.0975975
15 16 100 18 0.113574
16 16 100 18 0.0916572
17 16 100 18 0.102499
18 16 100 18 0.0236805
1 17 100 18 0.0192483
2 17 100 18 0.0255752
3 17 100 18 0.0292323
4 17 100 18 0.0401553
5 17 100 18 0.0387997
6 17 100 18 0.0423276
7 17 100 18 0.0338773
8 17 100 18 0.0391269
9 17 100 18 0.0365787
10 17 100 18 0.0547531
11 17 100 18 0.0595152
12 17 100 18 0.0699086
13 17 100 18 0.0720291
14 17 100 18 0.0974978
15 17 100 18 0.114288
16 17 100 18 0.103934
17 17 100 18 0.106327
18 17 100 18 0.0168251
1 18 100 18 0.022322
2 18 100 18 0.0282122
3 18 100 18 0.0364315
4 18 100 18 0.038794
5 18 100 18 0.0433169
6 18 100 18 0.0419981
7 18 100 18 0.058693
8 18 100 18 0.0539818
9 18 100 18 0.0567773
10 18 100 18 0.064219
11 18 100 18 0.0543912
12 18 100 18 0.0761322
13 18 100 18 0.0698488
14 18 100 18 0.0702823
15 18 100 18 0.0727574
16 18 100 18 0.0872656
17 18 100 18 0.108064
18 18 100 18 0.0165126
1 19 100 18 0.0148731
2 19 100 18 0.0173456
3 19 100 18 0.0241198
4 19 100 18 0.0271511
5 19 100 18 0.0223865
6 19 100 18 0.0342025
7 19 100 18 0.0507993
8 19 100 18 0.0349514
9 19 100 18 0.0414915
10 19 100 18 0.0485373
11 19 100 18 0.0701121
12 19 100 18 0.0764766
13 19 100 18 0.0925791
14 19 100 18 0.105135
15 19 100 18 0.0962664
16 19 100 18 0.0992701
17 19 100 18 0.113216
18 19 100 18 0.0310866
1 20 100 18 0.0179184
2 20 100 18 0.0224504
3 20 100 18 0.0281348
4 20 100 18 0.0280031
5 20 100 18 0.0418876
6 20 100 18 0.0536925
7 20 100 18 0.0324502
8 20 100 18 0.0606487
9 20 100 18 0.0589015
10 20 100 18 0.0459452
11 20 100 18 0.0476053
12 20 100 18 0.062534
13 20 100 18 0.0663831
14 20 100 18 0.0722002
15 20 100 18 0.0765776
16 20 100 18 0.151038
17 20 100 18 0.119262
18 20 100 18 0.0143672
1 21 100 18 0.0109121
2 21 100 18 0.0157844
3 21 100 18 0.0159204
4 21 100 18 0.0252058
5 21 100 18 0.0385186
6 21 100 18 0.0113817
7 21 100 18 0.0586478
8 21 100 18 0.0394747
9 21 100 18 0.0363678
10 21 100 18 0.0670511
11 21 100 18 0.0648544
12 21 100 18 0.054563
13 21 100 18 0.0753064
14 21 100 18 0.0919168
15 21 100 18 0.103817
16 21 100 18 0.105799
17 21 100 18 0.153749
18 21 100 18 0.0307302
1 22 100 18 0.0106959
2 22 100 18 3.06926e-05
3 22 100 18 3.89018e-05
4 22 100 18 0.0361789
5 22 100 18 0.0191314
6 22 100 18 0.0133005
7 22 100 18 0.0202237
8 22 100 18 0.0403149
9 22 100 18 0.0304507
10 22 100 18 0.0560427
11 22 100 18 0.0468844
12 22 100 18 0.0883746
13 22 100 18 0.105907
14 22 100 18 0.0867852
15 22 100 18 0.103432
16 22 100 18 0.165721
17 22 100 18 0.163335
18 22 100 18 0.0131523
1 23 100 18 0.0156738
2 23 100 18 0.0156736
3 23 100 18 0.0156611
4 23 100 18 0.0471712
5 23 100 18 0.0320553
6 23 100 18 0.0457454
7 23 100 18 0.0489514
8 23 100 18 0.0314851
9 23 100 18 0.0363915
10 23 100 18 0.032401
11 23 100 18 0.0602392
12 23 100 18 0.0858957
13 23 100 18 0.0974536
14 23 100 18 0.102145
15 23 100 18 0.112181
16 23 100 18 0.0947005
17 23 100 18 0.117188
18 23 100 18 0.00898855
1 24 100 18 6.90999e-06
2 24 100 18 2.97626e-06
3 24 100 18 0.0628377
4 24 100 18 0.0625931
5 24 100 18 0.00253472
6 24 100 18 0.0629883
7 24 100 18 0.114571
8 24 100 18 0.0628472
9 24 100 18 0.0580914
10 24 100 18 0.00382404
11 24 100 18 6.52412e-05
12 24 100 18 0.0704833
13 24 100 18 0.0873724
14 24 100 18 0.125576
15 24 100 18 0.0326202
16 24 100 18 0.00538962
17 24 100 18 0.180227
18 24 100 18 0.0679679
3 25 100 18 7.48609e-06
6 25 100 18 6.67553e-06
7 25 100 18 2.56459e-07
8 25 100 18 0.000115924
10 25 100 18 1.84963e-07
11 25 100 18 1.08811e-05
12 25 100 18 0.0291154
13 25 100 18 0.178641
14 25 100 18 0.179046
15 25 100 18 0.254967
16 25 100 18 0.171302
17 25 100 18 0.186151
18 25 100 18 0.000635508
1 26 100 18 0.0973952
2 26 100 18 0.0973205
3 26 100 18 0.0996786
4 26 100 18 0.0976041
5 26 100 18 0.0941652
6 26 100 18 1.19176e-05
7 26 100 18 9.63463e-06
8 26 100 18 1.84721e-07
9 26 100 18 1.05466e-05
10 26 100 18 0.0976036
12 26 100 18 6.04498e-06
13 26 100 18 0.00209467
14 26 100 18 4.855e-07
15 26 100 18 0.157442
16 26 100 18 0.158788
17 26 100 18 0.0976037
18 26 100 18 0.000266321
1 0 100 19 0.00186652
2 0 100 19 0.0306216
3 0 100 19 0.0336388
4 0 100 19 0.0403115
5 0 100 19 0.0464552
6 0 100 19 0.0492722
7 0 100 19 0.0603785
8 0 100 19 0.0577026
9 0 100 19 0.0541217
10 0 100 19 0.0488825
11 0 100 19 0.0488227
12 0 100 19 0.0552708
13 0 100 19 0.0467857
14 0 100 19 0.044039
15 0 100 19 0.032168
16 0 100 19 0.0359886
17 0 100 19 0.0468456
18 0 100 19 0.0506432
19 0 100 19 0.216185
1 1 100 19 0.447731
2 1 100 19 0.10413
3 1 100 19 0.0548127
4 1 100 19 0.0420586
5 1 100 19 0.0362598
6 1 100 19 0.0333543
7 1 100 19 0.0355033
8 1 100 19 0.0283877
9 1 100 19 0.0173425
10 1 100 19 0.0241247
11 1 100 19 0.0288886
12 1 100 19 0.022794
13 1 100 19 0.0180245
14 1 100 19 0.0214652
15 1 100 19 0.0168324
16 1 100 19 0.020517
17 1 100 19 0.0176112
18 1 100 19 0.0127922
19 1 100 19 0.0173702
1 2 100 19 0.135292
2 2 100 19 0.20009
3 2 100 19 0.108613
4 2 100 19 0.0723027
5 2 100 19 0.0508314
6 2 100 19 0.0534892
7 2 100 19 0.0391822
8 2 100 19 0.0401161
9 2 100 19 0.0398931
10 2 100 19 0.0349956
11 2 100 19 0.0287682
12 2 100 19 0.0296349
13 2 100 19 0.0323609
14 2 100 19 0.0218765
15 2 100 19 0.0273849
16 2 100 19 0.0272961
17 2 100 19 0.0206422
18 2 100 19 0.0157223
19 2 100 19 0.0215095
1 3 100 19 0.0491601
2 3 100 19 0.138997
3 3 100 19 0.156368
4 3 100 19 0.121485
5 3 100 19 0.0924172
6 3 100 19 0.0666466
7 3 100 19 0.0560665
8 3 100 19 0.041574
9 3 100 19 0.0354826
10 3 100 19 0.0318074
11 3 100 19 0.0334638
12 3 100 19 0.024738
13 3 100 19 0.0161866
14 3 100 19 0.0220152
15 3 100 19 0.0253344
16 3 100 19 0.0292375
17 3 100 19 0.0284769
18 3 100 19 0.0201453
19 3 100 19 0.0103982
1 4 100 19 0.0429614
2 4 100 19 0.0522617
3 4 100 19 0.127156
4 4 100 19 0.107898
5 4 100 19 0.0967694
6 4 100 19 0.0533243
7 4 100 19 0.0665296
8 4 100 19 0.0655165
9 4 100 19 0.0426007
10 4 100 19 0.0409248
11 4 100 19 0.0418979
12 4 100 19 0.0325398
13 4 100 19 0.0353259
14 4 100 19 0.0292728
15 4 100 19 0.0330983
16 4 100 19 0.0336589
17 4 100 19 0.0430641
18 4 100 19 0.0356711
19 4 100 19 0.019529
1 5 100 19 0.0420304
2 5 100 19 0.0587517
3 5 100 19 0.0860796
4 5 100 19 0.094052
5 5 100 19 0.0920043
6 5 100 19 0.0996187
7 5 100 19 0.0634608
8 5 100 19 0.0608288
9 5 100 19 0.0508546
10 5 100 19 0.0425276
11 5 100 19 0.0418623
12 5 100 19 0.0405813
13 5 100 19 0.043314
14 5 100 19 0.0379306
15 5 100 19 0.0328025
16 5 100 19 0.0336218
17 5 100 19 0.0301931
18 5 100 19 0.0360267
19 5 100 19 0.0134593
1 6 100 19 0.029782
2 6 100 19 0.0661125
3 6 100 19 0.0625649
4 6 100 19 0.0714893
5 6 100 19 0.0836045
6 6 100 19 0.0751671
7 6 100 19 0.081707
8 6 100 19 0.0812324
9 6 100 19 0.0656365
10 6 100 19 0.0466238
11 6 100 19 0.058595
12 6 100 19 0.037852
13 6 100 19 0.0336299
14 6 100 19 0.0401612
15 6 100 19 0.034869
16 6 100 19 0.0391524
17 6 100 19 0.0395862
18 6 100 19 0.0385603
19 6 100 19 0.013674
1 7 100 19 0.0383344
2 7 100 19 0.0468662
3 7 100 19 0.0541939
4 7 100 19 0.072714
5 7 100 19 0.0841263
6 7 100 19 0.0835012
7 7 100 19 0.0641201
8 7 100 19 0.064597
9 7 100 19 0.0684357
10 7 100 19 0.0664352
11 7 100 19 0.0434033
12 7 100 19 0.0414534
13 7 100 19 0.0503209
14 7 100 19 0.0452327
15 7 100 19 0.0414107
16 7 100 19 0.0461973
17 7 100 19 0.0350902
18 7 100 19 0.0381064
19 7 100 19 0.0154609
1 8 100 19 0.0313476
2 8 100 19 0.0348387
3 8 100 19 0.0503942
4 8 100 19 0.0478269
5 8 100 19 0.0607624
6 8 100 19 0.0777023
7 8 100 19 0.0727002
8 8 100 19 0.0774311
9 8 100 19 0.0860457
10 8 100 19 0.0713397
11 8 100 19 0.0605241
12 8 100 19 0.0552988
13 8 100 19 0.0447805
14 8 100 19 0.0493078
15 8 100 19 0.0512268
16 8 100 19 0.0395826
17 8 100 19 0.0377289
18 8 100 19 0.0428218
19 8 100 19 0.00834006
1 9 100 19 0.0313312
2 9 100 19 0.0380948
3 9 100 19 0.0402825
4 9 100 19 0.0514228
5 9 100 19 0.0551502
6 9 100 19 0.0662385
7 9 100 19 0.061164
8 9 100 19 0.0758941
9 9 100 19 0.0640886
10 9 100 19 0.0735676
11 9 100 19 0.0672135
12 9 100 19 0.0736303
13 9 100 19 0.053738
14 9 100 19 0.0588848
15 9 100 19 0.0532693
16 9 100 19 0.0510547
17 9 100 19 0.0410813
18 9 100 19 0.0299477
19 9 100 19 0.0139461
1 10 100 19 0.0287982
2 10 100 19 0.0343628
3 10 100 19 0.0387471
4 10 100 19 0.0425382
5 10 100 19 0.0454245
6 10 100 19 0.0539069
7 10 100 19 0.0578349
8 10 100 19 0.0559759
9 10 100 19 0.0577168
10 10 100 19 0.0877345
11 10 100 19 0.0677695
12 10 100 19 0.067368
13 10 100 19 0.0649529
14 10 100 19 0.0640851
15 10 100 19 0.0584301
16 10 100 19 0.0589955
17 10 100 19 0.0563611
18 10 100 19 0.0464721
19 10 100 19 0.0125259
1 11 100 19 0.0251551
2 11 100 19 0.0315356
3 11 100 19 0.0334738
4 11 100 19 0.0350009
5 11 100 19 0.0430937
6 11 100 19 0.0491233
7 11 100 19 0.0467273
8 11 100 19 0.0453185
9 11 100 19 0.0646121
10 11 100 19 0.057372
11 11 100 19 0.0724977
12 11 100 19 0.0654685
13 11 100 19 0.0814383
14 11 100 19 0.0684641
15 11 100 19 0.0806064
16 11 100 19 0.0615276
17 11 100 19 0.0641886
18 11 100 19 0.0520497
19 11 100 19 0.0223467
1 12 100 19 0.0186167
2 12 100 19 0.0223406
3 12 100 19 0.03067
4 12 100 19 0.0300251
5 12 100 19 0.0315255
6 12 100 19 0.0446076
7 12 100 19 0.0523573
8 12 100 19 0.0503696
9 12 100 19 0.0690893
10 12 100 19 0.0678536
11 12 100 19 0.0611347
12 12 100 19 0.0700307
13 12 100 19 0.078308
14 12 100 19 0.0770816
15 12 100 19 0.0813175
16 12 100 19 0.0783969
17 12 100 19 0.0622855
18 12 100 19 0.057031
19 12 100 19 0.0169588
1 13 100 19 0.0240169
2 13 100 19 0.0309249
3 13 100 19 0.0343125
4 13 100 19 0.0419445
5 13 100 19 0.0352648
6 13 100 19 0.0336549
7 13 100 19 0.0408005
8 13 100 19 0.0439411
9 13 100 19 0.0553438
10 13 100 19 0.0625585
11 13 100 19 0.0634486
12 13 100 19 0.0676333
13 13 100 19 0.0722687
14 13 100 19 0.0737409
15 13 100 19 0.0768785
16 13 100 19 0.0681724
17 13 100 19 0.0734281
18 13 100 19 0.0787513
19 13 100 19 0.0229158
1 14 100 19 0.0113184
2 14 100 19 0.0244672
3 14 100 19 0.0290263
4 14 100 19 0.0269494
5 14 100 19 0.0331424
6 14 100 19 0.0412594
7 14 100 19 0.0390722
8 14 100 19 0.0404089
9 14 100 19 0.0567521
10 14 100 19 0.0585416
11 14 100 19 0.0818503
12 14 100 19 0.0694052
13 14 100 19 0.0850119
14 14 100 19 0.0760282
15 14 100 19 0.0833615
16 14 100 19 0.0823784
17 14 100 19 0.0647794
18 14 100 19 0.0757191
19 14 100 19 0.020528
1 15 100 19 0.0190576
2 15 100 19 0.0265865
3 15 100 19 0.0246326
4 15 100 19 0.0316654
5 15 100 19 0.0313413
6 15 100 19 0.0240395
7 15 100 19 0.0353352
8 15 100 19 0.0477438
9 15 100 19 0.047206
10 15 100 19 0.0598212
11 15 100 19 0.0570616
12 15 100 19 0.0768283
13 15 100 19 0.0743617
14 15 100 19 0.0758712
15 15 100 19 0.084043
16 15 100 19 0.0842773
17 15 100 19 0.0901811
18 15 100 19 0.0855206
19 15 100 19 0.0244261
1 16 100 19 0.0135787
2 16 100 19 0.0213912
3 16 100 19 0.0318107
4 16 100 19 0.0409599
5 16 100 19 0.0376155
6 16 100 19 0.0404529
7 16 100 19 0.0452853
8 16 100 19 0.0389789
9 16 100 19 0.0459274
10 16 100 19 0.0486284
11 16 100 19 0.0585387
12 16 100 19 0.0607272
13 16 100 19 0.0719888
14 16 100 19 0.0756945
15 16 100 19 0.0914945
16 16 100 19 0.0830018
17 16 100 19 0.0819104
18 16 100 19 0.0898182
19 16 100 19 0.0221971
1 17 100 19 0.0273527
2 17 100 19 0.0242832
3 17 100 19 0.0265026
4 17 100 19 0.0350933
5 17 100 19 0.0324178
6 17 100 19 0.0331289
7 17 100 19 0.0311481
8 17 100 19 0.0460351
9 17 100 19 0.046679
10 17 100 19 0.0576897
11 17 100 19 0.0578223
12 17 100 19 0.0755914
13 17 100 19 0.069941
14 17 100 19 0.0667036
15 17 100 19 0.0792886
16 17 100 19 0.0761294
17 17 100 19 0.0958771
18 17 100 19 0.0931419
19 17 100 19 0.0251745
1 18 100 19 0.0183571
2 18 100 19 0.025787
3 18 100 19 0.0356375
4 18 100 19 0.0377934
5 18 100 19 0.0262781
6 18 100 19 0.0244321
7 18 100 19 0.0399731
8 18 100 19 0.0298551
9 18 100 19 0.0426734
10 18 100 19 0.0611093
11 18 100 19 0.0620556
12 18 100 19 0.0476114
13 18 100 19 0.0556634
14 18 100 19 0.0781384
15 18 100 19 0.0829061
16 18 100 19 0.105936
17 18 100 19 0.0984787
18 18 100 19 0.101667
19 18 100 19 0.0256476
1 19 100 19 0.0250449
2 19 100 19 0.0165701
3 19 100 19 0.01659
4 19 100 19 0.0279177
5 19 100 19 0.0333916
6 19 100 19 0.0333336
7 19 100 19 0.0274522
8 19 100 19 0.0282118
9 19 100 19 0.0383248
10 19 100 19 0.0395213
11 19 100 19 0.0501031
12 19 100 19 0.0762188
13 19 100 19 0.0741797
14 19 100 19 0.0909239
15 19 100 19 0.0862018
16 19 100 19 0.106696
17 19 100 19 0.109941
18 19 100 19 0.0943596
19 19 100 19 0.0250183
1 20 100 19 0.0324048
2 20 100 19 0.0348165
3 20 100 19 0.0195283
4 20 100 19 0.0302729
5 20 100 19 0.0322056
6 20 100 19 0.0219313
7 20 100 19 0.036064
8 20 100 19 0.0359415
9 20 100 19 0.0393705
10 20 100 19 0.033159
11 20 100 19 0.0456467
12 20 100 19 0.0514106
13 20 100 19 0.065731
14 20 100 19 0.0913993
15 20 100 19 0.110226
16 20 100 19 0.0912832
17 20 100 19 0.0828776
18 20 100 19 0.125372
19 20 100 19 0.0203602
1 21 100 19 0.000509255
2 21 100 19 0.0122697
3 21 100 19 0.0202008
4 21 100 19 0.013348
5 21 100 19 0.019814
6 21 100 19 0.0107398
7 21 100 19 0.00938369
8 21 100 19 0.0148076
9 21 100 19 0.0242744
10 21 100 19 0.038199
11 21 100 19 0.069254
12 21 100 19 0.0532801
13 21 100 19 0.0794787
14 21 100 19 0.0924344
15 21 100 19 0.108327
16 21 100 19 0.123538
17 21 100 19 0.139536
18 21 100 19 0.124901
19 21 100 19 0.045704
1 22 100 19 0.0010869
2 22 100 19 0.00120463
3 22 100 19 0.014233
4 22 100 19 0.0190614
5 22 100 19 0.0333898
6 22 100 19 0.0309991
7 22 100 19 0.0324936
8 22 100 19 0.0416848
9 22 100 19 0.0345842
10 22 100 19 0.0517979
11 22 100 19 0.0489325
12 22 100 19 0.0613271
13 22 100 19 0.0727874
14 22 100 19 0.0898498
15 22 100 19 0.0817549
16 22 100 19 0.111609
17 22 100 19 0.108856
18 22 100 19 0.132424
19 22 100 19 0.0319239
1 23 100 19 0.0399332
2 23 100 19 0.047232
3 23 100 19 0.0458256
4 23 100 19 0.0359476
5 23 100 19 0.00113561
6 23 100 19 0.0234152
7 23 100 19 0.0224997
8 23 100 19 0.0372205
9 23 100 19 0.0383219
10 23 100 19 0.0240019
11 23 100 19 0.027249
12 23 100 19 0.0348091
13 23 100 19 0.0382342
14 23 100 19 0.0802395
15 23 100 19 0.11473
16 23 100 19 0.0740151
17 23 100 19 0.13062
18 23 100 19 0.170289
19 23 100 19 0.0142801
1 24 100 19 1.11095e-05
2 24 100 19 3.11901e-07
3 24 100 19 1.949e-05
4 24 100 19 2.24547e-06
5 24 100 19 0.000108261
6 24 100 19 0.0166543
7 24 100 19 0.0161248
8 24 100 19 0.0320993
9 24 100 19 0.0485365
10 24 100 19 0.0859889
11 24 100 19 0.0959166
12 24 100 19 0.0324664
13 24 100 19 0.0769728
14 24 100 19 0.0959969
15 24 100 19 0.102834
16 24 100 19 0.135264
17 24 100 19 0.0800414
18 24 100 19 0.161494
19 24 100 19 0.0194687
1 25 100 19 0.0400897
2 25 100 19 1.51816e-06
3 25 100 19 3.14775e-06
4 25 100 19 6.33667e-06
5 25 100 19 0.0401646
7 25 100 19 0.0397591
8 25 100 19 0.0395675
9 25 100 19 0.0400973
10 25 100 19 0.0389125
11 25 100 19 0.0402544
12 25 100 19 0.000170907
13 25 100 19 0.0407067
14 25 100 19 2.11712e-05
15 25 100 19 0.0403301
16 25 100 19 0.200382
17 25 100 19 0.193655
18 25 100 19 0.244141
19 25 100 19 0.00173791
1 26 100 19 0.139396
5 26 100 19 0.000138344
7 26 100 19 6.15712e-06
8 26 100 19 0.0779299
9 26 100 19 0.00113677
12 26 100 19 0.00454216
13 26 100 19 0.149983
14 26 100 19 5.65093e-06
15 26 100 19 0.0236837
16 26 100 19 0.143595
17 26 100 19 0.000227886
18 26 100 19 0.458219
19 26 100 19 0.00113597
1 27 100 19 4.51511e-06
2 27 100 19 0.0903982
3 27 100 19 0.0903981
4 27 100 19 0.0904064
6 27 100 19 0.0918707
8 27 100 19 0.0904063
11 27 100 19 9.07623e-05
12 27 100 19 0.0902813
13 27 100 19 0.184667
14 27 100 19 0.180943
15 27 100 19 0.0904131
16 27 100 19 9.049e-06
17 27 100 19 4.02758e-05
19 27 100 19 7.04318e-05
5 28 100 19 1.50829e-07
8 28 100 19 5.35157e-05
9 28 100 19 0.0973014
10 28 100 19 0.108258
12 28 100 19 0.105078
13 28 100 19 0.000165469
14 28 100 19 0.000506157
15 28 100 19 0.0218016
16 28 100 19 0.106914
17 28 100 19 0.233493
18 28 100 19 0.218939
19 28 100 19 0.10749
12 29 100 19 0.00031661
17 29 100 19 0.464116
18 29 100 19 0.535567
1 0 100 20 0.00230516
2 0 100 20 0.0339443
3 0 100 20 0.0339155
4 0 100 20 0.0335529
5 0 100 20 0.0422076
6 0 100 20 0.0469488
7 0 100 20 0.0488864
8 0 100 20 0.0510254
9 0 100 20 0.0523498
10 0 100 20 0.0555848
11 0 100 20 0.0469991
12 0 100 20 0.053717
13 0 100 20 0.0446317
14 0 100 20 0.050227
15 0 100 20 0.0381781
16 0 100 20 0.037801
17 0 100 20 0.0348831
18 0 100 20 0.0460079
19 0 100 20 0.0476061
20 0 100 20 0.199228
1 1 100 20 0.404351
2 1 100 20 0.117963
3 1 100 20 0.0735196
4 1 100 20 0.0632012
5 1 100 20 0.0406466
6 1 100 20 0.0429259
7 1 100 20 0.0248271
8 1 100 20 0.0276745
9 1 100 20 0.021947
10 1 100 20 0.0194255
11 1 100 20 0.0169486
12 1 100 20 0.0121308
13 1 100 20 0.0228087
14 1 100 20 0.0161379
15 1 100 20 0.020641
16 1 100 20 0.0162357
17 1 100 20 0.0148656
18 1 100 20 0.0147876
19 1 100 20 0.0112186
20 1 100 20 0.0177438
1 2 100 20 0.139854
2 2 100 20 0.212295
3 2 100 20 0.13295
4 2 100 20 0.0634616
5 2 100 20 0.0497701
6 2 100 20 0.0379761
7 2 100 20 0.0425911
8 2 100 20 0.0264807
9 2 100 20 0.0291402
10 2 100 20 0.0186322
11 2 100 20 0.0269343
12 2 100 20 0.0181887
13 2 100 20 0.0250782
14 2 100 20 0.0263666
15 2 100 20 0.0250626
16 2 100 20 0.0210281
17 2 100 20 0.0253266
18 2 100 20 0.0270927
19 2 100 20 0.024092
20 2 100 20 0.0276787
1 3 100 20 0.0492337
2 3 100 20 0.134372
3 3 100 20 0.132921
4 3 100 20 0.10258
5 3 100 20 0.0775894
6 3 100 20 0.0642021
7 3 100 20 0.0410912
8 3 100 20 0.0363832
9 3 100 20 0.0253139
10 3 100 20 0.0337355
11 3 100 20 0.0293249
12 3 100 20 0.0271092
13 3 100 20 0.0403403
14 3 100 20 0.0348207
15 3 100 20 0.0369793
16 3 100 20 0.0262384
17 3 100 20 0.0338944
18 3 100 20 0.0346395
19 3 100 20 0.0302996
20 3 100 20 0.0089315
1 4 100 20 0.0398982
2 4 100 20 0.0618782
3 4 100 20 0.109038
4 4 100 20 0.111583
5 4 100 20 0.0987681
6 4 100 20 0.0592807
7 4 100 20 0.065872
8 4 100 20 0.0617374
9 4 100 20 0.0488806
10 4 100 20 0.0497302
11 4 100 20 0.0393738
12 4 100 20 0.0395641
13 4 100 20 0.0278185
14 4 100 20 0.0268504
15 4 100 20 0.0266278
16 4 100 20 0.0305201
17 4 100 20 0.0347666
18 4 100 20 0.0262793
19 4 100 20 0.0248225
20 4 100 20 0.0167101
1 5 100 20 0.0484754
2 5 100 20 0.060718
3 5 100 20 0.0650816
4 5 100 20 0.10424
5 5 100 20 0.10071
6 5 100 20 0.0805132
7 5 100 20 0.0793474
8 5 100 20 0.0577627
9 5 100 20 0.0429865
10 5 100 20 0.0509479
11 5 100 20 0.0394969
12 5 100 20 0.0228835
13 5 100 20 0.0272064
14 5 100 20 0.0297581
15 5 100 20 0.0294848
16 5 100 20 0.0359159
17 5 100 20 0.0420446
18 5 100 20 0.0376727
19 5 100 20 0.0356439
20 5 100 20 0.00911088
1 6 100 20 0.037706
2 6 100 20 0.05664
3 6 100 20 0.0577901
4 6 100 20 0.0861094
5 6 100 20 0.0874315
6 6 100 20 0.0848848
7 6 100 20 0.0693649
8 6 100 20 0.0671966
9 6 100 20 0.047375
10 6 100 20 0.0506558
11 6 100 20 0.0513161
12 6 100 20 0.0499753
13 6 100 20 0.0372326
14 6 100 20 0.0375653
15 6 100 20 0.0327982
16 6 100 20 0.0389022
17 6 100 20 0.0336468
18 6 100 20 0.0336429
19 6 100 20 0.0321235
20 6 100 20 0.00764266
1 7 100 20 0.0255886
2 7 100 20 0.0384685
3 7 100 20 0.053815
4 7 100 20 0.0525849
5 7 100 20 0.0639573
6 7 100 20 0.0759896
7 7 100 20 0.0862898
8 7 100 20 0.0594635
9 7 100 20 0.0807328
10 7 100 20 0.0710142
11 7 100 20 0.0586977
12 7 100 20 0.0435255
13 7 100 20 0.0449088
14 7 100 20 0.034895
15 7 100 20 0.0486463
16 7 100 20 0.043624
17 7 100 20 0.0367297
18 7 100 20 0.0291569
19 7 100 20 0.0290863
20 7 100 20 0.0228255
1 8 100 20 0.0370659
2 8 100 20 0.0434242
3 8 100 20 0.0549691
4 8 100 20 0.0662694
5 8 100 20 0.0741121
6 8 100 20 0.0603284
7 8 100 20 0.0694376
8 8 100 20 0.0804095
9 8 100 20 0.0714616
10 8 100 20 0.0617076
11 8 100 20 0.0542807
12 8 100 20 0.0585911
13 8 100 20 0.0490637
14 8 100 20 0.0416073
15 8 100 20 0.0347125
16 8 100 20 0.0382389
17 8 100 20 0.0316677
18 8 100 20 0.0317777
19 8 100 20 0.0241591
20 8 100 20 0.0167158
1 9 100 20 0.0232667
2 9 100 20 0.0331024
3 9 100 20 0.0355979
4 9 100 20 0.0462376
5 9 100 20 0.0587111
6 9 100 20 0.0636296
7 9 100 20 0.0616686
8 9 100 20 0.0570458
9 9 100 20 0.0689451
10 9 100 20 0.0634137
11 9 100 20 0.0661471
12 9 100 20 0.063755
13 9 100 20 0.0586578
14 9 100 20 0.0504094
15 9 100 20 0.0505543
16 9 100 20 0.0487361
17 9 100 20 0.0437302
18 9 100 20 0.0459244
19 9 100 20 0.0399298
20 9 100 20 0.0205373
1 10 100 20 0.0201466
2 10 100 20 0.0229454
3 10 100 20 0.0308307
4 10 100 20 0.0347884
5 10 100 20 0.0443573
6 10 100 20 0.060398
7 10 100 20 0.0613772
8 10 100 20 0.0728634
9 10 100 20 0.0687449
10 10 100 20 0.0661344
11 10 100 20 0.0795493
12 10 100 20 0.0653457
13 10 100 20 0.0595506
14 10 100 20 0.0607897
15 10 100 20 0.053928
16 10 100 20 0.0491926
17 10 100 20 0.0523335
18 10 100 20 0.0394385
19 10 100 20 0.0464174
20 10 100 20 0.0108684
1 11 100 20 0.0193033
2 11 100 20 0.0253862
3 11 100 20 0.0362414
4 11 100 20 0.0424903
5 11 100 20 0.0315826
6 11 100 20 0.0478993
7 11 100 20 0.0552472
8 11 100 20 0.0695865
9 11 100 20 0.0653991
10 11 100 20 0.0776146
11 11 100 20 0.0651935
12 11 100 20 0.0713177
13 11 100 20 0.0607588
14 11 100 20 0.0601098
15 11 100 20 0.0572386
16 11 100 20 0.0557586
17 11 100 20 0.0538015
18 11 100 20 0.049111
19 11 100 20 0.0426974
20 11 100 20 0.0132628
1 12 100 20 0.0163855
2 12 100 20 0.0131912
3 12 100 20 0.0310562
4 12 100 20 0.0304846
5 12 100 20 0.0365162
6 12 100 20 0.0480917
7 12 100 20 0.051326
8 12 100 20 0.0616127
9 12 100 20 0.0634615
10 12 100 20 0.0700546
11 12 100 20 0.0717992
12 12 100 20 0.0541749
13 12 100 20 0.0726753
14 12 100 20 0.0634998
15 12 100 20 0.0574875
16 12 100 20 0.0583739
17 12 100 20 0.0514275
18 12 100 20 0.0610205
19 12 100 20 0.0726
20 12 100 20 0.0147613
1 13 100 20 0.0141518
2 13 100 20 0.0173975
3 13 100 20 0.0207419
4 13 100 20 0.0248669
5 13 100 20 0.0261201
6 13 100 20 0.0385248
7 13 100 20 0.0455208
8 13 100 20 0.0452721
9 13 100 20 0.0703909
10 13 100 20 0.0541455
11 13 100 20 0.0618353
12 13 100 20 0.0794492
13 13 100 20 0.0840419
14 13 100 20 0.0638962
15 13 100 20 0.0745347
16 13 100 20 0.076207
17 13 100 20 0.0604038
18 13 100 20 0.058642
19 13 100 20 0.0533393
20 13 100 20 0.0305183
1 14 100 20 0.0213256
2 14 100 20 0.0246782
3 14 100 20 0.0277963
4 14 100 20 0.0276328
5 14 100 20 0.0245513
6 14 100 20 0.0281676
7 14 100 20 0.0321162
8 14 100 20 0.0287645
9 14 100 20 0.0410927
10 14 100 20 0.0593597
11 14 100 20 0.0708975
12 14 100 20 0.0666594
13 14 100 20 0.0527036
14 14 100 20 0.0695264
15 14 100 20 0.0877635
16 14 100 20 0.0847299
17 14 100 20 0.0813382
18 14 100 20 0.0648718
19 14 100 20 0.0784829
20 14 100 20 0.0275421
1 15 100 20 0.0240614
2 15 100 20 0.0142232
3 15 100 20 0.0272796
4 15 100 20 0.0182196
5 15 100 20 0.0328146
6 15 100 20 0.0288005
7 15 100 20 0.0328369
8 15 100 20 0.0381754
9 15 100 20 0.0458078
10 15 100 20 0.0327509
11 15 100 20 0.0534114
12 15 100 20 0.059653
13 15 100 20 0.0809442
14 15 100 20 0.0878547
15 15 100 20 0.0794449
16 15 100 20 0.080807
17 15 100 20 0.0866585
18 15 100 20 0.0874915
19 15 100 20 0.0699537
20 15 100 20 0.0188112
1 16 100 20 0.0202564
2 16 100 20 0.024707
3 16 100 20 0.0218722
4 16 100 20 0.0317242
5 16 100 20 0.0339672
6 16 100 20 0.0338534
7 16 100 20 0.0290006
8 16 100 20 0.0387568
9 16 100 20 0.0366953
10 16 100 20 0.0342826
11 16 100 20 0.0419534
12 16 100 20 0.051
13 16 100 20 0.0614717
14 16 100 20 0.0807035
15 16 100 20 0.0802875
16 16 100 20 0.0704379
17 16 100 20 0.097534
18 16 100 20 0.0920858
19 16 100 20 0.0865593
20 16 100 20 0.0328513
1 17 100 20 0.0185373
2 17 100 20 0.0359397
3 17 100 20 0.036351
4 17 100 20 0.0303596
5 17 100 20 0.0273916
6 17 100 20 0.0382004
7 17 100 20 0.0278653
8 17 100 20 0.0359036
9 17 100 20 0.0305408
10 17 100 20 0.0454685
11 17 100 20 0.0534327
12 17 100 20 0.063702
13 17 100 20 0.0551884
14 17 100 20 0.0609723
15 17 100 20 0.0801479
16 17 100 20 0.0654305
17 17 100 20 0.0925553
18 17 100 20 0.0834196
19 17 100 20 0.0856189
20 17 100 20 0.0329748
1 18 100 20 0.0200024
2 18 100 20 0.0177745
3 18 100 20 0.0219376
4 18 100 20 0.0240856
5 18 100 20 0.023886
6 18 100 20 0.0315246
7 18 100 20 0.03151
8 18 100 20 0.0215609
9 18 100 20 0.0300567
10 18 100 20 0.0207688
11 18 100 20 0.0425413
12 18 100 20 0.0476823
13 18 100 20 0.0613273
14 18 100 20 0.0698916
15 18 100 20 0.0885468
16 18 100 20 0.10373
17 18 100 20 0.10368
18 18 100 20 0.0948693
19 18 100 20 0.105869
20 18 100 20 0.0387545
1 19 100 20 0.0290555
2 19 100 20 0.0294775
3 19 100 20 0.0442252
4 19 100 20 0.0442269
5 19 100 20 0.0313936
6 19 100 20 0.0202682
7 19 100 20 0.0225098
8 19 100 20 0.0322593
9 19 100 20 0.0250554
10 19 100 20 0.0537983
11 19 100 20 0.0369338
12 19 100 20 0.0487148
13 19 100 20 0.0567762
14 19 100 20 0.0841819
15 19 100 20 0.0608806
16 19 100 20 0.109844
17 19 100 20 0.0779085
18 19 100 20 0.0758076
19 19 100 20 0.0927593
20 19 100 20 0.0239238
1 20 100 20 0.0207304
2 20 100 20 0.02592
3 20 100 20 0.0207633
4 20 100 20 0.0258025
5 20 100 20 0.0233141
6 20 100 20 0.0155953
7 20 100 20 0.0321423
8 20 100 20 0.0500563
9 20 100 20 0.0526064
10 20 100 20 0.0354465
11 20 100 20 0.0642417
12 20 100 20 0.043307
13 20 100 20 0.0801159
14 20 100 20 0.0571018
15 20 100 20 0.0782564
16 20 100 20 0.0826829
17 20 100 20 0.0787777
18 20 100 20 0.0942061
19 20 100 20 0.103054
20 20 100 20 0.0158792
1 21 100 20 0.0195038
2 21 100 20 0.0161211
3 21 100 20 0.0194025
4 21 100 20 0.0288605
5 21 100 20 0.032504
6 21 100 20 0.0257228
7 21 100 20 0.0290358
8 21 100 20 0.0395944
9 21 100 20 0.0423522
10 21 100 20 0.0227467
11 21 100 20 0.0260758
12 21 100 20 0.052205
13 21 100 20 0.0557718
14 21 100 20 0.0617954
15 21 100 20 0.085845
16 21 100 20 0.07274
17 21 100 20 0.103152
18 21 100 20 0.108956
19 21 100 20 0.115537
20 21 100 20 0.0420783
1 22 100 20 0.0217761
2 22 100 20 0.0261799
3 22 100 20 0.0398658
4 22 100 20 0.0267745
5 22 100 20 0.0170074
6 22 100 20 0.016267
7 22 100 20 0.016143
8 22 100 20 0.0339768
9 22 100 20 0.00637487
10 22 100 20 0.030996
11 22 100 20 0.0421596
12 22 100 20 0.0376993
13 22 100 20 0.0695936
14 22 100 20 0.055733
15 22 100 20 0.0824545
16 22 100 20 0.110297
17 22 100 20 0.0903295
18 22 100 20 0.128077
19 22 100 20 0.12634
20 22 100 20 0.0219548
1 23 100 20 0.0289673
2 23 100 20 0.0347433
3 23 100 20 0.03283
4 23 100 20 0.0231154
5 23 100 20 0.0335538
6 23 100 20 0.0496853
7 23 100 20 0.0535602
8 23 100 20 0.0492661
9 23 100 20 0.0717926
10 23 100 20 0.0473068
11 23 100 20 0.0478819
12 23 100 20 0.0796348
13 23 100 20 0.0763794
14 23 100 20 0.0520831
15 23 100 20 0.0455237
16 23 100 20 0.0456323
17 23 100 20 0.0659687
18 23 100 20 0.0632428
19 23 100 20 0.0766314
20 23 100 20 0.0222012
1 24 100 20 0.0368887
2 24 100 20 0.0188986
3 24 100 20 1.72104e-05
4 24 100 20 0.0174253
5 24 100 20 0.02108
6 24 100 20 0.0251758
7 24 100 20 0.0408889
8 24 100 20 0.0428572
9 24 100 20 0.0315907
10 24 100 20 0.0422344
11 24 100 20 0.0337875
12 24 100 20 0.0825222
13 24 100 20 0.0736578
14 24 100 20 0.0572024
15 24 100 20 0.0922398
16 24 100 20 0.0777183
17 24 100 20 0.0835776
18 24 100 20 0.0945558
19 24 100 20 0.106479
20 24 100 20 0.021203
1 25 100 20 0.0615785
2 25 100 20 2.3359e-06
3 25 100 20 0.0733783
4 25 100 20 0.0497815
5 25 100 20 0.0248814
6 25 100 20 0.0498244
7 25 100 20 0.0253205
8 25 100 20 0.0257292
9 25 100 20 0.0247925
10 25 100 20 0.0495619
11 25 100 20 0.0744783
12 25 100 20 0.127947
13 25 100 20 0.0250534
14 25 100 20 0.0593455
15 25 100 20 0.0472338
16 25 100 20 0.0503716
17 25 100 20 0.0381513
18 25 100 20 0.0746951
19 25 100 20 0.11677
20 25 100 20 0.00110321
4 26 100 20 3.88201e-05
5 26 100 20 0.0349069
6 26 100 20 0.0371171
7 26 100 20 0.034473
8 26 100 20 0.0349765
10 26 100 20 0.0349821
11 26 100 20 0.0700292
12 26 100 20 0.069965
13 26 100 20 0.114592
14 26 100 20 0.127052
15 26 100 20 0.0743728
16 26 100 20 0.0700361
17 26 100 20 0.104944
18 26 100 20 0.0522233
19 26 100 20 0.140129
20 26 100 20 0.00016308
4 27 100 20 5.55656e-05
5 27 100 20 9.25767e-06
7 27 100 20 5.06778e-05
9 27 100 20 6.8461e-06
12 27 100 20 1.95723e-06
13 27 100 20 1.04384e-05
14 27 100 20 0.000122848
15 27 100 20 6.1299e-06
18 27 100 20 0.996629
19 27 100 20 2.69609e-06
20 27 100 20 0.00310483
4 28 100 20 0.000316608
5 28 100 20 1.18999e-05
7 28 100 20 9.37204e-06
10 28 100 20 0.00830134
13 28 100 20 5.06507e-06
14 28 100 20 0.0172055
15 28 100 20 0.0356928
16 28 100 20 0.866949
18 28 100 20 0.0549891
19 28 100 20 0.00443518
20 28 100 20 0.0120842
4 29 100 20 0.116113
5 29 100 20 0.108277
6 29 100 20 0.107172
7 29 100 20 1.55611e-06
11 29 100 20 8.93072e-06
12 29 100 20 0.108242
13 29 100 20 0.097291
14 29 100 20 0.108277
15 29 100 20 0.0321882
